1050 128
0 -0.07281056 -0.8025694 -0.24915352 -0.24235691 0.061209016 -0.013043822 -0.35169894 -0.23402959 0.37321225 -0.31941542 -0.1485049 -0.20915684 -0.025327817 -0.18172207 -0.089275695 -0.12677658 0.18433547 0.3058084 -0.015398599 -0.10929363 -0.2568821 0.5210114 0.17384341 -0.051918052 0.11763243 0.33734548 0.20978509 0.030249957 0.21368323 -0.27785578 -0.30300114 -0.046575304 -0.1134709 -0.03425967 -0.065717824 0.17265306 0.22147115 0.1258754 0.27194402 0.16226394 0.24656788 -0.14168693 -0.30547944 -0.77940065 -0.17672749 0.3242128 0.09862301 -0.043395266 -0.20865805 -0.19009428 0.22208434 0.12717634 0.07788357 0.15861242 0.19074522 -0.22381848 -0.34099355 -0.24926922 -0.019448932 -0.23592594 0.35814255 -0.29524866 0.052517034 -0.4740755 0.14613289 -0.12369853 -0.36238438 -0.5464475 0.22251709 0.13245198 0.23316601 -0.039459016 -0.37447596 -0.5907221 0.75284374 0.108571105 0.0087851435 -0.20955162 0.05612122 -0.1765274 -0.054124974 -0.24537171 0.097086556 0.12094336 -0.024198124 -0.17045574 -0.13573188 0.27043402 -0.17340398 0.11060979 -0.25210837 0.09074122 0.049738836 -0.35858542 0.025370676 0.08945613 -0.101075366 -0.05434567 -0.14256158 0.055783182 -0.090797246 -0.35339934 -0.15109509 -0.0611197 -0.038176585 -0.12875788 0.2626306 -0.18960813 0.064917125 -0.40688723 -0.09205796 -0.034182277 0.2809398 0.2896259 -0.010849829 0.7249331 -0.1276015 0.19198632 0.079010434 -0.6406122 -0.27840284 0.0037480306 0.2699954 -0.102318116 0.28333688 0.016691212 -0.11969192 -0.089845374
1 0.012592234 -0.60935557 -0.29435924 -0.5990273 -0.33604902 -0.14882444 -0.12659049 -0.4878031 0.635396 0.041810095 -0.30815762 -0.13437766 -0.1075137 -0.28735742 -0.15937208 0.3025428 -0.02246905 0.08552376 0.14051248 -0.06161649 0.093700804 0.4195762 0.29401046 -0.17089759 0.41278768 0.06742609 0.348859 -0.033514075 0.04548293 -0.18742058 -0.21188419 -0.14761351 0.17760842 0.097506225 -0.4786433 0.042321626 0.27912349 -0.07994774 -0.07320083 0.060828228 0.29322758 -0.45070726 0.45531702 -0.60194093 0.06842488 0.12713656 0.3347103 -0.39812824 0.27919593 -0.080808826 -0.046253726 0.0599394 0.084213 0.3887105 0.018661004 0.20230357 -0.26408103 -0.11660589 0.27894914 -0.020095993 0.46254092 -0.15130182 0.63661355 -0.20065348 -0.08910076 -0.039575897 -0.1865694 -0.44080555 0.012022834 -0.20473535 0.032015372 -0.11169148 -0.291304 -0.32877135 0.5590373 0.14819458 0.06902096 -0.46824884 0.035328534 -0.36352837 0.04443342 -0.2527598 0.30512786 0.09899002 0.2949672 -0.14826354 0.13027203 0.17238481 -0.3382148 0.048100896 -0.3227733 -0.16947594 -0.15275174 -0.19701825 0.30902424 -0.034485467 -0.3573147 0.13547593 -0.16534431 -0.29027945 -0.09679852 -0.03416953 -0.022466917 -0.008868738 0.08679025 -0.30531994 -0.10635603 -0.13187274 0.15381576 -0.19074658 0.22671537 -0.025253737 0.52048206 -0.26932517 0.079965934 0.55484617 0.16221078 0.28343394 0.49322334 0.02893475 -0.19911605 -0.1477185 0.2868434 0.14754237 0.024308242 0.26479506 0.004676858 -0.235425
2 -0.015890557 -0.036113944 -0.5830021 0.1619305 0.019696807 -0.042420562 0.028518744 0.22583261 -0.23316099 0.29842654 0.0038682038 -0.29563168 -0.007445018 -0.13390288 -0.25634164 -0.14288963 -0.01523876 0.24876449 0.101402864 -0.36118242 -0.099322245 -0.12388935 0.13576026 0.054080166 0.7656584 -0.0014722121 0.055471823 0.23567423 -0.22901693 0.022321954 0.016121773 -0.26230806 0.5442878 -0.10144891 0.67221534 -0.05424533 0.12198525 0.028368965 -0.34294248 0.03716855 -0.41501018 -0.32265258 0.094530374 -0.40165544 -0.33339006 0.15040788 -0.3652176 0.033996075 -0.3797263 0.055972725 0.25395143 0.10328875 0.25906628 1.0403908 -0.14663371 0.39179412 0.18950751 0.33395633 -0.08545305 -0.38238144 -0.18779272 -0.1436514 0.17343812 0.24671261 0.1425138 -0.4465196 -0.26559687 -0.38024393 -0.09716344 -0.12100325 0.17750388 -0.37380067 -0.38325027 -0.092035845 0.3442897 0.40685517 -0.12194032 -0.24949767 0.5204972 -0.17975229 -0.2607335 -0.2732846 0.31466925 -0.06305476 0.7554733 0.014235861 0.05924936 0.10560029 0.5011772 0.21180032 0.19989708 0.25280443 0.19882739 -0.038578108 0.26878282 -0.26722866 -0.12479148 0.13218617 0.04530996 -0.117056385 0.27021426 -0.056493506 -0.0666993 -0.075429775 -0.18645546 0.21565074 0.18734097 -0.2374344 0.33646017 -0.5004222 -0.18200698 0.1435989 -0.1456098 -0.12718648 0.058564458 0.2825115 0.0045215054 -0.019343123 -0.1563398 -0.20645314 0.29669634 -0.19439462 -0.16953956 0.23481247 0.19739115 0.19826785 -0.12597461 -0.23055895
3 0.35836384 -0.23317643 -0.25953302 -0.16111755 0.29641718 -0.016662387 0.24239734 -0.079338126 -0.36509588 -0.027879562 0.040008005 -0.16068871 -0.26324403 0.34803566 -0.48735327 -0.028239502 0.11345101 0.2187601 -0.029243132 -0.14818192 -0.50756574 0.30493462 0.23765694 -0.50832623 0.2543961 0.06793047 0.04535712 0.07991749 -0.23336498 -0.026648287 -0.67348206 0.45363128 0.15493153 -0.40025622 0.22848988 -0.17045318 0.04473168 0.22132096 0.2488827 0.0980798 0.16682787 0.026935633 -0.22281048 0.29184628 -0.4947004 0.036933474 -0.3557759 -0.098639525 -0.54772985 0.17276756 0.20302366 0.12899764 0.42845005 0.89714843 -0.55467623 0.18100011 0.110132165 0.19712242 -0.24448049 -0.34950662 -0.23938124 0.10324112 0.25916106 -0.07139838 0.092287056 -0.1795974 -0.015320751 -0.6003781 -0.383413 -0.1254664 0.28727213 -0.34115955 -0.36014542 0.06416983 0.035055667 0.16860484 -0.16268046 -0.22955401 0.020997245 -0.04703203 -0.023820003 -0.32598716 0.0337511 0.3514964 0.6170616 -0.14078139 0.21259351 -0.0014332138 0.54203194 -0.22897005 -0.21014774 0.21347313 -0.024107106 0.1914292 0.32837993 0.1457688 -0.07811562 0.38071963 0.040359035 0.44963753 0.15272865 -0.021912023 0.0380237 -0.33400685 -0.04401711 0.104390405 -0.10741916 -0.37975296 0.20415446 -0.4244213 0.2423995 0.31303167 -0.2649659 -0.37199232 -0.307795 0.051771116 0.18283547 0.23353688 0.40437758 -0.30529922 -0.37351593 -0.14376551 -0.05996862 0.5874088 0.13298798 0.033419788 0.07820688 0.14821126
4 -0.07675613 -0.16331159 -0.6607463 0.06449897 0.13705356 0.3232926 0.367333 -0.119348764 -0.0710687 0.024886105 -0.063354455 -0.06931765 -0.17555787 0.23485118 -0.5876414 -0.04169329 0.5843373 0.27274007 -0.502311 0.06345676 -0.32459554 0.39815623 0.1782772 -0.54581153 0.48955137 0.2828427 0.15079048 0.2474916 -0.18738462 0.36741024 -0.4296507 -0.047923394 0.10160813 -0.18680051 0.100367285 -0.042076115 -0.055723812 0.06767299 -0.1144295 0.051727418 0.18729812 -0.58218783 0.11731439 0.020337962 0.132194 0.12460059 -0.0945677 0.28924575 -0.15040794 -0.06195204 0.17922641 0.25965488 0.42129692 0.694303 -0.5427124 0.29440507 -0.2080483 0.08324671 -0.08231715 -0.41000125 0.116487294 0.04371802 0.17856112 -0.15444994 0.28643745 -0.15427096 -0.02373457 -0.35076237 -0.050629888 0.05202272 -0.07687602 -0.5380344 -0.3690611 0.118855044 -0.026590053 0.2741725 -0.4179005 -0.2737997 0.2666399 0.30586997 0.00081446144 -0.23685291 -0.056518763 0.32392332 0.65015316 0.120293625 0.078750394 0.29366586 0.33620822 -0.44599193 -0.16344944 -0.0689965 0.1987846 -0.36281547 0.2292302 -0.233783 -0.17136967 0.11789516 0.2230152 0.49720377 0.25948027 0.4205368 0.14673835 -0.5274789 0.13877581 0.22105365 0.13145964 -0.35319996 0.09292474 -0.5406753 -0.025061712 -0.10496546 -0.12314049 -0.33976907 -0.010691022 -0.045381665 0.09310784 -0.12817866 0.41205144 -0.05358288 -0.2712707 0.08532306 -0.024787994 0.21114859 0.056195088 -0.18039863 -0.2895949 -0.060685936
5 -0.02719111 -0.038231418 -0.31202975 0.1722102 0.020190202 -0.07885238 0.20626372 0.09492678 -0.3729037 -0.30450284 -0.09690467 0.10926998 -0.43304417 0.2625976 -0.25032613 0.17347646 0.040310867 0.27471843 -0.09556877 -0.27658147 0.19401059 0.28672594 -0.30121395 0.036866087 0.47427678 -0.06331988 -0.121806696 0.18392617 -0.21808012 -0.029434854 -0.30012295 -0.028928408 0.34218317 -0.27357876 0.08779631 0.21301948 0.13593924 0.17428567 -0.26445597 -0.01987453 0.403578 -0.0152966585 0.20368478 -0.144286 0.1739303 0.079564385 -0.22791581 -0.20259608 -0.38924304 -0.22071292 -0.056369536 0.009480154 0.64554125 0.721564 -0.49566254 0.51790994 0.031141305 0.3029607 -0.010541609 -0.07084301 -0.2708731 -0.46700543 0.05378827 -0.042060178 -0.02848282 -0.17168915 -0.32823518 -0.41716397 -0.24666436 -0.06651417 0.33753884 -0.20416297 -0.3628008 0.16331275 0.46023244 0.31554866 0.14460926 0.044975363 0.3868994 0.23703612 -0.6298418 -0.19379748 0.11053543 -0.20112118 0.41367486 -0.09258587 0.22492275 0.023747755 -0.012007194 -0.056062296 -0.4199143 0.14271478 -0.04081732 -0.032916356 0.021300286 -0.25109482 -0.07802583 0.09705164 -0.15200593 0.061346084 0.035190463 0.3785339 -0.123777576 -0.115713775 -0.16462067 0.15992703 0.0010309335 -0.333996 0.36705604 -0.15674967 -0.17401487 -0.13539857 0.049059283 0.26005638 0.20816767 0.33648562 0.24394964 0.30399877 0.5270448 0.20463042 0.23553987 0.13390596 -0.19313031 0.48001572 -0.22594728 -0.08006926 0.12927137 -0.14957495
6 0.30849522 -0.8899892 -0.25181943 -0.24137512 -0.19499159 0.21710816 -0.028447147 0.10585501 0.3514586 0.15029342 -0.24678236 0.33972472 0.038758628 -0.47365314 -0.09399441 0.40350202 0.5361041 -0.4072631 0.36815777 0.33049497 0.22099571 0.05837711 0.12545474 -0.18235694 0.22727777 0.26898238 0.49848998 0.24433845 -0.249679 0.083205216 -0.21045355 -0.053726498 -0.041830678 -0.054469164 -0.031256977 -0.1714448 0.33397904 -0.25054 -0.16116594 0.108218424 0.36666837 -0.22100918 -0.22164746 -0.396704 -0.2478326 -0.022451997 -0.15821739 -0.39152548 -0.5140161 -0.1879171 0.2627885 -0.12742077 0.3815286 0.768762 -0.3764692 -0.25645962 -0.054467313 0.1862271 -0.27206233 0.07292332 0.16138321 -0.11533714 0.08703169 -0.029033702 0.055785026 -0.22937626 -0.4959424 -0.24864642 -0.030754786 -0.45233056 -0.16238134 -0.093849316 -0.13553132 -0.22379844 0.42213488 -0.00669859 0.020880142 -0.074604586 0.13447855 -0.032952283 -0.26047438 0.21574003 -0.16655393 -0.7430752 0.49808764 -0.4439252 -0.079118654 0.26257944 -0.20832555 0.1866216 -0.22160278 -0.29559588 0.25118095 -0.33514655 0.45929834 -0.488755 -0.010559094 -0.09170054 0.008806996 0.22440578 0.11956042 0.0054180697 -0.17975496 -0.087789334 -0.014665307 0.23520088 0.31611356 0.021496918 -0.2944778 -0.4876539 0.13147387 -0.25563514 0.20960982 0.008059888 -0.39107558 0.30908677 0.10456675 -0.11127867 0.25571683 -0.19014099 -0.14093256 -0.20952211 -0.2473799 -0.048605483 -0.091382876 -0.11390706 -0.034703616 -0.08750559
7 0.24978244 -0.41741973 -0.2042862 -0.456055 0.19574706 -0.2578755 0.17704399 -0.20029317 0.39387915 -0.07450017 0.09093797 0.12597783 0.29014432 -0.16426085 0.1815883 -0.0074182902 -0.021296903 -0.2660573 0.03874543 -0.26279116 -0.05170864 0.36345088 0.3799015 -0.04332501 0.27318212 0.42494762 0.7513233 0.22722302 0.29934916 0.057617493 -0.31413957 -0.26337436 0.12942207 -0.30840576 -0.047491215 -0.3198412 0.024185749 0.15450059 0.10603136 0.18497977 0.023413055 -0.37521458 -0.2641337 -0.7889476 -0.31083298 0.16185975 -0.020020219 -0.40690237 0.022942081 -0.29317844 -0.11101948 -0.016127156 0.06003144 0.39594597 0.0062152403 -0.24185753 -0.0739259 -0.09934173 -0.119828336 -0.4444007 0.37246025 -0.028594028 0.33409587 -0.17774709 0.15306233 0.20339485 -0.03062454 -0.4158492 0.21848203 -0.17294422 0.23316574 -0.027339792 -0.06807808 -0.46956268 0.6784828 -0.005653583 -0.25788936 0.1838898 0.20995635 -0.16432017 0.13375998 0.3825441 0.3399651 0.08687681 -0.0684864 -0.6506907 0.18185984 0.11573985 -0.14762388 0.024185587 -0.29701054 -0.23653504 0.07755401 0.03791121 0.03192488 -0.30111426 -0.021100977 -0.1776447 -0.007625763 0.055021092 -0.15496045 -0.03517072 -0.025577758 -0.022376958 0.18659243 0.009420833 -0.020003667 -0.4534951 0.24494432 -0.30353677 -0.020198409 -0.0183318 0.20290376 -0.026536288 0.3385111 0.18109283 0.0998972 0.06453593 0.18231721 -0.38213944 -0.2504182 -0.16153383 0.22505495 0.18554784 0.0661915 0.02301898 0.02669756 -0.3788994
8 0.029792799 -0.55820125 -0.16812938 0.15235418 0.10512413 0.08836614 -0.23221979 -0.21819912 0.25201407 -0.14378306 -0.029662555 -0.2001816 -0.121663116 0.023878789 -0.4580161 0.14317307 -0.16266508 0.36018687 0.23248118 0.085868366 -0.16248722 0.36769745 0.38442835 -0.39063057 0.2673188 0.22983037 0.11208957 0.006752037 0.04079412 -0.0230817 -0.15202172 -0.10803303 0.17583337 0.033270583 0.20290345 -0.2649954 0.2901218 0.48662424 -0.256005 0.074716255 0.027568895 -0.5585225 0.1806539 -0.6932034 -0.13402365 -0.4296034 -0.01525513 -0.3710775 0.07945654 -0.108287476 -0.3165422 0.12975624 0.23950593 0.47147733 0.08340379 -0.10170656 0.011102306 0.013496631 -0.08718816 0.21921015 0.5723069 -0.10581081 0.42399415 -0.24422437 -0.04030151 -0.21143283 -0.16598903 -0.29144484 0.09732528 -0.25607276 0.10490134 0.37656343 -0.83825076 -0.39747438 0.6263885 -0.017419746 -0.031459026 0.05700856 -0.019336492 -0.35014048 -0.7017765 -0.124091715 0.429627 -0.37435317 -0.09088488 -0.19331726 -0.11726893 0.3893715 -0.08507569 -0.17449747 -0.078289375 -0.1008373 -0.28447193 -0.20022994 0.2537797 0.106263414 0.031882413 -0.2075497 0.110377714 -0.061777893 0.23310736 -0.296852 -0.0020186224 0.05913138 -0.0062805577 -0.2661093 -0.13937089 -0.42907062 -0.09441562 -0.10416296 0.33331573 0.35086924 0.4708011 -0.04556008 0.21186206 0.14812182 0.10686277 -0.109625295 0.08878076 0.13440144 0.067730024 -0.28592926 0.14337792 -0.13109948 -0.24817981 0.20678222 0.08954364 -0.18710473
9 0.38305527 -0.15025729 0.11110824 -0.479801 0.04047771 -0.10072007 -0.38257352 -0.090264946 0.19236478 0.17828165 -0.37376407 -0.16124432 -0.0063658254 0.12083714 -0.16385768 0.12702766 0.025358414 -0.012380791 0.1150615 0.007458804 -0.6248119 0.32464173 0.1980305 -0.24501505 0.27695653 0.4263214 0.5131985 -0.15194061 -0.230977 -0.276107 -0.19071196 -0.024509693 0.13331382 0.15420787 -0.026473949 -0.06847288 0.399132 0.28875455 0.08436681 -0.023470238 -0.04661719 -0.1642791 0.29305243 -0.8036655 -0.0101730535 -0.09636182 0.049930327 -0.11441995 0.06206834 -0.13060963 -0.030299954 -0.12694088 -0.04840449 0.4326985 0.2620339 0.009604366 -0.06959744 -0.09297654 -0.23561817 0.10106124 0.7168902 -0.42960897 -0.12370103 -0.22476967 0.28414908 -0.2087058 -0.28837946 -0.45277867 -0.04996588 -0.051682882 -0.27805915 0.21005489 -0.5617877 -0.8518894 0.8540783 -0.027193159 -0.08837116 -0.070134275 -0.100897536 -0.040282678 -0.11596145 -0.091476165 0.43112633 -0.28622532 0.13555953 -0.19382517 0.0031491765 0.19701746 -0.270428 -0.1840115 -0.3928069 0.12665296 -0.03173115 -0.15956777 0.23734751 -0.32081416 -0.42388445 -0.22417186 0.24558268 0.22376746 0.17701198 0.0011518354 0.01659037 0.004481793 0.113868594 0.046232823 -0.12645058 -0.16281854 0.2104767 -0.4930344 0.15997401 0.3466862 0.43258697 -0.1366591 0.057193354 0.18136916 0.09311151 0.020138428 0.2553407 -0.37311143 0.005875082 0.0016621166 -0.10476515 -0.1837754 0.042507827 0.12899159 -0.02851728 -0.29403695
10 -0.11353117 -0.3516609 -0.39870918 0.15579943 -0.22720544 0.029681899 0.43397954 0.15104349 -0.13531126 -0.06308471 0.08732358 -0.07438668 -0.3082332 0.20745374 -0.55777264 0.08836616 0.272942 0.32283178 -0.2020916 0.073931 -0.2499602 0.11687689 0.100502394 0.16209519 0.20620495 -0.30221358 -0.15720017 0.33382094 -0.27575245 0.29674247 -0.121267304 -0.26496837 0.036660045 -0.1556009 0.006077639 -0.17556669 0.21185917 0.04945185 -0.3806616 -0.15418237 0.054650597 0.10626026 -0.2200518 -0.22526811 -0.030064402 0.3337534 -0.11644927 0.091605715 -0.30965704 -0.16190252 0.19032167 0.21882012 0.40872705 0.22372134 -0.16354802 0.21686098 -0.17919946 0.38461974 0.11989582 -0.02395988 0.023525836 -0.13227414 0.18286467 -0.014610444 0.073573194 -0.055604514 -0.57094854 -0.43868285 -0.14989212 -0.20503888 0.25607055 -0.20780838 -0.8192818 -0.01843407 0.41381797 0.3262701 -0.21024847 0.18222277 0.52987313 -0.016152188 -0.1579586 0.17572637 0.114615984 -0.02226649 0.6849293 -0.15792307 0.069629356 0.07319854 0.17306693 -0.053816874 -0.079710715 0.19149803 0.08692191 0.0693167 0.15946549 -0.050960846 -0.006969087 0.23796366 -0.046296578 -0.043601807 0.2264144 0.113708414 -0.070612475 -0.1680529 0.04707429 0.017468441 -0.48676178 -0.09199137 0.06729007 -0.3757405 0.23497753 -0.09847701 -0.35970733 -0.0010499874 0.080520876 0.075321384 0.28005192 0.3047569 0.32180002 0.26806068 -0.08475733 0.10908996 -0.024009865 0.19874491 -0.5190143 0.29618502 0.038348414 -0.13553494
11 -0.08790624 -0.17135806 -0.45667782 -0.042724025 -0.24408793 0.030958071 0.15478985 0.36077765 -0.25736526 -0.027080718 0.18910089 -0.1563048 -0.14309394 -0.016491968 0.041765273 0.21424213 0.5042854 0.24454673 -0.0043613226 0.045284085 -0.28038388 0.16176112 0.039259393 -0.255039 0.15604039 0.032578275 -0.30492812 0.16265056 -0.24605696 -0.07678197 -0.61708975 -0.37326354 0.39482495 -0.3707523 0.4497466 -0.030005353 0.07132624 0.15339088 -0.36112967 -0.048240144 0.056501053 0.10119141 -0.26050165 -0.14229827 -0.13481882 0.4140309 -0.2446868 0.19876002 -0.43673187 -0.02099359 0.10290308 -0.23150663 0.3505722 0.4297284 -0.0965229 0.19806245 0.008490519 0.12578052 -0.069084324 0.012992786 -0.24735212 -0.1878894 0.2676254 -0.18098815 0.13243103 -0.2370693 -0.45391145 -0.44810897 -0.05637256 -0.18023579 0.2928748 -0.19460368 -0.53673786 0.04678953 0.058980495 0.10216191 -0.010206271 -0.18801734 0.57486373 -0.036190234 -0.45873797 0.11318443 0.28116298 -0.23281184 0.37126195 -0.1674961 0.11098848 0.09748714 0.21248479 0.11763494 -0.009169627 -0.020846045 0.13986036 0.049465783 0.28554076 -0.40960753 -0.19512463 0.23233318 0.19531387 0.39451092 0.22889876 0.12985578 -0.12402394 -0.33080798 0.31000134 -0.003856403 -0.13382259 -0.10460304 0.21478327 -0.25391015 -0.14411801 -0.32466525 0.16267231 -0.08602105 -0.17019802 -0.083625115 0.3260434 0.07627898 0.31800312 0.02869252 -0.17861676 -0.04696686 -0.13038833 0.31950703 0.16000156 -0.1982162 -0.083842665 -0.23605645
12 0.10897694 -0.31895807 -0.3672416 0.08590693 0.11778675 0.14794919 0.3000591 -0.06591322 -0.16530614 0.16795978 0.12635012 -0.03944761 -0.19161132 0.05417555 -0.732126 0.42650664 0.013782235 0.02386016 0.017689446 -0.14810729 -0.36246753 0.5070769 0.023802206 0.053488523 -0.033275414 -0.3335299 -0.13960409 -0.019272909 0.1790683 0.1521396 -0.29337734 -0.6885288 -0.13291833 -0.03464411 -0.06244185 -0.20088059 -0.22339657 0.015186985 -0.11825973 0.17864448 0.2581781 -0.5478137 0.022849295 -0.2501067 -0.37212384 0.05615777 -0.32251528 -0.015891295 -0.022508677 -0.056102317 0.3179238 0.4664146 0.33276564 0.61082715 -0.5531784 0.30623373 -0.06318061 0.15508015 -0.3312902 -0.0588388 -0.049648527 -0.10899336 -0.095336094 -0.119102634 0.014272763 -0.17059858 -0.07068119 -0.21682672 0.055972952 0.09115355 0.15856509 -0.31047532 -0.10398726 0.24460794 0.5220885 -0.014305789 -0.351514 -0.037093386 0.24162254 0.016860586 -0.5326434 -0.5166217 0.036939334 -0.1856043 0.49226967 -0.27212262 -0.12024749 0.21749838 0.536806 0.0006577659 -0.40369242 -0.10675795 0.25106716 -0.02266954 0.12827171 -0.28595394 -0.34693757 0.010612216 0.2598683 0.07761718 0.10707422 0.024720877 -0.27728632 -0.45255858 -0.025451342 0.08179276 0.3061793 -0.3737311 0.05604823 -0.51005006 0.0036774331 0.03163934 0.25549552 -0.028142871 -0.37751257 -0.14205945 0.26532897 0.3817381 0.18959738 0.016931916 -0.41842768 0.247619 -0.35329908 -0.020482287 0.18387 0.48834965 -0.43164346 -0.029533729
13 0.024747157 -0.14206007 -0.3875198 -0.17058228 0.12410877 -0.050182946 0.19474553 0.18587133 -0.2947423 -0.06615663 0.3106674 -0.25801402 -0.46562162 0.21677513 -0.33133835 0.05781642 0.24726525 0.27544487 -0.21934162 -0.32716298 0.24989074 0.028586477 -0.18176211 0.116981514 0.065054655 -0.122818485 -0.09967028 0.16659412 -0.21155196 0.20265862 -0.20273574 -0.15717973 0.11923095 -0.04502787 0.05870855 -0.17443481 0.06992828 -0.08352868 -0.380639 -0.071113944 0.0053704823 -0.38663474 0.17653304 -0.17571954 -0.082259536 0.081822485 -0.2423032 0.46219462 -0.29459885 -0.16856107 0.089224055 0.15692994 0.5435871 0.52664024 -0.2566864 0.52987576 0.007482609 0.27341932 0.17196636 -0.19729437 -0.22856364 -0.193884 0.1764359 -0.00022131488 -0.09678031 -0.3794143 0.0364548 -0.36319703 0.109246105 -0.24885735 -0.06943166 -0.19869047 -0.25071365 -0.33228606 0.32555032 0.25274423 -0.18431857 -0.085822985 0.41882724 0.0469763 -0.6298529 -0.0025800143 0.27668008 0.022532139 0.37165752 -0.060139146 -0.030902172 0.007916102 0.33444947 -0.040210422 -0.21403508 0.028153284 0.16392818 0.35225257 0.41955587 -0.0757632 -0.22223015 -0.28408825 -0.008841667 0.44451225 0.31396705 -0.1512487 -0.10913182 -0.35406727 0.12025267 0.19855309 0.07471295 -0.4874346 -0.0892019 -0.5093563 0.03031784 0.12422945 0.065385625 -0.040446065 -0.23245955 -0.36259708 0.04361247 0.15616405 0.5550446 0.09514282 -0.25685 0.0055179754 0.103513926 0.29429528 -0.10499987 0.2985567 -0.15713236 -0.1662545
14 0.3804403 -0.17094174 -0.35677615 -0.64482707 -0.06949654 0.051661957 -0.08051383 -0.3120921 0.22137807 -0.16815953 -0.228411 0.022439746 -0.072694935 -0.06818631 0.06516835 -0.15217476 0.0240419 0.10613889 0.08134993 0.020258734 0.08741289 -0.17024988 0.5017741 0.18652433 0.010931976 0.71307915 0.25617298 0.05335685 -0.16106077 -0.23933163 -0.044670675 -0.17027178 -0.073455915 0.11765274 -0.08809035 0.09193908 0.42226738 0.11666258 0.09996117 0.3287103 0.1823336 -0.6107675 -0.23807575 -0.7591969 -0.42218256 0.1319627 0.0979287 -0.38685617 0.15314008 -0.30849886 0.08665986 -0.4445129 -0.051685717 0.26537982 0.28669629 -0.20000353 -0.23705006 -0.1641227 -0.15424636 -0.33800685 0.48514447 0.246292 0.26820108 0.011766042 -0.055582236 0.23807742 -0.29329336 -0.32029006 0.40002 -0.22467674 0.049513854 -0.2792187 -0.4649607 -0.51511 0.48360154 0.017584408 -0.26161915 -0.29439715 0.19657008 -0.2904284 -0.39778438 0.0054988824 0.35580364 -0.048268795 0.18284503 0.10370785 -0.01837058 -0.06804239 -0.04058221 -0.053620778 -0.4068557 0.3113 -0.19251989 -0.21817121 0.13866574 -0.053614464 -0.09335069 0.18157244 0.13069344 0.30481932 0.29148299 -0.13815592 -0.37276495 -0.08470911 0.12012557 0.18933198 -0.03702043 -0.48453638 -0.075905144 -0.38129258 -0.09479345 0.033185363 0.30604926 0.23443238 -0.078681424 0.29573852 -0.14600149 -0.014389394 0.25711203 -0.25828767 -0.0467537 0.018534005 0.38261977 -0.03404585 0.14163212 0.034679417 -0.030930294 -0.1725241
15 0.1443379 -0.53127724 0.07222753 -0.3386137 -0.38072693 -0.28402045 -0.02179211 0.1941672 0.44975814 -0.13364448 -0.002449834 -0.06445582 0.10523584 0.13744895 -0.3580456 -0.10322768 0.224213 -0.10876411 0.33116582 0.041394047 -0.030614762 0.17065626 0.12783727 -0.19728005 0.023515012 0.34619477 0.4564789 -0.22773257 -0.31427854 -0.0824437 -0.18256533 -0.21521457 -0.0002846859 0.10933127 -0.13347086 0.011553244 0.33377016 0.055985972 0.08471668 0.060870018 -0.08935801 -0.25601938 0.18846644 -0.71722585 -0.111185856 -0.0059888274 0.10202544 -0.37731597 0.17189342 -0.42889214 0.0890574 -0.1382966 0.3871104 0.59632933 0.06671108 -0.17885458 -0.018098319 -0.35431218 0.039944872 0.061423253 0.46625558 -0.29522306 0.71948814 -0.281827 0.3116729 -0.06417965 -0.079148576 -0.13357246 -0.1318571 -0.16219178 0.04698019 0.04081316 -0.2764495 -0.33478013 0.36005837 0.09332215 -0.06097369 0.0025230108 0.09472718 -0.037427925 -0.29089507 -0.028399002 0.13024534 -0.24982701 -0.1259384 -0.11119002 0.25286487 0.38153648 -0.10257662 0.044478778 -0.31370744 -0.35096988 -0.31630632 -0.1449519 0.10134097 -0.60303754 -0.008729641 0.013024324 0.25559768 -0.047993753 0.16574343 -0.17755447 -0.7870936 0.23111793 0.011176909 -0.14753257 0.14781642 0.029332064 0.04971058 -0.35845074 0.21765377 0.3897552 0.40622744 0.06345628 0.117554605 0.5546849 -0.0076500224 0.280206 0.30639318 -0.011855017 -0.33449766 0.091940664 0.071560614 0.17800342 -0.077190936 0.39543182 0.24359414 -0.06796878
16 0.32070762 0.20008191 -0.19211258 0.08112883 0.14010024 0.19186293 0.29129347 0.11897717 -0.3611385 -0.021334242 0.12121874 -0.1609193 -0.24551225 0.23527548 -0.5390299 0.22036983 0.28674665 0.3064396 -0.39242482 -0.021875512 0.21166186 0.018967131 -0.047820482 -0.14290085 0.03541913 0.05479977 -0.025961295 0.5520819 -0.034179404 0.26913062 -0.44503814 -0.2983598 0.23970462 -0.40324393 0.37139022 -0.1215095 0.38842678 0.11442829 0.14888151 0.038986057 0.08221165 -0.28184748 -0.22162955 -0.58833724 -0.2318208 0.22658472 -0.1926712 0.32866186 -0.026368981 -0.17977452 0.34702963 0.3181672 0.47132435 0.22892806 -0.206595 0.29784814 -0.026933338 0.2713353 0.13394782 -0.17604914 -0.17123437 -0.38665915 0.22699876 -0.5475557 0.035093714 0.037633684 -0.06666092 -0.19290327 -0.208745 -0.098963775 -0.3271396 0.03238979 -0.48137158 0.13760819 0.5509262 0.14480346 -0.1228385 -0.21232016 0.57682204 -0.25742322 -0.73007244 -0.023154734 0.058817185 -0.14595856 0.41532344 -0.18191491 -0.07317881 -0.003095148 0.3724974 0.15822105 -0.28859916 0.2997612 0.05757754 0.028869802 0.11334963 -0.21600284 -0.2569444 0.10347696 0.1478532 -0.17709514 0.034611423 0.41031003 0.11737874 -0.29236853 0.13064928 0.036220606 -0.34096643 -0.3652242 -0.07550557 -0.16628891 -0.1738549 0.16021338 0.3007476 0.039760485 -0.14139819 0.117941715 0.08639395 0.22221594 0.2554072 0.2493421 -0.13370173 0.39503378 -0.3333307 0.1268777 -0.056012228 -0.09942418 -0.20219295 0.050972328
17 -0.02232165 0.05775793 -0.49176088 -0.20238864 -0.270899 0.3660605 0.31888807 0.26155043 -0.18656467 -0.14453481 -0.040566057 0.054105297 -0.2812153 0.0938882 -0.29693654 0.13226601 -0.059803173 0.1846853 -0.3527114 -0.043548144 0.43625522 0.36848336 0.35012156 0.016746175 0.14253853 0.15569346 -0.18896426 0.061861213 -0.0945656 0.53401005 -0.38526055 -0.41153324 0.38789916 0.03851535 -0.06325728 0.07377594 -0.21489653 -0.111114964 0.03897979 -0.081692584 0.24892378 -0.12441195 -0.25111297 -0.4287717 -0.50820744 -0.05136243 -0.20282501 0.3537786 -0.07818973 0.115589194 0.18619668 -0.12067995 0.41592604 0.50968105 0.022177046 0.32963675 -0.013820633 0.24860057 0.100164585 -0.41080195 -0.024650425 -0.015275335 0.18925653 -0.13567571 0.04235985 -0.35151827 -0.36932987 -0.37864074 -0.06178516 0.10128096 0.097878575 -0.20991537 -0.16754341 0.1153726 0.36415362 0.1613028 -0.35715747 -0.06012963 0.29895684 0.009491782 -0.4719051 -0.2915309 0.73218113 -0.16666491 0.5852181 0.18771379 -0.08988924 0.1081636 0.15683857 -0.004753371 0.14615878 0.26632535 0.16736671 0.11372406 0.09127109 0.22133128 -0.09393667 -0.061315253 0.13195021 0.57129043 0.50112474 -0.10498417 -0.14731853 -0.30874282 0.11471999 0.16691953 -0.30371612 0.043433078 0.338773 -0.57703847 -0.0716766 0.020774754 0.10141346 0.18477692 -0.08224508 0.18510567 -0.04958726 -0.23019397 0.49266434 0.19642259 -0.17767507 0.05161848 0.14295739 0.27466807 -0.34129882 0.37080678 -0.32321942 0.14427152
18 0.43912634 -0.10916277 -0.05807773 -0.6471638 0.5042137 -0.5160042 -0.18122327 0.20903656 0.18456866 -0.25189456 0.17798197 -0.4187724 -0.30478323 0.036335077 -0.4151882 0.3894993 -0.08551327 0.5245045 -0.2725163 -0.10942308 0.36678717 0.57859063 -0.033160817 -0.05386022 0.060481057 -0.09596001 0.2057773 -0.30623618 -0.43594325 0.5240683 -0.5800384 0.06043394 -0.05608362 -0.19451693 -0.28605625 -0.18363039 -0.12908709 -0.2115031 -0.42544279 0.19661078 0.25748304 -0.9829199 -0.103651755 -0.12057666 0.0027210836 -0.0013810775 0.3841019 0.18873765 -0.28100777 0.06649884 -0.16506915 0.5242889 -0.1451136 0.3551127 0.09867468 -0.20470116 -0.0032914053 -0.42781216 -0.27412882 -0.09603922 0.46076098 0.25723717 0.49664095 -0.24993898 0.026303733 0.42410526 -0.49854457 0.15369761 0.88922614 -0.25971416 0.11126021 0.057002492 -0.2916381 -0.21369842 0.6636769 0.15800062 0.08862812 0.23995452 0.6105577 -0.24685456 0.14692493 -0.45027485 0.5988292 0.16760989 -0.14444105 -0.04747828 -0.17535904 0.48481023 0.30225444 0.11466938 -0.5311686 0.44199863 -0.113642424 -0.035309386 0.013820844 -0.36959743 0.040869758 0.22069553 -0.3313718 0.44734496 0.12956749 0.47537592 0.023575647 0.026302654 -0.70636225 0.1764175 -0.08553844 0.34106508 0.510725 0.16552688 0.036926243 -0.28271508 -0.25920662 -0.293026 -0.102910556 -0.08194914 0.17497943 -0.10383397 -0.010617614 0.20484169 0.34387302 0.64939153 0.020695066 -0.22317943 0.34601215 -0.61561877 0.17147458 0.035970017
19 0.49812526 -0.3169906 -0.11916443 -0.30770713 0.7407694 -0.19326991 -0.112035155 -0.08492449 0.19327152 -0.0437672 -0.0067690862 -0.59292704 -0.4395032 0.33796978 -0.4700457 0.56247216 -0.04321899 0.045406826 -0.10358148 -0.12335945 -0.28330448 0.3801276 -0.097178645 0.05583256 0.31680396 0.26225135 -0.0130223865 -0.4068039 -0.4396251 0.59036154 -0.3742492 0.18691164 -0.10305468 0.18403256 -0.31512076 -0.34303284 -0.47256026 -0.08062233 -0.18882047 0.23035438 0.2066472 -0.55027133 0.085326344 -0.30210698 0.06865649 -0.12942226 0.3157291 -0.029410373 -0.33282888 -0.21306789 -0.051413562 0.24280956 -0.20877944 0.5015005 0.15697145 -0.2596625 0.06244392 -0.68109107 0.2703742 -0.45373526 0.057527814 0.29201537 0.3694803 -0.40720293 0.12114353 0.27880707 -0.25932166 0.6170469 0.3294138 -0.33474317 0.14626327 0.0967403 -0.55745584 0.0004873724 0.4403771 0.081451505 -0.088010214 0.17957537 0.431409 0.16729939 0.07808272 -0.6610376 0.5701614 -0.11852566 -0.31259197 0.19385225 0.19057478 0.17460707 -0.20025939 0.58003587 -0.43678328 0.37703505 0.005925493 0.18563081 -0.09174676 -0.36687306 -0.28754514 0.3307529 -0.5782272 0.6189747 -0.014608521 0.5312365 -0.44860083 -0.21538742 -0.7195618 -0.24968001 0.2336954 0.565152 0.54167336 0.13317315 0.35118753 -0.5047143 0.01100269 -0.10670859 -0.18130073 0.07224708 -0.018455215 0.09854151 0.102139406 -0.31396773 0.006773025 0.76807415 0.2891855 -0.4670302 0.073730454 -0.39047742 0.4555198 0.021689372
20 0.1333596 -0.2817376 -0.41893697 -0.21710092 -0.33549568 0.38232267 -0.043006264 -0.22617806 0.57312393 -0.09693989 -0.3435051 -0.12779081 -0.0021978768 0.13481987 -0.16096355 -0.04863558 -0.24095704 0.32861274 0.22592261 -0.12093677 -0.053717975 0.33615124 -0.12952669 0.07172695 0.3338528 0.23819003 0.40010825 0.10585274 0.10569723 -0.12124144 -0.4287884 -0.037007026 0.07972881 0.040612947 -0.1918158 0.022346126 -0.0031138153 0.030014433 0.41013846 0.17757474 0.042473488 -0.46165848 -0.21191767 -0.80972177 -0.29771549 -0.14798498 -0.1580511 -0.41981465 -0.083730735 -0.26025522 -0.19277512 -0.52712744 0.11570338 0.46623895 -0.18832384 0.18986285 -0.114112996 -0.18663125 -0.07447011 -0.12203254 0.43977734 -0.036424626 0.1609863 -0.15196694 0.26948118 -0.03235336 -0.41500306 -0.17727159 -0.08315242 -0.35510805 0.63296133 -0.2363086 -0.48821035 -0.49731556 0.6505389 0.09800991 0.042710915 -0.2032795 -0.065060996 0.20230699 -0.30449247 -0.04609322 0.0045020115 -0.06427472 -0.1508561 -0.11408684 0.022025404 0.13511024 -0.2843563 0.27533865 -0.2753943 -0.031312972 0.18743794 -0.13161673 0.24591243 -0.3359595 -0.0247678 -0.009759666 -0.37248048 0.53650033 -0.08564094 -0.15293083 -0.41264847 0.079324335 -0.03541297 -0.25773847 0.015957046 -0.31964457 -0.04911663 -0.0708286 0.17525901 0.54646546 0.21803725 0.029127471 -0.1752841 0.4329383 0.41406602 0.1299535 0.1084895 -0.15749241 -0.45368746 -0.31218967 0.050897393 -0.49137637 0.07777454 -0.075271584 0.030149778 -0.24247664
21 -0.014302579 -0.4079495 0.06918692 0.1645658 -0.05917674 -0.21384223 -0.027123187 -0.2614707 0.21371438 0.063811235 -0.49586627 -0.2034606 0.1475917 -0.21969669 -0.1458854 0.14215887 0.15127851 -0.23141876 -0.0074156304 0.17557113 -0.17954391 0.42056105 0.055950865 -0.04594859 0.30914372 0.4657338 0.2745629 -0.12737335 -0.15965374 -0.033013143 -0.31821674 -0.10527136 0.3038531 0.22034432 -0.26906732 -0.1478307 0.46455514 0.00037988776 -0.17947717 0.11106966 0.6215932 -0.23803078 0.09849799 -0.6935191 -0.2221143 0.022691088 0.20285983 -0.34992447 -0.095071316 -0.42379528 -0.008522725 0.098793074 0.50449854 0.57366794 -0.07964759 -0.023200512 -0.21808153 -0.19721004 -0.05218641 0.1307146 -0.006030715 -0.29686704 0.40132365 -0.26258403 -0.11429732 0.16737476 -0.48878354 -0.60919297 0.009494014 0.24687907 0.024001896 0.39648998 -0.4067029 -0.15655178 0.5094946 0.034154788 -0.043468054 -0.050827954 0.18080676 -0.36471558 -0.3723853 -0.13874145 0.19970755 -0.036871243 0.22303243 0.077858 -0.07408885 0.42947173 -0.060855493 -0.16671751 -0.32874167 -0.19066054 -0.28292957 -0.37476754 0.3072237 -0.004734022 0.208687 -0.06764767 -0.0013113867 0.20652997 -0.0127022015 0.24736919 -0.10795273 0.050712578 0.38717985 0.36263227 -0.026003413 -0.17000991 0.12935063 -0.16686115 0.04654083 0.356141 0.42048782 0.13269278 -0.12344638 0.10066168 0.17756978 0.008078123 0.30494797 -0.19800891 0.25479558 -0.23056166 0.11134027 -0.15661061 0.04003897 0.1242538 0.10044021 -0.005987801
22 -0.032761324 -0.33418384 -0.30231926 -0.22680527 0.35772356 -0.16295993 -0.24790768 0.16884346 0.53833383 -0.0028412994 -0.08944104 -0.26051345 -0.5686814 -0.2540216 0.07876094 -0.07110031 -0.13366768 0.25105247 0.13997938 -0.10420413 -0.06446921 0.021469349 0.4930816 -0.08373163 0.1271115 0.51608807 0.4224879 0.10329058 -0.054856 -0.30191842 -0.11314677 -0.15034766 0.2895951 -0.5856532 -0.040739488 -0.22060387 0.6805654 -0.13039415 0.5349237 0.19851595 -0.35086137 -0.26145634 -0.19947974 -0.605835 -0.46112326 -0.08855581 -0.003845522 -0.3174287 -0.12891029 -0.11688222 0.15905385 -0.20279624 0.06406021 0.4964145 0.14905918 -0.13421077 0.07797622 -0.20851211 0.28054443 -0.14248092 0.46860918 -0.2778043 0.33106875 -0.47785872 0.24903576 0.2217792 -0.28693956 -0.134759 0.097515225 0.4118028 -0.016448118 0.077873886 -0.18183091 -0.46022457 0.7742705 -0.07494107 -0.1343702 -0.12750576 -0.02776954 -0.5206367 0.071709074 0.22921407 -0.068081774 -0.0750199 0.14824691 -0.40995613 -0.22516224 0.21745068 -0.12081642 0.047647666 -0.30060717 0.08506165 -0.17358664 0.100049175 0.098347455 -0.095622696 0.10224674 0.10576235 0.06439675 -0.11978493 0.048795097 -0.28705442 -0.36415306 0.12923579 0.111048706 -0.066144206 -0.057460036 -0.14494513 0.24939397 -0.15937287 0.009741361 -0.13168164 0.19674827 0.0294975 0.002706035 0.38086662 -0.07162205 0.18089606 0.37595835 -0.13405171 -0.07190834 -0.2615759 0.2012911 0.032198507 0.18095224 -0.08743185 0.13063213 -0.26282138
23 0.09440676 -0.32906345 -0.08881182 -0.55332863 -0.30413976 -0.07405558 -0.3171941 -0.51635647 0.2761961 -0.27884346 0.3237498 -0.069949746 0.15209244 -0.04809118 0.059033502 0.14392525 0.018177237 0.064957105 0.21187162 -0.23283222 -0.35799968 0.33277398 0.414734 -0.14138761 -0.007837821 0.5941805 0.5422749 0.17624317 0.09844945 -0.30295265 -0.48547184 0.054514457 -0.0882463 -0.014496701 0.08755321 -0.2751041 0.12414831 0.32839465 0.15670672 0.19375631 0.01920598 -0.3008348 -0.37329528 -0.531628 -0.29397315 0.25705338 0.16076788 -0.11272925 -0.10985852 -0.41879496 0.42341354 -0.31113616 0.099120945 0.5435021 -0.019876778 -0.29710898 -0.20167951 -0.18663323 0.111541994 -0.25600365 0.22339025 -0.58156 0.48383388 -0.25183222 -0.029801406 -0.06214657 -0.2767418 -0.117760286 0.3385421 -0.09783424 0.21635854 0.15300027 -0.32902676 -0.47355 0.5927054 -0.057270594 -0.11897326 -0.23523304 0.23726308 0.18238364 -0.106846645 0.32714602 0.15474844 -0.14432873 0.042888187 -0.1106809 -0.09206811 0.12552512 0.1785564 -0.026059732 -0.11015956 0.15347429 -0.35217002 -0.4428915 -0.025875473 0.12159555 -0.34732658 0.14244793 -0.3267907 0.19072106 0.24302585 -0.1157674 -0.238681 0.12200328 0.060229976 0.20275414 0.12439457 -0.25077692 -0.056928836 -0.5763799 0.30310374 0.12680045 0.3098112 0.036535054 0.24173677 0.41169852 -0.076014176 -0.07210618 0.17102335 -0.25464755 -0.30559337 -0.234335 0.14715248 -0.20109941 0.141286 -0.24363309 0.21773334 -0.36739907
24 -0.027544847 0.009928953 -0.41685155 -0.08379283 -0.17213596 -0.12314868 0.13301946 -0.0064626117 -0.47176254 0.35971525 0.14425461 -0.1075138 -0.3279084 0.2770466 -0.37584275 0.12876321 -0.020573178 0.2748993 -0.20454675 0.009290519 0.36280385 0.14607602 0.40853968 0.07127464 0.43720344 0.03791543 0.028271187 0.25200763 -0.52406615 0.08739637 -0.28096458 -0.1387714 -0.18293181 0.113349065 0.31308657 -0.034137763 0.31375754 -0.08212897 0.17061754 -0.06591897 0.10202365 -0.41135845 -0.08221712 -0.32454214 -0.117197655 -0.033927474 -0.52931505 0.21556458 -0.5312244 -0.09077129 0.14955148 0.0125758955 0.28940552 0.21465419 -0.2059709 0.130155 -0.2961934 0.31368184 0.14720164 -0.34759194 -0.26745415 -0.107903905 0.11098276 -0.0019344994 0.100088805 0.20011908 -0.23938726 -0.37049496 -0.57777643 -0.3230808 0.06600703 -0.07806203 -0.35000286 -0.13571332 0.42590302 0.2934561 -0.07779855 0.2815066 0.2866156 0.0094507905 -0.028950304 0.13934262 0.17737697 0.03147016 0.68999237 0.1399243 -0.18700385 0.37266323 0.08260026 0.12012901 -0.050171927 -0.29002395 0.0054440233 -0.1800956 0.2011274 -0.38466576 0.0697602 0.20921892 0.09569727 -0.28655446 0.36210433 -0.038546443 -0.47046816 -0.15864438 0.31178752 0.121929735 0.25430924 -0.33242044 0.40378633 -0.47350225 0.11674286 -0.03536572 0.32304165 -0.24415942 0.072877504 -0.16851069 0.006298579 0.3834667 0.089133605 0.037332863 -0.18558258 -0.12196589 -0.102661565 0.48727852 -0.1315572 0.015565241 -0.5521124 -0.030900279
25 -0.20625564 -0.27700603 0.08786587 -0.34156725 -0.23191494 -0.013152391 -0.34249064 -0.26128358 0.2782221 0.006390612 -0.2510294 -0.15231599 0.07314236 -0.34507775 -0.23944645 -0.12287479 -0.14604889 0.0062832916 0.09091758 0.33037394 -0.3041284 -0.012465934 0.31513664 -0.25015324 0.41609707 0.067056045 0.16541627 0.1224127 -0.24590927 -0.004317252 -0.2818705 0.040150743 0.21876207 -0.29267943 -0.036907718 -0.09694719 0.036970083 -0.14251944 -0.18753853 -0.0050914683 0.10854032 -0.18576409 0.23181328 -0.92818576 0.067249045 0.4509626 -0.05861226 -0.14719863 0.019015754 -0.4157087 0.050859626 0.012104228 0.0020267498 0.35539645 -0.0012239513 0.051417317 -0.53006834 0.016741874 -0.07429535 -0.0368321 0.3547705 0.19699267 0.33214673 -0.29462916 0.3042706 0.059610114 0.02543314 -0.35865352 0.16840501 -0.3903387 -0.33221364 -0.011086934 -0.45787504 -0.66849226 0.5746753 0.10261833 -0.106080584 0.0069913035 0.07579793 -0.15799594 0.013736799 -0.12644951 0.4912755 -0.26858363 0.3498614 -0.4329876 -0.4414409 0.36972326 -0.014428409 -0.11469525 -0.106193975 -0.05540221 0.07719689 0.06778751 0.20733593 -0.34256718 0.05158357 -0.20860177 -0.0025482057 0.19521448 0.11270048 0.08622194 -0.14818665 -0.2244803 0.3908286 -0.10794991 0.04329314 0.058823626 -0.211463 -0.2800807 0.19062054 0.4844076 0.5230598 -0.015629746 0.08042973 0.35244864 0.121890135 0.030784154 0.27596352 -0.38415033 0.13051935 -0.08446189 0.04056045 0.022689376 0.010692944 0.284924 0.32765248 -0.33048615
26 0.16795233 -0.08676442 -0.54814947 -0.14940925 0.015888335 -0.17336105 0.2505175 -0.17570636 -0.043935493 -0.14866751 -0.01575999 0.31801122 -0.14862992 0.10296843 -0.64893365 -0.08132439 0.19239827 0.38027754 -0.32623312 -0.089561865 -0.0759758 -0.11207111 0.18219487 -0.39970616 0.19182219 -0.010040675 -0.5562189 -0.036207605 0.01511292 0.13249019 -0.31596583 -0.01572259 0.29473755 -0.15123858 0.2897696 -0.166197 0.11673748 0.055202395 0.07841607 0.10293595 0.06769423 -0.160164 0.07670275 -0.22508243 -0.04671417 0.099420324 -0.0063731465 0.26525953 -0.10926843 0.13875125 0.48530763 -0.04237902 0.12964547 0.5279431 -0.28985634 0.37878677 0.17731093 0.37841713 0.07281412 -0.5082495 0.16611324 -0.048866462 0.15952772 0.13300614 0.16314787 0.13769288 -0.46672428 -0.39974824 -0.6796449 -0.019125264 0.32813698 -0.24084413 0.02522266 -0.29432157 0.26987395 0.33729348 -0.12805818 0.40447763 0.38326657 0.25142497 -0.35705644 -0.19853793 0.33025774 0.10983262 0.4046091 -0.000830018 0.04339856 -0.09503349 -0.030034492 -0.2629023 0.1609276 0.2073872 0.2917089 0.052746654 0.07805558 -0.1798375 -0.22955832 0.3119742 0.25845903 0.32517305 0.275786 0.110011324 -0.32657537 -0.56439716 -0.12411404 0.46202096 0.1559261 -0.25412297 0.19931297 -0.571714 0.08223553 -0.07441903 -0.22775607 -0.2918795 -0.6648809 -0.19174552 0.31597438 0.3901168 0.49108335 -0.26427707 -0.010835072 0.06401688 -0.24386947 0.26846018 -0.18763992 -0.19610813 -0.25879362 -0.073818915
27 0.14289661 0.016521055 -0.5720594 0.024840137 0.10191777 0.5296727 0.35374796 0.08017896 0.11484967 0.24427113 -0.06804422 0.0813858 -0.6014644 -0.0050482852 -0.5614595 0.17520534 -0.0795602 0.109617546 0.08914648 -0.09001861 -0.45449013 0.06327468 0.06259791 0.07716137 0.1878161 -0.00080113596 0.122214854 0.37466082 -0.37065297 0.14005587 -0.51056975 0.056895725 0.2952135 -0.07999287 0.33883345 0.19632228 0.21099515 0.38151523 0.43059176 -0.32929397 0.14350927 -0.18961667 -0.21162763 0.022227863 0.013517861 -0.12855785 -0.26141226 0.06436435 -0.24007991 0.17932244 0.104477406 -0.06618664 0.022391954 0.21769021 0.041683763 0.80218005 -0.053551108 -0.06269423 0.018588977 -0.22302179 0.19710356 -0.16791882 0.2029226 -0.13542365 -0.33225584 0.059041794 -0.14854984 -0.34897563 -0.43934703 -0.37379232 0.290935 0.05792989 -0.07983516 -0.035378654 0.34795508 0.58880043 -0.39961496 0.25760642 0.5103149 0.33028412 -0.4856859 -0.34333584 0.07291942 0.0110670505 0.52104104 0.026380133 -0.034233883 -0.22460918 0.009603658 -0.3341613 -0.15363032 0.09511882 0.40615186 0.2850387 0.36485872 -0.062638074 -0.40371048 0.28692454 0.06955409 0.37509328 0.27507484 -0.27971587 -0.3166051 0.016691461 -0.05020432 0.32107335 -0.32027125 -0.26656696 0.46467885 -0.3934629 -0.22676824 -0.14813568 -0.023821972 -0.3434677 -0.27046627 0.18073301 0.5319643 0.04172561 0.070108354 0.19661547 0.043558553 -0.014434088 0.15432853 0.44683 0.08629564 -0.018149164 0.21789916 -0.22779413
28 0.40519083 -0.08916447 -0.3416942 -0.35538787 0.48847318 -0.69787693 0.459016 0.5126288 -0.4504079 0.22380513 0.21262845 -0.18605857 -0.14804877 0.3345816 -0.304721 0.0067847925 -0.44426426 0.30659127 -0.123547405 0.051162597 -0.30862835 0.35678765 -0.10514336 0.011975395 0.09243853 0.17677478 -0.32938242 0.09293082 -0.7543181 0.16158804 -0.51610243 0.45876342 0.39525616 0.123348095 0.13961944 -0.3240139 -0.6089103 0.18747261 0.014239231 -0.19434626 -0.8367027 -0.45882782 -0.19909948 -0.0736587 0.7656455 0.2463322 -0.066004634 0.40227467 -0.22656913 -0.15401468 0.32498538 0.09660535 0.042258076 0.7574515 -0.06798013 -0.41205874 -0.0037486765 -0.8796174 0.42998686 -0.035285287 -0.5529614 -0.20680082 0.32991686 -0.27587768 0.3127708 0.26932716 -0.22569452 -0.030510057 0.12905744 -0.20802508 -0.16325647 -0.16361685 -0.28310254 -0.0071693086 0.7370959 -0.014423043 0.1947771 -0.23488538 0.702936 0.51883185 -0.36129534 -0.22523786 0.7196195 0.44561794 -0.24103199 0.030583745 0.2639662 0.55391246 0.5763125 0.014601058 0.23350938 0.40669435 -0.052482873 -0.21839549 0.025658991 -0.0229921 -0.7081791 0.09178027 -0.6022572 0.7303601 0.60713977 -0.5302177 -0.25203118 -0.039237063 -0.7660594 -0.071502574 0.06415312 -0.21264891 0.30486378 0.04849687 -0.22603294 0.64777654 0.26748312 0.660029 0.09903262 0.51577985 0.28192475 -0.04336722 0.6574087 -0.04203137 0.46277484 0.5823019 -0.051776525 0.3165489 0.008794534 0.053752296 -0.22423913 -0.07188856
29 -0.13208884 -0.37550974 -0.6351118 -0.56279206 0.109329805 -0.32933867 0.41150492 0.37918043 -0.12584883 0.70552045 -0.06315335 -0.343487 -0.23663427 0.08541915 -0.36292157 -0.10383855 0.032406226 0.3380498 -0.12124153 -0.41701922 -0.18769649 -0.053401716 0.15748085 0.2785026 0.44251096 0.29553962 0.14941344 -0.18437117 -0.14928529 0.12986651 -0.5469466 0.018325321 0.30786356 -0.0798202 0.50427055 -0.05360857 -0.43083122 -0.18872145 -0.6944934 0.18367602 -0.6571432 -0.5153867 0.011533081 -0.67360365 0.41201946 0.7153605 0.02427522 0.2387148 -0.021282412 0.26272103 0.3894693 0.4577857 -0.08023022 0.3581759 0.80655986 0.14842683 -0.14044562 0.13627699 0.04415117 -0.12043151 -0.09626689 0.16165623 0.43130115 -0.16188592 -0.39076182 0.022239426 -0.794684 -0.36881217 -0.17939469 -0.00012140325 0.09635487 -0.09893762 0.07759603 0.39985093 1.2736695 0.26188678 -0.12779967 -0.19991618 0.690337 0.4439245 -0.44315338 -0.13784844 -0.11756903 -0.006394267 -0.33827513 0.1825714 -0.14678544 0.5426493 0.3412292 -0.2615559 0.27741075 0.5780343 0.07931551 0.48590115 -0.22055681 -0.18782721 -0.18193409 0.6037924 -0.51987076 0.49151134 0.49514273 0.026509376 -0.15678188 -0.02716107 -0.36334205 0.3520182 0.17544776 0.4709111 0.27403706 -0.18859233 -0.17122316 0.081835136 -0.30154344 0.009565994 -0.31279406 0.103403315 -0.018382309 0.02131701 0.1383295 0.2624478 0.5132808 0.60932606 0.17773616 0.34162098 -0.04024657 0.049555115 -0.44889042 0.03545687
30 -0.052618936 -0.125652 -0.43087694 -0.056081004 -0.069768086 -0.14904241 0.5543492 0.22709984 0.5628446 -0.15654388 0.21179055 0.014265059 -0.8236485 0.048149057 -0.2664967 0.44785506 0.39797696 0.21689892 -0.21832623 -0.3794538 -0.29106528 0.15679908 0.27917543 -0.40425614 -0.37910938 -0.33309937 0.41322595 -0.11713219 -0.38899374 0.22891882 -0.52724373 0.16686594 0.214732 -0.56684226 0.13245286 -0.36946592 -0.06115824 -0.2589112 -0.46931878 0.3359629 0.43729874 -0.37546682 -0.2842071 -0.082672395 -0.3981533 0.1392179 0.15861474 0.19939595 -0.6524325 -0.27475002 0.28662276 0.19321288 0.38137248 0.38202485 0.24155825 0.22577186 -0.1690664 0.17232025 -0.069155 -0.68924814 -0.064204335 0.16821024 0.087177455 -0.474087 0.65170944 -0.36076498 -0.09572944 -0.25684562 -0.35682496 -0.38053188 0.38897207 -0.041194707 0.076933965 -0.23170549 0.22925594 0.25152317 -0.5818875 0.3112345 0.42507777 -0.17011723 -0.3223696 -0.1903862 0.3271744 0.6642294 0.43268004 -0.10296198 -0.11574705 0.39580312 -0.28340405 -0.3485141 -0.011933112 0.024391217 -0.2750033 -0.13502671 -0.7080074 0.08439664 0.065025605 0.005352982 -0.19270165 0.5002742 0.28689477 -0.08129685 -0.16774413 -0.3118663 -0.449689 0.20241605 -0.26321706 -0.14128284 0.13941781 0.09135008 -0.3955648 -0.14517486 0.1957621 -0.8937461 0.11044493 -0.013551661 -0.35654894 0.5046468 0.33425978 -0.031067502 0.03462064 0.040924642 0.21111077 0.2959907 0.08991008 0.020882042 0.060848124 0.12210755
31 -0.16359253 -0.11318953 -0.215181 0.21456519 -0.15722367 -0.09051601 0.5530177 -0.22612604 0.5096492 -0.034756865 0.18840602 0.12111736 -0.8520188 0.27096564 -0.29786342 0.49991605 0.32903707 0.25241128 -0.07275742 -0.32923567 -0.59737253 -0.030236017 0.25744635 -0.10778506 -0.20358647 -0.23281705 0.32323566 -0.018929048 -0.4444524 0.2894579 -0.42301828 0.2072738 0.16566685 -0.3326496 -0.075235054 -0.34245515 0.28703973 0.07903201 -0.038362693 0.10739751 0.5088332 -0.3104896 -0.06470615 -0.047676034 -0.19322774 0.49897054 0.22835283 0.20919271 -0.7560616 0.035239857 0.047804184 0.4001816 0.49283344 0.52971107 0.072082296 0.066601634 -0.30616137 -0.04376981 0.01402762 -0.4882835 -0.02941729 0.44501877 -0.017323136 -0.39910945 0.62613213 -0.4212391 -0.19951195 -0.20750602 -0.5711108 -0.5453829 0.34338114 0.20885637 -0.16171238 -0.24669509 0.39459375 0.08368464 -0.4206693 0.13946728 0.5012172 -0.0841332 -0.23129867 -0.32756975 0.3367166 0.3659028 0.4721311 -0.18640235 0.23262513 0.22319129 -0.17921513 -0.08881413 0.07900299 0.17365515 -0.4842744 -0.13471572 -0.63640654 -0.15962331 0.13598485 0.23610075 -0.30988738 0.22571705 0.12437841 -0.33696344 -0.021723434 -0.3674587 -0.31449372 0.22090319 0.14435838 -0.25973126 0.20823358 0.04814606 -0.25583094 0.3559425 0.027114168 -1.0806247 0.032579955 -0.08580913 -0.35989895 0.28395763 0.32466128 0.032366488 0.12760238 -0.005937162 0.15442376 0.27838796 0.24494259 0.053612325 -0.010136952 0.13223617
32 0.18994714 -0.5741761 -0.19088589 -0.38663834 -0.15836453 0.11464618 -0.27688152 -0.42008173 0.19696647 0.18519197 -0.13787426 -0.10644215 -0.028366456 -0.14867458 0.054916076 -0.18371786 0.017786145 0.146251 0.16064607 -0.1889268 0.29720587 0.25646314 0.30599535 -0.04626084 0.16911577 0.63327855 0.16102399 0.09748286 -0.17102478 -0.17258382 -0.30519456 -0.20554315 -0.2933881 -0.1617203 -0.07565125 -0.03145077 0.040991668 0.009301805 0.43840584 -0.10050844 0.35718465 -0.28182116 -0.41738364 -0.8923878 -0.1851836 0.2704304 -0.1666834 -0.101284906 -0.3447212 -0.07171082 0.16313459 -0.4315218 0.23597455 0.47466835 -0.066266455 -0.067143075 -0.28593048 -0.12873629 0.10122241 0.06267669 0.82954454 -0.34492952 -0.04521993 -0.29476225 -0.06691756 0.07248936 0.04240371 -0.13214575 0.20098053 -0.057468995 0.2228128 0.055742368 -0.41372162 -0.37004477 0.6800356 0.09065168 -0.43493158 -0.17666946 0.19965191 -0.26563635 -0.010016257 0.0049820137 0.22021928 0.08340867 0.1505782 -0.077388294 -0.031675633 0.34787408 -0.17238297 0.048399612 -0.051665865 0.092673406 -0.011707927 -0.069232754 -0.012051498 -0.13997614 0.019406665 0.20555557 -0.20266171 -0.016760448 0.21222614 -0.42229748 -0.40979868 -0.1750489 -0.008721621 -0.04058073 -0.03531736 -0.034284666 0.049281683 0.033509787 0.42661715 -0.015916022 0.33138978 0.13914858 0.14989074 0.07363741 -0.1872987 0.50139433 0.26340884 -0.49538505 -0.058846552 -0.036417887 0.10074592 -0.2551419 0.08555131 -0.07028431 -0.085041024 -0.011604832
33 0.19223638 -0.47300923 0.15492159 -0.55278987 0.20748505 -0.22391844 -0.21803167 -0.27832493 0.41969842 0.19237384 -0.2627081 0.013018411 0.050651483 0.093549564 -0.030426864 -0.20776065 0.0145080015 -0.042486396 0.2551854 0.33997345 0.14272648 0.025724415 0.27060118 -0.41710567 -0.014446859 0.057349533 0.160971 0.22900425 -0.19420764 -0.23833968 -0.33295658 -0.022614762 0.46010306 -0.116851926 -0.48475543 0.10195547 0.21952192 -0.123935424 0.004716381 0.039392296 0.22603454 -0.027194891 -0.24370152 -0.66707385 -0.08758143 0.12720825 -0.0021856683 -0.12120135 -0.26557562 -0.07068017 0.08392905 -0.0015298224 0.4437464 0.48633853 0.10721404 0.020969016 -0.23490338 -0.027417906 -0.07753155 -0.14432912 0.38061938 -0.31166476 0.27110004 -0.44172373 -0.03147519 0.11037288 0.060467657 -0.36193606 0.118935816 -0.21625043 -0.04898006 0.22383367 -0.39245272 -0.87846816 0.14713323 -0.0109786065 -0.050312422 -0.33917832 0.18342955 0.06561056 -0.2156271 -0.12522125 0.52559775 -0.15745312 0.06461823 -0.044785116 0.24232902 0.37301394 -0.16990425 -0.047254644 -0.32699525 -0.13200074 -0.23335442 0.1574973 0.21865633 -0.24060749 -0.15645994 -0.007880309 0.025974274 0.09605882 0.018152263 0.093264155 -0.3666898 -0.07158684 -0.13543525 -0.3444984 -0.25437167 -0.22117312 0.17401223 -0.37016144 -0.25511262 0.17445011 0.2925739 0.19180326 0.1998198 0.32765594 -0.09815619 0.099233784 -0.004329715 0.17381164 -0.06282427 -0.039081603 0.032736685 0.2607753 -0.07559908 0.30139455 -0.18618046 -0.26389423
34 -0.27719638 -0.3599244 -0.58284795 -0.7576527 0.31576422 -0.08026083 0.26030043 0.13340484 -0.47576046 -0.011173889 -0.03293376 -0.44960397 -0.26217464 0.30680612 -0.24586496 0.44126207 -0.59158736 0.38774082 0.35034138 -0.75183946 0.20393607 -0.17493302 0.27730015 0.17628726 0.26651567 0.27909184 0.010655324 -0.32434693 -0.5504531 0.02593199 -0.24158742 0.33382916 -0.084313355 -0.15548785 0.5384397 -0.44920748 -0.68335426 -0.41937193 -0.4806699 0.2503643 -0.36059314 -0.49451506 -0.12510006 -0.5477453 0.3037266 0.2831134 0.053925987 -0.33007252 -0.35257736 0.22637 0.5688163 0.42702606 0.34214914 0.5320064 0.049200132 0.10332856 -0.05382779 -0.6042202 0.29276437 -0.29971927 -0.054543138 0.023377867 0.11350778 -0.07927386 0.6976306 0.459925 -0.6408819 0.13730662 -0.043011665 -0.28300405 0.06732713 0.12773986 -0.15812695 0.08392994 0.956611 0.13971193 0.05486719 0.014990827 0.5926072 0.3907002 -0.8004855 -0.29106966 0.491952 0.22705443 -0.60371166 0.0037324822 0.018658916 0.36821792 0.39140454 0.015621592 -0.22198382 0.32011873 0.36921215 0.16715235 0.061566412 0.12440837 -0.3108214 0.4323968 -0.85060203 -0.16701704 0.6763351 -0.8165568 -0.28682283 -0.25328663 -0.23490825 0.62481016 0.4179609 0.06309049 0.24216408 -0.260782 -0.39644605 0.45497563 -0.23064145 0.30074084 0.37414032 -0.03676626 -0.09823972 0.13351409 0.5186865 -0.15003498 0.39408308 0.32954165 0.040351145 0.07538333 0.36890522 0.43129328 -0.49342477 -0.049019396
35 0.24018848 -0.053494498 -0.36367747 -0.40430817 -0.055761192 -0.011915921 0.25979885 -0.025851646 -0.2699648 0.011786741 -0.055148035 0.063671775 -0.41449684 0.3039663 -0.2956029 0.17585047 -0.16995871 0.75182855 0.08942625 -0.30757374 -0.29192728 -0.2326799 0.019433655 0.3381874 0.52376443 0.13483451 0.11904035 -0.20913553 -0.44910017 0.5935039 -0.025478449 0.22704257 0.15450099 -0.11651762 0.16866131 0.15851822 -0.48590824 -0.4949635 -0.3805284 -0.44923264 -0.46292785 -0.59590334 -0.193189 -0.10381953 0.3376169 0.15287696 0.26105073 0.049400996 -0.13105978 -0.15501347 0.33414838 0.7227464 0.30454707 0.19321458 -0.102131605 0.5254165 0.0343515 -0.9082556 0.16076815 -0.5868204 -0.03798199 -0.041051026 0.12723969 0.028406406 0.2061074 0.4524795 -0.6747295 -0.29689875 0.2242377 -0.46793717 -0.031115899 0.0066731847 -0.30029765 -0.061062735 0.68160725 0.055938143 -0.10288213 0.25066665 0.56631494 0.23369466 -0.7936882 -0.081348315 -0.0968378 0.02716236 -0.4635365 -0.47926998 0.018149517 0.19638768 0.002296218 -0.32133257 -0.2308277 0.026004674 0.31258434 0.19455956 -0.2568477 -0.29347467 -0.07728447 -0.022693068 -0.7810353 -0.110643506 0.50735205 -0.5279998 -0.2281967 -0.15253775 -0.27786875 0.24738291 0.1740843 0.2679209 0.38138944 -0.117976524 -0.053932615 -0.3547542 -0.25241947 0.14554584 0.5190732 0.25865075 0.3763251 0.20796216 0.30300772 -0.0014206436 0.41952235 0.4440389 -0.004190061 0.04319384 0.21360369 0.03172313 -0.35762194 -0.26476628
36 0.03099508 0.0064718286 -0.6947566 0.12062203 0.05708483 0.06329968 0.18181555 0.36358535 0.05812136 -0.20611632 -0.22315687 0.12596802 -0.48322424 0.19608037 -0.2238661 0.23473243 0.07095937 0.3075401 -0.12420096 -0.15064305 -0.24055535 0.26646 -0.22834326 -0.35020784 0.442705 -0.323906 -0.046417154 0.17727195 -0.16765848 0.10679759 -0.280651 -0.36076733 0.23162366 -0.007088037 -0.2201819 -0.15821688 0.105167665 0.16425836 0.01483333 0.3933433 -0.009864505 -0.33203936 0.047317166 -0.14085634 0.16337712 0.36742714 -0.23726879 0.17603111 0.10036854 0.064773954 0.30572703 0.060285263 0.7201313 0.7459703 -0.57300484 0.35619956 -0.28164124 0.3129523 0.17688446 -0.100974284 -0.07667745 -0.42841184 0.11486479 -0.12988518 0.31662962 0.018664137 -0.4680396 -0.6332541 -0.08466721 0.075738035 0.34036264 0.18812563 -0.4735108 -0.1429161 0.39388996 0.28354293 0.0062517202 -0.093613215 0.36158827 0.08151897 -0.24317102 -0.030745652 0.02627151 -0.16521744 0.18029322 0.03787446 0.029721418 0.21617362 0.33887213 0.0039927955 0.25512788 0.13572876 0.11503229 -0.13585709 0.016888315 -0.1830917 0.037135243 0.05627269 -0.2536675 0.12906633 -0.16379339 0.27318978 -0.16398211 -0.11070901 0.26114857 -0.05524515 0.01524854 0.20737635 0.026888555 -0.2616504 -0.30432898 -0.052940972 0.06267788 0.29028836 -0.15253632 0.20758468 -0.1610987 -0.2370419 0.4608965 0.5395535 -0.17189434 -0.09991323 0.00797335 0.60138214 -0.18718188 -0.048938945 -0.16704032 -0.03317178
37 0.22662945 -0.23340249 0.05374258 -0.21690787 0.5846618 -0.5798105 0.17525208 0.004019018 0.37767678 -0.50540423 -0.10515232 -0.5830617 -0.30727005 0.09867124 -0.67894906 0.07111909 -0.067022964 0.56194866 -0.0055256337 -0.36044493 -0.15278211 0.036479905 -0.0107459035 -0.07610254 0.34814924 -0.06998242 0.14990206 -0.17068516 -0.6750955 0.586367 -0.34526065 0.17436522 -0.021267341 -0.2138904 -0.19468273 -0.10454849 -0.50986737 0.14424814 -0.1621842 0.5090014 0.061698336 -0.5796878 0.24122068 0.14869913 0.028444842 0.016035683 0.21725452 -0.17571318 -0.30324462 -0.13754132 -0.105397664 0.035209537 -0.27647993 0.109096706 -0.16428512 -0.1302283 -0.006468682 -0.42978176 -0.36319697 -0.18574822 0.13699043 -0.050462153 0.04337209 0.033545617 0.30947167 -0.035726976 -0.57405853 0.30004308 0.6551728 -0.052667286 0.0659005 -0.11770964 -0.08853206 -0.041394755 0.7722043 0.054462824 -0.3248107 0.47576994 0.5918549 -0.011468559 0.23051347 -0.49346453 0.27825257 0.13113762 -0.20913143 -0.11046283 0.3494284 0.40626112 -0.23180902 0.5424747 -0.48176754 0.43522954 -0.23834763 -0.116546184 -0.28164244 -0.5081204 0.28410244 0.25254354 -0.8749169 0.98300964 -0.077936016 0.41259542 -0.5612544 0.062967904 -0.54792726 0.09206718 -0.045798667 0.37877378 0.4558666 -0.19754483 0.14327945 -0.28508994 -0.24119614 0.019947423 0.37027857 -0.043703746 0.029751759 0.18338716 -0.24349922 -0.47670242 0.062115718 0.34530023 0.09224355 -0.16721489 0.58203715 -0.8509569 -0.13631967 0.06898159
38 0.51705736 -0.3542907 0.09457596 -0.22991143 0.88038284 -0.3774296 -0.04084744 0.21825662 0.1830009 -0.20225964 -0.001891297 -0.6351454 -0.34323585 0.057842467 -0.45770386 0.40649572 0.1056605 0.66192156 -0.318877 0.0009651788 0.1565649 0.08383177 -0.12942898 0.07662765 -0.05837106 0.1856848 0.2165578 -0.3061587 -0.5570783 0.5827527 -0.23034418 0.052794937 -0.46208495 -0.23673744 -0.40308002 -0.13087285 -0.17397821 0.17483962 -0.203455 -0.11835066 0.22253272 -0.91567886 0.0072095157 -0.085289285 0.18900907 -0.18074772 0.33174825 0.022214705 -0.11058007 0.07601318 -0.24817783 0.30188373 -0.028677551 0.32571113 0.25338414 -0.24168326 -0.07135071 -0.34592322 -0.13526893 0.021909595 0.22973877 0.3081696 0.52845156 -0.07145671 -0.20151715 0.46245646 -0.71265715 0.2370165 0.19449961 -0.035410304 0.05517057 -0.12237326 -0.6566116 -0.30065525 0.46596405 -0.2176911 -0.25642976 0.39057145 0.40552095 -0.0482537 0.061553903 -0.62461305 0.022887494 0.30011195 0.01825792 -0.21195106 0.06529287 0.5142825 -0.14133517 0.14507201 -0.51759666 0.3120455 -0.3626901 0.104264714 -0.1266843 -0.28798202 0.1372559 0.49290362 -0.5872807 0.86813366 0.16627906 -0.009000683 -0.2901698 0.090924345 -0.5992709 0.35531777 -0.29002267 0.5183284 0.645235 -0.24567963 0.3547381 -0.22609836 -0.035907358 -0.05076773 0.051185023 -0.14496087 -0.26976848 -0.2514618 -0.07451439 -0.09165577 0.25797835 0.60529095 0.22105698 -0.08185523 0.30016428 -0.26749834 0.058540355 -0.2201531
39 0.2224313 -0.31230074 -0.2501691 -0.15223067 0.12609759 -0.26853633 -0.27764276 -0.24761961 0.4516703 0.06698448 -0.35594898 -0.19929084 -0.0127335 -0.09450176 -0.114394285 0.035019796 0.016938604 -0.15332118 -0.0693291 -0.14374053 -0.18307795 -0.06557866 0.23236735 -0.12422525 0.118118085 0.38341123 0.47573864 0.117632106 -0.28406304 0.10855839 -0.19957529 -0.20552567 0.055535585 -0.16808286 0.06252325 -0.0749825 0.12580141 0.13368027 0.60729015 0.3516579 -0.029293438 -0.06970475 -0.33636573 -0.84446937 -0.18911152 0.05258613 0.017369246 -0.24341649 -0.37567905 -0.62501925 0.33547473 -0.38628754 -0.012381828 0.5175604 0.20974022 -0.05193476 0.009971761 0.007771324 0.11478326 0.18928309 0.48343238 -0.09191185 0.004779542 -0.094935216 -0.0017386621 0.15081315 -0.23473382 -0.17195962 0.11904459 -0.2992503 0.040145166 0.1602526 -0.2605802 -0.3285986 0.5925507 0.080144666 -0.094542354 -0.21311004 0.043014634 0.1518955 0.15807167 -0.04295241 0.39789826 0.07331035 0.117145464 -0.11580943 0.24760851 0.18020628 -0.0040831785 -0.05741962 -0.66336316 0.1526712 -0.24978177 -0.1330339 0.23299557 -0.12829308 -0.27285424 0.04097563 0.14163266 0.030438147 0.04442738 -0.34149107 -0.29216683 -0.15210634 -0.059800353 0.18820287 -0.039828643 -0.39982983 -0.10457084 -0.5197226 0.14957136 -0.011128658 0.2625194 0.26528212 0.24927284 0.37871665 -0.3340014 -0.08709495 0.26330158 -0.26211223 -0.18917428 -0.04276932 0.37601116 -0.2877465 0.22372061 0.02274959 0.1816694 0.08152754
40 0.23847388 -0.49173525 0.14279526 -0.57859904 -0.12428265 -0.14228666 -0.19524398 -0.096955836 0.2464849 0.0026491 -0.42191637 -0.008084048 0.034929838 0.15085053 -0.1688026 0.022724194 -0.2015322 0.26654577 0.17547996 -0.021232074 -0.1486797 0.26212326 0.07342471 -0.59342176 0.24921699 0.49744418 0.7741576 0.2516377 0.09077171 -0.18675183 0.07578601 -0.21538879 -0.09593796 -0.26394534 0.09208456 -0.3468912 -0.0023111312 0.03642166 -0.09596054 0.11467969 0.1826848 -0.60438794 -0.42055592 -0.8259714 -0.10125616 0.29923335 0.03287942 -0.46341875 0.067252025 -0.43175358 0.14429541 -0.34671047 0.12936868 0.1659421 0.18727475 -0.42068803 -0.21212122 -0.34500432 0.12640591 -0.3505038 0.3756691 -0.41882533 0.23740366 -0.21841636 0.16441415 -0.17508973 -0.1111867 0.10777435 0.4243704 -0.12372482 0.13277206 -0.14683196 -0.2618081 -0.79876846 0.6292551 0.09214072 -0.0646657 -0.2428911 0.21236415 0.07615565 -0.39383215 0.33732304 0.21970305 -0.017371401 -0.10989046 -0.016732914 0.120112196 -0.13779913 -0.3811583 0.17340252 -0.57195884 0.24678713 -0.11219314 -0.09943432 -0.052181106 -0.08979149 -0.4020381 0.16272083 -0.30696765 -0.069885135 -0.039288197 -0.22845343 -0.07759842 -0.37538916 0.022355806 0.30050087 0.40777645 -0.35101384 -0.15651493 -0.106043145 0.21887237 -0.08389987 0.4175371 0.10423264 0.28922072 0.17657596 0.112551026 0.21485746 0.055983223 -0.3947887 -0.3746562 0.021186715 0.05817247 -0.037567552 0.267825 0.1009616 -0.020912783 -0.063413344
41 0.28612128 -0.39038855 -0.21415524 -0.21279617 0.04386991 -0.08339481 -0.19621879 -0.34674174 0.69059116 -0.08426857 -0.27717793 -0.11391191 0.046845973 -0.1308923 -0.08630747 0.0702362 -0.3822692 -0.04328878 -0.16466351 -0.009891255 -0.05743645 -0.03536915 0.049231004 -0.072584026 0.11900019 0.5861892 -0.04422828 0.50220764 -0.16884887 -0.36361757 -0.12174528 -0.21715721 -0.14131044 -0.1393817 0.00043671907 0.0065305354 0.32363668 0.25319487 0.18719949 0.14956258 0.22100872 -0.28627405 -0.26733157 -0.78109056 0.020786958 0.5515858 -0.3525426 -0.28865883 -0.18344055 -0.43985936 0.37065095 0.057550307 0.1403661 0.48769358 0.31790748 -0.35663968 -0.13186082 -0.26727954 -0.09398561 -0.07314766 0.6442223 -0.15256958 0.19456504 -0.1903375 0.025090761 0.16558422 0.013316605 -0.2796924 0.37104142 -0.22260195 0.39933538 0.081503674 -0.35831735 -0.49808034 0.47595048 0.007811615 -0.26651105 -0.0846571 0.4028273 -0.111240625 -0.1336099 0.059469286 0.07776553 0.068965994 -0.027205184 0.033980493 -0.08223857 0.3198555 -0.15750036 0.10540329 -0.3267254 0.16017315 -0.018579371 -0.1259676 0.1388273 -0.2568582 0.031147579 0.096291035 -0.2778089 0.15234417 0.23570159 -0.20492102 -0.4940525 -0.018646833 0.23055178 0.30063957 0.17620553 -0.34645855 -0.086276054 -0.29723513 -0.028491374 0.10437518 0.14771727 0.056366023 -0.20149544 0.42809334 -0.087722845 -0.04584573 0.08582474 -0.3333072 -0.10262933 -0.18109925 0.41972864 -0.123323746 0.31208205 -0.26467797 0.055068064 -0.296277
42 0.0026932855 -0.3802602 -0.099590436 -0.23107831 0.067829475 -0.34669298 -0.16592702 -0.18663444 0.21607134 0.019343793 -0.014266466 0.08734006 0.002805258 -0.08585177 -0.28575793 -0.040056936 -0.13718247 0.0695049 -0.03619022 -0.121940486 0.10485554 0.25131992 0.09765812 -0.10431376 0.03259251 0.3794384 0.46505338 0.32708424 0.24393404 -0.25226814 -0.1479075 -0.21367577 0.21775857 -0.03220189 0.10896404 -0.13899003 0.12950996 0.0040870174 0.2556956 0.029439176 0.30961552 -0.5611977 -0.44298416 -0.74766886 -0.22826295 0.1369306 0.054757454 -0.31167844 -0.060869426 -0.45521036 0.6297918 -0.26602545 -0.02307774 0.12723686 0.42474836 -0.15821041 -0.3905106 0.020164985 0.20747449 -0.141019 0.15542476 -0.3207861 0.35906357 -0.2931805 0.092840776 -0.039271966 -0.09431244 -0.14300214 0.27496058 -0.3013091 -0.218548 -0.0937871 -0.5307311 -0.5933893 0.62483495 -0.059409596 -0.18910018 -0.014540095 0.16133118 -0.5660226 -0.3045859 -0.1354466 0.2175793 0.04080026 0.07301857 -0.0034587132 -0.07960905 0.52883244 -0.20175101 -0.091670096 -0.28997833 0.20555508 0.19431645 -0.048358515 0.06003133 -0.1412512 0.24485485 0.16851719 0.023915675 0.22110073 0.0045935703 -0.018765246 -0.3446135 0.12182422 0.29341096 -0.118338004 0.13060182 -0.3781805 0.15538049 -0.46174327 0.110034704 0.21237947 0.31748152 -0.045595028 -0.030104812 0.6300374 0.30074942 0.06610385 0.029339595 -0.2556973 -0.2255996 -0.03375543 0.17504354 -0.4233321 0.30745876 -0.042429812 -0.047005344 0.0968769
43 0.21372966 0.12693596 -0.43407422 -0.071334235 -0.14008519 -0.009479977 0.39487273 -0.033417363 -0.36061558 -0.22591339 -0.28718376 0.08010634 -0.33312252 -0.1122183 -0.57926816 -0.08505223 -0.06804402 0.0782019 0.016245535 0.115365356 -0.22838664 0.062088564 -0.16386905 -0.11417085 -0.023178507 -0.13650562 -0.23604164 0.5158786 -0.0012339915 0.3656859 -0.006912142 -0.06802111 0.19706753 -0.14943273 0.33148697 0.18276961 0.024880322 0.029530467 0.104586616 -0.33707052 -0.0840454 -0.34048843 -0.029139599 -0.032321233 -0.2735239 0.32173797 -0.37967125 -0.124200635 0.06863015 0.03699336 0.2795797 -0.09633288 0.5072025 0.20127372 -0.22717053 0.47940463 0.04891709 0.09533433 0.1744984 -0.49863222 0.036753763 -0.0894478 0.38530597 -0.012728402 -0.0007498512 -0.39704993 -0.18013616 -0.13261221 -0.05771324 0.009846179 0.33973253 -0.4199108 -0.4400677 -0.16609493 0.68529284 0.07044628 -0.23606196 0.026509209 0.21230108 -0.12672397 -0.5990885 0.020523977 0.20082042 -0.13231093 0.55010104 -0.2204055 0.119934365 0.1790967 0.37733737 -0.10390837 -0.21992962 -0.027210485 0.0077809393 0.26173154 -0.23624437 0.06114543 -0.32962745 0.38663805 -0.030886132 0.22193453 0.34354675 0.23007658 -0.25883135 -0.2779455 -0.006414247 0.013497037 0.000116663876 -0.088497974 -0.12465123 -0.6073097 0.18958862 -0.037677377 -0.01933516 -0.09346691 0.22187491 -0.23681869 0.055714674 0.3078283 0.32520434 0.029843513 0.109245785 -0.017810978 -0.23394153 0.17641233 0.13543235 0.27099153 -0.03331802 0.030632533
44 -0.035252888 0.00992824 -0.46457905 0.45379007 0.21239461 0.20687626 0.26702675 -0.09421158 -0.2207602 0.0331254 0.04292543 0.10296708 -0.22796816 -0.31044057 -0.68352383 -0.11194716 0.23062587 -0.04134003 -0.38052157 -0.22273414 0.19029792 -0.028695706 -0.19032313 -0.2916221 0.002177241 -0.21009861 0.06752492 0.15607508 -0.036500353 0.14039244 -0.0031950432 -0.33885697 0.47800976 -0.35363266 0.15012518 -0.07679852 0.12788977 0.4128485 -0.14783454 -0.27457935 -0.02891655 -0.27602497 0.06638247 -0.32189593 -0.48698252 0.16222513 0.12681533 0.7267116 -0.31017795 -0.21673918 0.53255314 -0.018508295 0.27280626 0.49800006 -0.25035647 0.18269409 -0.09717236 0.039048005 -0.06970533 -0.6148353 -0.08242004 -0.48609018 0.105328664 -0.046217397 0.03177157 0.23393135 -0.39345154 -0.24923949 -0.37577584 -0.17727269 0.41358066 0.06344546 -0.41377267 0.13575754 0.119391926 0.22137289 0.041693635 0.10856329 0.54391366 -0.43519303 -0.51531 -0.2796215 0.12137293 -0.12206809 0.5337032 -0.2886649 0.2614383 -0.10140765 0.31820482 -0.050777312 -0.3209249 0.13147669 0.24868843 -0.40471217 -0.08709465 -0.07340585 -0.29386804 -0.07892006 -0.33384877 0.041395172 0.06826396 -0.17384069 -0.23388188 -0.3738783 -0.19752026 0.69365096 0.05983534 -0.16072491 -0.093912214 -0.35846898 0.2888939 -0.2387141 0.45124558 0.13050544 -0.11872612 0.1191593 0.029192831 0.27977556 0.33620757 0.37227923 0.049539153 0.18066405 0.09685188 -0.17165013 0.027627217 -0.09311288 -0.13948543 -0.2446446
45 0.46006542 -0.58662826 0.04566831 -0.35529402 0.114213966 0.08934525 -0.24617144 -0.03373645 0.12814116 0.20525847 -0.49836156 -0.10724282 0.06381017 -0.40881172 0.021603396 0.057742216 -0.33961385 -0.027752193 -0.20620456 -0.28120267 -0.16640691 -0.032277312 0.77364403 -0.21508236 -0.0013243622 0.4647717 0.2685238 0.13593772 0.0015627948 0.049680237 -0.12400149 -0.16609529 0.015304219 -0.12488467 0.20585752 -0.27589142 0.25401476 -0.09291334 0.26073727 -0.10422628 -0.28268698 -0.509009 -0.19115523 -0.7959289 -0.055885673 -0.2052785 -0.1278268 -0.42820358 0.07394105 -0.40308225 0.44324246 -0.18167706 0.17118882 0.027995337 -0.25558415 0.121487826 -0.12685001 -0.25406414 -0.19874477 -0.30884445 0.49021673 -0.33465537 0.29048425 -0.00020522115 0.21647446 -0.11169934 -0.13370018 -0.45244312 -0.13535693 -0.31001687 0.121525094 -0.07681363 -0.33220515 -0.6128649 0.6974044 0.2370405 0.044081923 0.2387218 -0.3191789 -0.44274256 -0.03170447 -0.107671104 0.718261 0.038647655 0.37594765 -0.34515455 0.13525042 0.04446121 -0.49025548 0.039964736 -0.27155468 0.07631539 -0.028224448 -0.19039534 0.21130046 0.146731 -0.2021397 -0.062861264 0.054087613 0.3059612 0.3113215 -0.22380945 -0.6778754 -0.024378797 0.068625525 0.10966286 -0.22255272 -0.1941884 -0.011231588 0.1536635 -0.013488199 -0.333213 -0.026978262 0.030271487 0.2789948 0.23023863 -0.21526164 0.30269036 0.20609297 -0.61434877 -0.3354318 -0.09554652 -0.041832373 -0.17167522 -0.028751466 0.3677086 -0.06296489 -0.2801051
46 0.1754275 0.23626514 -0.47606355 0.06715057 -0.05957971 -0.09935548 0.11944972 -0.12392215 0.0039536385 0.05920504 0.0014257444 -0.0866084 -0.36639112 0.037949223 -0.24584176 -0.11376579 -0.27226925 0.1660037 0.054428123 -0.26184228 -0.34025478 -0.14065073 -0.020572668 -0.18661715 0.116885856 0.04728738 0.06807843 0.6563959 -0.15487523 0.07454396 -0.054987065 -0.06485561 0.43306062 0.025585858 -0.029338777 0.0025217668 0.37353757 0.17032008 0.13000956 -0.11019034 0.079464935 -0.22861995 -0.29592356 -0.13150796 -0.2815702 0.21821271 -0.12355564 0.1481485 -0.0064987303 0.10897654 0.16773884 -0.3074459 0.427918 0.2626709 -0.029246904 0.041623075 -0.041064817 0.19364059 0.28210756 -0.4082799 0.034184307 -0.09930649 -0.055108257 -0.12916534 -0.14785749 -0.10215926 -0.22971238 -0.10753993 -0.47293887 0.0082034785 0.5592812 -0.24334265 -0.029987194 -0.16136737 0.5354171 -0.06490916 -0.049260594 -0.065238014 0.4143908 0.12055872 -0.36981755 -0.18453181 0.2106207 0.22400288 0.4972216 -0.1055613 0.08230437 -0.00920307 -0.03472904 -0.06791834 -0.16823922 -0.1846379 -0.07142254 0.051985938 -0.12235065 0.097904444 -0.2492152 0.15229446 -0.27258533 0.10600431 -0.02832386 -0.006170549 -0.10077687 -0.21433856 0.008112313 0.2700485 -0.02001799 -0.5179082 0.26811785 -0.58091235 0.07746541 0.18415238 0.04287998 -0.0017014696 -0.22225368 0.18112691 0.30297714 0.6037996 0.50628686 0.08501083 -0.04975065 0.020097224 0.084761456 0.19612907 -0.2671036 0.2658719 -0.27952117 0.06263557
47 0.47047403 -0.05340105 -0.06248315 -0.6410758 -0.28447232 -0.26421413 0.07867584 -0.16993006 0.06470769 -0.24678963 -0.25604337 -0.089211464 -0.077589 -0.05404165 0.01595673 -0.0024249188 0.098419935 0.15084086 -0.23260711 -0.3743954 -0.12723072 -0.006604501 0.08937195 -0.5822967 0.15461907 0.105660744 0.16301593 0.07023143 -0.057380185 -0.26980096 -0.31297693 -0.2513227 0.08690924 -0.4797605 -0.043261383 0.34946153 0.18414326 0.3129595 0.27301595 0.34933934 0.22987254 -0.3762232 -0.18042243 -0.51592225 0.060010698 0.057908077 0.026577188 -0.37315917 -0.21278064 -0.47217068 0.35994077 -0.058857895 -0.047095466 0.29532564 0.32611647 -0.21697699 0.05306623 -0.2810409 -0.00876837 -0.1058105 0.48827067 0.14673801 -0.10616728 0.18802403 -0.0132109495 -0.31594914 -0.020850698 -0.7310009 -0.21555409 -0.38798487 0.36569285 0.08813304 -0.53047705 -0.51169163 0.6311215 0.014641784 -0.17802195 0.14211938 -0.052299332 0.046717007 0.2283281 0.108200096 0.09382275 -0.07238875 0.27198437 -0.23932719 0.32439002 0.55948985 -0.15349288 0.18314113 -0.57508117 -0.13590671 -0.38094616 -0.44222814 0.029980995 0.00078780676 -0.09345394 -0.0014469236 0.11690886 0.13812718 0.1398704 -0.040742014 -0.24479239 -0.19254716 0.12998345 -0.012737444 0.22687645 -0.43693134 -0.11750015 -0.15949607 0.09530225 0.04186413 0.14796928 0.47702473 0.09018482 0.361654 -0.06595809 0.19903964 -0.03926807 0.066072874 -0.058642007 -0.25748107 0.012674285 -0.124529295 0.49335733 0.25031167 -0.14580715 -0.20401907
48 0.09543297 -0.09859017 -0.07263242 -0.281989 0.070545085 0.29217488 0.006106298 -0.20112427 0.39238605 0.110154696 -0.17442901 0.24017106 -0.3333163 0.05918859 0.005462071 0.008468226 0.28522933 0.27526835 0.09869004 -0.10901456 0.09008613 -0.006959268 0.33665437 -0.17644699 0.07863028 0.20334752 0.18019496 0.17260745 -0.068276435 -0.097759426 0.06334259 -0.22529975 0.32434136 0.37411273 0.11330576 -0.26576015 -0.023383519 0.14625947 0.3830756 0.06666448 0.21977572 -0.23807533 -0.46739095 -0.90587276 0.367409 0.24949764 0.32199365 -0.15101965 -0.04239424 -0.24929886 0.054573197 -0.21176177 0.6637984 0.3387404 -0.09978756 -0.101290666 -0.11074328 0.06504367 -0.060160335 -0.07359059 0.59172505 -0.19063225 0.46949804 0.045325704 -0.053495627 -0.09120992 -0.20250033 -0.1256352 -0.31896567 -0.564062 0.21818541 0.27438283 -0.2804685 -0.11484244 0.703093 -0.15748483 0.09062634 -0.2625709 0.1277857 0.014278104 -0.46851775 -0.27753595 0.31494245 0.17108235 0.038533263 -0.070054464 0.031092182 -0.06092886 -0.42641932 -0.15694942 -0.42087564 0.18072283 -0.22869769 -0.26531386 -0.086522155 -0.33604243 0.031168902 0.032628268 0.10048373 0.26126564 -0.12478481 -0.046931338 -0.17399131 0.18842767 0.18773913 -0.13981968 -0.018332412 -0.32039848 0.03744065 -0.08793867 -0.25272372 0.08494857 0.42281646 -0.0018824034 -0.13649216 0.3527035 -0.22888988 -0.11094408 0.4240617 -0.034999702 -0.17048909 -0.20000274 0.52995425 0.08805671 -0.007366493 0.4662512 0.08978191 -0.45142823
49 0.061280217 -0.5305606 -0.032075547 -0.4146694 0.22080052 -0.033783946 0.16940874 -0.40172553 0.38548923 0.14059417 -0.117224135 -0.3540474 0.37284136 -0.010827005 0.15384156 0.25533253 -0.08243635 0.08650876 0.08900824 0.076623715 -0.1493743 0.06891872 0.47305563 -0.5856844 0.14678289 0.1529321 -0.085118346 -0.12153595 -0.32673055 -0.11875634 -0.31972855 -0.3004222 0.20475572 0.0068024136 0.0211936 0.12127094 0.2342662 -0.3700786 -0.10820621 0.14516337 0.2288269 -0.26842514 0.10695814 -0.85416025 0.09995023 0.050942145 -0.05625701 -0.35642156 0.17288828 -0.19549356 0.10129429 0.2338516 0.34559718 0.67423487 0.11102058 0.30033004 0.01138795 -0.3437551 -0.13687718 0.20699285 0.4144267 -0.41964048 0.4790355 -0.083344564 -0.06923794 -0.33550003 -0.35861552 -0.034015205 -0.21662062 -0.19479188 -0.16808236 -0.0007660329 -0.4131914 -0.22429915 0.38147417 -0.08116061 -0.23193116 -0.22093101 -0.064554945 -0.12579045 -0.33287656 -0.1556583 0.5699552 -0.07914856 0.15241146 -0.052124333 -0.13643116 0.7041721 -0.440083 -0.24496861 -0.4092767 -0.25060403 -0.055398263 -0.094243355 0.0013651854 -0.35911694 -0.16158023 0.012983078 0.079430744 -0.09462067 0.070479065 -0.32233387 -0.119333856 0.1678051 -0.057266522 -0.18158372 0.19153397 -0.21098913 -0.14884679 -0.4696286 -0.026057785 0.06344969 0.4886887 0.20420463 0.26462907 0.28128892 -0.2678794 0.20291981 0.30008954 -0.19631486 -0.16414131 -0.35615242 0.07750883 -0.15362126 0.06885952 0.23845649 0.5426803 -0.21330193
50 -0.019743863 -0.64261305 -0.18307751 0.055829346 0.24077955 0.16663921 0.37369576 -0.266641 -0.23115455 0.064261846 -0.20344481 -0.28672624 -0.654012 0.42171898 -0.3798729 0.08734248 -0.032458976 0.4025539 -0.35955495 0.0014216212 -0.23120748 0.109477066 -0.30576664 -0.23668061 0.2548557 -0.046662025 -0.11325311 -0.062476635 -0.5327202 -0.10995854 -0.41007 -0.5465947 -0.022062877 0.025085306 0.11115844 -0.0737163 -0.023175253 0.22320938 -0.18754928 0.021136535 0.4272398 -0.3134606 0.05841175 -0.21287455 -0.09986055 -0.063972354 -0.032923948 -0.13766547 -0.0004506092 0.12987643 0.19017959 0.16196927 0.24158818 1.176925 -0.52516586 0.3595052 0.34868827 -0.03988797 0.12014625 -0.35576144 0.01905066 -0.32796302 0.38817444 -0.09617747 0.11050005 -0.32378525 -0.3574335 -0.33091405 0.08741307 -0.04577785 0.34723622 0.24536051 -0.44909096 0.22075811 -0.033596046 -0.05187221 -0.5698791 -0.06504774 0.24669223 -0.09967786 -0.38539433 -0.3262024 0.30571988 -0.16423926 0.47816208 0.11679801 0.0710112 0.07544342 0.48848885 -0.15216994 -0.20609288 -0.28326717 0.4046931 0.19091733 -0.10151469 -0.75550675 0.1213319 0.07454781 0.50969636 0.15541169 0.13990329 0.30315802 0.091736525 -0.13982323 -0.18449968 0.2758542 -0.06754872 -0.17501579 0.22213838 -0.12172217 0.24488838 -0.22270586 0.14821562 0.029868208 0.0029518183 0.16904223 0.028531995 -0.24612056 0.4720658 0.0939225 -0.43285215 -0.04288114 -0.36151627 0.17172872 0.123551495 -0.016537927 0.23851164 -0.11614422
51 0.078612335 -0.29019877 -0.31840196 -0.07718091 -0.11125566 -0.21430765 -0.36344054 -0.14582385 0.41444564 -0.22137512 -0.2971416 -0.034464587 -0.031435058 -0.05498043 -0.035414748 0.10358588 -0.059943173 -0.0058130096 0.09097163 -0.23882785 -0.033161297 0.31469074 0.43011642 -0.33698925 0.013197407 0.31175083 0.4082539 0.31460592 0.011614338 -0.2687848 -0.4947095 -0.1990258 -0.14470497 -0.43314514 -0.17163527 -0.111348465 0.28582504 0.10375011 0.36514252 0.089084335 -0.08931107 -0.41534474 -0.3989828 -0.54768854 -0.2818052 0.10859579 -0.059569728 -0.2441532 -0.18356796 -0.17536521 0.27145627 0.16513228 -0.18462294 0.45522004 0.0057479213 -0.3517466 -0.08492538 -0.099127285 -0.01432489 -0.069035925 0.39013258 -0.05793073 0.1178669 -0.15438192 0.02283338 0.14621702 -0.25311536 -0.023488944 -0.017585233 -0.3123293 0.28646547 -0.041118767 -0.14188011 -0.5631082 0.5646686 0.084220156 0.04647475 -0.30416402 0.2600758 -0.047238864 -0.29565024 0.4664952 0.5270668 0.08997683 0.022376101 0.13008425 0.016435174 0.11569603 -0.08684253 -0.20781553 -0.40398696 0.060762137 -0.18365978 -0.0062020975 0.22761782 -0.4438057 0.22137654 -0.18306719 0.07540613 0.20942101 0.12159422 -0.27041543 -0.34170642 -0.060888913 0.1825847 -0.28757766 -0.027433157 -0.0910572 -0.1538445 -0.14906074 0.15876089 0.116392516 0.43491232 0.23400526 0.118553944 0.17953292 0.060549248 0.24558319 0.31982502 -0.2760224 -0.37117743 -0.016334658 0.21866408 0.069176815 0.32339787 -0.18435137 0.018346015 0.045143917
52 0.14908622 -0.31684113 -0.31609112 -0.3562336 -0.25135776 -0.13954102 -0.4589015 0.14786659 0.51060075 -0.019589277 -0.19025292 -0.5052821 -0.02739486 -0.31314307 0.30915308 0.25478137 0.0706923 0.16399844 -0.17681123 -0.10085476 -0.044471573 0.23280445 0.15747195 -0.11407449 -0.17005792 0.3887613 0.27565202 0.24802227 0.062273674 -0.14153928 -0.20200855 -0.14122027 0.03255863 -0.14921823 -0.022234635 -0.15658936 -0.03114389 -0.22050273 0.6407155 0.16775563 -0.05748448 -0.40457126 -0.22995816 -0.7522321 -0.05128352 0.023314742 0.05584001 -0.5408327 0.09270546 -0.3603951 0.17331286 -0.26002026 0.2433971 0.5375445 -0.104662046 -0.11504986 -0.16428909 -0.45117214 0.14547297 0.1871298 0.086579636 -0.28486788 0.32935482 -0.046899058 -0.34287938 0.3565316 -0.22836392 -0.62283546 0.018434374 -0.06602443 0.16346517 -0.0022960177 -0.39189857 -0.6135485 0.70170456 0.23026687 -0.36318776 -0.17020299 0.23662318 0.0063330205 -0.28368703 0.089427724 0.38720447 0.035685465 0.1771858 -0.35003826 0.037547074 -0.16910836 -0.2640254 0.12586562 -0.5718798 0.0780348 -0.0085733775 -0.121666975 0.15490314 -0.015228964 -0.051944394 0.2242901 0.0151792625 0.026121803 -0.0055260663 -0.12022212 -0.19684224 0.13350934 -0.09127983 0.057670273 0.22223774 -0.28052786 0.16668208 -0.23371223 0.15510477 0.1022609 0.5844923 0.3341707 -0.05961669 0.21375506 0.022151912 -0.115595184 0.15364593 -0.20562996 -0.3618831 0.1607065 -0.07058593 -0.10088022 0.33539915 0.12872453 0.0011814574 -0.047801163
53 0.42208293 -0.24668303 -0.2403964 -0.31599265 0.7423534 -0.44909728 -0.05488452 0.18877517 0.13501167 -0.42938 0.10672347 -0.38003647 -0.30049604 0.013415318 -0.2756931 0.37840644 0.09136538 0.5212128 -0.098942615 0.0023683638 0.28506744 0.14245415 -0.15932381 0.030660616 -0.030672528 -0.060763363 -0.10707387 -0.111831434 -0.35632974 0.7135903 -0.52933455 0.33084399 -0.07806766 -0.329962 -0.25123164 0.04861909 -0.36285356 0.061269008 -0.09053853 0.15779927 0.09043827 -0.48471236 0.044855904 -0.0447835 -0.084767535 0.103680186 0.74870545 0.3934007 -0.13829054 -0.0032619727 -0.34086904 0.20773713 -0.21966724 0.31743982 0.106826566 -0.24162462 -0.20855892 -0.32016948 0.23207329 -0.36230662 0.18402767 -0.095636696 0.3621081 -0.06321211 0.06409232 0.1316037 -0.38173643 0.31937033 0.3891273 -0.26505223 -0.22259018 -0.1647796 -0.44189453 -0.41591182 0.7921419 0.058140088 -0.37914312 0.33658198 0.44719717 -0.076081164 0.1237089 -0.58678854 0.4790926 0.026282607 -0.38810396 -0.21440472 -0.08280241 0.31474155 -0.05675377 0.16254522 -0.3667508 0.31317326 -0.21115653 -0.23614931 0.16899808 -0.30019858 -0.13745505 0.61986816 -0.720247 0.5653006 -0.120952435 0.25416133 -0.33984065 -0.18698756 -0.9950765 0.0132361865 -0.11735119 0.64425695 0.32905167 -0.101838335 0.1504049 -0.20467493 0.115983784 -0.031624872 0.16545168 -0.13535655 -0.10443683 -0.05918582 -0.0939998 -0.40327582 0.24782103 0.5095925 0.0034428402 -0.09743006 0.39780015 -0.29120922 0.31738317 -0.023457764
54 0.445679 -0.27716395 0.041099 -0.3902002 0.6032907 -0.58657503 0.10469747 0.29173604 0.2659677 -0.3214326 -0.07289858 -0.3596867 -0.1985661 0.33415866 -0.53748626 0.40393355 -0.25460252 0.2521564 -0.18393475 -0.39569283 -0.046089575 -0.06825606 -0.10300627 -0.14274444 0.011135538 0.129246 0.064121775 -0.48956257 -0.48742566 0.58874565 -0.40161595 0.15466022 -0.13322957 -0.030666249 -0.29255155 0.050446503 -0.16005322 0.14281082 -0.14559048 -0.12161685 0.16536728 -0.8281341 0.14937219 0.073143244 -0.27896816 -0.39476693 0.61133957 0.23118363 0.02948297 -0.31023103 -0.2055515 0.30334854 -0.121814944 0.09862587 -0.0071033025 0.08567675 -0.045923393 -0.8796518 0.1815543 -0.10096868 0.16571774 0.18758644 0.6358144 0.042418905 0.354958 0.35989943 -0.58596873 0.017091183 0.3974946 -0.46706918 0.06656759 -0.21305545 -0.24229713 -0.37299898 0.68034256 0.046153285 -0.026972165 0.31250975 0.3979901 -0.15674062 -0.010339961 -0.5743507 0.37401223 0.14848389 -0.11893194 -0.21558778 0.2735188 0.23504533 -0.16540742 0.21607476 -0.200449 0.35085136 -0.1005326 -0.15797614 -0.03096232 -0.3141803 -0.031273607 0.31816453 -0.3561823 0.85224444 0.34324563 0.41072798 -0.21462765 -0.2006164 -0.71128017 0.030075943 -0.3197304 0.30094853 0.12565139 0.03345362 0.100392915 -0.5311108 -0.09699123 0.10614904 0.027434563 -0.023954606 -0.046500202 -0.25455374 -0.00514315 -0.15313318 0.27122065 0.56449187 0.15840046 -0.18329439 0.31938645 -0.67357445 0.08380525 -0.18806781
55 0.30623236 -0.18520637 -0.45387784 -0.2685714 0.106808946 0.019308819 0.5932415 -0.026337236 0.60815364 -0.07899964 0.21501715 0.2386793 -0.72040206 0.08437686 -0.32709768 0.49098742 0.14857447 0.14089313 0.004729588 -0.45703256 -0.19496877 0.30620354 0.19541979 -0.31324562 -0.69156206 -0.15388137 0.27145305 0.077372424 -0.74230355 0.05579462 -0.57124144 0.008439738 0.23340812 -0.5613175 0.04333738 -0.29938057 0.21862109 0.123717666 -0.2708851 0.029758796 0.40950328 -0.4041667 0.0894624 0.010026175 -0.48574916 0.18840675 0.13928744 0.27531448 -0.83208734 -0.11163529 0.10615138 0.12296296 0.3330648 0.2872068 -0.13303359 0.07334711 -0.36118597 0.4045956 0.21952094 -0.47337103 -0.17930788 0.1946184 0.1081161 -0.24787197 0.6364572 -0.47277924 -0.018429918 -0.1457499 -0.15683225 -0.4650546 0.025106281 0.2559263 -0.10275951 -0.15666513 0.20684893 0.13453858 -0.20498526 0.16305284 0.65583754 -0.1504127 -0.660076 -0.20321867 0.35464638 0.5140333 0.56138736 0.13623281 -0.0011358352 0.18268582 -0.30607164 -0.102324285 0.017134348 0.3330999 -0.298774 0.07111684 -0.5672413 0.03948881 -0.124679804 0.11373455 -0.2430526 0.29052776 0.23858742 -0.23240796 -0.1926681 -0.36816722 -0.3885469 0.21437433 -0.00094496296 -0.16519725 0.2416664 -0.079487726 -0.5773013 0.13546158 0.21713512 -0.7310173 -0.019941682 -0.16130896 -0.614651 0.4080675 0.09829263 -0.04986134 -0.04729917 -0.26679638 0.29663235 0.21334891 0.27398854 0.062144436 0.34309888 0.1356142
56 0.21965016 -0.32826337 -0.25179943 0.0068794875 0.19370401 0.079372674 0.5317834 0.103801385 0.5453997 0.12657301 0.025085295 0.31642818 -0.19419762 0.3845538 -0.39939043 0.45704767 0.34420654 -0.028857075 0.103836134 -0.80097914 -0.2967359 0.19026658 0.32042697 -0.35390466 -0.10958031 -0.29108572 0.024466636 0.10703655 -0.63274235 0.41505137 -0.2688977 -0.16109177 -0.10003828 -0.7084171 -0.026128324 0.12288352 0.21276043 -0.0679789 -0.3954032 0.36917013 0.622718 -0.47201297 0.20502263 -0.5795237 -0.4745232 0.63348705 0.41718844 0.06416238 -0.28943622 0.09992587 0.20725946 0.20571934 0.07747119 0.5657734 -0.0070188968 0.15550123 -0.1806552 0.37835306 0.00688348 -0.3437568 -0.12156178 0.24794163 -0.20947467 -0.51152545 0.45535144 -0.1377557 -0.20606339 -0.07772464 -0.27558467 -0.41338214 0.43774667 0.043064944 -0.2473414 -0.094874345 0.27957627 0.5336881 -0.73901385 0.5240044 0.273272 -0.48678148 -0.32914564 -0.038287416 0.49039325 0.1114897 0.36876342 -0.3776256 0.2793013 0.114778705 -0.093482934 -0.4097791 -0.089742824 0.09235763 -0.19287439 0.42562887 -0.57441306 -0.18186179 0.074511014 0.012004347 -0.18666895 0.47110417 -0.11187786 0.06813661 -0.30141962 -0.4992484 -0.27690172 0.13728683 -0.14897475 -0.09090979 0.024751268 -0.13194214 -0.17648613 -0.12556149 -0.31754723 -0.91237044 -0.097827815 -0.4528789 -0.21668638 0.30166146 -0.1481311 0.20037875 -0.34507638 -0.04289224 -0.026103957 0.26958248 0.07176582 0.14982326 0.2553486 -0.085638486
57 0.016513377 -0.57256293 -0.55377346 -0.3518713 0.51810884 -0.4875347 0.5542505 0.37977344 -0.083379775 0.57384634 0.2096055 -0.46694526 -0.022352157 0.3161557 -0.3664443 0.34195113 0.12470434 -0.3537513 0.4759635 -0.09673786 0.02802917 0.051519025 0.08667389 0.3343281 0.4867497 0.4257085 -0.37927315 0.033002518 -0.70461535 0.08058747 -0.026172938 0.01619662 0.20277095 -0.08826795 0.2794322 0.2927713 -0.4782857 0.11343328 -0.5413065 -0.25043294 -0.2953511 -0.45024043 0.1818297 -0.3224581 0.792854 0.8254768 0.75135916 -0.19649196 0.036381602 0.5240233 0.4869618 0.3300787 0.30053493 0.6682332 0.06388459 0.34722123 -0.103721574 -0.59484625 0.49522611 0.21360706 0.2305678 0.060097933 0.04979859 -0.16142598 0.48243082 0.116380125 -0.6855947 -0.2486258 -0.11166281 -0.60506564 0.2537141 -0.2688482 -0.41243502 0.29499358 1.2168285 0.4287671 -0.021257857 0.3647078 0.6813052 0.15504429 -0.3434398 -0.3538648 0.20909859 0.333891 -0.24731496 -0.24633242 0.07696027 0.41814438 0.11818906 -0.18822327 -0.44048518 0.5361158 0.13911705 0.51117045 -0.033543568 -0.3537055 -0.1976793 0.16273674 -0.5174282 -0.06937722 0.38387403 -0.56343347 -0.59192955 -0.07131022 -0.16822997 0.13042349 0.42245433 0.20612898 0.31000838 -0.10755025 0.044602353 0.19711521 -0.18870407 0.23341215 0.32788447 0.40766114 0.08055788 0.09309766 0.0025280153 0.1648593 0.10346306 0.6279286 -0.24184103 0.122640654 0.33136165 -0.2763505 -0.2867366 -0.042963993
58 0.13082923 -0.09138971 -0.78799045 -0.28876957 0.61164826 -0.0950242 0.47253403 0.80549604 -0.31483963 0.20835578 0.37027213 -0.33201826 -0.4819075 0.26136747 -0.69836986 0.24412972 -0.22325154 0.17693399 -0.113075845 -0.14331354 0.19254215 -0.2978777 0.2880927 0.0061590564 0.16468129 0.27219278 -0.18347937 -0.12008188 -0.40723377 0.048903733 -0.1782326 0.31071615 0.14654046 0.097841166 0.103122935 -0.15370649 -0.6852812 -0.111608714 -0.3566271 0.017614795 -0.57630974 -0.7150611 -0.4571028 -0.3243403 0.5108196 0.23319086 0.08544396 0.35133666 -0.16478762 -0.076554164 0.5493167 0.16905218 0.14392744 0.69357944 0.06638255 0.15015398 0.14367561 -0.44988397 0.1325481 0.04906757 -0.043333106 -0.4311629 0.11152708 0.010256179 0.22924934 0.42954555 -0.3578396 0.0792964 -0.42130786 -0.15448572 0.31415206 -0.152548 -0.28393367 0.20802008 0.7123149 0.108439825 -0.14358872 -0.07995986 0.7998315 0.34109917 -0.6631527 -0.5924019 0.46586007 0.040331956 -0.26256484 0.049676046 0.13781728 0.4590254 0.56252044 -0.10582469 0.14022851 0.30670917 0.291764 0.14064893 0.3911519 -0.049433373 -0.65728885 0.27297077 -0.38902226 0.18903737 0.5039962 -0.4602837 -0.31609908 0.00076432945 -0.641672 0.33081582 0.41401502 -0.14419734 -0.016251152 0.045394104 -0.39633515 0.76087785 0.045095216 0.652567 0.26925904 0.20807135 -0.17781256 -0.18340714 0.29129207 -0.047989275 0.6695485 0.105962634 -0.10211789 0.2983303 0.01962339 0.14147376 -0.22474976 0.009034212
59 0.22039023 -0.16090982 -0.17882527 -0.27994874 -0.1546573 -0.07416238 -0.193018 -0.17906949 0.4493883 -0.2340268 -0.040773943 -0.16997993 -0.114922814 -0.16534251 0.08652324 0.03772605 0.17194597 -0.15043305 0.16044903 0.06178893 -0.04474175 -0.1175925 0.48067966 -0.24332826 -0.017075852 0.35066068 0.45325518 0.07189255 -0.12699655 -0.22898972 -0.2706795 -0.23720662 -0.2575412 -0.26828215 -0.32113045 -0.19068731 -0.020879209 0.23510356 0.17428568 0.19197737 0.21976854 -0.36973962 -0.01143052 -0.7659089 -0.3119671 0.41219208 0.010656139 -0.4439992 -0.3144361 -0.29340455 0.023357468 -0.42389873 -0.08616135 0.15709938 -0.11234464 0.2338446 -0.14167273 0.07945036 -0.31216204 -0.06470897 0.6485092 -0.34443885 0.20096137 -0.14884438 -0.16695593 0.07956033 -0.17183632 -0.26011217 0.11856178 -0.41642302 -0.19586496 0.04659238 -0.4146024 -0.6120906 0.6788809 0.26572382 -0.14853029 0.18250906 0.11266218 0.011089238 0.060876116 0.027339026 0.15402785 0.0005667688 0.07977239 0.093781866 -0.035761174 0.3892096 -0.3961671 -0.059823114 -0.27692902 0.09838219 -0.2340755 -0.1852748 0.100784846 -0.07824341 -0.08954196 0.13484196 0.15413594 0.3362744 0.03196513 0.17004244 -0.4375991 -0.30952805 0.048858482 -0.19086714 -0.120910645 -0.26306266 0.12314796 -0.5804771 0.19831942 0.034474604 0.18130466 0.12841646 -0.22636735 0.4873514 -0.16303353 0.20602022 0.38283026 -0.035783183 -0.059533536 -0.29978877 0.26418555 0.29602504 0.3291299 -0.12335299 0.16560762 -0.46975482
60 0.4346659 -0.61860025 0.015742106 -0.061245274 -0.06616475 -0.09660148 0.18383773 -0.18438697 0.3499286 0.1479145 -0.7051735 -0.2448134 -0.051781632 -0.32215887 -0.07333135 -0.28308615 0.2033712 0.17383653 -0.094102405 0.20720863 -0.114134006 0.3211916 0.16883785 -0.3987393 0.5063897 0.40687022 0.58607644 -0.15722305 0.24953033 -0.092357166 -0.5860552 -0.47339815 0.43697762 -0.17430834 0.0124983005 0.24824533 0.32699734 -0.05284393 0.19552042 0.09621338 -0.08461699 -0.27632806 0.13443054 -0.49407738 0.22716506 0.24807045 0.2727878 0.026533768 -0.26702794 -0.30280396 -0.05515025 -0.05652339 0.40563187 0.37086055 0.20878223 -0.25939146 0.049012087 0.075063795 0.23385969 -0.07187747 0.23689167 0.31576744 0.16831453 -0.2428906 -0.052225575 0.0045016618 -0.20191815 -0.21188559 0.06866933 -0.19464156 0.09199904 0.2446499 -0.106540196 -0.6100477 0.88908744 -0.14337562 -0.4631357 -0.012972121 0.06838367 -0.21177557 -0.13912024 0.05972593 0.33781347 0.36599156 0.43616578 0.15501449 -0.0355911 0.21014112 -0.03833168 0.047964923 -0.30381072 0.29535577 -0.3178591 -0.09340199 0.2650533 -0.19052184 -0.20466639 0.13491277 0.034853082 0.073923096 0.053521052 -0.25370163 -0.20355354 0.27262282 0.5423005 0.002665024 -0.08359671 -0.22460428 0.08341823 -0.2976494 -0.2182333 0.24514629 0.3850419 -0.02130678 0.12751158 0.43747172 0.15680948 -0.096882984 0.13448691 -0.6370117 0.15375622 0.27567488 0.056284145 -0.09721665 0.048807267 0.34974527 0.21359672 -0.3677937
61 0.19703475 -0.6057992 -0.19853745 -0.32523796 -0.070690654 -0.18727928 -0.17770836 -0.37210572 0.22839709 -0.3186695 -0.19250865 -0.12694545 -0.023783725 -0.19970053 -0.0982819 -0.13522407 0.124672204 -0.2192971 0.051313367 -0.15823826 0.3211319 0.2915659 0.18687877 -0.28458372 0.34952465 0.12633198 0.116335064 0.2659767 -0.07828089 -0.1410822 -0.22809575 0.3901419 0.049827386 -0.16510835 -0.034103714 -0.2947145 0.32653242 -0.03932737 0.39980504 -0.0020606464 0.27900264 -0.43620417 -0.6617343 -0.6662552 -0.1324745 0.15382692 0.12972884 -0.4265346 0.08266419 0.06611067 -0.24184343 -0.30362365 0.17835471 0.39929798 -0.024330787 -0.18235932 -0.18979864 -0.17588471 -0.2124203 -0.10897467 0.35328498 -0.21598715 0.46132153 -0.22578266 0.09629637 -0.007678233 -0.26964924 -0.24565262 0.37566933 -0.13760947 -0.03391031 0.06109573 -0.5491659 -0.63711894 0.58830935 -0.014300263 0.32398543 -0.06516309 0.116448976 0.11683195 -0.28463537 0.23594892 0.18811195 -0.08781898 0.18466981 0.0041154865 0.13522883 0.4423639 -0.25099686 0.13451482 -0.38586682 0.28275228 -0.23677263 -0.011508038 0.012015931 -0.38428316 -0.094771564 -0.011094648 0.055824902 0.23178126 0.22252981 -0.086881295 -0.32072306 -0.17220354 0.16621466 0.09918334 -0.10533518 -0.18479145 -0.048404783 -0.16314971 0.23220147 0.33460268 0.49036154 -0.0028566425 0.41774616 0.25821763 -0.19080757 -0.013852501 0.03805261 -0.13543014 0.061336327 -0.10354968 0.34412098 -0.23264275 0.2726386 0.12199532 0.26873583 0.046788137
62 0.06706571 -0.30276674 -0.6047338 -0.2480639 0.059360534 -0.14528129 -0.38667274 -0.31003633 0.22722387 0.075901605 -0.38334015 0.073778324 -0.039093573 -0.39942908 -0.04208188 0.12261776 -0.0078003546 -0.061326988 -0.24613371 0.024625987 -0.06548354 -0.04166785 0.477737 -0.4104927 0.19436117 0.20996293 0.4998148 -0.17338526 -0.46407482 -0.17531605 -0.50708354 0.10868403 -0.27876297 -0.1538461 -0.050682247 -0.16820428 0.2413676 0.0039630537 -0.0499193 0.27383834 0.07349983 0.14651117 -0.46193326 -0.9190304 -0.006132702 -0.18392418 -0.34517047 -0.37136248 -0.08761672 -0.4645403 0.024043525 -0.3934775 0.3432085 0.46092904 0.16128494 0.061569817 -0.06271731 -0.24994464 0.14915445 -0.39943302 -0.076684125 -0.14616409 0.60689795 -0.20890719 0.28343892 -0.015521724 -0.36730886 -0.3519673 -0.17132996 0.0008925419 -0.13985123 -0.35834453 -0.08439111 -0.6526345 0.5910748 -0.08025664 -0.041754268 0.029420778 -0.11712029 -0.018617418 0.021710314 0.20105158 0.3294866 0.18955998 0.10190767 -0.04041251 0.17637268 0.011447803 -0.006368192 0.28142935 -0.58616346 0.11819331 -0.22927709 -0.0050417176 0.12315196 -0.07895354 0.14979729 0.12002415 0.15192616 0.2295372 0.20508525 -0.099124335 -0.2958236 -0.043449312 0.31470394 0.08887192 0.13766994 -0.390417 -0.27166134 -0.19204947 0.2064735 -0.29357833 0.08950531 -0.14883126 -0.014554172 0.46975422 0.19156751 0.3206757 0.051551104 -0.42565557 -0.0013004334 -0.200919 -0.020954935 -0.02218879 0.33424878 -0.020467248 -0.21299301 -0.3000732
63 -0.42376843 -0.5761521 0.15249544 -0.44052804 -0.5845088 0.023749756 0.12430252 0.13724896 -0.27269316 -0.21947959 -0.56527305 0.10931424 -0.032055296 -0.2913058 0.055118438 0.78441495 -0.1480754 -0.25625896 0.13772629 -0.34441784 -0.38825214 0.01563549 0.6323258 0.09166581 -0.085569456 0.24678336 -0.24868213 0.08086361 -0.46272558 0.22178969 -0.28781605 -0.15385272 0.5413635 -0.52672726 0.025868425 -0.81595147 0.22046563 0.33017164 -0.33991608 0.25411665 -0.030207807 -0.27250496 0.21902244 -0.069724865 -0.5831798 0.3473547 0.18702208 0.34983572 -0.10959679 0.16696173 0.40616685 0.14697398 0.77399343 0.57054687 -0.009875438 -0.045798328 -0.36221874 -0.023039386 0.43870085 -0.79248536 -0.31127447 -0.12855032 0.07648898 0.10055474 -0.10799184 -0.16723363 -0.0884479 0.03930391 -0.101655096 -0.35186157 -0.2507255 -0.049740743 -0.57890046 -0.09990447 0.101919904 0.27049613 -0.26878813 0.28155842 1.0094013 0.020045662 -0.24941929 -0.35154754 0.55581594 -0.6958451 -0.046370044 -0.28495935 -0.26495546 0.13067126 0.4078826 -0.2697342 -0.64686424 -0.039050482 0.15901023 0.64356166 0.15836209 -0.11657675 -0.43207738 0.32087156 0.19459553 0.07668786 -0.42033753 0.14854614 -0.26538843 -0.11625265 -0.095319286 0.36927518 -0.22382611 -0.068787105 -0.01833223 -0.07522167 -0.12471191 -0.17694603 -0.01986297 0.010715581 -0.17090999 -0.3511769 0.10899021 0.04621406 -0.2520013 0.2719719 -0.25745153 0.14692934 0.023696935 -0.11492687 -0.10424132 -0.09384197 -0.62553936 -0.048699565
64 0.05738604 -0.5064022 0.19323947 0.108325824 0.42719412 0.15299758 0.53534096 0.62077236 -0.48783007 -0.90214276 -0.45012358 -0.19471714 0.013011693 -0.21588586 -0.35046628 0.2814639 -0.114349276 0.08874914 0.35333633 -0.30510315 -0.1987097 -0.2594821 0.61183697 0.050252143 0.14296164 0.092718564 -0.31886372 0.4805624 -0.33229536 0.20391561 -0.59574986 0.25275278 0.50967735 -0.16430251 -0.502187 -0.70249844 0.029981568 0.29314417 0.3855855 0.26731858 -0.0899687 -0.421835 0.2796591 -0.48917955 -0.09183539 0.5501402 0.3218187 -0.20774464 0.08510048 -0.30823883 0.2767432 -0.023086404 0.5088417 0.8242427 -0.014368802 -0.16131496 -0.10286444 0.46568456 -0.09275185 -0.22938097 -0.05985068 -0.072957195 -0.113066874 -0.22788636 -0.30109948 -0.10832919 -0.50050145 0.18748204 -0.29929268 -0.2188851 0.3175054 -0.24478327 -0.5934301 0.32063812 -0.15985799 0.21948339 -0.060706418 -0.11245408 0.6527991 -0.25477692 -0.2946933 -0.051830553 0.26187912 -0.20368889 0.12872617 -0.34498286 0.26906922 0.27165583 -0.10472032 -0.27895305 -0.6850276 0.040151503 0.05321936 0.07380093 0.2293092 -0.8201118 -0.60197884 0.3229966 -0.25593042 0.58008236 0.08048584 0.5305465 0.08292516 -0.76992387 -0.064627185 -0.055285983 0.4610394 -0.16962898 0.24729285 -0.18742132 0.49081194 -0.06846403 -0.34679794 0.10989957 -0.40412584 -0.45633328 -0.31558207 0.18539259 -0.07675378 0.11954859 -0.2558778 0.035558973 -0.05752782 0.12325786 -0.2382039 -0.653277 -0.6826678 -0.08158948
65 0.63743067 0.31879723 -0.7918614 -0.23750214 -0.10274253 0.24658185 0.34071827 -0.14899948 0.18989713 -0.12250436 -0.26581764 -0.13992085 -0.22766915 -0.13411362 -0.1757385 -0.20544991 0.38662598 0.040941674 -0.46387145 -0.2567628 -0.42255512 0.051458724 -0.21321197 -0.2458984 0.2979404 -0.12569067 -0.012473951 0.16071057 -0.08661402 -0.15677777 -0.5184816 -0.35867387 -0.088528775 -0.49596477 0.066003785 0.17223044 0.053531513 0.4003771 0.46805048 -0.046059377 0.18976547 -0.22886705 -0.51203775 -0.22222316 -0.14368042 0.20504642 -0.056400694 -0.08427566 -0.034400955 -0.50112194 0.3393095 0.08136027 -0.09504661 0.55161226 -0.3581016 -0.016380044 -0.037946146 0.3132067 0.16490832 -0.058905765 -0.06536096 0.11445265 -0.11513426 0.0537586 -0.3063616 -0.23820095 0.13478874 -0.69939804 -0.32988718 -0.51592183 0.06935682 -0.21278952 -0.31360024 -0.42860872 0.4584067 0.2983141 0.322355 -0.0780582 0.13497013 0.16869856 -0.2568938 0.06912261 0.18754615 0.11477611 0.5843336 -0.3163584 0.31955925 -0.062701866 0.31989697 -0.15011959 -0.045147985 -0.12733532 0.23085073 0.27387875 -0.43623248 0.036933273 -0.0024832343 0.64176786 0.13394131 0.35384786 0.29972994 0.043714896 -0.16153273 -0.15694097 0.1510206 0.068018444 0.10973736 0.00084236014 0.37457025 -0.788892 -0.38684392 0.051104296 0.14840835 0.16927873 0.07751028 0.22757103 0.12039771 -0.3637106 0.05818023 -0.18769777 -0.1551049 -0.122769475 0.011836468 -0.27411768 0.63166314 0.46304554 -0.44119382 -0.1597606
66 0.049367752 -0.087993376 -0.35548276 -0.0730523 -0.22669388 0.0125359 0.038758177 -0.0256737 -0.42274797 -0.19012159 -0.08053236 -0.24091358 -0.039258927 -0.27515227 -0.4632179 0.1539993 0.22865306 0.14792433 -0.06273413 -0.24736358 0.0692509 0.14079994 0.38822442 -0.23253977 -0.335694 0.28043935 -0.091493085 0.011789056 -0.24997588 -0.10667349 -0.081912905 -0.24013512 0.5587928 0.30526534 -0.18982978 0.4365092 0.53944725 0.0042717652 0.33620504 -0.04480787 0.26752576 -0.32581532 -0.3697502 -0.19902039 -0.0138648795 -0.17990203 0.09193993 -0.3308266 -0.17440265 -0.3403496 -0.028345315 -0.35984996 0.11930857 0.7405482 0.060427416 0.2879205 -0.33861926 0.29294804 -0.20752725 0.08305152 0.15163323 -0.3027934 -0.24605502 -0.45124558 0.20482938 -0.46405908 -0.31975213 -0.3247838 -0.24435584 -0.36947426 0.040016547 -0.15699407 -0.4839158 -0.17640325 0.4996016 0.19069564 -0.17567955 -0.204967 0.35019273 -0.20887192 -0.35934287 0.16280253 0.22004913 -0.5693615 0.43506438 -0.05461853 -0.054263286 -0.007102139 0.14450839 -0.55903167 -0.09621066 0.2935142 0.25295416 0.14809904 0.14574656 -0.21414411 0.1433396 0.2131974 -0.18735057 -0.26322356 0.07805091 0.094930224 0.050497696 0.068431936 0.35466367 -0.07127518 0.00629489 -0.18818974 -0.07013245 -0.6672396 0.043831743 0.03946603 0.016194537 -0.01830569 0.074047536 0.18384138 -0.0018087223 0.19550818 0.20256074 -0.08474716 -0.20178506 0.06386168 -0.04716348 0.33148265 -0.019880287 0.37495402 -0.10419415 -0.5101099
