1050 128
0 -0.13196062 0.18180224 -0.03176608 0.25091985 -0.014124094 -0.1358245 -0.04939892 -0.1328973 -0.12106524 -0.16000883 -0.07838994 -0.04510087 -0.055312924 0.016484026 0.009610711 0.11047865 0.03442428 0.02237075 0.013729609 -0.3180506 -0.15241657 0.15949303 0.06013022 -0.015979292 -0.012844821 0.029582335 -0.15426028 -0.11324039 -0.091655396 -0.4266102 -0.046124566 0.10112719 0.026058774 -0.10071028 0.39761755 -0.04856493 0.07564777 -0.17387943 -0.11688582 0.19783653 0.006864673 0.39226863 0.14183365 0.08047324 -0.32760856 -0.023995219 0.17772973 0.089250386 0.1918861 -0.06214689 -0.14638464 0.069679394 -0.31224185 0.27840304 0.049755774 0.47481292 -0.2255665 0.27005145 0.047483083 -0.011847742 0.15131672 0.16139165 0.005739277 -0.03582466 -0.09686312 0.06240489 0.24426484 0.1014531 0.018200316 -0.16075182 0.018807303 0.099492 -0.09515126 0.173222 0.032783974 0.25803313 0.020311395 -0.06751634 -0.09861601 -0.08218503 0.25715274 0.16266839 -0.28981176 0.2674395 0.06508077 -0.33799973 -0.03419356 -0.31764928 -0.13855608 0.0017416874 -0.29799083 0.045993567 0.2938373 0.009972721 0.061446447 -0.16429311 0.0861677 -0.2839724 -0.093886726 -0.22938024 -0.2525936 -0.104562335 0.078623675 -0.27524745 -0.1840449 0.38524213 0.048857417 0.2378647 -0.282522 -0.22898835 -0.08509876 0.13918817 0.05620713 -0.062249865 0.24454875 -0.1718362 0.1033917 0.08263531 0.04519806 -0.23854576 -0.04300558 -0.34949526 -0.12949248 -0.5337973 0.007391176 0.27732697 0.19383506 -0.10150679
1 -0.41425002 0.07247627 -0.057129238 0.16572359 -0.006946222 -0.14543754 -0.042611696 -0.22195698 -0.1429133 -0.2420454 -0.15645482 0.18131045 -0.16651648 0.06480867 0.039873593 0.07948681 0.16167648 -0.17342478 0.011868541 -0.27181214 -0.24794608 0.16383263 -0.07191301 -0.02611341 0.0059286603 0.0749527 -0.12548761 -0.19951253 0.008887291 -0.088420466 -0.29657146 0.03934036 -0.062241912 -0.05152893 0.21366577 0.11027592 0.09995953 -0.031336304 -0.07367978 0.29895574 -0.09647342 0.053473447 0.0148221515 0.21142314 -0.22222552 0.20418333 -0.02497493 0.14784384 0.10343762 -0.01661987 -0.1306913 -0.013094379 -0.16148762 0.12273317 0.04443534 0.36365944 -0.34203067 0.16118519 0.2857763 0.029926836 0.1613608 0.12151873 0.19935639 -0.034924436 -0.044245236 0.12495211 0.07885738 0.29358992 -0.062337458 -0.24934506 -0.3482012 0.0644546 0.12959415 -0.15084581 0.05536032 -0.29363018 0.16619708 -0.17641978 -0.19068304 -0.13138689 0.18836033 0.034944788 0.15744123 0.2768109 0.0727086 -0.31584445 0.025725825 -0.3626576 -0.18507636 0.0037237247 -0.039597254 0.13313018 0.33789083 0.19641466 -0.09288677 0.006078169 0.28553852 -0.03859821 0.323968 -0.4155537 0.15952353 -0.093900695 0.21729265 -0.18293501 -0.005318239 0.23914914 -0.21323976 0.30831882 -0.2907422 -0.34051874 -0.31325868 -0.037395664 -0.054656573 -0.0687421 0.028821344 -0.16551572 -0.08896834 0.07695818 0.21332887 -0.333084 0.080868125 -0.18665147 -0.20244293 -0.5121888 0.10044165 0.46904784 -0.010953051 0.20991318
2 0.06216226 0.05684571 -0.33952513 -0.018602947 -0.11437896 -0.02002457 -0.48336595 -0.09393983 0.38938692 -0.33839455 -0.30182508 0.041559163 -0.22929475 0.122817285 -0.04716788 0.11064251 -0.19583778 -0.42548403 -0.016086759 0.32434878 0.30085483 0.109957986 0.021796346 -0.13529898 0.048650287 -0.09023681 -0.010030668 -0.45364812 -0.094238065 0.1284344 0.32081297 -0.028971251 -0.025785318 0.13532726 0.08545999 -0.43699625 0.12653904 -0.10919227 -0.086766034 0.007809403 -0.47930992 0.11268413 -0.17771685 0.15950857 0.07338812 0.0017160523 0.018142125 0.32444233 0.11997243 0.1673732 -0.19979414 -0.08357162 0.28951553 -0.1618155 -0.15036578 0.18779647 0.015279572 0.09453652 0.1767164 -0.24040723 0.257587 0.22903748 -0.26537916 0.044482887 0.20532718 0.29476717 -0.1921085 0.1570935 -0.07829417 -0.06742423 0.13910471 0.012227675 0.14706893 0.153407 0.33553457 0.33000368 0.040767558 -0.049553517 -0.31340098 -0.21583004 -0.17504774 0.0455075 -0.030894928 0.02753243 -0.011266166 -0.19722399 -0.012641451 -0.012521374 0.051632695 -0.2955225 -0.07427984 -0.017795142 0.16359484 0.08496388 -0.19588587 0.081618324 0.22792661 -0.007400879 0.046980005 -0.0015776015 -0.15307873 -0.01881448 -0.10566369 -0.428126 0.08949235 -0.12073676 0.12404894 -0.10551418 0.1778098 0.051123135 0.1002068 -0.19072996 -0.0021577268 0.20041803 0.14004873 -0.10112614 -0.016511904 0.18935212 -0.4373194 0.11040816 0.047729135 -0.03911457 -0.0067828586 -0.002245854 0.25366014 0.09668411 0.17996071 0.20891947
3 0.13754627 0.062185645 -0.1753677 0.0452733 -0.2770123 0.21859488 -0.36498687 0.2106262 0.34810793 -0.32619998 -0.31538245 0.45489338 -0.14470264 0.15496613 0.2952218 0.32548428 -0.0531985 0.028061515 0.5240752 0.09164202 0.19804277 -0.1704816 0.14645511 -0.23410104 0.087218374 -0.1373858 0.024205942 -0.24904515 -0.04444708 0.38829866 0.41639614 0.12962861 0.10154942 0.25317636 0.17383076 -0.17488766 -0.18233307 -0.0018589342 0.15186678 0.23045717 -0.26307175 0.20608416 -0.18040991 0.19274586 -0.11237094 -0.013356003 0.0626917 0.30253318 -0.30037633 0.075331055 -0.24132475 -0.16610764 -0.22223023 -0.06758893 0.24838845 -0.313986 0.37637365 0.07351699 0.12412488 -0.27447993 0.03673731 0.2729419 -0.1978718 0.06372394 0.11554073 -0.011875762 -0.14552696 -0.26759797 -0.098006226 0.002519203 -0.1659665 -0.12994675 0.3044605 0.42547652 0.26275682 -0.0625512 -0.01005904 0.30843484 0.056654375 -0.43912676 0.09153478 -0.21305676 -0.2929344 0.045115218 -0.012786731 -0.07781081 0.005142273 -0.035755876 0.18329027 -0.24028091 -0.0470191 -0.020134386 0.23253241 0.0407278 0.18342745 -0.04994883 0.21350639 -0.07858694 0.09482424 0.06985818 0.30792713 0.03218102 0.04499877 -0.26908952 -0.07127057 0.08296937 -0.3970632 0.13562158 -0.26661646 -0.30303714 0.3042569 -0.04435179 0.32087833 0.100741826 0.10587618 -0.29496717 -0.052098375 0.19827187 -0.10728931 0.056624923 -0.12853166 -0.18967476 0.051603578 -0.21772096 0.0963047 0.3487399 0.33783504 0.23180327
4 0.3544411 0.32025307 -0.18154728 0.015161006 -0.031836 0.29990804 -0.15901197 0.14502123 0.3206194 -0.48339164 -0.102349214 0.28788742 -0.10831287 0.17482616 -0.0946329 0.36902502 -0.15211599 -0.27723995 0.079380475 0.17410439 -0.057686824 -0.16613986 -0.08294009 -0.1537569 0.31380185 -0.42271572 0.055890605 -0.0023387733 -0.22839475 0.28210688 0.22356392 -0.078542806 0.12367439 0.1980516 0.33968 -0.0048332186 -0.028882524 0.22395913 0.12810284 0.1671444 -0.2297228 0.20338258 -0.5208695 0.109675005 -0.23684472 0.16273779 0.103061534 0.38886487 -0.084455475 0.17552215 -0.17552347 0.032433227 0.16908512 0.15632063 0.19165972 -0.30580834 0.25838673 -0.007852981 0.113051735 -0.16294217 0.24227424 0.25339642 0.17214471 -0.03213693 0.13029358 0.19262421 0.024101298 0.086788066 0.010575032 -0.24168862 -0.18195999 -0.030404383 0.2186923 0.15181825 0.33022827 -0.08318168 0.030309053 0.051592585 -0.047803216 -0.17864375 0.04875204 0.10181729 -0.11632228 -0.28387478 0.3554471 -0.08570628 -0.25239852 -0.08542084 0.1391062 -0.16314349 0.015438755 -0.16123042 -0.04299515 -0.079983875 0.16770257 -0.038253635 0.13895336 -0.13152556 0.307781 -0.114883 -0.037868958 0.12505329 0.31491643 -0.30195916 0.019095393 0.12629597 -0.013623123 0.053104762 0.06833415 -0.201568 0.107775584 -0.2713202 0.16410305 0.04133451 0.43463755 -0.20427683 0.0969818 -0.0016676399 0.029370485 -0.2398934 0.10895173 -0.03201747 0.30620986 -0.279925 0.0628641 0.18506765 0.23255922 -0.051349964
5 0.05934838 0.15341195 -0.07041942 0.18819538 0.045019254 -0.021663683 -0.2544801 0.013015743 0.3359288 -0.2678871 -0.30124056 -0.056098677 0.10739012 0.02744096 0.11151807 0.012195543 0.18029447 -0.24715658 -0.046262227 0.0849957 0.22876987 0.18587725 0.135707 -0.23061995 0.2806968 -0.0015859533 -0.051318794 -0.2254202 -0.025236068 0.26143795 0.39661652 -0.053264044 0.05013586 0.1673405 0.3331002 -0.17061381 -0.22669008 0.0071201352 0.1007758 -0.055218413 -0.12158091 0.497288 -0.2928275 0.037163116 -0.17297605 0.108863406 0.10189333 0.26722518 0.012819684 0.050608203 -0.09540541 0.019150013 -0.024074 0.051488996 -0.02726018 0.0041233352 -0.038215198 0.3518637 0.2305127 -0.024009433 0.37230027 0.17181161 -0.10482464 -0.11566544 0.08920923 0.16723883 -0.35836595 -0.2167821 0.05681033 0.16357994 0.17134738 -0.093851544 0.19018793 0.029010655 0.24610546 -0.09828738 -0.08828864 0.026662886 0.0122536635 -0.24440563 0.0578186 0.32729325 -0.12280593 0.002376071 0.101793006 0.14571655 -0.03372672 -0.18455721 0.054676585 -0.07956938 -0.1772017 -0.17832507 0.014321443 0.17355311 0.020266458 0.006542955 0.19881858 0.015971165 0.07369122 0.27370897 0.0051832027 0.20217606 0.12850063 -0.32146248 0.24343628 -0.083752096 -0.16451304 -0.037805162 0.07556509 -0.21164265 0.038191512 -0.031678393 0.28354794 0.07080525 0.23292777 0.19957459 -0.17868242 0.19554538 -0.22423182 -0.24833192 0.21192649 -0.08996645 -0.01976348 0.049768567 0.08216043 0.0138815595 0.09419036 -0.010075934
6 -0.20649874 -0.17079966 0.08698007 0.068810605 -0.032833293 -0.044222996 0.032564312 -0.28428373 0.032043315 0.02758354 -0.18892042 0.31565312 -0.11185748 -0.08942974 0.008325055 0.37418196 -0.08769642 0.031047381 -0.017006494 0.018289689 -0.046720486 0.030382063 0.096387506 -0.388415 0.047485504 -0.08056549 0.029665986 -0.103670254 -0.33495432 -0.1633307 0.008514934 -0.032856237 0.16432251 0.06597312 0.22670639 -0.07083691 0.07008815 -0.13354184 -0.044777084 -0.055391148 -0.13883099 0.35180727 -0.2254043 0.43394607 0.041670516 0.035132993 0.40474126 0.063595496 0.46402496 -0.11872855 -0.22167581 0.008236179 0.14905374 -0.043020196 -0.07216216 0.50867736 0.029512983 0.17293558 -0.29347312 0.22044091 -0.033486817 0.14973065 -0.04805164 -0.20942202 0.25237033 0.19486861 -0.20769237 -0.08294918 -0.08648247 -0.13724805 -0.017384304 0.20022185 0.15239297 -0.08313436 0.4081028 -0.12609504 0.24841008 0.11152145 0.046611905 0.182922 -0.023055524 0.008572252 -0.017737653 -0.043658834 0.078332305 -0.31811228 -0.0018185112 -0.18237618 0.039067287 0.028381351 0.14168422 -0.11772096 0.40773168 0.25243863 0.003949177 -0.10882836 0.16721667 0.06265336 0.3629459 -0.314101 -0.27260453 0.06787712 0.24065813 -0.19377919 -0.021625584 -0.0022590656 -0.113812506 0.21344051 -0.042908996 0.11105761 -0.011682188 -0.12112361 0.2184376 -0.14899196 0.060573414 0.18247792 0.13387214 0.2374558 -0.051861685 -0.24158266 -0.0838007 0.03054678 -0.008173871 -0.30278718 0.32631892 0.40364054 -0.21999869 -0.30064085
7 -0.108331606 0.054888185 -0.13760571 0.1418519 -0.10458383 -0.22986662 -0.08646085 -0.10670226 -0.16464776 -0.2519055 0.042457927 0.15513948 0.009242753 -0.07039065 0.07690147 0.15124659 0.14633696 0.07429722 0.07507556 -0.38123104 -0.1383928 0.31973204 0.014087304 0.014516059 0.16095144 0.051918697 -0.0019111215 -0.19785401 -0.088886596 -0.10560124 -0.04578827 0.13797796 0.120392114 -0.06724839 -0.0005470305 -0.1190545 -0.029526455 0.056251824 -0.3375789 0.035612945 0.13389514 0.16296262 -0.10143014 0.18948002 -0.20797732 0.15930355 0.06743735 0.31900966 0.18415874 0.049011055 0.023543658 0.13256967 -0.24345365 -0.11296584 -0.016881302 0.351757 -0.19885169 0.27273127 0.07685886 -0.012201761 0.10619914 0.217123 -0.06596968 -0.08553173 -0.081475444 0.16973232 0.096683376 0.28501076 -0.15336278 -0.19383118 -0.092332914 -0.07262316 -0.14520647 -0.09116306 0.05072852 0.055210445 0.21628778 -0.056457225 -0.15776832 0.019348565 0.082032576 0.13159864 -0.30621815 0.13110738 0.20739117 -0.1857835 -0.014999016 -0.2445282 -0.10826342 0.13904244 0.014094954 0.16975296 0.42091835 -0.056427084 -0.20768854 -0.114909664 0.13911332 -0.0730619 0.008385638 -0.35746092 -0.053821035 0.021177351 0.13304716 -0.21322177 -0.17389958 0.04575515 -0.20394489 0.31311354 -0.26395047 -0.28070945 -0.11401674 -0.16691205 -0.18185197 -0.017964173 0.0026413745 -0.049178578 0.18288802 0.030816827 0.18217222 -0.2233784 0.056014955 -0.26995745 -0.023681553 -0.56427515 0.011850847 0.59919524 0.0054212315 0.09012993
8 -0.29795387 0.18680562 -0.38333392 0.16127285 -0.114774644 0.0796788 -0.002802249 -0.06122543 -0.33730918 -0.1539556 -0.038467295 0.046726335 0.0026921749 0.19388969 0.025255002 -0.07663158 0.018651718 -0.007666237 0.13707913 0.1949783 -0.052636433 -0.09412782 -0.20542826 -0.22922905 0.12889391 0.030424185 -0.01535702 -0.10094814 -0.01234611 -0.24714802 -0.29656532 0.089406125 -0.008812004 0.38934678 0.026095076 0.064525984 -0.20859323 -0.06778412 -0.11222452 0.14479372 -0.23251183 0.20895126 0.14003675 0.13200472 -0.22940286 0.053046063 0.13822138 -0.1324103 0.34859607 -0.014973113 -0.29146054 0.0062033758 -0.059616394 0.17789379 -0.07193873 0.5240516 -0.4149273 0.21319664 0.37228754 -0.03478902 0.18724047 -0.039323878 0.21066578 -0.11139274 0.0043599997 0.2804189 -0.20029932 0.15241973 -0.27119103 -0.3251054 -0.38100168 0.15433952 0.121532805 -0.043807674 0.0678033 -0.13935299 -0.04494273 0.0288621 -0.18311606 -0.16780068 0.23047547 0.260488 0.0911641 0.02878353 0.2954974 -0.30455312 -0.13587302 -0.56047773 -0.50394017 -0.007183292 0.19757722 0.09720818 0.18686596 0.0046283086 -0.082037106 -0.15046062 0.320502 -0.41206357 -0.17752375 -0.101541996 -0.062935725 -0.015807508 0.2492062 -0.044545427 0.011092775 -0.00884545 -0.18541957 0.27025813 -0.28838974 -0.20787273 -0.15169734 -0.1514918 -0.13073187 -0.13717379 0.115446806 0.23384136 -0.11677209 -0.28853282 -0.051535238 -0.44018605 -0.011477132 -0.1245007 -0.0347991 -0.31712338 0.044634633 0.39478415 0.16233824 -0.29260188
9 -0.36714724 0.10697531 -0.069129966 0.054802246 -0.18858723 -0.2785794 -0.06940209 -0.10373571 -0.0072769225 -0.15927213 -0.1305758 -0.020143991 -0.013467934 0.0789372 -0.049740806 0.11193186 0.005643293 -0.041782714 0.052288957 -0.16945119 -0.06587737 0.013646192 -0.105328724 -0.054011837 -0.003916668 -0.009742449 -0.151702 -0.18364841 -0.18542255 -0.22176488 -0.30222848 -0.10989543 -0.16721855 -0.17887273 0.16792181 -0.0066182916 0.017949037 -0.048336387 -0.17293254 0.15704118 0.0911467 0.22096445 0.1301259 0.08927703 -0.21994677 0.13410424 0.12510826 0.18392758 0.24647738 -0.11955063 -0.18922704 0.049424633 -0.21967417 0.07448479 0.06524896 0.38457668 -0.39581504 0.14456709 -0.08795568 -0.25759223 0.15937321 0.06682292 0.02214155 -0.04778489 0.056037933 0.050228436 0.15367365 -0.05885416 -0.056051064 -0.16941907 -0.10676173 0.27602687 0.19691703 0.06969906 0.0034603432 0.13438462 -0.029699963 0.12487937 -0.266927 -0.14645754 0.09722253 -0.08841536 -0.18156764 0.22965308 0.20919947 -0.21568283 0.02623521 -0.3330338 -0.3413092 0.122277744 -0.08631205 -0.047604386 0.39299873 0.15766996 -0.17374998 -0.221154 -0.022855327 -0.1792876 0.10813586 -0.014088008 -0.20237397 0.25532556 0.3250566 -0.10439599 0.00508293 0.035423785 -0.13378698 0.46204183 -0.3475573 -0.1507758 -0.069056906 -0.025493743 -0.17617537 -0.11037181 0.022299271 -0.16604796 -0.05032686 0.02232233 -0.14013484 -0.32518178 -0.0011102125 -0.058213297 0.01493384 -0.28349033 0.041894153 0.5498212 0.23627728 -0.06136158
10 -0.1514684 0.14897403 -0.46381488 -0.16186346 0.022155656 0.16935304 -0.21146628 0.028007649 0.15967211 -0.039722122 -0.48893613 0.17629787 0.00049045606 -0.05014445 0.13378668 -0.0042810207 -0.0856648 -0.30686855 -0.024920028 0.10115057 0.28186673 0.0760429 0.21358918 -0.092764646 0.31001252 -0.22005479 0.13231704 -0.24141626 -0.1039382 0.26225805 0.21590546 -0.076575495 0.0041035404 0.16922417 0.2634681 -0.24685249 0.008060241 -0.08431502 -0.1939579 0.03218151 -0.19103663 0.24891749 -0.12964988 0.15876544 -0.13261737 0.0009191096 0.2207356 0.36687598 -0.23963498 0.05885286 -0.21942441 0.023078656 -0.13518761 -0.026166612 0.13363826 -0.030001687 -0.096006595 0.30382046 0.048081327 0.018898576 0.32152438 0.01627507 -0.021905726 0.116282016 0.14285947 0.024199188 -0.055525813 0.013614248 -0.15284534 0.029693011 0.026549224 0.19524322 0.033976853 0.17781451 0.0902174 -0.06318514 -0.05869704 0.27728036 0.05117068 -0.2046032 0.073667325 0.3368804 -0.28759292 0.20685543 0.14849034 0.068477586 0.17739315 -0.20643286 0.0009772858 0.052527882 -0.014847811 -0.08242257 0.049405903 -0.21812087 0.17905647 -0.017467553 0.12902367 -0.12715018 0.349813 -0.029875182 -0.091628216 -0.04807576 0.10756904 -0.19407141 0.039063588 -0.14670144 -0.15226468 0.05320694 -0.17877865 0.04944875 -0.019287935 -0.11463787 0.40181974 0.1676716 0.07320635 -0.1446833 -0.119204 0.25623706 -0.024243703 -0.08568136 0.2627603 0.010237859 0.007875123 0.044203486 -0.00066386076 -0.11590665 0.07633495 0.14263912
11 0.10077381 0.2727211 -0.1747309 -0.100850336 -0.11599131 -0.11324217 -0.30027777 -0.075959764 0.17268333 0.0041077873 -0.3784889 0.36217603 -0.19132885 0.22256532 -0.07183246 0.26516265 -0.006981701 -0.16022636 0.046524536 0.2162898 0.23543549 -0.2587879 0.1849817 0.0066253794 0.20966405 -0.12043016 0.05925125 -0.19700816 -0.19187306 0.107811876 0.31285626 -0.027492503 0.01946781 0.22482544 0.055932663 -0.12323948 -0.17781408 0.0677047 -0.1005613 -0.1293406 -0.3261149 0.18131329 -0.14161383 0.12364643 -0.01176788 0.099785864 0.2658745 0.0811821 0.10390086 0.0348701 -0.1966251 -0.04278203 -0.09677993 -0.004463414 0.08184589 -0.042144097 0.029074553 0.22891906 0.17262156 0.07659998 0.3055814 0.2941912 0.026709523 0.0865889 -0.14574231 -0.018725637 -0.16116701 -0.09786987 -0.1423157 0.14935277 0.17566237 -0.0062674177 0.10135009 0.084293194 0.1871932 0.03533033 0.020460634 0.2337771 0.010140689 -0.38945442 0.010703882 0.25925964 -0.20219547 0.0773618 0.18061616 -0.10841096 -0.026417192 -0.08373916 0.07653299 0.10560987 0.043293107 -0.08359684 0.30664465 -0.035568073 0.12385711 -0.009645155 0.009249542 -0.13299233 0.16145967 0.026907442 0.047274858 -0.015605856 -0.10432577 -0.18053588 0.27825975 -0.13607405 -0.2849282 0.0035815318 -0.20493564 -0.098520786 0.07095647 -0.14639634 0.24187309 0.23966405 0.26994482 -0.042959526 -0.08376027 0.12745468 -0.20092894 -0.28368548 -0.039679524 0.14574596 0.014063263 0.06885507 0.15938392 0.104012705 0.14690286 0.07280281
12 0.15460551 -0.039015308 -0.30694064 -0.29975817 -0.044798452 0.12423983 -0.32533628 -0.042058244 0.3939856 -0.19938947 -0.18876714 0.13597713 -0.14941058 0.16304155 0.045131218 0.15097572 0.07620735 -0.055720106 -0.016274756 0.16488504 0.034654602 -0.0640954 0.040094033 -0.27552485 0.116480075 -0.25931025 -0.11766277 -0.3409547 -0.49153733 0.17194943 0.068395585 0.06328387 -0.00044066462 -0.0321347 0.24261418 -0.18177623 0.3084738 -0.05234955 -0.15722664 0.07024081 -0.27514666 0.17429404 -0.11175813 0.09936306 -0.06454938 0.029449461 0.029737025 0.13636905 -0.27038774 0.12250175 0.016303377 -0.20040384 -0.06451133 0.1114913 0.29391336 0.09507486 0.06428469 0.1930959 0.11242074 -0.16501783 0.19883628 0.10784087 -0.05937891 0.12731396 0.04778432 0.4123656 -0.01245805 -0.037967447 0.07215669 -0.1236781 -0.082095 0.04669058 0.3554403 0.1361892 0.12132929 0.0027938513 -0.071407475 0.25568542 0.11102095 -0.052607566 0.06282533 0.1326525 -0.03539038 0.090423055 0.048932374 0.181488 -0.07658429 -0.3305769 -0.030399892 -0.26106796 -0.1783175 -0.07513947 -0.058969885 -0.19336434 0.07268697 -0.02167897 0.22237286 -0.0735304 0.50650173 0.046117812 -0.19643398 0.36730978 0.33083385 -0.20306905 -0.054943584 0.07128148 0.19371887 0.030835886 -0.20550595 0.10331897 0.38163736 0.015128512 0.080413096 0.07842135 0.022164587 0.0068680802 0.17014645 0.3251286 -0.30601117 -0.11014542 0.0662541 -0.030015092 0.29546368 0.0015486041 0.15072176 0.31401232 0.123088464 0.00868094
13 0.12825707 0.06438656 -0.20194866 -0.14462397 -0.117945656 0.11595284 -0.35532144 -0.029554246 0.11763355 -0.16348536 -0.26752052 0.11380515 0.13703631 0.38855183 0.1700458 0.2139509 -0.11596191 -0.17649977 0.2153717 0.13917871 0.23926677 0.101755075 0.10279419 -0.2001085 0.113020614 -0.25014526 0.17769879 -0.4233168 -0.19489832 0.095070116 0.23257612 -0.07591409 0.07244197 0.018530095 0.36022356 -0.2835639 0.043662176 0.14086495 0.15599185 0.046660013 -0.3051045 0.31229353 -0.23612411 0.09709711 0.08473674 0.09896595 0.12660341 0.12114095 0.040326778 0.13330263 0.016007032 -0.17559706 -0.07035537 0.049094778 0.19904286 0.03754697 0.16294004 0.26982278 0.2384346 -0.06390173 0.3463697 0.1330934 0.19256099 -0.19420822 -0.07460634 0.25936618 0.05583171 0.14212875 -0.1161763 -0.16153805 0.2010226 0.0953509 0.042991117 0.015646756 0.18588066 -0.13037415 -0.08173203 0.16329235 0.016049996 -0.22544064 0.033945985 0.051023662 -0.17674999 -0.010470672 0.21621498 0.12707701 0.22398886 -0.26404205 0.13492458 0.023110524 -0.009159273 0.05293873 0.09562384 -0.20094283 0.12231133 -0.034701984 0.09228249 -0.14334218 0.18777464 -0.31071025 0.095687464 0.18851377 -0.016940344 -0.23956107 -0.08073839 -0.22168544 0.018642375 -0.20262155 -0.072611 -0.108863056 -0.014789361 -0.097212076 0.32892853 0.1702776 0.09106072 -0.14077856 -0.20488018 0.015828561 -0.1912478 -0.083437346 0.11489067 0.0591631 0.05459205 0.021758763 0.09602279 0.18279448 0.2510904 0.15304482
14 -0.3449737 0.15506303 -0.14706686 0.2708427 0.024549112 -0.10583175 -0.12619996 -0.22852077 -0.03824954 -0.23634087 -0.2244488 0.13527569 -0.012444362 -0.11525329 0.22259565 0.048857864 0.104182445 0.07995607 -0.16122638 -0.35452306 -0.05227863 -0.06357103 0.15317823 0.12471016 0.29523137 0.024764217 -0.2328251 -0.141621 -0.3215364 -0.40460756 -0.026396222 0.12780322 0.06559307 -0.22804731 0.21718735 -0.040578984 0.1933104 -0.020991126 -0.25696808 -0.056504957 0.07597027 0.30218512 -0.24103464 -0.09513734 -0.16793779 0.17251255 0.059929598 0.041166723 0.33833382 0.03335628 -0.09327744 0.018816883 -0.38870305 0.12083114 -0.011464157 0.37551242 -0.31128687 0.2757468 -0.009536564 -0.06164555 -0.10222773 0.121484116 0.01010506 0.012769814 0.15683444 -0.08887726 0.24229401 0.14351822 -0.11963913 -0.2788768 0.1445812 0.20103863 -0.08783898 0.124166146 0.13033412 0.14111914 0.012826975 -0.19225612 -0.15267664 -0.18512848 0.07294369 0.17478727 -0.25372162 0.112767756 0.0050651077 -0.033247657 -0.2180524 -0.407396 -0.108340316 -0.113453194 -0.018898865 0.08150216 0.19117886 0.05149225 -0.20164974 -0.024663143 0.19305381 -0.14696774 0.1332809 -0.10816321 0.01916319 0.13265495 0.14096043 -0.1379579 -0.04194895 0.14026025 -0.102274336 0.26886344 -0.15441449 -0.2818257 -0.10863182 -0.024485547 -0.11336237 -0.23043749 -0.009897337 -0.031284552 0.074414186 -0.18779723 0.19739105 -0.35172644 -0.119100265 -0.4035367 0.0035048749 -0.45624623 0.23472194 0.26688343 0.21509688 -0.028660813
15 -0.18523704 0.070091225 -0.19153967 0.18947211 -0.061803814 -0.22401969 -0.21545589 -0.12219143 -0.28224725 0.030439306 -0.13618475 0.16050632 0.053211592 0.005911071 0.33150905 0.18291616 0.0993388 -0.0044543617 -0.00540582 -0.14328963 -0.20182061 0.03698709 -0.17362869 0.26381955 -0.009747512 0.020653207 -0.10217983 -0.31337205 0.0772964 -0.11913676 -0.23561181 -0.06960285 -0.20344219 0.14789972 0.05114615 0.30432892 0.009473593 0.03248584 -0.0776084 0.20197603 -0.20148842 0.06959623 -0.15121573 0.008145369 -0.23247202 0.101793 0.1437694 0.2089415 0.30265573 -0.03815269 -0.1534616 0.11149896 -0.17743081 -0.123899736 -0.24883428 0.4592469 -0.30754197 0.3215824 -0.0061058556 0.10624449 -0.041860655 -0.060785357 -0.08820174 0.09003396 -0.2080156 0.16215156 0.0016066598 0.09907402 -0.22297333 -0.5957496 -0.040892042 0.3301891 0.10507008 -0.032762215 0.030694513 -0.036123905 0.15462255 -0.0041958475 -0.018427372 -0.33306497 0.023045365 0.122668184 -0.089297496 0.025914012 0.21211919 -0.17357504 -0.18153167 -0.25516033 -0.19495526 0.23119801 -0.14436866 0.10818375 0.41141763 -0.0681432 -0.10135916 -0.09575573 0.041799836 -0.068904735 -0.057507273 -0.09382672 -0.22100256 0.07317062 0.28144142 -0.18108071 0.094149835 0.20294197 -0.36836106 0.3055905 -0.42193475 -0.23396872 0.10917575 0.026521768 -0.006088562 -0.044125136 0.089460775 -0.1551113 0.12980984 0.08786786 0.09409178 -0.33059856 0.03256693 -0.34729716 -0.010500258 -0.3228085 0.09866716 0.49469116 0.03445922 -0.28073204
16 0.108511955 0.23232533 -0.18383905 -0.02267463 0.016441444 0.06968819 -0.36006248 -0.12244005 0.10925701 -0.0043180664 -0.18182513 0.2530642 -0.09668632 0.3000679 0.08868467 -0.084276445 -0.07949734 -0.06740741 0.07703879 0.11108696 0.20224233 -0.017723307 -0.07932128 0.03158682 0.13009024 -0.18287247 0.1529619 -0.19678743 -0.0451205 0.3079161 0.11733473 0.043046623 0.1921886 0.044247024 0.51328987 -0.246808 -0.04823112 0.06740486 -0.14648613 -0.14303109 -0.32498688 0.2626722 -0.31229702 0.2741899 0.030682223 0.16378142 0.2998666 0.27921134 0.015424443 0.17309037 -0.08516254 0.077251546 -0.0764363 0.2053901 0.077213906 -0.055754177 -0.037855085 0.21879423 -0.18368098 0.22792953 0.1937167 0.014612774 0.1600081 0.15301548 -0.095501065 0.22951984 0.004969008 -0.025893629 0.03907824 -0.23766237 0.2789622 -0.1764297 0.05830795 0.08933775 0.35023233 -0.19455424 0.117226645 0.09901463 -0.118211225 0.051139865 0.20612508 0.34062424 -0.11296711 0.010786366 0.18981428 -0.059164762 0.04958749 -0.1956933 0.10849106 -0.11943117 -0.14252621 0.14092942 0.05805546 0.086392 -0.008102549 -0.10708704 0.26483116 0.032797758 -0.0907075 0.06821837 -0.098362654 0.3550224 0.20038395 -0.44185328 0.0771026 -0.3309309 -0.007761517 -0.3052585 0.011974033 -0.17938988 0.036542114 0.18570155 0.17849973 0.12248524 0.1196321 0.11733905 0.21620986 0.48153308 -0.2453474 -0.17849094 0.27249387 -0.020009436 0.10760658 0.08992666 -0.032576036 0.23449282 0.1882838 0.13453616
17 0.0791728 0.32442096 -0.38293582 0.056230757 -0.30273938 0.013411151 -0.5595463 0.042094655 0.24291891 -0.2678048 -0.2758694 0.1211467 0.015253652 0.16160208 0.028476 0.16929695 0.06542195 -0.19643469 0.12404167 0.17009597 0.11599254 -0.29930612 0.18640767 0.027971046 0.3270487 -0.13099812 0.21430814 -0.08689667 -0.07365334 0.11270849 0.1068749 -0.0033752602 -0.07110164 0.42037573 0.30136904 -0.1297724 0.03042 0.12480852 -0.033963826 -0.0703831 -0.06516463 0.16056487 -0.183058 0.23473962 -0.035331756 -0.01005129 0.20288755 0.10673526 -0.42166018 0.3074695 -0.1662481 -0.06914489 -0.052400667 0.14340475 0.16685715 -0.066673726 -0.18550378 0.1938157 0.3121234 0.16857308 0.20428278 0.21564808 0.019490931 -0.04664437 0.2411872 0.06091606 0.100477606 0.09158658 -0.007693728 -0.014192969 0.0099113025 0.19960292 -0.16582796 0.14825873 0.5322954 -0.0061371643 -0.1695159 0.050611317 -0.09437164 -0.09642943 -0.05012829 0.2714713 -0.23976493 -0.0044203447 0.11772993 0.02578783 0.04796413 -0.291759 0.03804924 -0.08840729 -0.18800777 -0.24619555 0.04024086 -0.009611877 -0.006237001 -0.26962516 0.36983895 0.019768458 0.23868422 -0.17877379 -0.024232415 0.1558084 0.31028962 -0.035229113 0.23762248 0.021853833 -0.011540281 -0.102948315 0.01927506 -0.027940666 -0.028429383 0.025234712 0.12526275 0.36675927 0.24816531 -0.08152552 -0.040579613 -0.009320948 -0.16795735 -0.16722426 0.13651325 -0.031015823 0.15616256 0.060781494 0.19524865 -0.09653621 0.15661879 0.15889269
18 -0.22385971 -0.019418001 0.22483772 0.13259558 0.4067653 -0.433042 0.37748498 0.011070299 0.2019319 -0.0042263754 -0.4612716 0.07433155 0.42146757 -0.084440514 -0.10866583 -0.12834589 0.026666988 0.16915746 0.44435537 0.47814465 -0.6666824 -0.24015193 0.0636148 -0.29250166 0.15357932 -0.49946243 -0.049839973 0.11787755 -0.15355286 0.39580378 -0.1298548 0.20468709 -0.22596635 0.4103206 0.307869 0.03460684 0.04047029 0.5213913 -0.14460778 -0.34299076 0.24672472 0.098034516 0.071820125 -0.36535117 -0.2770637 -0.04873095 -0.40981016 0.028822418 0.07104633 0.45561722 -0.2696051 0.050037857 -0.35875764 -0.039392233 0.28054097 0.44135544 0.311094 0.48233292 -0.02167114 -0.051050983 0.30607456 -0.37914744 0.05166588 -0.13758247 0.39849508 0.40012068 0.12494222 0.49811494 -0.058542334 -0.11591222 0.36936468 0.072654784 -0.2248734 0.45325845 0.015912447 -0.18766376 0.19515237 -0.025733056 0.31765708 0.14790495 -0.038696337 -0.24325626 0.13454069 -0.18444298 -0.6190732 -0.33053485 -0.2838362 -0.14435248 -0.36445898 -0.1709254 0.12081527 0.19334954 0.19471197 -0.055385448 0.18176512 0.28085983 0.22454207 0.22007541 -0.055989273 0.29270282 -0.2918558 -0.26783267 -0.28538048 -0.36051652 0.1547806 0.15531775 -0.06741714 0.21185854 0.36260676 -0.5824043 -0.1636718 0.3939974 -0.27575755 0.012505903 0.3156213 -0.2613072 -0.41608852 0.039630502 0.025072392 0.5688995 0.057267655 0.65081793 0.108113244 0.3952077 -0.33448896 0.49709785 -0.15990995 -0.2846157
19 -0.14682014 -0.013200365 0.21843147 0.020484995 0.27157193 -0.015635429 0.6127347 -0.003522621 0.10234302 -0.09586946 -0.5652116 0.16434461 0.13116762 -0.23078795 0.044367865 0.15112063 0.0056841807 -0.23075296 0.5259052 0.36524487 -0.7650377 0.1256665 0.18629773 0.056283493 0.38179278 -0.15132153 0.27398652 -0.19946449 -0.091731995 -0.08256234 -0.009685062 0.40209532 -0.2504032 0.5895513 0.25821534 -0.14597832 -0.13320151 0.602383 -0.39437538 -0.23276237 0.24901508 0.33890936 0.35963574 -0.258792 -0.056508098 -0.17061473 -0.59934515 0.066563785 -0.2589026 0.41130227 -0.06052196 0.19532776 -0.061887 0.35879293 -0.16717157 0.3803075 0.19876614 0.1514511 0.062038347 6.773687e-07 0.18823758 -0.30970904 -0.26361758 0.031466715 0.20525599 0.1422371 0.04080051 0.42863244 -0.26149124 0.12353382 0.2041309 0.23197706 0.13074423 0.4515383 0.060580734 0.038296096 0.10094827 0.040215436 0.23328124 0.31261897 -0.13716185 0.098056 0.1573013 -0.1950118 -0.31776652 -0.3225089 -0.28410766 -0.048456516 -0.100889556 0.12189155 -0.00039954312 0.08407902 0.35264456 -0.41717032 0.059730697 0.17290382 0.40508518 0.40440112 -0.011658761 0.60852015 0.1248331 -0.046827454 -0.35946298 -0.30788147 0.11669286 -0.12166625 -0.23876256 -0.044175833 0.40728477 -0.3108161 -0.12679307 0.3293982 -0.14151981 -0.059272207 0.27536806 -0.20186268 -0.33213916 -0.11377737 0.0025204094 0.33088213 0.2502849 0.5284656 -0.02431891 0.2162982 -0.3398596 0.6314201 -0.3401207 -0.13637376
20 -0.27000546 0.11727534 -0.16800113 0.40637836 0.025816891 -0.20542426 -0.023898263 -0.10928732 -0.2022388 -0.16287915 -0.18067212 0.3777806 -0.037551638 -0.19386177 0.13351981 0.050127964 -0.009674547 -0.14376098 -0.05041551 -0.56900424 -0.10168971 -0.14428145 0.037491996 0.08254721 0.074834086 0.2217077 -0.028808836 -0.10791696 -0.0115413 -0.15678272 0.07428608 0.10677045 0.17159964 -0.10552272 0.018968489 0.15515114 0.0684038 -0.052702937 -0.061713956 0.1844026 -0.028821064 0.24254537 0.10178431 0.28214058 -0.050410345 -0.13662426 0.07897218 0.3536573 0.30081755 0.08423212 -0.19691744 -0.09048217 -0.09419825 0.22274607 0.12292579 0.23399264 0.059916165 0.31489226 -0.16500433 -0.0409449 0.09140062 0.013885635 -0.09543632 0.056439612 0.03998649 0.27475294 0.0679758 0.09317068 -0.016130565 -0.033464912 -0.2780336 0.10454342 0.19260158 0.12751578 0.13801913 0.10092759 -0.16272648 -0.08726164 -0.14745341 -0.065343104 0.09746391 0.29185736 -0.05973578 0.16268727 0.08383323 -0.25105628 -0.13903183 -0.45049602 0.006879456 -0.22632939 -0.016358545 0.09168257 0.32925904 -0.114413045 -0.23801173 0.08462705 0.09493145 -0.0034038585 0.2172073 -0.09685508 -0.31848487 0.09469596 0.18386033 -0.0941422 -0.28665265 0.32510987 -0.19184762 0.43407753 0.08029556 -0.32332277 -0.2514173 0.01958044 0.027133623 -0.11303987 -0.09417798 0.05391676 0.20892867 0.0053912024 -0.028703656 -0.33768597 0.1303103 -0.22437774 -0.08341941 -0.30707505 0.1377004 0.3363355 0.1508778 0.008208173
21 0.020817818 0.23423143 -0.0015754623 -0.054045588 0.06571535 -0.022730142 -0.16660371 -0.13385099 -0.28537408 0.10754521 -0.08377244 -0.09633303 0.26600605 -0.06582651 0.09957299 0.18672627 -0.092975974 0.11948257 0.037859734 -0.14004068 -0.14256188 -0.07480004 0.083679885 0.11253011 0.05213001 -0.22386009 0.09070347 -0.11393259 -0.2885963 -0.34840158 0.048821434 0.019457547 0.04135086 -0.1213836 0.19493534 0.14725329 -0.14285985 -0.04348443 -0.18180236 0.3239908 -0.059544787 0.125005 -0.11333783 0.042153988 -0.16715589 0.07700558 0.2449519 -0.11760091 0.19943093 -0.11245952 -0.28792623 -0.19569011 0.051066644 -0.009446902 0.06336171 0.30821994 -0.2641179 0.07692082 -0.05779738 0.10627711 0.23784198 0.17685233 0.21462983 -0.068134256 -0.09961904 0.11446046 0.13959202 0.19431241 -0.25513136 -0.20906319 -0.16742463 0.029914869 0.115540385 0.10529997 0.23089425 -0.040411584 0.19158736 -0.21476088 -0.17212217 -0.07615553 -0.019201118 0.20911644 0.12192076 0.12119784 0.16397884 -0.13665585 -0.12042174 -0.53192466 -0.3318538 -0.081056915 0.083815664 -0.16901678 0.2670574 0.19933628 -0.024438344 -0.06570751 0.3499455 -0.1364027 0.0592493 -0.37749925 -0.019724274 0.03668634 0.18274681 -0.2938094 0.065546006 0.020915411 -0.10753315 0.15217055 -0.40227816 -0.12837239 -0.16043201 0.022506677 0.12810017 -0.13642523 0.06846129 -0.121561304 -0.08757698 -0.048766814 0.08371901 -0.28985617 -0.09842945 -0.13235262 -0.110614754 -0.35426915 -0.11918029 0.39104116 -0.05013713 -0.22966108
22 -0.17330053 0.26979905 -0.015249841 0.36707002 -0.017021997 -0.14290582 0.023685388 -0.26518145 -0.19599867 -0.19663106 -0.14869305 0.13446431 -0.1209382 -0.16192652 0.17905058 0.10120451 0.091303244 0.046733238 -0.23476766 -0.41788423 -0.2596406 0.094215 -0.14062876 0.09085483 -0.07657571 -0.23630245 0.0004448663 -0.2957293 -0.2909935 -0.17587805 -0.021980805 0.06764948 0.14291766 -0.09326675 0.17809737 -0.14831252 0.019398564 -0.09512662 -0.22676551 -0.050145745 -0.00877021 0.17126307 -0.13964613 0.14972028 -0.20241268 0.21567199 0.05917605 0.23021847 0.32879996 0.0060106833 -0.1311801 0.08555953 -0.28978848 0.08281181 0.26541403 0.29250675 -0.13507901 0.18678398 0.08472525 0.012161715 0.055855162 0.028419495 -0.2522981 -0.2132285 -0.1789296 0.18354885 0.1404377 -0.07820848 0.08622854 -0.4641777 0.056076705 -0.117097035 0.0069816797 -0.106372446 -0.11478297 0.122837916 0.005763229 0.1743262 -0.04833994 -0.11381516 0.3725977 0.041041475 -0.13513336 0.08616713 0.077061184 -0.24097104 -0.015004055 -0.29334816 -0.08536099 0.1489876 -0.120704815 0.02366733 0.1868713 0.042203516 0.07960729 -0.04469112 0.113365196 -0.38086885 -0.11405251 -0.21383184 -0.009920917 0.10738762 0.15225916 -0.19547348 -0.11374258 0.29588503 -0.44998577 0.3085425 -0.2562802 -0.38577288 -0.13539056 -0.10863227 0.07371981 0.10815263 0.05127231 -0.38401213 -0.006372158 -0.015185978 0.017372508 -0.1905871 -0.34793466 -0.105801225 -0.07911408 -0.30653244 0.109004095 0.3982564 -0.106207244 -0.119405635
23 -0.27718702 0.051643476 0.23577785 0.26346236 0.05401881 -0.060758162 -0.2967396 -0.30572984 -0.13060309 -0.24572688 -0.09853228 -0.13365942 -0.06814098 0.011716732 0.020315565 0.07492139 0.10017843 0.3831183 0.18723625 -0.14684746 -0.04668062 0.12423693 0.12672853 0.11811499 0.13921253 -0.01588415 0.1307936 -0.07713521 -0.074753456 -0.42507607 -0.03331554 0.21489447 -0.043269917 -0.14494972 0.27240628 0.19171797 0.026872352 -0.024135884 -0.2576605 -0.09133472 0.2724738 0.3163908 0.09375845 0.052829947 -0.20097081 0.0052637793 0.02353446 0.17717001 0.24565372 0.052984636 -0.19846915 -0.13441272 -0.1285942 0.022355681 -0.07673787 0.4590494 -0.24394897 0.19727595 -0.03001609 -0.25467744 0.22936587 0.1284642 -0.09371441 -0.09268321 0.034080308 0.12593958 0.17030695 0.080869704 -0.25289068 -0.39980307 0.07563413 0.026717538 -0.19971596 0.039004713 0.0763032 0.12017388 -0.06663644 0.10210382 0.15320686 0.04392395 0.32820195 0.18467905 -0.19049521 0.107741095 0.19601493 -0.12023686 0.02454072 -0.22985093 -0.052013025 0.047191575 -0.046638705 0.051420294 0.3620057 0.014997136 0.08534137 -0.15265258 0.017624065 -0.08450734 0.0105843 -0.19357935 0.08460498 0.050413527 0.10528679 -0.053061854 -0.012193133 0.21710041 -0.36927444 0.51701325 0.01895559 -0.22543462 -0.001486 -0.12853087 -0.04351094 -0.08801112 0.09912477 0.1990154 0.16776526 -0.11212653 -0.13890317 -0.22096586 -0.012137471 -0.48770866 0.037597295 -0.5406522 0.10178163 0.5488292 0.087319724 -0.010012029
24 0.09024067 0.38055903 -0.41635 0.038633525 -0.25880983 -0.05616743 -0.25754434 0.0223961 0.01301833 -0.32993433 -0.0686169 0.27841026 0.06364004 -0.1575126 0.055852447 0.11271158 -0.06184192 -0.32944024 0.011208803 0.07493382 0.07702945 -0.02517053 0.09475519 0.23248042 -0.03836452 -0.36722574 -0.034922715 -0.14672707 0.00040223752 0.2251213 0.47270176 -0.17645082 -0.17617193 -0.008062287 0.4125124 -0.089618236 0.084461674 0.049678046 0.006330813 0.2742794 -0.21554953 0.3644908 -0.29308656 0.18762174 0.012977813 0.06131441 0.40240896 0.18390244 -0.03706698 -0.046741962 -0.067373164 -0.15912975 -0.15545616 0.015226302 -0.10940755 0.074830376 -0.101017036 -0.029209562 0.07682663 -0.031893898 0.2060009 0.18075547 -0.18430243 -0.2616566 0.2047036 0.09464581 -0.11451353 0.04856399 -0.08527779 -0.1390198 0.26502824 0.49291644 0.036367666 -0.097903624 0.14410684 -0.14019234 0.047201823 0.21300997 0.08879847 -0.067812644 0.07703204 -0.04127976 -0.21425205 0.07653286 0.25495034 -0.26177502 -0.20883018 -0.23372705 0.37971577 -0.15289 -0.04651284 -0.090080895 0.17449492 -0.16165446 0.035990153 -0.10044111 0.031836957 0.0798259 0.27492467 -0.16078962 0.10824106 -0.03626792 0.0038186742 0.08689829 0.11068956 -0.029895814 0.104039654 0.06618122 -0.00010922979 0.012433844 -0.24721773 -0.27326575 -0.0014514662 0.11788844 0.041939132 0.11371845 -0.1809902 0.44187522 -0.10771722 0.12734623 0.009602775 -0.08698986 -0.009355982 0.08809124 -0.11680464 0.12987436 0.09799789 0.13905708
25 -0.3164335 0.24951828 -0.22361027 0.037796874 -0.098794 -0.09429968 -0.10126665 0.036002148 -0.1971389 -0.20596905 -0.1602768 0.09984826 0.076302566 0.077101566 -0.13460223 0.005817707 -0.1522116 -0.08142106 0.020307295 -0.118240155 -0.12960057 0.006981449 0.030782653 -0.13693447 0.024381364 -0.120653346 0.016266204 -0.23504579 0.1186462 -0.17817445 -0.25233084 -0.040435504 0.2623638 -0.13861312 0.2820369 -0.071684405 0.06497341 -0.050254907 0.0188159 0.19083719 0.13128565 0.23735113 0.055899307 0.038014054 -0.26677832 0.05002946 -0.07486485 0.14620766 0.52482384 -0.0070482073 0.038977392 0.01950045 -0.24599358 0.31038672 -0.116377614 0.43236893 -0.13010009 0.0984623 0.012330642 -0.09029475 4.591497e-05 0.13592853 -0.056310397 -0.16512808 0.045176763 0.08075921 0.15671277 0.09500389 -0.05613832 -0.22145039 -0.13540035 0.1278095 0.17357954 -0.0889277 -0.012612625 -0.104578316 0.15322359 -0.022805499 -0.24041682 -0.10995726 0.00042607184 -0.14210802 -0.17625353 -0.0041090325 0.2562411 -0.1333107 0.047717497 -0.43344522 -0.19770731 0.09929952 0.046874706 0.24584714 0.26487136 0.13885586 -0.29061508 -0.15976553 0.26764292 -0.08314183 0.15680578 -0.0999269 -0.17893946 0.053153906 0.32105082 -0.13638388 -0.009125552 -0.08605801 -0.09705058 0.2837627 -0.2874959 0.043259636 -0.043856677 -0.13399819 0.038192715 -0.21091308 0.25873995 -0.14073196 -0.04132646 -0.05236327 0.11251164 -0.32168332 0.2455312 -0.26536572 -0.17011443 -0.33316207 0.17828482 0.49422026 0.101921186 -0.03743938
26 0.16964206 0.0707514 -0.5303374 -0.06929312 -0.105332136 0.10019215 -0.21668029 0.21404383 0.25423342 -0.1101363 -0.34565356 0.19253245 -0.18782087 -0.04108826 -0.029674845 -0.05220982 0.050031584 -0.33754495 -0.027355295 -0.060651913 0.15799001 -0.14147516 0.22183469 -0.18643558 0.3629465 0.009242373 0.027982362 -0.40782884 0.09789178 0.109233394 0.5279701 -0.00836729 -0.08086015 0.098751925 0.22357257 -0.016369592 -0.11368998 0.06285648 0.019021254 0.07814062 -0.4790072 0.34907869 -0.35385653 -0.04376919 -0.22524099 -0.023823757 0.21236701 0.3096553 -0.14836752 0.35272986 -0.052668385 -0.07093461 -0.016028713 0.014822367 0.08094273 -0.20812248 0.26288626 0.15625587 0.023125628 -0.02868332 0.23273464 0.16060026 -0.064772226 -0.18883438 0.24324487 0.18832225 0.29381716 0.20330359 -0.25450954 -0.08241005 -0.0652489 0.14800622 0.02223592 0.038248144 0.20266813 0.14005068 -0.057515774 -9.692472e-05 0.13828199 -0.2408797 0.028578479 -0.036879234 -0.2726302 0.07473584 -0.11073617 -0.017881734 0.01864676 -0.24329898 0.16552521 -0.087355554 -0.31346506 -0.18606265 -0.1195142 0.035792597 0.12628439 0.038389158 0.16649859 -0.20439993 0.10266426 -0.06061539 -0.006110798 0.19109927 0.33040914 -0.35224718 0.4452416 -0.055618662 -0.16142927 -0.12859754 -0.1956275 -0.121540494 0.08150073 -0.2390491 0.12511976 -0.07764534 0.1929677 0.07371702 -0.047229454 0.27987832 0.08109333 0.21121134 0.22886485 0.015678888 0.21411903 -0.22775243 0.11471548 0.09473201 0.29615363 -0.0046083
27 0.14778434 0.30164573 -0.18939498 -0.084812425 -0.027852362 -0.07741004 -0.43748498 -0.15082657 0.018404895 0.00041621953 -0.1833991 0.013110666 -0.26459333 0.1564228 0.052131604 0.017966017 -0.084916 -0.23672576 0.14509107 0.2153876 -0.0034377517 0.13325085 -0.019254291 -0.015072007 0.3691414 -0.34472904 0.09226669 -0.4206807 -0.016729455 0.093894206 0.66026866 -0.010623338 -0.04749812 -0.35815078 0.27506235 0.052483805 0.090452835 0.13775842 0.22185093 0.014859395 -0.20850192 0.26666462 -0.36773202 0.121669255 -0.1587939 -0.260916 -0.06578421 0.06894739 -0.004327552 0.38880995 0.014238139 0.017292038 -0.18113121 0.015796117 -0.11611406 -0.19020572 0.035152584 0.44816145 0.011622825 -0.066977605 0.25213057 0.046706934 -0.20165972 -0.087880105 0.31164333 0.064997464 0.008959345 0.02009115 -0.34435013 0.029916205 0.0322231 0.09258749 0.28649735 0.034794684 0.37035504 0.18899201 -0.0886753 0.23048727 -0.061716683 -0.77499443 0.19458969 0.09188887 -0.3447284 -0.062619284 0.11255452 0.030308342 0.18966135 -0.22018185 -0.051146187 -0.007104684 -0.040544994 0.14997163 -0.10136223 0.09214151 0.11493625 0.009999558 0.29990247 0.14344855 0.041538842 0.05337144 -0.093751095 0.15008742 -0.098436534 -0.04815112 0.039850023 -0.018552536 -0.08604536 -0.0019968983 -0.08291113 -0.079627804 -0.099583074 -0.010582884 0.3739676 0.14022024 0.15832646 0.13918823 0.07267492 0.3285039 -0.16653395 -0.14530532 0.14996625 -0.16076477 -0.02523735 0.25496897 0.27132967 -0.026536794 0.09471515 -0.26574644
28 0.254174 0.5681626 0.2270491 -0.45729288 -0.26150087 -0.22125578 -0.20781551 -0.21224885 0.5453601 -0.5176985 -1.080115 0.40162694 0.553287 0.14682649 -0.30745846 0.30666012 -0.2792721 0.4257137 0.39027703 -0.12007062 -0.8746673 0.06541686 -0.36797494 0.0677925 0.11177091 -0.50001484 -0.03778641 -0.26232976 0.1572417 0.010831316 -0.049812738 0.9087832 -0.1360414 0.1702781 -0.025517404 -0.056471184 -0.38108245 -0.04247658 0.09447622 -0.251817 -0.32885778 0.9651398 -0.4775853 0.5086951 -0.020727824 -0.08471164 -0.47790012 0.40442517 -0.0032848641 -0.14766987 -0.28006157 -0.38606045 -0.20075645 0.39588454 -0.26878175 0.3830113 0.37063068 0.074981414 -0.05949215 0.37905395 0.34578046 -0.102299355 -0.20386451 0.13685814 0.39529994 0.56416893 -0.30201977 0.29528624 -0.5117573 0.6780757 -0.2501408 0.27951634 -0.08267659 0.24987786 0.14204226 -0.5608199 -0.49143308 -0.04631495 0.33970046 -0.19042645 -0.12491197 -0.03247651 -0.0994142 0.30066615 -0.14939994 0.46213588 0.9338906 0.52234095 0.11114946 0.21136017 -0.12936175 0.55273885 -0.18698291 0.15894847 0.092616126 -0.19998978 -0.06448668 0.25327516 -0.58149356 0.49959356 -0.17863666 -0.175365 -0.6887735 -0.2900978 0.22316708 0.6949963 0.28499833 -0.06374253 -0.08025574 0.29822186 -0.22687511 0.33306637 -0.10144101 0.051596433 -0.27122316 -0.648211 -0.21025461 -0.48479977 0.02536473 0.15969297 0.096868195 -0.24279812 0.16041377 -0.1757538 0.3380427 -0.2995554 0.2053481 0.24246573
29 0.1815468 0.102122724 -0.56139576 -0.23949437 0.23651879 -0.105046876 -0.31141335 -0.43154305 0.36135328 -0.8150914 -0.07266625 0.20821148 0.29968277 -0.14471138 -0.021466607 -0.28699538 0.11686036 -0.4768531 0.25869793 -0.15181391 -0.41511276 0.11971029 -0.096756555 0.26933283 0.036775637 -0.4729944 -0.07559947 -0.1473874 0.2350174 -0.020719552 0.19709623 0.16921908 -0.014923268 0.28606963 0.7288829 -0.1322207 0.15678951 0.56614405 0.13538569 -0.034680974 0.16264273 0.20452957 0.1952883 -0.686431 -0.04491891 0.43958798 -0.048241604 0.026820194 -0.24708492 0.0019046967 -0.7219455 -0.08285576 -0.4240533 -0.2867853 0.4476079 0.516157 -0.0137288645 0.14902669 -0.1349766 0.21514457 0.77280474 0.12619278 -0.17736611 0.29798204 0.023526957 0.8201223 0.21305604 0.08826939 -0.4744122 -0.16686071 -0.2027877 -0.09632463 0.71472865 0.30246213 -0.23310404 -0.26074708 0.16784243 -0.055371515 -0.22662003 0.08125486 -0.098665796 -0.33007652 -0.16991939 0.03974509 -0.35025656 -0.09819904 0.63107395 0.63886243 -0.12974143 -0.12793134 -0.019436238 -0.19089802 0.11098423 0.14771396 -0.30234417 -0.06722557 0.2855525 0.16133848 -0.46280113 -0.2639195 -0.15308821 -0.15495726 0.26026163 0.10689518 0.28232002 -0.13933913 -0.0402626 0.12391048 -0.072599694 0.34338602 -0.21380343 -0.17798428 -0.068675905 0.0068722656 -0.15308304 0.22516997 -0.018553918 0.027597176 -0.56045604 0.5166014 -0.35760632 0.1472074 0.72376394 0.02487621 -0.002431691 -0.38553056 0.039764106 -0.16687706
30 0.07526249 0.48656988 -0.37254456 0.123089686 -0.023748625 -0.025874203 -0.46053427 0.8290325 0.36144218 0.2257491 -0.14210168 0.28055114 -0.14947028 0.08632682 0.3676895 -0.36381266 0.15652423 0.0001942367 0.042875834 0.15111805 -0.5812138 0.32248095 0.047457352 0.040331658 0.51653385 -0.52801555 0.3185119 -0.4634897 0.16443215 -0.09175122 -0.3851593 0.09190802 -0.32799035 0.0689261 0.39575836 -0.027721824 -0.10789122 0.302929 0.0674735 -0.46547005 -0.44391054 0.2814264 -0.08622987 0.18855596 -0.46924064 0.15337475 0.38839844 0.19116674 0.034288324 0.43806303 -0.020095289 0.05166302 0.030799331 0.030604973 0.10069988 -0.08431992 0.12096306 -0.20244092 0.23979507 -0.32455078 -0.1395829 0.091302045 0.14709127 0.14472012 -0.28370807 -0.07931836 -0.2709426 0.113357134 -0.59558463 0.40368468 0.361606 0.24899577 0.2642971 0.251166 0.20635737 -0.10920691 -0.16109617 -0.14047238 0.092275135 0.05798928 0.4101596 -0.32199788 -0.4254374 0.36634675 -0.16883256 0.28794092 0.07757071 -0.18890546 0.34522817 -0.023960084 0.22049312 -0.32005975 0.14393952 -0.024816057 0.24814129 -0.09304384 0.27500445 -0.12218383 0.121136025 -0.64376247 -0.35233492 -0.23926705 0.12879609 0.059429754 -0.14607741 0.07293018 0.12045505 0.28399953 0.0077320887 -0.09316398 -0.06305077 0.25810185 0.1916849 0.021602977 0.23110901 -0.1777886 0.28440866 -0.089704864 -0.30697545 -0.37806648 -0.37827265 0.049505223 -0.111002095 -0.024530761 -0.010339943 0.6083125 0.14045772 0.41070318
31 0.038756307 0.35257292 -0.42904383 0.20998466 0.22946832 0.037340015 -0.57207084 0.71529645 0.4999641 0.16261828 -0.38474572 0.1454365 -0.15636417 -0.06379425 0.33690917 -0.3483678 0.0339 -0.08587542 0.054443546 0.00549854 -0.57714415 0.3861794 -0.13297427 -0.040592894 0.6981334 -0.47576255 0.46703932 -0.49925852 0.17023231 0.05477228 -0.5424331 -0.073734865 -0.40704036 0.23936133 0.108133554 0.07029628 -0.1865634 0.16060717 0.21119657 -0.43246534 -0.4474736 0.4282039 0.063351415 0.056723345 -0.38736007 0.14223796 0.2907156 0.16967694 -0.04646296 0.41468 -0.33127612 0.22277841 0.049301717 -0.070988126 -0.1207953 -0.042454533 0.18587802 -0.24547233 0.054005582 -0.33981806 -0.07542985 -0.04153493 0.03275901 0.19141461 -0.15527326 0.0906332 -0.100335024 0.042672846 -0.35894102 0.18373016 0.18566187 0.15120086 0.45063683 0.24639691 0.2810275 0.16111508 -0.110394 0.04919948 0.13021511 0.101804554 0.37377653 -0.17058751 -0.2261289 0.27950257 0.12897934 0.12750785 0.033342075 -0.073915586 0.5241187 -0.1648017 0.17322102 0.13429138 -0.13890883 -0.108635254 0.28380945 -0.33271828 0.47246265 -0.05626333 0.14918941 -0.6930295 -0.23082758 0.018244319 0.07707847 0.09814202 -0.59929144 -0.032240644 0.13544863 0.37702644 0.06758892 0.037752725 -0.1266917 -0.07837379 0.13591047 0.007486849 0.36206546 0.010663981 0.16909112 -0.052031703 0.061865192 -0.17949145 -0.12953988 0.037776705 -0.013148003 -0.02664752 0.040269226 0.76858413 0.1455199 0.4513401
32 -0.27269477 0.18413001 -0.1578292 0.23856372 -0.13811913 -0.02846825 -0.3675142 -0.09502067 -0.03978919 -0.14450403 -0.1566523 0.13443454 0.0680704 -0.3070272 -0.050708998 0.08902476 -0.08258193 0.11900028 -0.028761735 -0.25205308 0.07464855 0.21207695 0.18553421 0.000296008 -0.017451724 -0.07616235 -0.10467367 -0.024541633 -0.105288476 -0.36090714 -0.04263135 0.06469262 0.013552019 -0.25701264 0.23136823 -0.15564565 0.03059763 -0.14455256 -0.18144222 0.06663914 0.010696889 0.2235983 0.09193855 0.25507307 -0.2836508 -0.100307114 -0.054342397 0.047869425 0.44111642 0.059159007 -0.18358499 -0.08847268 -0.2644935 0.17873016 -0.17327245 0.3759377 -0.117874175 0.45256042 -0.17649853 -0.10544717 0.1670658 -0.04924332 -0.11940029 -0.07815998 0.08506966 0.11040942 0.13606185 0.06439751 -0.015832324 -0.23310268 0.0061072293 0.2949896 -0.06674525 0.074860156 0.05410336 0.18101428 0.20387015 -0.07725947 0.19058421 0.13369046 0.063997604 0.11558141 -0.21113184 -0.029565789 0.13207188 -0.30716246 -0.120931506 -0.21013829 -0.13989872 -0.007843647 0.13343103 0.0018978444 0.013056934 -0.004184811 -0.20281795 0.061620437 0.04566298 -0.31189635 -0.16449703 -0.32096833 0.034169268 -0.07029345 0.13288409 -0.27612978 -0.26264435 0.20055717 0.050971203 0.2583732 0.025387019 -0.35414794 -0.28298244 -0.2093707 -0.024809847 -0.028818388 0.08586821 -0.0007322364 0.12114508 0.08279268 0.0018536199 -0.18634082 0.0068208817 -0.23606397 -0.058754615 -0.55143565 0.29106832 0.35126102 0.19348441 -0.05809363
33 -0.17163049 0.17179888 0.02391396 0.08244329 -0.044999015 -0.06654613 0.11842603 0.05158222 -0.07169475 -0.050955188 -0.036010828 0.0963242 -0.14288965 0.0005984608 0.20897205 0.09451168 0.016430391 -0.03941361 0.27546066 -0.07307097 -0.097300954 0.100122534 -0.07088032 0.0141830705 0.06399206 -0.095263876 -0.1130777 -0.12892558 -0.09116495 -0.27055797 -0.21235529 -0.042718668 0.029102363 -0.1931373 0.2939194 -0.15119563 -0.09160917 -0.27731553 -0.17449023 -0.07310428 -0.122708775 0.31261343 -0.09180436 0.41784868 -0.19132216 0.14564396 0.19978558 0.0102146175 0.2249877 -0.074016355 -0.21441463 -0.025296623 -0.08087869 -0.07354049 -0.09660479 0.43413344 -0.35445115 0.14240943 -0.08706677 0.16726892 -0.08209279 0.07635966 0.01698176 0.21258079 0.12434322 0.0070520835 0.1481326 -0.046136733 -0.1078914 -0.4255685 -0.07743451 0.15963362 0.1644381 0.17104669 0.100848615 0.21014872 0.11656735 -0.1668192 -0.1689738 -0.03891477 -0.05414312 0.09924087 -0.3240043 -0.1137993 0.2015718 -0.22522233 -0.04626903 -0.16488898 -0.06253142 0.13158673 -0.056326058 0.12867701 0.26719534 0.049134947 -0.2741201 0.05835002 0.1914247 -0.16272113 0.17113407 0.056984358 -0.22702493 0.04994043 0.2726838 -0.1682442 0.20172256 -0.11472546 -0.26529235 0.14107145 -0.33517286 -0.4824437 -0.2537286 -0.009485622 -0.31018296 0.1068503 0.19805686 -0.23141056 0.06529619 0.036488753 0.26700935 -0.19820939 0.10196391 -0.40646926 0.104220524 -0.27464896 0.15818106 0.24419852 0.10790106 0.04374251
34 -0.12929146 0.41177246 0.066181116 -0.6195136 -0.09845018 -0.07061672 -0.10715445 -0.03431285 0.73157084 -0.34653595 -0.61095846 0.65255916 0.25664628 -0.078180484 0.06911191 -0.090797365 0.12801073 -0.8541493 0.13462615 0.107821524 -0.6974511 0.2213475 -0.2895016 -0.15122607 -0.25051448 -0.54440314 0.13314146 -0.23422572 0.7657331 0.123784654 0.34741935 -0.27049637 0.014433431 0.2563121 0.27810588 0.29111212 -0.08808536 0.40429392 0.067789406 -0.521707 0.3243836 0.50217026 0.17587821 -0.4124194 0.30999848 0.042168476 -0.56297594 0.2444963 0.12573247 0.1149954 -0.9044765 -0.008585314 -0.4302252 -0.1833353 -0.10235464 0.52617484 -0.04431885 0.24768464 0.049387205 0.06991146 0.6154774 0.16614002 0.1001199 -0.07905215 0.011089025 0.6097711 0.19897522 0.50152135 -0.4928485 0.08394699 -0.10021498 -0.16680083 0.41110188 0.28418308 0.07375615 -0.24269076 -0.094460785 -0.06790145 0.19478557 0.12214943 -0.2672966 0.114149116 0.040256537 0.17179964 -0.18551123 0.34341678 0.29103735 0.25973263 -0.0079421215 -0.23277311 0.14771874 -0.035401672 0.3082679 0.09886061 -0.20988692 0.639121 -0.11755435 -0.20577769 -0.13566868 0.008411171 -0.24235517 -0.059712496 -0.7126328 -0.0051281517 0.42200258 0.22462443 -0.2423772 -0.2551368 -0.33349863 0.37006754 -0.41741234 -0.16431345 0.27970058 -0.48387772 -0.34926426 -0.052189358 -0.19787274 -0.04617726 -0.4303939 0.0057281093 -0.5096443 0.15090047 0.508791 -0.41975588 -0.119722225 -0.24591918 0.49620086 -0.07256788
35 -0.46728712 0.15347157 0.10435276 -0.34877932 -0.3991707 0.3762534 -0.25062662 -0.1279628 0.66150236 -0.41356558 -0.6453007 -0.11508257 0.18000466 -0.057136357 0.38977084 -0.5609486 0.26840663 -0.356354 0.14387736 0.23722917 -0.1857955 0.21494615 0.16589984 0.142271 -0.09014342 -0.4381046 0.023370918 -0.37580907 0.54998535 -0.06299081 0.2533877 -0.26395485 -0.22550209 0.40202364 0.29751375 0.07598153 -0.22104435 0.55846065 -0.17253916 -0.37225875 0.70397115 0.04116918 -0.19303165 -0.13965835 0.3958797 0.0055756373 -0.3816542 0.5406116 0.16091783 -0.053621415 -0.28005508 0.05000144 -0.48364043 0.12419353 0.17637362 0.3638251 -0.10532733 0.11681487 -0.03625805 -0.014615712 0.51420146 0.009621478 0.022071417 -0.13326824 -0.068786755 0.5045034 -0.034033928 0.5200203 0.093855284 0.505707 -0.046064995 -0.11157375 0.6776684 0.2338442 0.3216857 -0.5690049 -0.15118575 0.14314826 0.29265353 -0.14325604 -0.26855502 -0.17930695 0.2894836 0.04251393 -0.19235487 0.23238575 0.30868733 -0.028592097 0.2943519 -0.14897065 0.10537821 -0.061117873 0.43856665 0.12944308 -0.25543645 0.5918857 -0.16195129 -0.29727384 -0.06052989 0.26597422 -0.24908392 0.21129575 -0.3141618 0.06531561 0.44369024 0.15747926 -0.04252131 -0.27384287 -0.32300952 0.13526537 -0.4454627 -0.087767236 0.05179685 -0.5396843 -0.23717189 -0.08291177 0.12109485 0.051642146 -0.14647415 0.06598243 -0.44289273 -0.15191759 0.5556908 0.13436978 0.06410183 -0.049556196 0.27961105 0.20568043
36 0.06778007 0.112180986 0.0440224 -8.5727e-06 0.00806737 0.31557104 -0.40266126 0.034300346 0.04095811 -0.067655645 -0.4894489 0.12618768 0.13531736 0.043199386 -0.002880876 0.0478907 0.023027077 -0.26442316 -0.101264514 0.11780764 0.17338571 0.02713585 0.089862674 0.08074208 0.14102411 -0.009964533 0.16998027 -0.068274125 -0.08600321 0.07367948 0.07480533 0.06669405 -0.1244105 0.369529 0.29009205 -0.18126003 -0.038243063 0.0779332 -0.20330484 0.11780371 -0.48890424 0.41835052 -0.17336723 -0.016929299 -0.10619403 -0.12862325 0.07539678 0.38328752 -0.14242497 0.02690594 -0.14069523 0.024286607 -0.09508708 -0.0051181526 0.029411353 0.056350045 0.027599942 0.09728367 0.15625674 -0.09855069 0.59808534 0.37282574 0.27661034 -0.05155522 -0.055135325 0.15090515 -0.06430025 0.11882328 -0.13611111 0.09244032 0.008472825 -0.026293874 0.04168352 -0.17775093 0.18620068 0.08262935 0.06835893 0.05896553 0.09334811 -0.26447973 -0.06324027 0.09326072 0.065857686 0.044854727 0.07311718 -0.16255543 0.07494256 -0.19253945 0.03716939 -0.2369177 -0.09581584 -0.29019707 0.14013247 0.08632821 0.29302433 0.081008375 0.25320718 0.27055475 0.05129065 0.101738684 0.03090244 0.3446541 0.23297392 -0.21849792 0.011681088 -0.03163523 -0.040783264 0.023750717 -0.021505555 -0.04098813 0.123608686 -0.145649 0.3977842 0.03356245 0.35658956 0.2147909 -0.12455423 0.09844526 -0.13272005 -0.27044654 0.12453394 -0.14767641 0.08459566 0.04087497 0.21255465 0.011796609 0.20863016 0.04521601
37 0.092151396 0.116881385 0.023261558 -0.030048613 -0.10300227 -0.06530629 0.4057995 0.27470636 0.30060503 -0.2236019 -0.2922573 0.2685054 0.21589944 -0.24971603 -0.0596088 0.12353857 -0.09410128 -0.22060505 0.35544392 -0.04874226 -0.66168165 0.011925285 0.35296395 0.037693147 0.026045926 -0.55937266 0.2526983 0.058858372 -0.38766012 0.07217423 -0.00037274693 0.18270397 -0.34785324 0.47349703 0.11463979 -0.28627414 0.16583504 0.6408047 -0.27344897 -0.3318753 0.5056357 0.26224175 0.050496645 -0.16687638 -0.41057268 0.21616898 -0.5836454 -0.12947322 0.11524243 0.3957551 -0.026368171 0.2534395 0.076200396 0.43877387 0.025231661 0.6874733 0.09792001 0.38120636 -0.043791007 0.060450505 0.24288341 -0.22308674 0.07280539 0.13938844 0.11624897 0.2098004 0.3758977 0.21046194 -0.022374798 -0.015938425 0.44543737 -0.01632144 0.12399241 0.37571025 0.15548159 -0.2769029 0.010349092 -0.14844885 0.5227086 0.038045082 -0.2138419 -0.100647256 0.26048142 -0.02123623 -0.5617287 -0.72413325 -0.17602275 -0.010390346 -0.37756395 -0.07175815 -0.04246222 0.30463997 0.30912557 -0.499647 0.23817794 0.34670413 0.037289288 0.38371766 0.16738501 0.7571775 -0.13156587 -0.18116018 -0.23409115 -0.228058 -0.07614754 -0.13241185 0.02238421 -0.13189416 0.10913274 -0.44869247 -0.26632786 0.24631353 -0.22529101 -0.18395562 0.25754976 -0.50382125 -0.20602636 -0.02681484 -0.29560587 0.4197647 -0.020567186 0.55659014 0.07961617 0.019382348 -0.44752175 0.34151202 -0.092894726 -0.43020907
38 -0.051789373 0.00964901 0.081630565 0.104848914 0.065256305 -0.33973634 0.3120815 0.26180482 0.32837203 -0.20356588 -0.28602022 0.24258973 -0.04664942 -0.14354424 0.029062381 0.122445665 0.14640798 0.015776623 0.52937955 0.4381303 -0.6083943 0.1296718 0.054198276 -0.090974115 0.24214704 -0.4967122 0.27478787 -0.1149818 -0.3556696 0.06854006 -0.0013226966 0.35721156 -0.21428946 0.17520973 0.43653867 -0.049380045 -0.30329674 0.44581765 -0.48121327 -0.3293034 0.28396887 0.3441163 0.24881941 -0.33405674 -0.07082502 0.3256106 -0.59985656 0.21007757 0.0106276 0.5538859 0.08186005 0.14746042 -0.33667082 0.17320128 0.11759321 0.3951941 0.2687148 0.4079013 -0.13159797 0.053360164 0.23694032 -0.47064292 -0.18455888 -0.0417553 -0.0694573 0.23984037 0.21377301 0.090123944 0.15171269 0.14421415 0.17626707 0.15616432 0.023078226 0.63712347 -0.2149756 -0.11426847 -0.12807682 -0.14334983 0.1156513 -0.23853129 -0.2486783 -0.32542798 0.10572777 -0.37402377 -0.43625417 -0.17246778 -0.40386617 -0.06697467 -0.22236769 0.054691844 0.29483342 0.33695796 0.4279 -0.2745632 0.13542038 0.0338079 -0.0029558318 0.23984161 0.016520781 0.36721468 -0.11150992 -0.015455568 -0.23272195 -0.33370584 -0.08757232 -0.033106253 -0.115727685 0.07850091 0.25524542 -0.023481093 -0.17942384 0.44936523 -0.06722239 -0.2982923 0.17505969 -0.2067451 -0.3052271 -0.025727924 -0.03111771 0.4374393 0.2014661 0.6545655 0.14592889 0.09335485 -0.6460848 0.47069192 -0.21382527 -0.23438963
39 -0.27174163 0.21281731 -0.02636284 0.10004051 0.17047364 -0.11299862 -0.14690849 -0.1968857 -0.10291395 -0.23483038 -0.16728878 0.07715718 -0.11969889 -0.012728512 -0.18680483 0.13457085 0.024415167 0.10494783 -0.19748065 -0.29858848 -0.19487001 0.06797177 0.07246882 0.15629272 0.26498818 0.04008546 -0.085507154 -0.3072536 -0.10093699 -0.29541573 -0.2544618 -0.042220175 -0.07053902 -0.3056334 0.21208145 -0.001973564 -0.06942047 -0.09296634 -0.20534003 0.17643 0.13699502 0.22360754 0.031392764 -0.071788356 -0.18644188 -0.07194878 -0.004597074 0.29131812 0.21203572 0.0766736 -0.039863743 -0.0525475 -0.17977773 -0.049263973 -0.21620816 0.39458942 -0.23314549 0.43376446 0.08266997 0.12655477 -0.03332588 -0.18114373 -0.10040727 -0.13664035 0.13980135 0.10568115 0.0054404563 0.17457803 -0.0747157 -0.22976345 0.15014665 -0.06082805 -0.09211978 0.022655364 0.084018506 0.33305752 0.08988675 0.13174516 0.009929401 -0.07790668 0.17396541 0.07922873 -0.2053767 0.003412147 0.046166923 -0.28430837 -0.005202508 -0.52196586 0.0030848025 0.0523592 -0.0026409086 0.09377629 0.3916452 0.12443244 -0.15239204 -0.015158885 0.122620404 -0.12624365 -0.049045086 -0.19211867 -0.16248226 -0.053972606 0.11828403 -0.14588535 -0.02237735 0.019074632 -0.23853104 0.2719158 -0.23744853 -0.30675495 -0.29765254 -0.40627483 0.024755735 -0.19977345 0.047089927 0.0716479 0.12520842 -0.11901423 0.07394859 -0.22387524 -0.124754466 -0.2689604 -0.34099504 -0.3407788 0.15109353 0.37415028 0.089302815 -0.0016026552
40 -0.52142596 0.3014715 -0.08138691 0.12889685 0.039727494 -0.22272307 -0.07332516 -0.13704832 0.027525952 -0.16422522 -0.009498691 0.12188607 -0.15267591 0.015177727 0.112320215 -0.03577801 0.12843499 0.12074497 0.092794284 -0.40346047 -0.05871248 0.042434014 -0.024888825 0.0049928688 0.27785367 -0.07945721 -0.27887288 -0.18773592 -0.2164496 -0.2953364 -0.038454607 0.17704925 -0.103854075 0.052968867 0.15946428 -0.11314134 0.12839937 -0.18719947 -0.09633991 0.21426128 0.047018453 0.3507439 -0.05299528 -0.19195697 -0.025633797 0.16107884 0.28375953 0.2805397 0.42292315 -0.078428425 -0.07819817 0.18257745 -0.31282112 -0.088559575 0.080771856 0.3691911 -0.055461258 0.5342478 -0.20005342 -0.32719117 0.29065168 -0.008285073 -0.19677019 -0.06546797 -0.008927808 0.33098665 0.122783184 -0.12325069 -0.0755222 -0.26987812 -0.024968045 -0.03423402 -0.2960942 0.22427182 0.013836853 0.069965705 -0.05905766 0.0339781 -0.11512947 -0.0853702 0.24413697 0.04718189 -0.117374934 0.033741064 0.23711967 -0.20851354 0.08655841 -0.0936044 -0.09041318 -0.07678025 -0.055718794 0.13608326 0.2320392 0.18686466 -0.2219849 -0.017312285 0.014334631 0.03452841 0.07029236 -0.28486106 -0.036366787 -0.17491408 0.36110458 0.1713227 -0.12181775 -0.028143983 -0.33044916 0.3467273 -0.16559468 -0.29916468 -0.054755878 -0.0338654 -0.2329962 -0.2708546 0.29012594 -0.06635688 0.09294412 0.21706593 0.18287347 -0.19832993 0.019504666 -0.4231671 -0.18665928 -0.46395183 0.12060684 0.51062316 -0.0390411 -0.062097955
41 -0.35364634 0.15292428 -0.054060202 0.145247 -0.031721536 -0.19558962 0.056890007 -0.2293605 -0.18185475 -0.15683222 -0.16043144 0.12113963 0.04870032 -0.13514295 0.23182873 0.06901154 -0.0437484 0.16430782 -0.04525179 -0.30748034 -0.027843613 0.13821143 0.13446705 0.17225277 0.07189008 -0.090412974 -0.12858182 -0.41564548 -0.032210775 -0.39443833 0.08056906 0.15533431 0.070596084 -0.10648661 0.20643185 0.049804717 -0.0032238201 -0.088641025 -0.2379597 0.004717206 0.14700918 0.16484955 0.0023337419 0.17442864 -0.33667248 0.023060286 0.08313421 0.080684684 0.17281002 -0.02871765 -0.21364982 0.17085162 -0.36849964 0.24373813 -0.062246904 0.3367162 -0.056134265 0.37904587 0.039036877 -0.21255936 0.1558369 0.05307465 0.052418005 0.15839861 0.2577842 0.14995718 0.16046596 0.09328099 -0.08140625 -0.15599908 0.081155084 0.07110091 -0.19862236 0.087589204 -0.17193247 0.3403341 0.1034331 0.0261881 0.03533976 -0.12229842 0.08199183 0.4681855 -0.14819115 -0.24275848 0.13319394 -0.18969703 0.004493749 -0.24224946 0.043360468 0.15027198 -0.0014170049 0.08269326 0.30326432 0.28514907 0.03007826 -0.19223993 0.07458924 -0.29659742 0.053446442 -0.24940532 -0.13743849 -0.17531115 0.31932917 0.057564892 0.014952832 0.006242782 -0.06197823 0.23317775 -0.27198765 -0.35554284 -0.17727496 -0.21776363 -0.13031313 -0.16661412 0.21393774 0.017613433 0.3366612 -0.0058745015 -0.037447814 -0.19298932 -0.023026498 -0.26457244 -0.05919763 -0.5426655 0.26089138 0.52800953 0.10471867 -0.1206203
42 -0.102316126 0.311351 0.06340628 0.3462433 0.001186195 -0.14862995 -0.06216612 -0.06854959 -0.15206504 -0.17638542 -0.27139103 0.07053781 0.021632198 0.018686695 0.06125607 0.057821356 -0.011859086 0.042321645 0.046934552 -0.3759632 0.094499685 -0.1008541 -0.13405414 0.11313699 0.111940525 -0.14158732 -0.38661835 -0.15609322 -0.11766718 -0.1552597 -0.07791663 0.2037627 0.13526814 -0.23975983 0.14121252 -0.03210252 0.17563102 -0.09016984 -0.17248651 0.15196149 0.03475326 0.10413855 -0.04369148 0.09697621 -0.312431 0.10378848 0.054269265 0.100277886 0.24407391 -0.17660137 -0.33933654 -0.03801185 -0.09612788 0.06654486 -0.088656254 0.27755955 -0.30584258 0.3319876 0.016082121 -0.19830298 -0.006129542 0.27160037 -0.0052891755 -0.09159742 -0.074220516 0.17485797 0.13792346 0.11948612 0.018024223 -0.23531136 0.079765625 0.15667142 -0.081275985 0.15242048 0.12056841 0.18204868 0.041837186 -0.054204497 -0.035046946 0.05769139 0.04924644 0.111861184 -0.10335956 0.09724415 0.06315047 -0.06330048 -0.12519927 -0.440829 -0.16088492 -0.0072134407 0.12081726 0.24759822 0.43891934 0.03879655 0.0016387538 0.026016181 0.15747139 -0.03694078 -0.12641294 -0.20908 -0.3818063 0.0050079925 0.26963857 -0.061605196 -0.09674622 0.14595552 -0.15618265 0.22695702 -0.19727345 -0.17477137 -0.18481225 -0.108485915 0.052810185 -0.100480296 0.25354147 0.04766126 -0.088624075 0.12430954 0.16582762 -0.25815964 -0.14931832 -0.42797843 -0.06478104 -0.46081987 0.12315075 0.56829655 0.04989315 -0.058578998
43 0.22095758 0.13550805 -0.40173233 0.025903344 -0.05854946 0.026452625 -0.44644165 -0.051637743 0.25335032 0.084739506 -0.2402077 -0.0016505383 0.02703814 0.10868547 0.17026868 -0.14449407 -0.05616038 -0.19717911 0.04550124 0.119119234 0.23560059 -0.09594467 0.28570682 -0.06801824 0.19645385 -0.31736773 -0.1578676 -0.2107838 -0.05397695 0.026304811 0.23576014 0.07774066 0.31129712 0.011937774 0.067474924 -0.0914262 -0.015606437 0.21999753 0.0894549 -0.1195813 -0.5105906 0.4090279 -0.24131195 0.2298341 -0.007357567 -0.00034960156 0.033431817 0.15237172 0.070540436 0.22926952 0.01462491 -0.20125894 -0.29847756 0.0826595 0.17285556 -0.08924661 -0.012793034 0.09252573 0.13735293 0.009354427 0.23921849 0.20333782 -0.08405388 -0.002922492 0.1875376 0.17729563 0.04911985 0.20146504 0.024351586 -0.18897997 0.03309987 0.23383366 0.10137913 0.06377004 0.23762955 0.039553568 -0.15964219 0.14942458 0.13673353 -0.14642584 0.13846436 0.30371732 -0.10249972 -0.11374205 0.038985215 0.074965574 0.015737182 -0.22635944 0.05174203 -0.021030067 -0.12190152 -0.15501612 0.0034337367 -0.3457197 -0.034181878 0.061030183 0.21530274 -0.05320586 -0.08717163 0.12537864 -0.19855833 0.08108792 0.11962552 -0.40082657 0.20323482 -0.023667447 0.10378753 -0.085154295 -0.0439852 0.0761113 0.2711718 -0.1412887 0.2566773 -0.11968755 0.037562255 -0.0320163 -0.09429013 0.13427606 -0.1834756 0.0077530104 0.11003846 -0.08390595 0.10382976 -0.02058485 -0.065189704 0.12907532 0.33433497 0.27815977
44 0.26679134 0.05517464 -0.3835492 -0.08576904 -0.07539574 0.030170439 -0.44742945 -0.09747655 -0.07529437 -0.112694256 -0.346618 0.2015873 -0.23074098 -0.056628667 0.22951102 0.044016477 0.07051674 -0.047834884 0.07555554 0.22713198 0.020559153 0.26665857 0.25285384 0.0040343516 0.27436122 -0.03233065 0.26898608 -0.20414735 -0.12522481 0.12849756 0.23459727 0.002759443 0.03967478 0.0061882054 0.14338896 -0.12271727 0.11610396 0.01671994 -0.024640547 0.181162 -0.5045791 0.4189287 -0.33355927 -0.06365626 0.11558904 0.090852864 0.0821586 0.12710583 -0.06373949 0.27528608 -0.38026828 0.15672593 -0.13148467 0.13575049 0.04124414 -0.13275348 -0.07168118 0.30838898 0.2491905 -0.033264454 0.12205603 0.08713417 0.19610773 -0.13745931 -0.27505714 0.31210732 0.1441708 0.18244591 0.051798057 -0.24012019 0.17294449 0.058877297 0.07635881 0.07029519 0.020340342 -0.08715303 0.03801411 0.16911244 -0.041490737 0.07616784 0.054280788 0.4892223 -0.029750032 -0.07704145 0.10567198 0.008727855 0.23981462 -0.13759796 0.16678198 0.1335431 -0.2620646 -0.052362293 -0.12725852 0.2514656 -0.0845053 0.044904035 0.30896533 0.13978341 0.21420398 -0.03340184 0.007687821 0.2744639 0.3236182 -0.4537016 0.15313458 -0.0629073 -0.09699187 -0.17945781 0.21220799 -0.3183685 0.29182658 -0.24282789 0.012811149 0.04429012 0.24050766 0.25332183 -0.050333932 0.22748676 -0.34569 -0.04080313 -0.07591901 0.2857191 0.05607269 0.06905699 -0.09293668 0.114519894 0.38818085 0.24911189
45 -0.33000645 0.17671807 -0.114971876 0.1513781 -0.2855684 -0.4099943 -0.36136568 0.033398394 0.0020182761 -0.2229126 -0.06169031 -0.04329407 0.04350211 -0.085264675 0.24757855 0.0347065 0.17614414 -0.14533491 0.023992356 -0.31874585 -0.109656 -0.09652655 0.02655827 -0.19004211 0.09988993 -0.009068959 -0.46222797 -0.358953 -0.1591017 -0.18711397 -0.14646108 -0.053425785 0.039262023 -0.11467542 -0.13790098 -0.0442858 0.021081526 -0.2699313 -0.1544041 0.31153053 0.05421197 0.32149085 -0.1689874 0.18915536 -0.3939329 0.29713297 0.119180225 0.047044307 0.38806093 0.06511092 0.054984678 0.29855815 -0.05329718 0.02522397 -0.09403617 0.30874357 -0.22951338 0.46942446 -0.18429777 0.040395487 0.11371064 0.114003986 -0.13286605 -0.26918593 -0.15047891 0.10977298 0.4282315 0.24680515 -0.069803976 -0.37770122 -0.24683948 -0.032595664 0.038329896 0.05966933 0.041607864 -0.11343441 0.15940838 0.31203464 0.24057983 0.07152501 0.19185516 0.10732266 -0.017425302 -0.078706294 0.04232687 -0.10611573 -0.18506768 -0.4414365 -0.32176208 -0.19543125 -0.18149668 0.026525397 0.25054806 -0.1273591 -0.2594135 -0.15679592 0.18789738 -0.03424732 -0.09628459 -0.33886632 -0.010077162 0.44508454 0.04466161 -0.06670799 0.085651025 0.28906617 0.024859255 0.24309511 -0.17001188 0.014916187 -0.12983504 0.054365 -0.04273049 -0.027773768 0.20649654 0.051296584 0.0037636391 0.12026242 0.10074996 -0.076620124 -0.080816485 -0.36873987 -0.31520867 -0.23658401 0.1144821 0.31079903 0.0010999895 -0.046409007
46 0.3957348 0.15910426 -0.33078212 -0.06726813 0.02770797 0.007088719 -0.23197685 -0.18537934 0.50703615 0.13633722 -0.08304217 -0.1858317 0.05157927 -0.053143032 0.17288615 -0.18272933 0.25009257 -0.12370128 0.27274328 0.16279723 -0.065076485 -0.25290385 0.30351904 -0.28294343 -0.109451964 -0.24809289 0.35315624 -0.29949075 0.21838987 0.13858566 0.43778318 -0.06118149 -0.41590628 -0.010513586 0.44613507 -0.28343335 0.064213246 -0.16489264 -0.014720348 0.21198809 -0.6570869 0.08404325 -0.20792562 -0.06400412 -0.18046868 -0.39249355 0.012790015 0.14408402 -0.14964059 0.2035481 0.43250865 0.2389531 -0.6066103 0.04042053 -0.18350706 -0.06285645 -0.08275885 0.20316263 0.49947298 0.01851287 0.14315514 0.0630506 -0.3126016 -0.4452923 0.386733 0.11699706 0.34851265 0.036306895 0.2075147 -0.15651621 0.014366666 0.050363272 0.33840942 0.11703543 0.37285936 0.13683356 -0.1225551 -0.013263676 0.2692986 0.035518672 -0.04722682 0.035826646 -0.19108385 -0.20525824 -0.11333068 0.37073573 0.0009175213 -0.5244683 0.037289593 0.3092901 0.026386213 -0.85825205 -0.22071011 -0.30801055 -0.051351335 -0.18482694 0.6158445 -0.10273741 0.5264453 -0.0765774 -0.22437489 0.44546652 0.8703975 -0.6981403 0.22188763 -0.21184488 -0.3710764 -0.18459395 -0.054292884 0.39814368 -0.281891 -0.24637833 0.32607177 -0.19607535 -0.29057506 -0.41852707 -0.032925874 0.088853836 0.21222399 0.2836972 -0.040978413 -0.08122075 0.05965715 -0.20671806 0.12737472 0.12673822 -0.02297452 0.20005316
47 -0.15332872 0.1945664 -0.021264091 0.068068765 -0.23450767 -0.017720541 -0.1350424 -0.26689544 -0.12545578 -0.20676975 -0.16181412 0.024807774 -0.03529391 -0.28672585 0.21287169 0.18749993 -0.21685721 0.03462689 0.026942566 -0.3423745 -0.19701351 0.0076639648 0.3017212 -0.23457846 0.32918838 0.22913955 -0.18332843 -0.09770866 -0.16972026 -0.06512291 -0.09027399 0.25031418 -0.10668678 -0.17638703 0.0814944 -0.051160563 0.012812233 -0.10909433 0.056168538 -0.08181002 0.057128195 0.31445068 -0.008567606 0.24587265 -0.175856 0.005352768 -0.061269846 0.05098496 0.18328981 -0.037373066 -0.19363345 -0.02971131 -0.27449125 0.06567849 0.07810718 0.3560526 -0.34207758 0.18305084 0.027862506 0.0027957587 -0.112720326 0.32199496 -0.15068777 -0.016332142 -0.058702555 0.051751647 0.0063577 0.11463119 -0.03475677 -0.060782433 -0.016817441 0.035269048 -0.12773798 0.09814229 0.014633075 0.24768095 -0.43448362 -0.06361328 -0.12513635 -0.093795545 0.18257034 -0.0920715 -0.027836729 -0.080284216 0.044553496 -0.107660644 0.09841582 -0.51334625 -0.074956045 -0.005516829 -0.3057956 0.17372994 0.26621482 -0.114267126 0.09161228 -0.041656062 0.10195317 -0.09376145 -0.13764313 -0.07846956 -0.34689218 0.09371966 0.26517466 -0.20675008 0.22020607 0.40376675 -0.20752332 -0.06534951 -0.304916 -0.3600785 -0.23222935 -0.3332439 -0.076257 0.14840524 0.086420394 0.17524879 0.1796759 0.14909759 0.18424007 -0.21687375 0.02041867 -0.12468233 -0.22545749 -0.2785632 0.23639941 0.27747434 0.012386773 0.21394609
48 -0.35969132 0.19817594 -0.18763658 0.03254868 0.07804959 0.024582366 -0.029159691 -0.1508191 -0.17343278 -0.16571516 0.02614521 0.18139707 0.15450151 -0.31316608 0.24972019 -0.036985513 0.13782111 0.093909696 0.033910885 -0.17764147 -0.16668683 0.25126708 0.10515038 -0.05455438 0.15648386 -0.06726997 -0.21562816 -0.115803786 -0.19280559 -0.1093446 -0.1077171 -0.017619368 0.10563366 -0.17432114 -0.11328531 0.09951647 0.05978884 -0.16726704 -0.3393748 0.24766362 0.026106648 0.28379396 0.13143396 0.4004867 -0.013006244 0.087394856 0.058573037 0.26731443 0.31251064 0.021085225 -0.06064845 -0.024008311 -0.3144463 0.07264625 -0.26202455 0.10820129 -0.4212575 0.28241366 -0.14812306 -0.060096383 0.07513387 0.031603087 -0.120167255 0.08870954 0.08590921 0.2618291 0.07503457 -0.020020446 -0.3155997 -0.3839018 -0.044843785 0.03836988 0.23668602 0.30616277 0.058213662 0.047658045 0.1469017 -0.09183376 -0.065004446 0.06260105 -0.004476427 0.17643651 0.15041824 0.1961156 0.23879994 -0.2096787 0.019847842 -0.40159783 -0.13046491 0.1384884 0.08254705 -0.17996639 0.10257895 -0.00931238 -0.30143547 -0.05689051 0.4290458 -0.22318469 0.09808903 0.058727223 -0.35707507 0.30010942 0.16877075 -0.072691336 -0.15481074 0.055603344 -0.28801516 0.2642618 0.012555928 -0.19185595 -0.10388382 -0.21703231 0.049991187 -0.30689704 0.056109495 0.08486294 -0.10924975 -0.14333192 0.20618315 -0.18043342 -0.018380597 -0.45117188 -0.16724071 -0.13463116 0.1282686 0.54545224 0.007195793 -0.047421683
49 -0.3201992 0.016006192 -0.0034981733 0.087515734 -0.034331314 0.05315647 0.15327267 -0.332288 -0.120126314 -0.1043892 -0.13164447 -0.08486704 0.050709683 0.1829581 0.03381235 0.17367812 0.06375025 -0.02635481 0.12798977 0.103498705 -0.036116272 0.22274612 0.015986543 0.047627807 0.05028487 -0.13855147 -0.18647708 -0.20157902 -0.0677658 -0.24350272 0.014569739 -0.21959634 -0.0034141543 0.08614993 -0.08210701 0.015555436 0.13687485 -0.23480943 -0.2127373 0.034117825 -0.02333864 0.16535497 0.13818747 0.28931114 -0.36888134 0.15995419 0.41871405 0.37344342 0.39638302 -0.075022385 -0.12222835 -0.03181818 -0.04751707 0.05909948 -0.34003496 0.32789385 -0.40486524 0.2960947 0.16566539 0.038724467 0.113625996 0.020828394 0.06354215 0.10569461 0.06519601 -0.072208226 0.14709917 0.08218597 -0.2759241 -0.052461896 -0.26314986 0.23265591 0.116376385 -0.031461846 0.019342842 -0.07304081 0.11176003 -0.18683736 -0.091308706 -0.37576193 0.056100607 -0.065828644 0.10169215 -0.09137503 0.3297857 -0.3222143 0.16602755 -0.41455647 -0.28104427 -0.20192172 0.18629685 0.24956715 0.22392774 0.25410655 -0.20454888 -0.15355708 0.28584796 -0.18570775 0.025369663 -0.15846567 -0.31649137 0.06921348 0.20790467 -0.30259055 -0.063262634 0.12284475 -0.19211218 0.18408485 -0.19272146 -0.12934448 -0.06769631 -0.074943975 0.091053426 0.08189867 0.14703535 0.041599452 0.31323767 0.110373266 0.16071881 -0.22201556 -0.17954184 -0.26372558 -0.21658151 -0.22917125 -0.20232964 0.6075888 0.059786752 0.0109935375
50 -0.06417573 0.114709996 -0.09395359 -0.0257902 0.27634227 0.25631928 -0.34890392 -0.3213181 0.22622868 -0.37255874 -0.18917996 0.035234053 -0.004508708 0.0204863 -0.15876608 0.34034914 0.0927018 -0.42398894 0.20803054 0.20225486 -0.016204847 0.39151213 -0.05308608 -0.3981057 0.49927187 -0.09069212 -0.10665464 0.26234537 -0.43699893 0.06421451 0.16676109 -0.18923609 -0.21596454 -0.03360926 0.16957189 -0.10197167 0.019078832 0.27145007 0.013734714 -0.18745448 -0.21261327 0.34700403 -0.32423678 0.20667186 -0.09662061 0.29343873 0.3173149 0.13054347 0.046616644 -0.04664272 -0.30033737 -0.43784207 -0.23869154 -0.10660504 0.07905721 -0.3676914 0.22188757 0.094754405 0.17751619 0.027025577 0.16951594 0.28758332 0.3251088 0.19949763 -0.34982535 0.48769158 -0.060734395 -0.13779636 0.040635884 -0.0639587 0.07006638 -0.18926731 0.33548677 -0.04655763 0.46555904 -0.037904926 -0.14129896 -0.013864699 0.15283287 -0.3110828 0.038659334 0.18122266 -0.17553115 -0.26509035 0.5047875 -0.3626322 0.09098921 -0.049926534 -0.015135003 -0.27360445 0.23983584 -0.17647474 -0.08701199 -0.018608816 0.41129747 0.23823209 -0.0127182305 0.28232464 0.12888782 0.046955775 0.2788043 0.327941 0.22033927 -0.1634599 0.2607703 -0.02031859 0.021498011 0.04102096 0.08554391 -0.25209785 0.14755334 -0.2901354 0.22498916 -0.26519075 0.4668582 -0.3022323 0.24428321 0.68487453 -0.12938218 -0.21563727 0.24674538 0.034108724 0.018305644 -0.20098253 0.09785429 0.26659524 0.36475527 -0.45463905
51 -0.3074766 0.1695142 0.04821837 0.11412277 0.06968093 -0.30351532 -0.093764275 -0.20448925 -0.048891645 -0.08836786 -0.17839248 8.567823e-05 -0.06882604 -0.17845958 0.030528426 0.2481004 0.1030495 0.08847189 0.0077420822 -0.31419677 0.04597898 -0.0818852 0.20155655 -0.05476805 0.019227771 -0.09626238 -0.27761877 -0.3237746 -0.11585119 -0.13774087 -0.032263685 0.005278638 0.20076385 -0.050032835 0.22690585 -0.04901875 -0.0147480555 -0.10980067 -0.05105869 0.06779728 0.014115637 0.3738563 0.05079691 0.01708655 -0.069644265 0.09318645 0.1461049 0.08528634 0.37313294 0.02211605 0.063326456 -0.05449241 -0.12245286 -0.03681634 -0.07071707 0.4935495 -0.10225181 -0.019048095 0.1912707 -0.07930754 0.08186262 0.07989103 0.1021019 0.050548844 -0.06363707 0.13875932 0.08554702 0.044230703 -0.07835167 -0.41556966 0.035336696 0.04515712 -0.29249293 0.06388174 0.1062797 0.10992191 0.17611703 -0.07055282 0.13529982 -0.04910072 0.17227533 -0.029403348 -0.19955344 0.028650222 0.08811186 -0.3191494 -0.018003523 -0.29620942 -0.09803875 -0.010724202 -0.019166404 -0.06680245 0.28610203 0.014390273 -0.24250038 0.049528927 0.16098416 -0.14913061 -0.1610443 -0.19496208 -0.12764336 -0.0478792 0.25757512 0.016883664 0.06101212 0.081283495 -0.16532093 0.37294844 -0.20003285 -0.33149084 -0.1589777 -0.25131726 0.0072403844 0.090458944 0.13967128 -0.11459551 0.2967791 0.03938447 0.07743505 -0.27206072 -0.11279643 -0.32751074 -0.004769694 -0.33292106 0.001903029 0.5553212 0.0065590516 -0.088513166
52 -0.30758503 0.11778186 0.070705816 0.2784376 0.031750947 -0.1325625 -0.18271664 -0.16130759 -0.05480593 -0.013908333 -0.21777105 0.097539745 -0.0092343455 -0.07851022 0.2090826 0.08403972 0.20687741 0.049521632 -0.099253714 -0.36714995 -0.13193154 0.08018226 -0.13948372 0.011827407 0.23955493 0.14634754 -0.027765848 -0.37096262 -0.12294278 -0.3933803 -0.14753076 0.10734801 0.11762623 -0.26445344 0.16157642 0.00934667 0.070727505 -0.044340726 -0.43259844 0.053624958 0.0050358153 0.17573024 0.097700685 0.10850262 0.004532508 0.15410137 0.056515366 0.1604841 0.1121851 0.17165074 -0.26517275 -0.09900159 -0.16797192 0.098982744 -0.051542744 0.3341295 -0.23283362 0.28724197 0.08119608 0.088816606 0.15668665 0.18648712 0.03178598 0.040199157 2.400311e-05 0.2408676 0.28721946 -0.18301152 -0.16464181 -0.26514924 0.014417739 0.04884228 -0.14914767 -0.03185151 -0.0027929542 0.1011544 0.026733942 0.08545267 0.07777811 -0.020440893 0.16511878 0.15650575 -0.12710199 -0.006668988 0.40243018 -0.26785105 -0.14243136 -0.35686287 -0.10625646 0.11896449 -0.102231294 0.13521913 0.366431 -0.124568254 -0.16350478 -0.12456651 0.047506988 -0.1703958 0.06886873 -0.3357818 -0.18465428 -0.030503497 0.10046321 -0.166029 -0.0010028181 0.21204528 -0.22961494 0.2080638 -0.21455407 -0.28746328 -0.19842343 -0.011728605 -0.016824828 -0.15165669 0.06599959 0.100548185 0.20394991 0.10246187 0.091621794 -0.102589 -0.13838968 -0.39033583 0.010581862 -0.2248833 0.14572881 0.5218677 -0.025032705 -0.033820204
53 0.02445509 0.007806746 0.20571493 -0.065525666 0.17512855 -0.29136908 0.5032772 0.21967116 0.32371494 -0.19459024 -0.25259256 -0.13886777 0.11601627 -0.11695126 0.19801243 -0.019187082 -0.001520775 -0.105275534 0.39582866 0.32798612 -0.65029603 -0.07036582 0.21703725 -0.086752914 0.29743424 -0.24878573 0.10871094 0.07024051 -0.30365074 0.06425179 0.07488853 0.35002804 -0.41838253 0.2719601 0.08121217 -0.034219645 0.03512219 0.81669384 -0.20407413 -0.18555802 0.15478076 0.5490864 0.2220238 -0.17139381 -0.2730043 -0.07281333 -0.32533544 -0.03459982 -0.14135748 0.60030705 0.10078802 -0.34093392 -0.22236963 0.28475314 0.23782225 0.6222525 0.11928593 0.2738792 -0.24667604 0.049313683 0.20639245 -0.41040137 -0.17144601 -0.06367587 0.072590955 0.24570097 0.04974364 0.19715393 -0.0007241258 0.1560867 0.1738851 0.039273217 -0.040487744 0.46632037 -0.13607983 -0.13431467 0.1820843 -0.20741332 0.32521257 -0.09939711 -0.2886648 -0.04063723 0.066790305 0.011264744 -0.57321244 -0.32743207 -0.04858457 0.017820332 -0.20201783 0.12867783 0.12776786 0.35618895 0.52376115 -0.37840548 0.104721025 -0.00730763 0.11906185 0.33944756 -0.09694873 0.30170777 -0.051047087 -0.07702353 -0.28727823 -0.4917904 -0.16832638 -0.06391421 -0.2962654 0.0012727255 0.26777723 -0.21969514 -0.25445384 0.33987564 -0.18230641 -0.26782244 0.33124432 -0.15024604 -0.4500908 0.07854078 -0.2467386 0.3647536 0.034824148 0.70788693 0.15555274 0.039705582 -0.37765947 0.40297073 -0.10766714 -0.33763722
54 0.24483769 0.0849302 0.1821617 0.013153503 0.20012668 -0.27212945 0.40254351 0.10247513 0.22217216 0.051900357 -0.39828533 -0.018781807 -0.023252115 -0.14983906 0.04069612 0.00447998 0.041954745 -0.23290226 0.46417013 0.41380668 -0.72809124 0.01902507 0.09397183 0.031542093 0.15815078 -0.45771918 0.0918297 0.067165814 -0.08453666 0.12169459 -0.021056876 0.19452332 -0.35030282 0.3836066 0.18792911 -0.17164862 0.06722109 0.59114194 -0.2218097 -0.08847442 0.08705278 0.39397484 0.37759343 -0.19532482 -0.03036296 0.0517279 -0.37559766 0.29226592 -0.056047637 0.5093839 0.07306339 0.08871146 -0.030713787 0.1974349 -0.12052152 0.62519175 0.3173059 0.3140786 -0.026839616 0.19743419 0.24616513 -0.31074163 -0.14537251 -0.30964044 0.04993884 0.38663352 0.2072008 0.11657173 0.0362753 0.3620658 0.27334848 -0.081029415 -0.13451791 0.46077988 -0.04091325 -0.24246162 -0.002239824 -0.23307656 0.2649186 0.12157902 -0.26952583 -0.1768727 0.07726324 -0.26631412 -0.39996162 -0.37217417 -0.01817668 -0.24996857 -0.28154722 -0.20791648 0.13771933 0.39871174 0.5354869 -0.29922587 0.021465342 0.15200739 0.03958724 0.36048195 -0.027987333 0.40043458 -0.26435032 -0.016677825 -0.20266743 -0.17334583 0.020977452 -0.068202816 -0.21292575 -0.059051003 0.29152548 -0.28279248 -0.31827322 0.44546494 -0.28993842 -0.04209784 0.45874602 -0.17755218 -0.33906156 0.03815726 -0.074036404 0.5230387 0.22117682 0.5276974 0.052276023 0.01134046 -0.4977278 0.58398885 -0.051303327 -0.3269952
55 -0.2524827 0.38677838 -0.2782253 -0.14618762 0.08950121 0.048726078 -0.6457803 0.6376785 0.3002546 0.13807648 -0.14134422 -0.04811553 -0.087466024 -0.02328539 0.49544585 -0.15776148 0.22250874 -0.0077624097 -0.18273011 0.07969507 -0.5250261 0.51831996 -0.0041757626 -0.065052666 0.6022803 -0.75694495 0.53348887 -0.3599413 0.010880582 -0.095062934 -0.5657213 0.07838727 -0.12087222 0.1040758 0.12308523 0.25444683 -0.10964748 0.26857358 0.11239344 -0.50668955 -0.66683173 0.5519002 -0.00797748 0.14017624 -0.47221512 0.0837305 0.087757 0.14633054 0.13279673 0.25716636 -0.21907239 0.10911039 -0.025030775 -0.26763642 -0.3062403 -0.10009207 0.35835972 -0.27045572 0.32980818 -0.46064508 -0.13292588 0.034765754 0.43827546 0.10146131 -0.15264551 0.2683346 -0.082746 0.14541551 -0.5340825 0.3678927 0.19804996 0.5006043 0.32698756 0.32769635 0.2718625 -0.036265787 -0.0455351 -0.17661817 0.13731608 -0.0077035776 0.34739822 -0.1431433 -0.3463016 0.25641847 -0.29730818 0.06789485 0.1452067 -0.23901048 0.27390048 -0.14691275 0.039042078 -0.19314663 0.07351553 0.1905375 0.43056658 -0.32536757 0.40748098 -0.14451154 0.025663951 -0.43015143 -0.18905826 0.07749464 0.24412376 0.24020846 -0.32193562 0.033425257 0.123381525 0.4376875 0.18637878 -0.04492046 -0.046857227 -0.001569643 0.33763182 -0.17961475 0.22514214 0.18943432 0.102951035 -0.06901413 0.24431974 0.05163312 -0.12766396 0.04902638 -0.036858182 0.07740434 -0.006205224 0.5484171 0.14088662 0.4056977
56 -0.07870803 0.090925865 -0.35734874 -0.12580134 -0.20094427 0.16448973 -0.5297088 0.67648864 0.50885034 0.022943249 -0.053973258 0.21349859 -0.3425843 0.07959736 0.018876635 -0.21906957 0.32063702 -0.3184917 -0.21790539 0.1451748 -0.4067317 0.31750038 0.06069002 0.02328672 0.7377388 -0.75638485 0.40726817 -0.34397534 -0.20816074 -0.29120916 -0.1825222 -0.001777676 -0.18524489 0.13880603 0.1720582 -0.202327 -0.14644003 0.15809155 -0.010340341 -0.7386849 -0.40226465 0.033792324 0.035132095 0.21983324 -0.858641 0.08934115 0.1285105 -0.004554757 0.10449233 0.099927746 0.0064296857 0.1500604 -0.17794271 0.1536698 0.19445585 0.09230227 0.2529884 -0.14541972 -0.13202918 -0.42772344 -0.08432671 0.24548046 0.007863244 0.19316265 -0.21425132 0.062483367 -0.18976106 0.21577519 -0.4268673 0.20488232 0.30924127 0.2191704 0.17305438 0.47596174 0.23818502 -0.065633014 -0.14791337 0.038770806 0.123383366 -0.15374017 0.33098087 0.079366125 -0.3893933 0.5114373 -0.166313 0.43733525 0.0333247 -0.38127604 0.19418386 -0.23151056 -0.026070517 -0.5245559 -0.28768682 -0.009195813 0.105658814 -0.07165274 0.19224773 0.01635028 0.08999579 -0.3409278 -0.23196699 0.14269382 0.20033026 0.14044024 -0.0043612756 0.019447839 -0.0594032 0.01928553 -0.07908308 -0.24490862 -0.0355186 0.017405419 0.2335921 -0.016028792 0.28605205 0.08318347 0.16112216 -0.51953816 0.048859537 0.0723654 -0.35297456 0.23455471 -0.17275281 -0.102908015 0.082858875 0.6642439 0.30367094 0.43310672
57 0.20036802 0.12941661 -0.03152425 -0.40355006 0.46053275 -0.010741292 0.016917638 -0.14785914 0.6394917 -0.4184257 -0.501333 0.38230354 0.48610225 0.092147164 0.4864728 0.034804266 0.10368039 -0.44261336 0.40306693 0.16916803 -0.7176932 0.0070635234 0.15105882 0.060104784 0.1340123 -0.33446753 0.084994085 -0.10881295 0.63208663 0.1174037 -0.07843213 0.044400524 -0.08181278 0.28326672 0.21472758 0.21558431 0.19381014 0.17503326 0.1973253 -0.3891636 0.4473644 0.063247345 0.15674952 -0.19240493 0.25898272 0.36958733 -0.5411285 0.15007019 0.20677409 0.32876128 -0.7134069 0.004357479 -0.28727698 0.33703303 0.014323298 0.2312414 -0.15408382 -0.005944071 -0.2706345 -0.15531078 1.2297194 0.0948525 -0.042326935 0.24040845 0.08483787 0.821052 -0.20409447 0.32155862 -0.09793209 0.25576046 0.3362676 0.22672346 0.25893885 0.36934283 0.041363563 -0.23069167 -0.31280473 0.4294601 0.14694977 -0.072209954 -0.4357931 0.103868 -0.32852045 -0.21199296 -0.5106598 0.08036577 0.4606234 0.3983999 0.5642677 0.15451974 0.059186306 -0.09276378 0.49664465 0.14475884 -0.22320257 0.39259177 0.12049873 -0.07990612 -0.43148157 0.15815087 -0.0691893 0.45564565 -0.15694614 -0.08855535 0.13028286 0.39846137 -0.15730375 -0.115834914 -0.07050723 0.5362771 -0.71908027 -0.14049646 0.18815315 -0.30456805 -0.1013696 0.20219168 0.11783117 -0.040176112 -0.3909762 -0.10388591 -0.6840145 0.008628784 0.51474315 -0.45499787 -0.3996562 -0.13580582 0.29810205 0.1739458
58 0.23536734 -0.10403221 -0.020511601 -0.6102327 0.17547308 -0.22548796 -0.12235715 -0.20318483 0.42916992 -0.58093286 -0.781327 0.37072378 0.5297625 0.38854903 -0.38613102 0.0037352676 0.0941817 -0.18652986 0.47528 0.12140962 -0.45722222 0.22255313 -0.07889509 0.01975277 0.03523407 -0.583566 0.07894753 -0.48353916 0.286067 0.27785975 0.05749984 0.34162715 -0.30373698 0.20549229 -0.010552895 0.23598495 -0.46174255 0.33538082 0.3346393 -0.62221444 0.1628261 0.43339193 0.026024569 0.124980174 -0.09183534 0.08080643 -0.4658148 0.4366833 -0.016783409 -0.19831593 -0.56794107 -0.051327582 -0.4268656 0.110599354 0.09655265 0.25096914 -0.0004275271 0.352551 0.0024131672 -0.11558046 0.62702435 0.5084691 -0.21648319 0.28448072 0.17587374 0.56109726 0.12696853 0.28460684 -0.6781637 -0.02802344 -0.49515566 0.22229572 -0.38707176 0.1274236 0.3264446 -0.53154844 -0.16240565 0.23898171 0.13517635 0.18138397 -0.09921754 -0.4027883 -0.2536045 -0.057726122 -0.34478754 0.34700713 0.46545377 0.33058527 0.38542908 -0.3007712 -0.15088499 0.25186458 0.45221066 0.19494244 -0.32356337 0.11287329 0.020511258 0.2279138 -0.14539798 0.20959096 -0.3057711 0.17365117 -0.73181576 0.018236138 -0.009326792 0.15186344 -0.12641393 -0.34108323 0.19804546 0.33568662 -0.5703338 -0.004086704 0.3016095 -0.2656526 -0.3141918 -0.12650649 0.42386845 -0.021819709 -0.34711537 -0.17221588 -0.17078786 0.10799009 0.55696833 -0.3175804 0.3970435 -0.31579164 0.062271323 -0.005985144
59 -0.32366657 0.2729624 0.043293886 0.14812188 -0.11792624 -0.25688702 -0.13526867 -0.16955727 -0.17503774 -0.12632626 -0.12441689 0.20329544 -0.047304995 -0.05918713 0.05128328 0.2730785 -0.059448157 0.16579297 -0.12726107 -0.21082842 0.0010995079 0.09207992 0.050654024 -0.031230172 0.19757015 -0.06692442 -0.20491026 -0.18483552 -0.15473674 -0.33771473 -0.1287672 0.092775814 0.23122159 -0.03720037 0.26224905 0.05749582 -0.049209915 -0.08988442 -0.3337569 0.060879137 0.1015112 0.17625013 -0.12696125 0.13551702 -0.22966826 0.1349934 -0.1556431 0.07843854 0.24650934 -0.102034464 -0.22809237 0.07063226 -0.17533879 0.119420126 -0.05513055 0.41251427 -0.061624985 0.3287756 -0.014549981 0.09591432 -0.09265095 0.018515203 -0.05504699 -0.052426044 0.049822807 0.06360467 0.0047843736 0.07587135 -0.26056236 -0.1826856 -0.049137484 0.13746226 -0.16089739 0.0020542333 -0.016868597 0.053115334 0.10516302 0.012773864 -0.009028264 -0.1103568 0.112697326 0.06843464 -0.19304016 -0.18263473 -0.0014729511 -0.2584798 -0.20617187 -0.26248088 -0.020888178 0.006837919 -0.11533691 0.18256404 0.40243247 0.052324113 -0.34267402 0.07694393 -0.035907414 -0.21635635 0.1697689 -0.1539426 -0.36197537 -0.047132764 0.34721723 0.0038843362 0.119282566 0.07577777 -0.20126152 0.43766904 -0.2494068 -0.41876933 0.008781702 -0.11004776 -0.08577604 -0.06723812 -0.038249113 0.08067973 0.111409664 -0.009968048 -0.15461427 -0.34949034 0.049835637 -0.36056298 -0.20682304 -0.46329346 0.15573691 0.52679837 0.07164787 0.15155151
60 -0.17586501 0.10960574 -0.013301379 0.20636545 -0.06815849 -0.104194716 -0.08826608 -0.08815478 -0.00039989938 -0.09981869 -0.13787276 -0.030324155 0.20758697 -0.10534442 -0.15788957 -0.018312579 0.04922584 0.12793924 0.13467927 -0.28091624 -0.37793243 0.039998256 -0.010982533 0.10069015 0.2096666 -0.12736697 0.04330267 -0.15245855 0.012796809 -0.031025374 -0.16639447 -0.1856167 -0.06421168 -0.15683003 0.15041466 -0.020088531 0.04361992 -0.038500138 -0.17252378 0.4082436 0.09285327 0.0087128235 -0.13099316 -0.040702 -0.3173327 0.07092143 0.20728374 0.0145762665 0.34369746 0.014949502 0.05381282 0.035821747 -0.10328167 -0.0027386993 -0.15468235 0.45626602 -0.22034584 0.11121823 0.10840738 0.042224098 0.25069273 0.14251888 -0.051916864 -0.22929402 -0.30887 0.3280312 0.09801212 0.17985135 0.037222438 -0.012809194 0.08456988 0.23989354 -0.06964422 0.14714138 -0.12521365 0.058393262 0.19920458 -0.022941222 -0.42856398 -0.2203777 -0.028145105 0.3717928 0.118207194 0.18934502 0.1633236 -0.21569075 -0.28073162 -0.29683325 -0.12550437 -0.012532038 -0.20619595 0.24068743 0.25390285 0.28270328 -0.23732992 -0.056383952 0.42118263 -0.3394141 -0.25910503 -0.10744424 -0.08940419 -0.016544156 0.30531287 -0.17915612 0.27044392 0.19839633 -0.023812393 0.47823617 -0.5652088 -0.1287817 -0.16975743 -0.10753956 -0.00065180706 -0.07906946 0.43997073 -0.12591693 0.071599014 -0.054050244 0.015396566 -0.32959569 0.25454533 -0.29018673 -0.18531759 -0.26567557 0.35108045 0.46180332 -0.09233721 0.060403615
61 -0.32705176 0.35007724 -0.065250784 0.107599095 -0.27483746 -0.110849544 -0.19537991 -0.101970725 -0.23748365 -0.10855124 -0.18118015 -0.080997065 0.0734716 -0.06158465 0.21006891 0.1470227 0.1819688 -0.086718604 0.093177624 -0.25601438 0.0757646 -0.037452407 0.01213147 -0.09170944 0.15156285 0.08287903 -0.097742766 0.046718545 -0.08412851 -0.3792482 0.035959587 0.03748195 0.19106652 -0.1499856 0.08966314 -0.094775096 -0.049131274 -0.20127347 -0.37393817 0.085522935 0.1211063 0.21484111 0.023844194 0.090165205 -0.18149687 0.21178709 -0.011935358 0.28292114 0.29647157 0.14313343 -0.21435162 -0.05379073 -0.19571945 -0.005110257 -0.22020759 0.4654507 -0.14720906 0.44772157 -0.026371563 -0.101334095 0.15053408 -0.08605125 0.03384594 -0.14325944 -0.024535812 0.08998194 0.07642348 -0.045547392 -0.14726406 -0.50115514 0.07676897 -0.016139429 -0.13561113 0.053117033 0.21267836 0.19273973 0.023443842 -0.21331081 -0.066468865 -0.015141485 0.15820555 -0.11265991 -0.16790633 0.28320703 -0.0633227 -0.16421032 0.059551705 -0.3819456 -0.13500042 -0.10075445 -0.12548152 0.2602769 0.27218205 0.09295028 -0.16710848 -0.16293399 0.092411295 -0.1515619 0.026006691 -0.08343238 -0.17729858 -0.053947594 0.20076728 -0.08592069 0.020909226 0.17582674 -0.21102011 0.42304623 -0.23160553 -0.184197 -0.19583982 -0.06589032 0.0230137 -0.12214544 0.19124633 -0.1207627 0.1098074 0.033795863 0.16139542 -0.2973173 -0.009326075 -0.25789866 0.021962944 -0.35781375 0.14857726 0.39193636 -0.04335197 0.069923155
62 -0.31345096 -0.042842805 -0.045586176 0.20818509 -0.17448281 -0.29599372 -0.305596 -0.079836816 -0.087243676 -0.21125181 -0.07595695 0.15980256 -0.025719775 0.045985244 -0.20004746 0.018361086 0.123527445 -0.10852341 -0.29689997 -0.41398296 -0.016449992 0.20221579 0.076481275 -0.09337122 -0.011275059 -0.1412739 -0.05413248 -0.39543918 -0.28774092 -0.26339525 0.30511308 0.04768502 -0.10363842 -0.11290703 0.1128481 -0.07419298 0.123967044 0.20810235 0.09534353 0.14215751 0.0023669188 0.21238744 -0.4437372 0.08857229 0.18412566 0.31602967 0.22571866 0.15658368 0.29744172 -0.10351721 -0.124807045 0.111720085 -0.119549416 0.119959295 -0.0072444715 0.42836618 -0.06626655 -0.041435473 -0.014467209 0.13358784 0.02699486 0.14439459 -0.12879156 -0.030934356 -0.014096678 0.107892156 0.40366942 0.021319594 -0.07845701 -0.30709168 -0.081647776 -0.092335135 -0.15727325 0.28070158 0.16093686 0.041484322 0.049935896 -0.14346343 0.10337061 0.14005715 0.104623124 -0.009978837 -0.040581867 -0.08749408 0.15936477 -0.1814216 -0.13022375 -0.3449925 0.07999668 -0.17876938 0.092464596 0.10713669 0.36672458 0.1027488 -0.016023338 -0.26867932 0.013810141 0.017083555 0.17705256 -0.11490376 -0.25977787 -0.17979836 0.09883672 -0.23312096 0.10856812 0.30616572 -0.33552876 0.2905237 -0.46139368 -0.27528095 -0.14498203 -0.29667872 -0.21758893 -0.11340166 0.18897681 0.19055031 -0.069416985 0.042358972 0.175483 -0.27525973 -0.14914933 -0.08907294 -0.13992009 -0.13896136 0.24164134 0.28343478 -0.11223935 -0.08531588
63 0.1809589 0.7576922 -0.30293912 -0.08363426 -0.20937851 -0.20466603 -0.21970417 -0.02641571 0.2792872 -0.18257035 -0.768619 0.31463993 -0.13690194 0.20643176 0.22569491 0.37382197 -0.101575874 -0.17903763 -0.39632607 -0.19402756 -0.108047 0.67616653 -0.26394442 -0.43355617 0.27047056 -0.07408097 -0.08252028 -0.37350127 -0.39901984 -0.21819064 -0.1219257 0.12489424 0.23627084 0.44404835 -0.11302721 -0.11837056 0.017187621 -0.20918877 0.009558383 -0.19703655 0.42021188 -0.28638288 0.43661097 -0.43412346 0.0857043 0.049781702 -0.0117816245 -0.06640339 0.07446597 -0.11400542 0.52214974 -0.20616852 -0.272718 0.0722941 0.4115609 -0.042181686 0.27810156 -0.16254313 0.18818301 -0.15826204 -0.635283 0.19644791 0.3263871 0.49453282 -0.026770653 0.56508714 -0.11349582 0.27322564 0.0076285643 0.27575603 -0.10953039 0.42052817 -0.4194801 -0.13795616 -0.012907412 -0.41305315 -0.14381167 0.16376118 -0.16197753 -0.19560052 0.05718752 0.4846901 -0.20271382 0.05403979 -0.12730357 -0.039484058 0.013271688 -0.133415 0.07768291 0.0683356 0.17865825 -0.6049599 -0.20576642 -0.11384057 0.055027623 -0.3179368 0.36154482 0.24567851 0.01598475 -0.35676217 -0.13994329 0.2306146 -0.28404382 -0.8513429 0.5426272 0.008188534 0.17912506 0.11610713 -0.84653276 -0.24882981 -0.43276486 0.004375363 0.3821151 0.04955961 0.52873945 0.32178488 -0.24464998 0.46856773 -0.385594 0.16925643 0.05505211 -0.024624556 0.32718998 0.18852216 -0.0039244466 0.7827119 0.26985478 -0.10731716
64 0.13138476 0.5396593 0.07002219 -0.36840484 0.08136565 0.020970227 -0.46343574 0.13974988 0.55898917 -0.17905407 -0.33979976 0.2693736 -0.1584001 0.5720897 0.047277175 0.16311604 -0.2583569 0.05777556 -0.0077895983 -0.08832264 0.29668579 -0.039333362 0.16382919 0.13351656 -0.36834896 -0.21019909 0.08139892 -0.049035892 -0.00323205 -0.596672 0.3488403 -0.03813568 -0.28016293 -0.27238014 0.37501803 -0.09602938 -0.060894836 -0.2485291 -0.47614047 -0.6602304 0.05807634 -0.2402575 0.27509508 -0.04620121 -0.30116406 0.12046226 0.57166183 -0.1734859 -0.07284741 0.072308004 -0.106458575 0.49559557 -0.47122678 -0.109416254 -0.5175022 -0.14532577 0.14615197 0.12236865 0.04098526 -0.108151175 -0.305769 -0.20582877 0.5058266 0.15338384 -0.17053446 0.33180675 -0.4691553 0.8480107 0.10230821 0.062438335 -0.4308808 -0.09716506 0.061533175 -0.3913634 0.16522704 -0.4211098 0.2395797 0.20474637 0.027125115 -0.322986 0.49136028 -0.045331653 -0.21446185 0.036268905 -0.06664208 0.019235775 0.080113515 0.2685513 0.38713154 0.039446082 -0.09093792 -0.13751596 0.18077679 -0.3795001 0.09551131 -0.26461852 0.8039018 0.35428926 0.8227913 0.35436785 -0.22878124 0.057623185 0.038846284 -0.9270237 0.1871442 0.20973703 -0.31378952 0.05837216 -0.3963416 -0.30230516 -0.47215033 0.26562387 0.26378667 -0.05437683 0.5350346 -0.017877683 -0.29098824 0.16587627 -0.2506389 0.2257484 0.047934532 0.124186695 -0.1474227 -0.12162275 -0.34649035 0.7655198 0.14562006 0.004982855
65 0.27454957 0.0905919 0.25033066 0.27532563 -0.28958714 -0.09514461 -0.38494265 0.10695944 0.004426558 -0.2959673 -0.15121166 0.020323768 0.28828144 0.05759563 -0.034483377 0.16823496 -0.2827275 -0.3115078 0.15423879 -0.021222237 -0.5471002 -0.17666323 0.18078706 -0.17022033 0.5287007 0.10661891 0.055342223 0.16114455 -0.26224807 0.11500067 0.39447573 0.2740986 -0.016409198 -0.0381564 -0.19727801 0.04548435 0.28581166 -0.4114276 0.3040421 -0.25209546 -0.47045353 0.3809748 -0.11611176 0.4153102 -0.18648309 -0.028757127 0.06860881 -0.17283894 0.3440733 0.11307609 -0.27185625 -0.18864235 -0.060747135 0.045185253 -0.10829473 0.12888578 -0.27125 -0.30747664 0.23548573 -0.12798959 -0.00569757 -0.020451585 -0.33325195 -0.029970221 0.45196176 0.20120303 0.39224222 0.015807405 0.17876092 0.5014216 -0.07155221 0.040776987 0.16828075 0.1744368 0.29521602 0.25647455 0.26829168 0.04166451 -0.08259354 -0.28390554 0.16110843 0.01717062 -0.03991275 -0.21512227 0.021658508 -0.51399213 0.09221733 -0.24427225 0.1594382 -0.37728733 -0.28250864 0.17832546 -0.11316749 -0.20222141 -0.23091993 -0.2893591 0.060420148 0.020929176 0.11988686 0.17055082 -0.07805586 -0.03886618 0.21556374 -0.089361824 0.1805123 0.22759119 -0.13649397 -0.30653387 -0.22754759 -0.36263442 -0.2738877 -0.32188803 0.3744255 0.047566347 0.19540597 0.26175222 0.1124411 0.41043445 -0.19122794 0.05979879 -0.31155095 -0.13601919 -0.09399319 0.065645225 0.65261036 0.11420863 0.10495296 0.36530107
66 0.07246903 0.09807921 0.024073327 0.17180164 0.024909332 -0.08884137 -0.11541038 -0.07593921 -0.054332744 0.05634467 -0.37094554 0.17893207 -0.13968447 0.13352016 -0.0950892 0.21090308 -0.108873196 -0.1854472 -0.15302172 0.054169387 0.04148377 -0.12810884 0.02894046 -0.19985333 0.2876959 -0.13259071 -0.13340579 -0.003786914 0.12794742 0.11365371 -0.08899334 -0.1272054 0.058226123 -0.17148963 0.11884941 -0.068534866 -0.21810266 -0.22881095 -0.036146495 0.18608676 -0.03683813 0.5001983 -0.124065116 0.10533344 0.156682 0.2676648 0.27188882 0.0049164547 0.27693743 -0.08136968 -0.37586993 -0.24297875 -0.18899347 -0.13032816 -0.11105817 0.36154386 -0.1449399 0.14796749 -0.11161746 0.044077862 -0.07732106 -0.03354607 0.00794602 0.014730872 0.22451206 -0.3256021 0.055065166 -0.050925426 0.011806164 -0.26987872 -0.06764362 0.18686645 -0.05623274 0.37253016 0.18391073 -0.03810814 -0.02268108 -0.01881518 -0.16509655 -0.05119652 0.3514474 0.12811765 0.23659706 0.07787513 0.2998499 0.009058852 -0.10902375 -0.42610157 0.10973274 -0.20122202 -0.08805011 -0.27192912 0.25171587 0.17887765 -0.027821865 -0.09057483 0.219521 -0.10939479 0.13634938 0.008155094 -0.07270216 0.3162007 0.033372637 -0.23125523 -0.04394073 0.13950428 -0.027524296 0.010726187 -0.03558017 -0.09803292 -0.22458659 0.2833261 0.19538659 0.10705577 0.34838602 0.16857873 -0.19064644 0.23799326 -0.25164086 -0.027611997 0.010463156 -0.029870901 0.19601461 -0.11681895 0.28884396 0.13861212 0.12571207 0.036743023
