1050 128
0 0.20771085 0.57420933 1.2647077 0.43574965 0.8449886 -0.24604519 0.9876071 -2.1253312 2.639708 1.6991699 -0.80154264 0.12003146 0.08570865 0.9019442 -1.1704226 0.12416145 1.252263 -1.5610936 -0.85388416 -0.4091483 -1.135866 -0.021006912 1.1212776 -0.4311673 -1.0155979 0.73292595 -1.4261829 0.9639359 1.3711739 0.061819043 0.57724476 0.3553965 -0.5718891 -1.9069334 -0.50156575 0.016985832 0.34871718 -1.5102193 1.352496 0.27333906 -0.6932962 0.6845117 0.93849415 0.7540836 0.17741477 0.20957169 0.15031521 0.98501915 -1.3117167 -0.89324105 -0.5853345 -0.2507733 0.6791349 -0.6582846 2.6206393 -0.58360267 0.8218626 -1.1555537 1.4954891 -0.07178634 -1.1254436 1.5079731 -1.3411812 0.7745764 0.33317742 1.8566154 0.83756024 0.13882726 -0.13235661 1.1586155 -0.78837353 -0.47985336 -0.7523309 0.23390299 0.75762904 1.0218067 0.25065824 0.74708056 0.9309986 -0.28153038 -1.4056485 -0.09188263 -1.3346773 -0.16764043 -0.14463963 0.21789324 -1.2351775 1.8936956 -1.5142412 -0.36864454 -1.3472283 0.44521976 0.4168004 -2.3492463 1.1253554 0.97934145 -1.0775142 1.6222465 -0.3952989 -2.092228 0.536884 -0.7250421 1.1895782 1.5346808 -0.7314979 0.5079735 -0.54044193 1.6469432 1.6621722 -2.39097 -0.70572525 1.7174822 0.37780887 1.4397377 0.3941507 -0.81077665 0.14930761 0.1751728 0.012029727 -1.1675111 -0.36952984 0.12521723 0.15259527 1.7410592 -1.4664016 -0.78223944 0.77345955 -2.1620896
1 -0.725674 2.0657167 1.2833551 -0.106667794 1.4136922 -0.5038955 2.45037 0.05117703 1.7614366 0.41177672 -0.5746532 -0.18534933 1.0610268 0.7432264 -1.0147717 -0.081798516 0.31524548 -1.1844516 0.73529136 0.86975235 -2.3426542 -0.46403348 1.3916122 -1.1068279 0.50337255 -0.9359602 1.7235259 -0.3808399 -0.7120227 -0.81626105 1.7936666 0.86928326 -0.50248736 -1.4692979 -1.0874932 1.5746071 0.008959816 -2.0937479 1.1112418 -0.6659966 1.8266472 0.652929 0.94963145 0.73601305 0.38173202 -0.7720555 0.81556934 1.0831463 0.9878738 0.4017187 -0.8115576 0.6644139 1.384026 -0.41804728 -1.2315474 0.96781325 -0.63820046 -1.1318882 0.18775283 0.2573645 0.16962823 -0.0027146654 0.7797975 -0.4788996 -1.1299684 -0.59323955 2.1546574 1.433754 -2.3264048 0.22798361 0.8425484 1.2546198 -1.3421926 1.0990378 -0.9405086 -0.8809592 -1.4477079 0.27905592 0.92891943 0.6299901 -0.84775233 -1.6502925 2.1759684 -0.5561081 2.0711567 -0.08514574 0.058584854 -0.685336 1.3845061 -0.79579616 0.24363668 0.22667268 -1.0461711 0.21093756 -0.12459447 -0.7308434 0.8061619 1.6250001 -0.29597738 1.6229692 1.6520305 -0.40699792 0.50778335 0.5319009 0.1628526 1.0413285 -0.86733204 0.8921755 0.6581096 -1.2403438 0.29368997 0.5635436 -0.8319149 -0.45967022 -0.869115 -0.9981548 -0.48760927 0.8817061 -1.5858408 -2.3555439 -0.2408545 0.86190146 0.85765713 0.85077363 0.48152614 -0.33901566 0.40594208 -0.90313274
2 -0.8136501 0.64125276 -0.27995002 -0.42215267 -0.9576808 -1.5826286 -0.86885434 -0.20787796 0.27005118 -0.4093382 1.7402239 1.1677672 0.24042062 -1.0808212 0.7002429 0.55429876 -0.24097827 -0.33596554 -0.052717596 -0.80242753 -0.34619048 0.42421028 -0.7145983 -0.39019746 0.24743451 0.16086245 -0.5807569 0.34030452 0.5072959 0.21060969 0.3186635 0.20965263 -0.30379784 -0.32014602 2.2112858 2.1774719 0.06894277 -0.96215403 2.5494401 1.7927481 -1.3455381 -0.5501679 -0.22007672 -0.19798088 0.7264396 -0.19682178 -1.2550135 -1.4435904 0.53739095 -1.5891145 -0.15795627 -0.8872872 1.626021 -1.168707 0.47576106 0.94273514 -1.4124104 -0.19550684 -0.47577977 -1.5845511 1.2503424 -0.7008073 0.5740962 0.81616265 1.2595593 0.7601889 -1.1674262 2.0265017 1.4294388 0.7487765 0.09194288 -0.6352414 -0.28330192 -0.35294333 1.009069 0.5706184 0.73724407 -0.0481262 -0.75723845 -0.44138014 0.7986831 0.3431002 1.4623301 -0.7134368 0.7979034 2.574469 0.23562424 -0.32683736 0.41818413 0.66854614 -0.18878005 1.0377443 0.13684353 -1.2436677 -1.3448007 -0.424462 -0.75083655 2.364468 -0.1732761 1.3907726 0.60859025 -0.20667137 -0.06851667 0.913267 -0.5082511 0.011987931 1.0683386 0.79388446 1.0580916 -0.07139299 0.12510556 -1.1511419 0.5988199 0.81992084 -1.504809 -0.72645575 0.2913418 -0.3255477 -0.59550035 -0.2560892 0.5811178 -0.3609188 1.4714873 -1.2393827 0.8634729 -0.31704682 0.7645924 0.71507055
3 -0.718021 0.7897282 -0.047151346 -0.13842228 -1.6572177 0.619405 -0.6108631 -1.9663446 -0.18612471 0.4294843 0.94805604 -0.2379345 0.11829674 1.9049622 1.5115111 -0.11798198 0.24045143 -2.1542404 0.86331755 -0.38691935 -0.18540862 0.6179733 -0.9032379 0.10385999 0.65770954 0.1278061 0.51856965 -1.1416978 0.72426194 0.40253568 -0.49219915 -0.21256198 1.3408371 -0.6166769 0.6287742 -0.28308582 0.8042824 -0.8240509 -1.0403414 0.0046849772 -0.36371854 0.647409 -0.13573319 1.0440589 1.183245 -0.1087455 -0.95654064 -0.7707453 -0.9516315 -0.5741221 1.0738213 0.22766292 -0.06832859 -1.23571 1.8220624 0.2599841 -1.3054271 -0.72048277 0.49993122 -0.554329 -1.3729259 1.2398275 1.4826967 1.1547332 0.6024354 1.0188978 0.25302938 0.41271147 1.1748874 0.9084973 1.8521056 -0.48214743 -1.3416263 -0.76883924 0.8454502 0.6780074 0.47427535 -0.82770455 -1.1677443 -0.49567616 0.8473834 0.38788292 -0.035959143 -0.6552508 -0.19530027 -0.7092086 -0.18424134 -0.069650576 1.021374 0.55938524 1.307962 0.22016609 1.1279657 -0.06156335 0.63467044 -0.065577604 0.24171457 0.30718526 0.008141258 -1.9271411 0.6832205 0.6276055 0.8686339 0.3816939 -0.981615 0.76108015 -0.52975327 0.258797 -1.241621 -0.8041979 -0.09541664 -0.56142443 1.5421723 -0.6484121 -0.20420203 -0.8106328 -1.4021126 1.3684434 -1.0655257 0.058177408 0.9142959 0.52378196 0.08627518 -0.6779445 0.86693573 -1.475458 -1.9898949 -0.8348379
4 -0.69602346 2.020296 1.7590531 -0.3226443 -1.6478819 1.277379 -0.007575017 -0.5205851 -0.50147235 0.91322994 -0.9615655 1.1519009 -0.8174069 -1.3357004 -1.107297 -0.60947543 -0.06849614 -1.6528902 -0.12875439 -1.637214 -0.46815714 0.76374567 1.200848 0.33100215 0.6446089 0.07474717 0.49752325 -0.7594552 0.61407405 0.26535955 -0.8750553 1.4567963 -0.23276836 0.5798376 -0.85881674 -0.09914476 -0.5339048 0.0861788 0.24545707 -0.3641225 -0.35119906 0.7592163 0.051825665 0.4961901 1.6769105 2.5275006 0.885948 -0.6237595 0.5703563 -1.2558547 1.3708513 -0.4909529 0.15002404 -0.83036244 -0.80142576 -1.0380986 -1.7465769 -0.1965908 0.22091217 -1.9426433 -1.5884731 0.29691473 1.1643586 1.538848 -1.5739658 -0.06411643 1.1796201 -0.89973027 2.1242166 -0.5078129 1.6951087 1.392777 0.58632517 -0.021434497 1.1505467 -1.2314891 1.3453432 -0.5181602 -0.6700255 0.047709245 0.91262126 0.8699133 0.38926125 -0.9629237 0.43666738 -0.5961675 1.4313765 -0.60310394 0.43296513 -0.56277347 -0.095133804 -0.010126336 -1.5012101 -0.6457919 -0.77967525 -1.4193738 0.5780415 1.3179018 -0.31687868 0.8028127 0.7490673 0.9266396 0.11442556 1.3970225 -1.8726339 -0.6449185 -0.9998655 0.7112684 -0.13040744 1.6465482 0.7004394 -1.3116798 0.2742509 -0.2258522 0.6460432 -1.239058 -0.7115682 0.41002634 -0.59872204 0.22004126 -1.5789505 -0.76868814 0.68957794 -0.57384986 1.6126344 0.23208885 0.026664339 0.13337933
5 -0.6490978 1.1039745 -0.26755935 1.438508 -0.21236715 0.7776359 0.45510924 -0.4718818 -1.4323142 0.6738819 1.792699 2.3841538 0.31186748 -0.30168667 -0.12299085 -0.5853056 -1.1949992 -0.99862665 -1.5073426 1.2971722 0.088523924 -0.10621871 0.13545917 -1.4351209 0.8741824 0.7266456 -0.85472167 2.1228657 1.4209788 1.7673609 0.76589686 0.11250569 1.18508 -1.7302195 0.1250122 0.5416207 0.9578504 -2.0364099 1.5572056 1.2423924 0.60784537 0.55206865 -0.5202615 0.43191534 0.38772416 0.5961802 -1.2783918 1.4509727 0.6863873 -0.5720139 1.0809393 -0.11337143 -0.8853625 -0.84672123 0.3661853 -0.26830995 -0.32844934 -0.25089282 0.42929637 -1.0284609 -0.84995097 -0.6674968 1.1632116 2.3274124 1.1788965 1.3063021 -0.7696459 -0.29816908 -0.82246274 0.4974743 0.35942557 -0.48804957 0.034684293 -0.69230187 1.8913394 1.7240527 0.4139819 1.6619287 -0.63726157 -0.2059198 0.5440272 -0.5323378 0.76377946 -0.5418649 -0.10902399 0.8449044 -1.2386781 -0.55744594 0.8138157 0.5652048 -0.12120271 -0.72696245 0.8625153 1.211037 -0.78818744 -0.26893097 -0.46831366 0.3553338 0.3560265 -0.73607063 -0.6324033 -0.36842185 1.6091819 1.577779 0.20818965 -1.1515793 -0.19881183 0.1296227 -1.4803238 2.7998898 -0.32459795 -0.6725319 0.33281526 1.2108979 -1.0608258 -0.5367087 -0.5703309 0.59775263 -0.7811838 2.3612604 1.087597 0.29696015 0.24719667 -1.609047 -0.041574582 -0.387486 -1.4993129 -0.97390777
6 1.5595303 0.13472636 1.1678958 -0.38821575 -0.07908213 0.8193081 1.9622487 0.17572927 1.7706325 1.2839715 0.3315388 -0.99670464 0.41182184 -1.1824201 0.41278836 -1.0442284 1.0206095 -2.4416003 -1.4887742 -0.34229884 0.6360126 -0.20678143 1.2126001 -1.0573955 -0.31017542 -0.07068018 1.1147531 0.18228118 -0.69890136 -0.042513162 -0.8056771 0.21421638 0.5811189 -0.09046297 0.12802497 1.2192962 3.0018058 -0.20116404 0.120570526 0.4676641 -0.3503847 0.48886538 0.63908577 0.21963511 1.2801024 0.67307824 0.0667868 -1.3292032 -0.17470361 -0.23181064 -0.4422882 -0.54023314 1.4504071 0.10594972 -0.61799246 1.1860942 0.6268989 -0.1996739 -1.2148591 0.16933946 0.49934402 0.4817707 0.79685515 2.030891 1.6130356 1.0533843 -1.0231786 1.236704 1.7565567 0.097915255 1.1306133 -0.37484738 0.30510837 1.5357232 0.22369082 -0.74749905 -0.20734696 1.2432007 0.8494863 0.30202854 0.121033035 -0.24551198 0.32640368 0.18213265 1.2491713 0.3052333 -0.84437275 -1.0382762 -1.1879795 -0.88514215 -0.7987183 0.7898568 -1.1631324 0.8097542 -0.12528741 -1.5207713 -0.07788295 1.2065699 0.24044184 -0.5626144 0.3776262 0.51213384 0.28361136 1.8378991 -2.285503 1.2805159 -0.15684088 -0.5145636 0.685329 0.13191278 -0.36829248 2.0552182 0.2541353 0.19815406 0.110995345 -1.0345963 0.8051311 -1.63386 0.90160966 0.9393341 -0.43321365 1.1508713 3.2025294 -0.7818357 -1.4038863 1.7312603 0.28590256 -0.45804492
7 0.37728965 0.35391083 0.87730575 -0.45758086 -0.5378608 -0.9711064 0.39236003 -1.0030556 0.3004719 0.611721 -0.63824666 0.13024944 0.3835822 0.097871795 -1.0972649 0.73129374 1.6396205 -0.75632614 1.2275802 -0.19312102 -0.9183716 0.031748027 0.1549175 1.6865435 2.4409888 0.05473559 -0.46047267 -0.16562547 0.56939054 -1.5468612 2.6478524 3.8697412 -0.3226095 -0.09937669 -1.767115 -1.0958732 1.039767 0.8486029 -1.0555265 0.70976704 0.41535974 0.49478537 0.8713861 2.1352623 1.0541645 0.84190214 0.93554676 -1.435516 0.455529 1.3986276 -0.94878507 1.1830559 0.5208971 -1.3779137 0.4266966 -0.81485176 -2.081627 -0.29761547 0.5319235 -0.424992 0.7559906 0.4374771 -1.8524023 -1.1358274 0.9822209 -0.34365246 1.9204639 1.2599465 -0.21404482 -1.0709525 0.5314192 -1.5325063 -0.7967041 0.8159721 -0.0016255353 0.5463135 1.0782593 -0.10037506 0.74417996 1.1720849 -1.1520094 -1.213067 -0.7376226 -0.13197896 -0.4737053 0.72802645 -0.560728 0.29946724 0.63541275 -0.9472072 -0.42779556 1.4702014 0.37353095 -0.7205996 -1.0410182 0.67348766 1.6185263 -0.2027481 1.2641964 -2.510396 -0.9097409 1.0328892 -0.9807251 0.24109513 -1.0722623 -1.3614467 -0.16326499 -1.0632678 0.45601705 0.5422716 -0.9957879 1.7533159 0.27090317 0.37993044 -0.65513605 0.17011668 -0.7361365 -0.07019849 -1.4629538 0.96059376 -0.76697004 0.98670566 1.8445112 1.3266119 -1.1998703 -1.0813054 -0.025067842 -1.4437685
8 0.17543457 -0.16867928 -0.3571042 -0.75906616 0.844826 0.020218339 -0.56250226 -1.1741825 1.3835472 -0.7823372 0.0017838024 -0.47375035 -0.26878938 0.8494028 -0.75750023 1.234758 0.7145635 -2.1226175 -1.3985801 0.9872508 -0.56034064 -0.5418328 0.9662597 -0.8529825 0.007818073 0.20581466 1.556609 -1.1073799 0.08727144 -1.6207486 -1.3787231 0.88850397 0.58703226 -1.1930864 -0.054886993 1.3893633 -0.6095136 1.3933194 1.5813518 -0.5250492 0.7088124 -0.30029252 1.1480501 -0.57199675 -0.62024736 -0.61366516 -0.41837302 -1.2571472 0.8021541 0.059728853 0.20531087 -0.030418202 1.2491839 -1.2693248 -0.39126453 1.233299 -1.1741977 -1.287977 1.1665527 -1.5199224 0.34479764 1.2856303 -0.013177531 -0.84247273 -1.562496 -0.24175411 0.4519234 0.052630596 -0.0051776334 0.9456891 0.34530568 -0.6103977 -0.20699716 1.3639706 0.7745571 -1.0439379 -0.713188 0.6275197 -0.251335 -1.491628 1.2052383 -1.4326384 1.8035568 -1.6170094 -2.1093564 -0.48849785 0.6552009 0.2891292 1.1286368 0.47452763 -1.3595265 -0.54513115 0.37096754 0.26814055 -0.588076 -1.0676988 0.3459329 1.0570586 0.01875496 0.46238524 0.6671545 0.5460593 -0.91132194 -1.352154 -0.68145066 0.17615886 0.45220327 1.192768 -1.2927297 -0.26085725 -0.6701736 1.2197616 0.17317536 0.46194565 0.35674968 -0.9814624 0.8474668 -1.0360627 -1.3712248 0.36217353 -0.86888623 0.9266232 1.020189 -0.022064477 1.1406438 -0.8477812 0.24142537 -0.73481023
9 -0.33616668 0.8718235 -0.5413738 -1.7657726 1.454281 0.072522864 1.4428099 -1.847794 0.43845028 -1.1480637 -1.6216059 -1.4352415 -0.548009 0.055929508 -2.3324869 0.5202436 -0.06251373 -1.8775203 -0.94716203 -0.52262926 -0.9683434 -1.0656842 0.5422301 0.6871361 -0.34503567 -0.15783584 0.95960045 1.3617063 -1.336862 -0.46110976 -1.6366321 1.0130185 -0.66649014 1.2598014 1.5748496 0.8479218 0.9052746 -1.168319 1.887479 -0.85515845 0.70979047 0.40487647 -1.8374125 -1.2453496 1.5409191 -0.62257195 0.3270232 0.123697564 1.1454582 0.7352429 -1.2625495 0.011318918 -0.1779976 -0.8947411 -0.33336145 -0.9586641 0.43334177 1.1274533 -0.7162341 -0.15516803 -0.46798465 0.1203279 -3.129188 1.4100398 -1.3687478 1.3551242 1.1710722 1.8820114 0.4087337 0.081633516 -0.3879455 0.02851627 -0.18449676 -0.2799958 -0.020404914 1.5331908 0.42661554 1.3595774 2.0476425 -1.8161193 0.6241442 0.10149227 0.14661291 -0.0343058 -1.3546376 1.13004 1.0441424 -0.11331111 -0.50463426 0.82641155 -0.0584146 2.2700171 0.5750141 1.1394701 -1.8936772 -1.8720758 0.540923 1.8886664 1.3226745 -0.33719057 0.59258896 0.6824163 -0.9609492 1.4550918 -0.078913644 0.33730528 2.2395926 1.1044309 -0.33668834 -0.7756111 -1.5043622 1.3266934 -0.64409316 1.7786856 -0.5644351 0.033471685 0.9564176 -0.8324405 -0.70910823 1.1998163 -0.66936195 0.23072657 0.1577064 1.2919077 0.55277944 -0.3249102 -0.9508229 -0.5024035
10 -0.56495947 1.1202233 -1.2276771 -0.63642824 1.0292828 0.2107718 0.13128161 -1.3864609 -0.6787288 1.2093449 0.6727282 0.18506943 -1.542662 -1.6254766 0.51666963 0.43929598 0.26791748 -1.3125579 1.1305716 -0.24334319 1.0486012 0.85084444 1.335642 0.29309365 0.19807662 0.64251906 -0.78585964 1.2855877 0.34201276 0.37117103 1.3255364 -0.85569686 1.3927283 -1.4479165 0.41566905 0.68294877 0.29952377 -0.59744084 1.1143798 1.9866333 -1.9512086 1.3626277 1.5644184 0.14189284 0.46296656 -0.066133566 -2.054997 -0.48207286 -0.045362774 -0.3893238 -0.40830484 -0.7461046 0.63093346 -1.34667 -0.10554063 -0.51644725 -0.7720402 -2.4866319 0.45337766 -1.0413187 -1.4225594 -0.08868537 0.5112299 2.1529834 0.14878389 -0.07691289 1.0423971 0.27282014 1.1210765 1.3530222 -0.47098535 1.3823113 -0.41760117 1.9526318 0.87652045 -0.4098984 1.4061618 -0.587545 -0.35110113 0.6054815 2.0772393 0.22575401 -0.7800767 -2.264822 -0.6388874 0.3387112 -0.28608885 -1.05754 0.72069806 -1.9888343 -0.022993546 -0.3125452 1.1083808 0.6025364 1.5515318 0.13494532 0.8651193 1.3252348 0.65147525 -1.2463176 -0.1412004 -1.1564374 0.6106245 0.72055936 0.43490905 0.4920644 -1.7927412 -0.2712988 -1.1845028 1.8059039 -0.276082 -1.1141596 -1.2373595 1.5511411 -0.7719592 -0.93508035 0.5890787 -0.93585145 -1.4235808 -0.3777283 1.198178 0.36424962 0.2346784 -1.2551106 -0.7180276 0.4109381 -0.42494825 -0.7657293
11 -0.49365225 0.18281846 -0.80998766 -0.5897415 0.043022536 0.58660346 -0.9532752 0.47629383 -1.2976401 1.2868046 0.8484224 -0.087061755 0.9813724 -0.591404 1.4699526 -0.31714457 0.15431151 -2.1649961 0.34005767 0.17950974 1.2173578 -0.55793273 0.2859541 -0.4098831 0.69981396 -0.7437533 1.1111563 0.7841904 -1.2518688 -0.5960902 0.9383155 -0.90514433 1.6736063 -2.2487583 0.8998193 0.15696055 -0.16240154 0.9155966 -0.62594014 1.5850587 0.22178903 0.7522155 -0.8687334 -0.3494413 1.2761439 0.17294891 -0.3493962 0.38513583 -0.41974917 0.5961884 -1.093071 -0.0921871 -0.122907944 -0.696022 1.4012432 0.5107344 -1.4846287 0.3451666 2.1486673 0.088287435 -1.0332881 -1.8658658 -0.60722303 1.6798255 1.3422059 0.7647359 0.41943562 -0.5991619 0.7796319 0.6796055 1.218412 0.9506969 -1.9158213 -0.40611604 0.8742459 -0.21866804 0.14774705 0.7332485 0.3610893 0.9939333 1.7610983 0.44742703 0.8444816 -1.1178248 0.40673378 0.17078495 -1.4472094 0.58989966 0.16188927 -1.0467708 -0.29404002 1.846623 0.041026972 0.54149294 -0.26697114 0.78578526 -0.046735115 0.69333684 0.33421338 -0.5530756 1.0121865 0.26407576 2.2749853 0.6393726 -0.18264303 -0.40927377 1.0693446 0.9456892 -0.77687365 0.78361917 1.0172246 -1.4969089 1.7730418 1.2614877 0.5410429 -0.38048378 1.3081273 -0.7473292 -0.957355 -0.24986248 1.8046293 -0.48354346 0.8605169 -1.0584704 1.0854527 -1.8875324 -0.49180537 -0.6658188
12 -0.09196068 -0.74258614 1.0237473 0.36033422 -1.5284612 0.5694447 1.0901835 -0.1260779 0.15530244 1.111926 -0.105787724 0.9996552 0.700799 -0.5415503 0.723283 -0.9408185 -1.1571813 -1.6490155 0.35628325 -1.6832153 -0.28248158 1.6739314 2.0641396 0.6383088 0.22433354 0.9442315 -0.8435118 -0.13927348 -0.36495814 -0.08330238 -1.0077425 1.4170166 2.0128396 -0.8906646 1.0619991 1.1772001 0.1603111 0.88781404 -0.682546 1.0655953 -0.71766734 1.1548095 0.9780794 -0.93113726 1.0571347 1.5591172 -0.33800852 -1.3195715 1.6578902 -0.28887767 1.0539758 -1.2152108 -0.72992176 -0.5979144 -0.18778254 0.8049818 -0.90551984 0.91608584 0.36936453 -1.5455889 1.5116918 -1.706006 -0.057953473 1.0876331 0.4839198 0.15505135 0.789087 1.3989961 1.0770698 -2.1792526 -0.00034645767 0.58814037 -0.15381658 0.17384365 1.0056986 0.6803844 0.65253615 0.6898007 -0.3614678 -0.77049243 1.0909325 -0.60304916 0.7099691 -1.1136012 0.81551135 0.3963071 0.5709754 1.3921722 -0.67125195 -1.2302568 1.0619031 -0.9821329 0.09646396 -0.3041627 -0.23013656 -0.39841446 0.23266406 0.3155972 1.0093125 -1.175495 -1.3315517 0.7289939 1.2127695 -2.277413 -0.7760826 0.051637016 -0.94216484 0.9338529 -1.0439229 0.74779373 0.18543379 -0.5733686 0.09649679 -0.23197453 0.28392106 -0.65072155 0.5928833 -0.40453866 0.11161439 0.41137803 1.3831891 -0.84525985 0.5059214 -2.372964 0.46011177 -0.64010924 -0.83252406 -0.26432818
13 0.68522274 0.46815974 0.77233946 -1.0246634 -1.3049796 -0.45247462 0.9097125 -0.34973484 -0.517356 -0.6540387 0.50518066 0.56212705 0.55544317 -0.99157685 0.7403583 -0.24230786 -1.2422074 -2.2032259 -1.5985591 0.24823526 0.13320443 0.36040205 1.1070267 0.6546288 0.25049874 0.45247793 0.8097536 -0.39726406 0.9193072 -0.6585822 -0.4009143 -1.4191694 -0.39405265 -1.2948784 0.72378296 0.84880424 -0.5603872 -0.80117583 0.080319956 1.413214 -1.4096837 -0.23228076 -1.4322509 1.276427 1.4312389 -0.5026018 -0.79922396 -0.45613283 0.384056 -0.82343245 0.8346412 0.60218424 -1.5996784 -0.23320872 -0.83813244 -0.34393486 1.1063694 -1.4938041 1.437118 -2.4820402 -1.1377848 -1.3914809 0.250445 1.4680936 0.457255 0.6276998 0.51983404 0.21954542 1.2669818 -1.2032485 -0.12098642 1.3030807 -1.1132487 -0.2120798 1.6606772 1.3794234 1.3537383 1.5374447 -2.0058289 -0.5274379 0.6026146 -1.7071627 -1.3167951 -2.0483837 0.26299235 0.9485902 -0.9232011 0.7684497 -0.21035436 1.0650156 1.8761586 0.4474233 -0.43563816 1.2759283 0.18077077 -0.5678927 1.3899587 0.3332884 -1.5357231 0.11413978 -0.66850513 -0.0490319 0.2953407 1.8337213 -1.3737897 -0.8622649 0.1357825 -0.4997835 0.39875588 0.6552455 0.0961924 -1.8810885 -0.59204364 1.8311862 -0.88342667 0.3968184 1.166276 -0.73148024 -0.84973496 1.1576823 0.05477473 -0.42537284 0.0004584353 -0.96629155 0.16085145 0.99123806 1.007101 -0.32739604
14 0.48900005 -0.31853792 -0.09240578 -0.4714058 -1.0476002 -0.4031229 0.5214864 0.41562724 1.745993 0.1527155 0.543249 1.7942773 1.1504378 -1.3486216 1.5593938 2.2083888 -1.6920801 0.7376455 1.8557245 -1.4244573 -1.181446 0.47424352 -0.08009456 1.3728523 0.3420566 -0.6196586 0.049324144 1.1858107 -0.8949733 0.048733957 0.02320711 -1.074057 -1.883019 -1.5785636 0.04463457 -0.19884968 2.5773275 -2.2526362 0.7453905 -0.46138644 -0.27999696 0.14664248 0.871398 -0.07952238 0.81150085 0.89341766 1.0022777 -0.9281086 -0.5718148 0.5374208 -1.1334958 -0.20771556 0.15224437 0.17296949 -1.5905442 -1.7062896 -0.67364293 0.30323732 1.0037673 0.41842085 -0.6736801 0.88730353 0.6025566 -0.7959006 1.1751784 2.3191 1.0820081 0.417379 -2.164087 -0.39912736 0.36409765 0.57126206 -1.4153523 1.1906177 -0.33605742 -0.9634828 2.1045601 0.4119465 1.2125548 1.127924 1.457954 -1.1406723 -1.0936528 0.21066959 -1.1578505 0.49067548 -0.6062274 0.61311966 1.0511965 -0.7132034 -0.7399204 0.08007037 0.29551223 0.46688184 -0.8863059 -0.22297914 0.43637732 0.74826205 0.38196722 -1.0138294 -0.8437632 -1.1513749 -0.28903246 -0.2367741 -0.04821898 1.1323607 0.5005355 1.1974727 -1.8470588 -0.49083585 -1.7298002 1.8203654 1.4206051 -0.85252 0.8894816 2.124917 1.8082916 0.14768839 -1.1919748 -0.24925894 -1.5394647 -0.45210832 1.9452718 0.38668784 -2.1722343 -0.44437838 -1.1244746 -0.048255555
15 -0.38073 -1.1587259 -0.16942754 -0.6044838 -0.2793197 -1.5291024 -0.15326986 -1.236561 1.0943527 0.35830286 0.7530169 1.0057212 0.27374172 1.0102544 -0.27688798 1.0506413 1.7827991 -0.99899405 -1.1646794 -0.56759405 -1.7505813 -0.86303085 0.5278295 -0.057485875 0.39822105 -0.06477132 1.3548391 0.5066595 -0.5000585 -2.7759664 -2.4715886 0.7120678 -0.39250445 0.34224114 -1.861313 1.8889326 1.5948665 -0.82295346 1.0772537 0.16486186 -0.5941798 -0.6845976 0.0374092 0.701931 1.5921853 -0.38969636 0.9108088 -0.07102183 -0.67573386 0.964997 -0.57540065 0.58968383 0.5265841 -1.2067983 -1.4557636 -1.5522394 -2.4709241 0.45348194 0.9276784 0.6766858 1.891283 -0.7272499 -0.00023163503 -0.21573322 1.3109014 -0.4758524 0.72917366 -0.02472863 1.8675297 -0.5874004 -0.60997266 0.32702956 -0.55859953 0.65546465 -2.5298488 -1.3229988 -0.22725624 0.77171814 -0.5456292 -1.7003341 1.6836224 0.14034213 0.9507305 -1.6992586 0.6029079 0.7479989 -1.3426218 -1.2010963 1.2782979 0.3584071 -0.3045736 -1.7670087 1.0703465 -2.1982322 -0.3943142 -1.0748069 0.34971505 1.9626721 -1.0953083 -1.3951815 1.044873 0.9089189 -0.48251915 0.67436427 -2.1218832 1.252429 -0.46474317 0.36409512 0.35996395 0.76053524 -1.5365599 0.26155356 -0.8624216 -0.31720522 1.564165 0.51961535 -0.63852423 -0.8718564 0.7227894 -0.5747963 -0.26754996 0.7447609 0.11427205 1.0426216 -1.4862137 -0.4463216 0.77388346 -0.5672388
16 0.13010636 0.4532043 1.263637 -1.1892941 0.49397692 1.2041343 -1.0139139 -0.8855227 -0.7054417 -0.50894755 -0.78391045 0.70130986 1.9737904 -1.2925608 -0.513858 0.21329369 -0.8380739 -0.93707937 -0.3756358 0.8823364 0.8205614 0.47681597 1.6927816 0.28344566 2.3311615 0.1022428 0.8790394 0.9934686 -0.8089672 -0.7533364 -0.6230084 0.83796006 0.5053599 -0.1574173 -0.07497461 -0.45766184 -1.3156693 0.07936754 1.1402837 0.06327406 -1.2358048 1.0685809 -1.5188676 -0.19396983 -1.0859178 0.811682 -0.23962545 -0.4447775 0.49540207 -1.4612508 -1.188048 -0.92003644 0.2207948 0.6840745 -0.44077668 -0.49814546 -1.0133874 -0.38682705 -0.5410761 -0.9907762 -0.2377191 0.42926252 0.8112751 1.2318051 0.68761516 -0.77197224 -0.061324723 0.23682575 -0.11599222 0.5693624 0.97006357 -1.3728039 1.1018738 0.62410045 -0.4681111 0.8949259 0.8601453 1.2594259 0.7765962 -0.37302923 1.1889061 1.1831633 0.90400887 -2.0330203 -0.18293278 0.17092083 -1.751086 0.19888566 -0.23361607 -0.6119868 0.45386288 0.3205937 -0.44574785 1.7027829 -0.9950845 -0.94392854 -0.1379396 0.12204745 -1.3537397 -0.3849124 -0.014814383 0.99164 0.31909525 0.61385185 -1.134716 -1.7090626 0.5170208 0.63621277 -2.5007138 1.2752624 -0.43452197 -0.90682906 0.58781046 1.2832149 -1.4505794 -0.77071404 1.3362274 0.39632955 -0.92426974 1.1060785 0.98037636 1.7335992 -0.42637795 -0.94202363 1.5103233 0.002518572 0.20853798 -2.051085
17 -0.022728194 -0.12812343 0.07318219 0.5643357 -0.90971977 1.3328305 0.043058097 -0.5011154 0.9605327 0.45160863 1.3279146 -0.44851786 -0.4721345 -0.95842046 0.013369872 1.1937275 0.17039897 -0.39875212 0.46038112 -0.8149443 1.2000638 0.26948377 2.669265 0.12002103 -0.023733005 0.52687097 0.6302299 -0.55331945 -0.4352358 -0.2588439 0.41817695 0.7301694 -0.23547721 -0.4083032 -0.35812342 0.541067 -0.1805475 0.5941541 1.3152 3.261671 -0.6431251 1.3168665 -1.596888 0.50032693 0.48357478 -0.3661403 -0.2529066 1.7509481 -0.437794 -2.0188856 0.6529979 -1.8139427 0.40631863 -1.112396 -0.9696823 -1.1775074 -1.1932888 -1.0832772 -0.044692986 -1.8301034 -1.1596466 -1.0494171 0.21486641 -0.50832784 -0.44446647 0.87904954 0.94393975 1.1038904 1.1346321 -0.698405 -0.1592398 0.19519466 -0.40239155 -0.49619737 -0.08681558 1.091035 1.741507 -0.63328457 -0.532786 -0.727829 0.43059972 0.0076706135 0.6607662 -1.4533082 -0.5448262 -0.5167567 -0.6195909 0.84345645 0.8347987 0.5959179 -0.06745588 -0.15003861 1.129553 -0.8540916 -0.4555223 -0.2816443 -0.98269266 -0.49907473 -0.23780647 -2.0652199 0.78782296 0.15709881 1.2364222 0.22452658 -0.50139344 -0.26231042 -0.17333883 -0.7765643 -1.2261537 1.4421057 0.58130777 -0.8566542 0.08934179 2.0888743 -1.3184546 -0.38092244 0.09364744 -0.19789839 -0.7375968 -0.4409713 -0.436969 -0.42732692 1.6046708 -1.5669702 1.0057214 -0.952981 0.58208334 0.16938563
18 0.100426435 -0.5580507 1.3108878 -0.2011026 -1.0869439 -1.2105719 -0.23359808 -0.46557486 -0.51791227 -0.92636716 1.2801446 0.4017628 0.768749 0.98763895 -0.086439714 -0.17003956 1.6173075 0.77769077 0.6016371 -0.09631642 0.4976885 0.9605614 0.42420933 -0.8224761 0.430145 -0.45512962 -0.68602973 0.4462662 -0.07827384 0.48012093 -1.8572752 1.0338798 -0.14901702 -1.0153533 1.1431915 0.68717474 0.14935504 -0.31145048 1.2859291 1.1530479 0.13579845 0.80318147 -1.0274638 1.4460814 -1.4302944 0.3788526 -1.1498489 -0.046960134 -0.6419488 0.46035632 0.37805033 0.3034028 0.9026199 0.7029884 0.1500534 -0.34090218 -0.2211901 0.340882 0.19792408 -0.6989516 0.8741607 -0.5868575 0.48146456 0.8012251 -1.6903168 -0.10778574 0.9447288 -0.53346545 0.061094023 -0.1894045 0.61350554 0.09700389 0.2667621 0.8392326 1.371064 1.3812046 1.0024573 0.6332353 -0.03624355 0.3557854 0.14197354 0.2630354 0.22185493 -1.2698582 -0.8297278 0.44791842 -1.1977997 0.024705576 -0.060401898 0.17101552 0.8549521 0.59589875 -0.8543364 0.030403122 0.33414757 -0.4148781 0.98226726 0.40484563 -0.1297198 -0.51538134 1.0648087 -0.27231357 -0.94886345 0.38746783 -1.6919403 -0.8355095 0.55343866 -0.18879089 -0.02261141 -0.17886047 -1.2476639 1.0012426 -0.71587956 -0.5768093 0.07906846 -0.06437643 0.6886214 -0.14543638 0.18502565 0.47542083 -0.46123832 0.97123176 0.68742585 -0.44573826 0.947284 -0.10577752 -0.08154926 -0.7187282
19 0.28098705 -0.41705638 0.44353744 -0.8718448 -0.70059806 0.4221444 -0.21910784 -0.5533885 -1.3295729 0.3802902 0.6089611 -0.4226051 0.28537622 0.22011906 0.8774798 0.3330143 -0.34228554 -0.5061865 -0.8157564 -0.2409959 -1.0642258 0.71758986 -0.45977545 -0.33998477 0.25309074 -0.1641504 0.22935785 -0.26512393 0.31895977 1.0527307 -0.07577027 1.0800239 0.97547984 0.12860335 0.84921694 0.57690305 0.23287751 -0.83689195 1.4126515 0.06345343 -0.89806414 0.93645525 0.7227464 0.64728755 0.0012060746 -0.3298686 0.30416995 0.7822801 -0.8990696 0.8376075 0.28072622 0.44469523 0.79498196 -1.106364 -0.6018199 -1.3359019 -0.757601 0.22754367 0.6620503 0.1315733 -0.5100919 -0.42763424 0.2858836 0.77616954 0.23166631 0.33399817 0.31717396 0.059929438 0.046845842 0.18684192 1.6820481 1.2632692 -0.929541 0.22416171 -1.0413352 -0.80851364 0.7958982 -0.6608762 -0.47598454 -0.8625713 0.4140111 -0.96806455 0.21070218 -0.2626177 0.14967784 0.70968664 -0.29633176 0.69426787 0.4438059 0.7911709 1.396483 1.0891716 0.1358486 0.44523075 -0.47276968 -0.827754 0.62576014 -0.14061114 0.35768512 1.2683064 1.4885678 -0.62150645 -0.488048 -0.72339624 -0.91032577 -0.70185405 -0.1796009 0.15401903 -0.2665098 0.91331244 0.32633448 -0.12827069 0.06860063 -0.5576284 0.39172554 1.1225674 1.0859126 -0.73308164 0.47507635 0.21690457 -0.56827873 -0.5099654 -0.37674406 -0.5381679 0.8778001 -1.1786946 -0.1850744 -0.65122676
20 1.7417048 -0.060949948 -2.0525186 -1.1829237 -0.88764685 -1.5917522 0.73470527 -1.2076803 -0.927783 2.2276773 -0.69627476 -0.99200875 0.5843557 0.37882584 0.4059132 0.0071627926 1.4262142 -0.566178 0.7124262 -0.7041417 -1.3187355 -0.18243073 1.6856517 -0.6126496 -1.4361666 -0.8093535 0.062009297 -1.7264359 -1.4342803 -0.48948595 0.8641302 1.6264048 0.23874897 -1.3074627 0.45480466 0.03943775 1.6261317 -2.8523903 1.6275151 -1.3607687 1.2121807 0.131014 -0.39662868 0.17315458 0.7762082 -0.7836397 2.06233 1.4994686 -0.19772044 -1.0274464 -0.63619983 1.6333258 -1.9393404 -0.6854573 1.0113151 -1.1813562 -0.25492135 2.2294607 1.4569496 -1.0984404 -0.48615706 -0.85949874 1.1709883 -0.02455922 0.55277437 1.616636 0.594142 0.62288904 0.5248904 -1.2019318 1.3082693 -2.3758235 -0.7672496 -0.09052011 -0.7493648 1.9698105 -0.1464093 0.91998065 1.7403823 1.3591926 -0.08055552 1.4047477 1.133568 0.45088995 0.31047466 -1.5267686 0.22408 -1.1723063 0.36385375 -1.4348963 -0.76791775 1.4000757 1.3917464 0.6820659 -0.054798543 -0.9554533 -1.0372071 1.7656595 0.18128796 -2.0755398 1.3979534 -0.9794756 -0.042363815 0.9662244 -0.8199234 0.32846713 0.9959815 1.4135883 1.6902208 0.9829398 -0.18398722 -0.35693076 0.9358032 1.3801425 1.5703865 0.09855345 1.6612456 0.045871362 1.2891778 0.33254877 1.017061 0.20013796 -0.06436355 -0.28357217 -0.004264869 1.3940681 0.90696603 -0.12860322
21 -0.6729359 -0.7666172 0.17305614 -1.5654466 -0.077977255 0.9970442 -1.2836285 0.35300848 1.7458156 1.1757984 -0.7621221 -1.9004891 0.29521778 -0.084807664 -1.429343 0.16796027 0.57301486 -1.6372429 2.264954 -1.3941367 0.706124 -0.84991103 -0.016313156 -1.0226537 -0.89990145 -1.0187193 2.5621672 0.65495 -0.69140154 -1.5196147 -0.39963233 1.6918601 0.27001378 -0.6617335 0.5338607 1.556901 -1.1205964 1.554439 1.0755798 -0.54664433 0.6091594 1.5301194 1.5325176 1.8116195 0.7604307 -0.7776096 1.9440026 -1.5038514 -0.27608022 1.8410549 -0.70389605 -0.96109456 0.23019807 0.84077793 -0.6777768 -0.403795 -0.18258591 -0.12598085 0.5476911 -0.57962155 -0.20263837 -0.41047236 0.45998806 -0.056344993 0.7151855 1.6746262 0.5821454 1.4926981 0.5185102 1.3672583 -0.93184835 0.55193514 0.48623237 0.5753165 0.45839164 -1.0856678 -0.61967146 0.011903673 0.41037312 -1.01778 -0.83129156 -1.5711837 1.1127977 -0.4917417 -1.4484817 -0.8581202 -1.027416 2.010078 0.31791592 0.14652714 -2.1227446 1.3804051 0.082169324 -0.23231669 -1.3264967 0.17903268 0.0792557 0.82490045 -0.9734631 -0.74516135 1.0561805 -1.0256253 1.3959548 0.64413756 -0.04713795 1.1407311 1.1923052 0.2883398 -0.75855464 0.6485191 1.0011734 0.9396906 0.23339018 1.3021367 0.99035335 0.64663994 -1.5588244 -0.32055977 0.91806436 -0.7471135 -1.2605321 2.0778656 1.8897681 -0.7138738 0.1735866 1.0801047 0.8109028 -2.8849163
22 0.53205955 2.3371243 -1.192984 0.13133393 1.0957007 0.48297703 0.008462346 -0.40691188 2.5099423 -1.4618633 0.57215023 -1.1201713 -0.16936925 0.25043088 0.86588734 2.179595 1.3769183 0.07438275 1.0710739 -2.3855767 -0.6332415 -0.2945151 0.94442683 -1.3049464 0.21026918 -0.14882353 0.54391956 0.021479264 0.69639796 0.04423965 -0.54788303 0.9813587 0.45017225 0.6778634 -0.89776987 -0.22317155 1.3682281 -1.403686 0.1545961 -0.43046826 -0.99049 -0.9781729 1.7420812 0.61145014 1.5012122 -0.46459663 0.78724355 -1.4630476 -0.62837464 -0.96625763 -2.3714886 0.10023785 0.6959558 -1.8093898 -0.22402892 -0.13533656 0.1220098 -0.45866647 1.6985594 0.04176358 2.6001582 0.13522638 -0.8434385 1.5378294 0.9745353 0.55376357 0.8440448 0.56091213 0.9204888 0.8501801 1.3504484 -0.8514956 -1.1657768 1.0057619 0.18363696 0.5267893 1.3962529 0.8029376 1.0791912 -0.3166793 -0.82461184 -1.285106 -0.7185179 0.25091138 -0.106653154 -0.74569786 -1.0844388 -0.9151258 1.2212826 -1.204083 -0.9251358 -0.8260431 0.6186283 0.781826 -1.732838 -0.11546596 -0.44513878 1.3245231 0.8115452 -1.1258101 0.7530177 -0.09969652 -0.33226886 -0.84019494 0.09616385 -0.98666614 0.67646277 0.8538235 -0.36599463 0.24102156 -0.31374606 0.5478398 0.31006432 0.54063094 -0.9231674 1.5971739 -2.333449 1.4075849 -0.5326842 0.42109093 -0.5988394 -0.61626303 -0.9499982 1.0412034 -2.4197817 0.08461916 0.8635745 -0.5526294
23 2.0623207 -0.099175066 0.45135412 -0.74342877 -0.55259806 0.68901694 0.428366 -0.09467773 1.0756936 -1.1743554 -1.3886242 -1.0007359 -0.8895595 -0.7423954 1.6938818 0.6052464 -0.104584105 -0.9600789 -0.6076128 -1.0873197 -0.6391917 1.0858543 0.7158016 1.1239424 -0.6151658 0.69912773 -0.83226866 -0.2136958 0.384961 -0.19027035 0.2911086 0.4570729 -0.46615723 -0.23053795 -1.291785 0.7903929 0.686899 -1.4897851 0.44339103 -0.7331625 -1.1921767 -0.64194673 -0.8748179 -0.62514883 1.2764393 1.1161923 1.9255147 -0.9225945 0.2643269 1.6467918 -0.28216422 0.8774628 0.61087036 -1.5339372 -0.10118797 0.5846072 -1.6114856 1.2066905 -1.9552851 -0.7209025 0.06562039 0.63601124 0.93753874 1.356301 -1.4386075 0.7085964 -0.84282374 0.23698248 -1.4082249 0.72117805 0.6462587 -0.23246336 -0.33480206 3.102086 -0.25259662 0.65883154 0.62631506 -0.21973607 0.9997496 0.46622097 0.9290457 -1.0612025 0.85478616 -0.19013833 -0.30505732 0.117989704 0.59364134 0.983358 -1.0547178 0.3366538 -1.9596082 0.33494788 0.95863044 0.19341514 -0.32889852 0.20617166 -1.1061045 1.5519235 -0.9192116 -0.72734123 2.3982484 0.67495483 -1.04256 1.1835647 -1.9670818 0.78226995 -2.400997 -0.024709178 0.02414411 0.29758033 -0.55608755 2.0480957 0.12716484 -1.1317409 -0.42519712 0.16951072 0.38994402 1.586491 -0.29935682 0.1557887 -0.81226015 0.34828866 1.1298305 0.59580326 -0.9619535 -0.7895925 0.327833 -1.9922497
24 -0.71519566 0.5327419 -0.4490633 -1.3873595 0.42558667 -1.1489995 0.5156834 -0.16883022 0.25841203 -0.14641151 0.9653616 -0.9498482 0.5226555 -0.94693387 0.20983025 -0.34311342 -1.372084 -0.92678815 0.33979 0.8516485 -1.3906618 1.3854845 1.1554524 0.6378965 1.024506 -1.5472256 0.21867795 0.34424776 1.088652 -0.16393553 -1.0777214 0.22975287 1.8474156 -0.41233864 -1.5091119 1.621777 0.019722247 1.1007712 2.2653267 1.3597504 -2.009884 0.08958408 -1.2153261 0.008265008 0.15222514 0.55784035 -1.7440499 0.023445379 -0.6762601 -1.2961748 1.064298 1.3686482 0.021780403 1.1950566 -1.0339286 0.5736994 0.63077915 -1.6310054 -0.11878511 -2.1587124 -1.2338685 0.076414496 0.09374366 -0.09218699 0.67857987 -1.2803003 0.086602926 -0.8461335 1.7905327 2.1088164 -0.05337959 1.1438004 -0.77486044 -0.40934885 1.3886753 1.1795884 3.1602664 0.6201833 1.3980067 -0.9876041 0.74359006 0.5949706 0.48168704 0.6034457 -0.48949403 0.5223767 -0.72389114 0.76441514 0.96130735 1.1269618 0.77133787 0.4803933 0.9373152 0.82356906 0.361138 0.85404015 0.41995016 1.204767 0.9576319 -1.0152812 -0.94765484 -0.08615945 -1.6195881 2.5343726 -0.22362778 -0.47422975 -0.8153447 -0.1429446 -1.0736619 0.5911371 0.278056 -0.8351058 -0.80495656 -1.156876 0.9823094 -1.1717545 -0.044355575 -1.2184076 -1.1500304 -0.027401103 0.80317694 1.7378104 1.1074497 -1.1097391 -0.061303996 1.8908542 -1.3405564 -0.6878241
25 0.65384954 0.41601473 1.5507007 -0.9894726 1.1470503 -1.7496465 -0.65290743 -0.3245748 1.544321 1.3824881 -0.5773461 0.57299364 0.96304214 2.0173352 -1.331604 -1.5784794 1.7398148 -0.6353888 -1.4452657 -0.12506853 0.09869181 -1.6222771 0.26922488 -0.32915318 1.7898041 -0.82839036 -0.078852445 0.16383208 0.608278 0.38460833 0.1455854 0.5618535 -2.0841236 -1.3282096 -0.009506052 1.536695 -0.25673527 0.421396 2.273866 0.4120851 -0.27845377 -1.350157 1.2847517 1.4756793 1.6952474 -0.02579641 0.3659949 1.0600427 -0.005347007 1.212846 -0.4599023 0.18606627 -0.31204304 -0.51358443 0.13297166 0.637822 0.06838319 0.28233567 0.58412236 0.8698923 0.81225634 0.11854279 -2.3707666 0.05643348 0.20595318 1.8365463 1.6212652 1.0609142 -0.7101886 0.004510238 -0.47682345 -0.2732 -0.025647959 0.6340982 0.5627525 0.7650257 0.66702485 -0.6846443 -0.7893489 0.56605214 -2.2106493 -0.01772961 0.35065114 -0.25147992 -1.0661211 -0.110934354 1.6201535 0.8303491 0.8955011 -1.5932881 0.55457395 0.83534956 -0.1236585 1.1950126 -1.0230846 -0.97224724 -0.0063155005 2.2348056 0.22211047 -0.19985352 0.33149135 -0.004782958 0.042555746 2.2331734 -3.3408198 0.83558714 0.87836826 0.064140536 -1.276046 -0.6071733 -1.6361167 0.6673456 0.9187962 0.63878644 -0.024466876 -0.20699596 -0.017055096 -0.3445063 -2.180892 -0.43343544 -0.73167366 -0.7275244 2.4738648 -0.34938884 -0.68805045 1.2934226 -1.7627932 1.7582457
26 0.59730905 0.9743709 0.6745318 -0.82631665 -0.31148008 -1.3207128 -0.6927692 -6.2259176e-05 -0.012165195 0.82895005 1.6241863 2.1705427 -0.3813006 0.33148533 0.743249 0.36738208 0.8088135 -0.95994216 0.59114766 1.0262035 -0.45979804 -0.7438931 1.1997205 -0.022931738 0.92441237 1.5459244 -0.1190434 -0.6762408 -0.38367543 -0.32363358 -0.8320313 0.15364505 1.5522786 0.18026863 0.12085144 0.8837722 -0.5982783 -1.9563376 -0.34248248 0.8941595 -0.4935645 -0.15614584 -0.8791885 -0.38802487 0.94652385 1.2392769 -1.0691452 0.78557473 0.90496165 -1.0176092 1.0394626 -0.9217752 -1.0416087 1.0812917 1.317485 0.21445222 -1.0480264 -0.9767751 -0.64371365 -2.7717552 -0.9395956 -1.0865782 0.2625649 0.7332236 -0.13849527 0.65875864 -0.78664166 -2.1882048 0.20122753 0.9023415 0.92009014 0.665394 -0.16913703 0.1218787 0.20784527 0.6144589 -0.3888215 0.23416977 0.6276261 -2.260894 2.340405 1.3110278 0.6621953 -1.6380345 0.9171911 0.49426967 0.9652011 0.0014386204 0.8134442 -0.7764691 -0.26294088 1.5748898 -0.41420907 -0.70008487 -0.04923096 0.6053458 -0.20382755 0.3053629 0.0363798 0.3242717 1.6429046 0.15982299 -0.17337854 0.32803103 0.2890293 0.2611165 -0.046821818 -0.16350721 0.9548885 0.38851726 0.15929972 0.39529946 0.8501278 1.5564529 0.13990737 -1.7172133 1.248726 1.6677674 -0.5346962 0.5496863 -0.34125865 1.8436954 -0.08244181 -0.8360113 0.17892739 1.2241032 -1.5011793 1.0310467
27 -0.22860685 -0.1361134 -0.73560834 -1.1113331 0.012198706 -0.10939282 0.85252774 -1.5181673 0.45548025 0.15934524 2.3202295 1.0864766 -1.0971473 -1.4514251 0.6838915 -1.4142157 -0.71453834 -1.5346915 0.46659702 0.6593216 -0.8876092 0.19566455 1.1691864 -0.5660192 2.2340775 0.2523616 0.91865015 -0.6682302 0.13877799 1.0103337 0.7173487 0.48594147 2.600385 -0.5716053 1.1185455 -0.118397534 0.060648084 -1.1993523 1.5992458 0.41983086 -1.788277 -0.91680807 0.32119986 -1.1044644 -0.53580344 -0.7004121 -0.49132743 -0.85365903 -0.3054078 0.39003232 0.09301631 0.8035371 0.54365873 0.12632573 -0.2802266 0.5322322 -1.104615 -1.7914369 0.50774103 -0.907121 -0.8895823 -0.18140921 1.4211191 0.21787837 0.16423249 0.5868454 -0.679882 -0.58328855 -0.74561775 -0.38413912 0.8030233 0.5278893 -0.8060689 0.052032758 0.7011554 0.99425405 -0.76706314 0.2834524 0.8921923 -0.19530839 -0.6432096 0.3233084 1.9537615 -0.8203402 0.3789494 -0.19836332 0.82409334 1.344534 0.9076623 0.77055943 -0.45058328 -0.30594623 0.75312245 0.61145836 1.4127446 -0.45029756 -0.5290019 0.8322188 -0.5332503 -0.13102767 0.5830626 0.67709184 1.4019432 1.2847977 -1.4211149 -0.48949668 1.0119308 -0.65558165 0.3666857 1.5058671 1.5085506 -0.42572644 0.5393064 0.15429379 -0.6258469 -1.3459922 1.5877227 0.19540538 1.1244267 1.5639802 -0.06567134 -0.6723867 1.6243203 0.3123448 -0.23424879 -0.9098876 -0.8725477 -0.3524643
28 -0.6101997 0.008989104 1.0896277 -0.77299136 0.5078878 1.1577771 -1.1905757 -1.231803 0.8856661 -0.16811004 0.967864 0.86006653 0.69939125 0.97873694 0.48199058 -0.51698005 0.596329 -1.1717451 0.31144223 0.5228664 -0.7076089 0.5232279 1.0929271 -0.10520893 1.2233424 0.18520841 -0.05671308 -0.2482989 0.17554775 0.10004178 -0.01895763 0.8465014 1.2141849 0.95345354 -0.20654762 0.68376136 -0.68177706 -0.40980873 0.673346 -0.2986984 -1.1345584 0.12630972 -0.15355794 1.0883883 -0.55781716 0.43520957 0.44266367 -0.75189483 0.5353878 0.15530382 -0.8815393 0.014193395 -0.30729434 0.16909987 0.28121248 -0.3808717 -0.2545474 -1.216073 0.3605906 -0.41815436 1.7551392 0.522329 0.04191566 0.878087 0.885431 0.96470475 0.8307287 -1.2345625 -0.44085544 0.117270865 0.43332386 0.3279539 -0.29600504 -0.44938198 -0.41716015 1.1535352 0.82978517 -0.07935273 0.20330024 -1.6080447 -0.37485817 0.851741 -0.124761865 -0.9780499 0.5476071 -0.03366367 0.29754615 1.2074983 0.5818986 0.7962376 0.16336733 0.2521751 0.46172008 1.0386031 0.9128753 0.67824763 -0.13720967 0.66822946 0.27521554 0.2727874 0.9827 0.2788478 -0.49188572 -1.7496818 -0.19198509 -0.82167304 1.5595883 0.14729987 1.5422418 0.43554866 0.15855095 -0.41324916 -0.17318426 -0.66548556 0.81934875 -0.18653755 0.53566885 0.06678729 -0.7833666 -0.39871898 -0.21010707 1.0099561 -0.48933998 -1.4886018 -1.2063607 -0.37055212 -0.0014150582 -0.76250106
29 -0.85295486 0.5193302 -0.98628193 0.23655555 -0.47397327 0.2668986 -0.5632875 0.31493986 0.65248656 0.8595424 0.045218725 0.6742189 1.5232116 0.11435714 1.0726418 -1.2797812 0.16712315 0.021087317 1.3475741 -0.39904207 -0.7596946 0.11146206 1.2546508 0.42059678 1.215704 -1.4119442 0.46070287 0.07064281 0.43294376 0.14700142 -0.36595976 1.5063307 0.8990541 -0.3122828 0.72103727 1.5396211 -0.7931525 0.97339094 0.7163636 0.5964911 -0.9600992 -0.6807024 0.8795992 -0.5917947 -0.2866397 -0.3857157 -0.8744351 0.04480862 -0.7088417 -0.9541628 -0.29421574 0.17148419 1.0312461 0.39888278 -1.2830365 0.3443113 -0.76112634 -1.0819649 -0.13299043 -0.6480336 -1.0420334 1.1454115 1.0384605 1.3410308 -0.22217818 0.89675593 0.14952378 0.8421024 0.5983973 0.003131741 0.8168607 1.14743 -0.57811385 -0.65037966 -0.06974225 0.9644388 -0.4762841 -0.28697872 -0.83081627 0.10326569 -0.9745817 -1.3551842 1.3638142 -0.8515322 0.14511733 1.4380531 0.94284433 -1.1414678 -1.3573647 0.7053142 0.4646959 -0.5095498 0.0058512795 -0.41106877 -0.27181554 0.4479401 1.0876054 -0.06693098 0.13967174 0.05160308 1.312519 -0.4773741 0.54028684 -0.32749972 0.6899807 1.3150784 -1.0601331 1.2645136 -0.82878715 -0.5896142 0.21355674 0.5842327 -1.4603957 0.78586966 -0.52227277 -0.82469606 1.2189785 0.5504642 -0.123125054 -0.21162598 -0.8593869 0.66422707 -0.66393745 -0.8293393 -0.66930836 -0.29797292 -0.8449581 -0.27157128
30 0.6054944 0.90199786 0.45394224 0.30518052 -0.67853594 -0.90152884 -0.94800854 -0.21492499 -0.8330846 -0.21150278 -0.7615738 0.91640574 -0.5644053 1.1120456 -0.5424456 1.0513462 -0.111903675 0.38206002 -1.3789092 -0.874704 0.18012607 -0.19269338 1.2802943 0.5036067 0.18291263 -0.70129526 -0.6121223 -1.2048541 0.1384594 -1.2206008 -1.2538205 1.1114057 1.3542682 -0.7718696 0.9871822 -0.55702055 0.27668622 -0.21085984 0.70673853 -0.08942594 -1.3028425 1.2674327 -1.0156769 0.6421857 1.5378873 0.022923797 -0.897092 -0.7696988 -0.88234633 -0.3252789 -0.41734818 0.4098944 -0.2449178 -0.32540578 1.0413892 -0.34771058 0.055575624 -0.50362283 -0.3286013 -0.03329692 0.20610094 0.017386701 -0.05035256 0.1426546 -0.36225384 1.370918 0.7211214 0.06469602 -0.7247478 0.6558113 -0.533634 0.30401593 -0.74699134 -0.32017186 -1.0647184 0.2296213 0.15621424 -0.55208546 0.541592 -0.4937586 -0.3790999 -0.88755906 0.9351 -1.2335865 0.5804302 0.83567953 0.9269662 1.5666821 0.04121402 0.604086 1.2628132 0.5639857 -0.87632036 -0.2586819 -0.031475782 -0.06633644 0.6944753 -0.10267121 1.1288167 1.1644106 1.1773769 -0.41317156 0.6434002 0.33246297 -0.80886513 0.42447695 0.27095744 0.7170085 0.8633456 0.02709387 -0.24530278 -0.46457642 -0.3289819 -0.10196594 1.139323 -0.116990976 0.20228784 0.48362494 -0.7067121 -0.43833503 -0.21825518 0.067350015 -0.50704926 -1.917699 0.06653817 -0.08515423 -1.3031453 -1.1039836
31 0.5772604 0.38909388 0.67905366 -0.32198855 -0.08875432 0.876401 0.12526418 0.5279843 0.0801404 -0.20698702 0.11776436 0.4137108 -0.1065442 0.63704133 -0.67896503 -1.391957 -0.18489215 0.3706526 -0.11634865 -0.6282046 -0.09308637 0.6126945 0.73909664 -1.1492348 0.17080629 0.45275652 -0.8594811 -0.8135221 -0.029797895 -0.08683904 -0.55003446 0.43325403 1.1201197 -1.0579991 0.4901836 0.58831394 0.82908696 0.15206337 0.90315425 -0.509306 -1.9054171 0.7219048 0.4032166 0.55819577 1.5407584 -0.28364894 -0.8438574 -0.7283617 -0.02258239 0.5706532 0.40882644 0.6307393 -0.578309 -0.5772664 -0.67382646 0.34720978 -0.8433112 0.41247502 -1.4124463 -1.4277128 -0.020285023 -0.25690416 -0.36561665 -0.83899903 -0.36164847 0.10781831 0.9301922 0.007156399 -0.5054206 -0.9136023 1.9034038 0.34802714 0.79759383 -0.6633822 0.07618454 -0.13141055 -0.25349054 -0.7095208 -0.7407351 -1.6259422 0.7070711 -1.212261 -0.4885433 -0.9472689 -0.92943627 0.71650034 0.09018231 1.3128799 0.3338954 0.91272444 0.8701739 0.70526534 -0.7167321 0.25616115 -0.8614962 0.43498772 -0.22904569 -0.010143299 0.3750685 0.6251459 1.7014056 -0.7843352 -0.08511185 0.21829805 -0.60832936 0.11918266 1.2019047 0.2589117 1.5468646 -0.41945052 0.15120429 0.45150936 0.37192437 0.7545353 0.20990929 -0.1031384 -0.7640277 -0.051052116 0.35333684 -0.29096696 0.14792256 0.10865955 -0.35783434 -1.3963789 -0.7434824 -0.13271794 -0.10600618 0.13390765
32 -0.70499283 0.3240828 0.6436832 -1.8696822 -0.31842723 -1.7445842 0.45413285 -0.38044378 1.8134581 1.3382411 -1.3906488 -0.45349708 0.8314692 0.3645197 1.0027785 -1.6601269 0.3653172 0.20537643 1.0761259 -1.3261865 -0.30418497 -0.38203025 1.4752884 0.22930323 -0.7375488 -0.95452386 -0.49184147 0.46443206 0.70035386 0.96506625 1.0900311 1.6322383 -1.178965 -2.1641726 -0.23430604 1.6743311 -0.73726046 -2.1589117 0.75781304 0.5702415 -0.91922885 -0.80706894 0.18510601 -0.10695228 1.4161052 0.8185361 0.13976616 -0.9266243 -1.0679193 -1.8180394 -1.064726 1.4750392 0.9245667 0.18198393 0.11356773 0.3308225 0.80764157 -0.7872934 1.2237359 -0.5241711 0.8685967 0.43214417 -0.38343892 -0.2632652 -1.0612854 1.4631346 1.0902829 0.36161488 -0.47563818 -0.7868748 1.4055128 -2.170376 -1.0984704 1.5558968 0.24585865 -0.3882746 0.14411694 1.1584703 0.3091003 1.0738606 0.7740915 -0.6572743 0.2889233 0.80023944 0.52321506 0.32191294 -0.10960631 1.3013246 0.7244657 0.4783181 -0.7816726 -1.3138846 0.34932247 -0.91688895 1.9950445 1.3087823 -0.8662658 -0.39863068 2.2270045 -2.3535547 1.9571449 0.3225518 -1.7075346 -0.3911068 -1.3101838 0.17865174 0.26514837 1.6794229 -0.62407935 -0.055571523 -0.4987411 1.5387163 -0.5360338 -0.95602906 2.1308446 0.24965014 0.6037353 0.71175736 -0.12489287 0.5780604 1.0587463 1.2969679 0.05263003 0.6895941 -0.97552335 -0.28000087 -0.13644052 -0.87293154
33 -1.0374997 0.39587694 -0.4080456 0.85149115 -0.9269411 1.8081737 0.64958185 0.5115008 2.3634393 0.23999242 -0.7427158 0.4057974 -1.0344319 0.1523765 -1.3065823 0.7653809 0.5087681 -1.6542122 -1.1702547 0.14149995 -0.6591452 0.17146 1.5677682 -0.9033595 0.3756504 -1.5533117 2.4865952 1.0460855 0.06668926 -0.7516783 0.2695698 0.8009964 -0.252977 -0.04568245 -0.20603344 0.82973677 0.93642086 -0.08187514 0.29750824 -0.35124835 -0.12276765 -0.4543843 -1.630925 -0.969092 1.8550972 0.47458375 0.9139892 0.877555 -0.991883 1.8407127 -1.4015417 0.8223246 0.77865773 -0.9593208 -1.1780914 -0.3064568 -1.1403773 -1.2767836 -0.010547786 1.0974227 -0.7230931 -0.39495173 -2.597917 -0.9739738 -0.1830625 0.7975773 2.3798497 1.9694073 0.2354973 -0.70284843 0.35492262 0.7476087 0.4915996 -1.2292017 -0.6297943 0.45845044 0.24692263 1.2960626 -2.327109 0.38351926 1.6078922 -1.1433105 0.15727703 0.7748784 -1.2905884 -1.2127645 0.20621164 1.5914509 0.41409945 -1.4771596 -0.7287882 0.55403334 -0.4833084 -0.6938706 1.5636348 -0.04504847 -0.7623686 -0.5511996 -0.6935158 -1.1024913 -0.77281475 1.611184 -0.3661446 1.3215361 -1.0099039 -1.0263628 1.9734344 1.2483147 -0.28422388 0.6303252 -1.7150346 1.321364 -0.26220027 2.3186364 0.1316919 0.8842327 -0.36608988 0.69425696 0.03497892 -1.0311786 -0.9443118 0.99062854 0.6475762 1.3199134 -1.1491673 -1.0205134 -0.4945995 -0.14756306
34 -0.124180846 0.5637088 1.3211297 1.3029556 -0.01565593 0.7445635 0.45831218 0.39120233 -1.1283493 -0.5344175 1.208841 0.985726 -0.5435877 0.56439304 -0.5440053 0.3514068 0.6829881 0.08379757 1.3130833 0.45349467 -1.383444 1.1221321 0.65567833 -0.11815846 1.4270165 0.28294477 -0.17481971 -1.7675092 0.09275587 0.779339 0.39248964 0.48551214 -0.3103672 -0.5368178 -0.1796324 -0.2949419 0.7613902 -0.530767 -0.7793435 0.0046718437 -1.1108376 0.063007824 -0.735461 -0.16606823 0.6561552 -0.36948398 -0.10361263 0.95540106 -0.60361457 -0.37280804 0.49643084 0.18935956 -0.4139406 0.582329 -0.30772552 -0.44555965 -0.12493264 -0.4273238 -1.2443491 0.569429 1.089537 -0.35652447 0.21112259 1.5565194 0.44311008 0.9481087 2.398248 1.1891955 -0.1240517 0.52129114 -0.07381859 0.47415847 -0.8869608 -1.0748225 -0.07600671 1.0934597 1.1336616 -1.9301049 0.6926327 -0.2480078 1.2824316 -1.005501 0.46411493 -0.67186314 -0.073540784 0.8734938 -0.72508925 0.0401491 -0.56109244 0.74727464 0.054126643 -1.1099831 -1.6607045 0.7260736 -0.6026395 0.75308055 1.3393058 0.70059055 0.5135346 -0.8256935 1.3596452 0.3314604 0.4086309 -0.1486498 0.45528603 0.8562921 0.18872228 0.120163545 0.03975105 0.40309379 0.70458466 -0.17769669 0.59232384 0.46312606 -0.58662945 1.264695 1.0589279 -0.7098871 0.66762143 -0.51977944 1.061372 1.0473416 1.1144007 -1.2903537 0.50241804 0.37144756 -1.2258354 -0.43904448
35 0.76551104 -0.79566044 0.16479403 0.8870064 0.25366384 0.38847414 -0.472796 -1.8450272 -0.59701395 1.4002346 0.58425224 -0.11922515 -0.45244598 -0.24551135 -0.71506804 1.1334522 0.4821198 -1.4461445 0.3851504 -0.6526028 -1.5755546 0.7308435 0.7168448 0.17764385 -0.041562203 0.1046388 -1.0433198 -0.4133389 0.72254175 2.0894763 -1.2418278 0.67605835 0.15330766 0.4412734 -0.6559483 -0.22822967 1.6380906 0.39041987 -0.5271339 0.67980534 -1.7561673 1.0989994 -0.878905 0.6458474 0.65973264 -0.06485012 -0.68926233 -0.25127488 0.7042783 -1.1799904 0.25907883 -1.0676185 0.013509709 0.025016904 0.79356825 -0.1825285 -0.6418606 0.21072829 -0.48684606 -0.64977217 -0.611124 -1.307773 1.0457033 1.1084217 -0.40631828 0.7605579 0.3527992 0.8317942 -0.7967695 -0.21104662 1.50152 -1.083068 0.42175844 0.7063113 1.2837671 1.7136493 0.37677538 -1.3207971 0.1621694 -1.3341569 0.47245574 -0.5810933 -0.5310892 -0.7026577 -0.6375391 0.97432953 -0.5250013 -1.0501615 -0.8941902 0.35736552 0.4673839 -0.6704619 -1.2156935 -0.47321162 0.36465162 1.059908 0.44546047 0.8193433 -0.17601801 0.10747211 -0.069419004 -0.15418467 -0.42250922 1.1928431 -0.5887676 -0.7898488 -0.43591243 1.8152174 -0.9796042 -0.39303914 1.300377 -0.045856014 -0.04609325 0.32400483 -1.3604484 2.0269117 0.39148572 -0.60194874 0.39663586 0.58225846 0.24299976 -0.97169465 -0.7496459 -1.0562992 0.28621617 -1.124734 -1.977614 -1.2539482
36 0.74771404 0.122222885 0.737213 0.017644458 -1.0742415 1.4897181 -0.34185076 -0.40687174 -0.52590555 -0.17530324 0.3201096 -0.9769799 -0.7638401 -0.67238843 -0.20587793 0.18630344 -0.741217 -0.35392514 0.37840945 0.8554919 0.14638504 0.45927793 0.0984974 -0.35640463 -0.002048495 1.4062605 -0.29557964 0.27128512 0.012722365 -2.048358 -0.07841993 -1.0922946 1.885267 -0.38323486 -0.29052237 2.6036541 0.73284054 -0.38809806 0.9718274 1.4220827 -1.6780396 -0.32629603 -0.6787447 -0.45198476 0.6428455 0.9057189 0.095215395 1.5567894 0.8910266 0.06725284 -0.04933332 0.9918559 1.4135209 -0.72543716 0.6891539 -1.0745432 -1.5367808 -0.18259653 0.36877322 -0.49557966 -0.8875899 -1.6491075 1.6255563 2.5045881 0.40554848 -0.84349954 0.8910308 -0.2679594 0.8979508 -0.54888195 0.49661744 1.4476752 -0.2638511 -0.26909304 0.46259657 1.1023778 0.476894 -1.4897493 -0.21850528 1.069312 1.4543668 0.7617555 0.97742313 -1.2190663 -0.77596307 -0.25806564 -1.8094852 -0.10715376 0.982558 0.8450394 0.66730106 -0.3828074 -1.1701196 -0.39539805 -0.6151816 0.580448 -0.5834847 0.51967096 -0.6254892 0.6077495 -1.289125 -0.24647146 1.0528889 0.93996173 -0.46415687 -1.3469737 -1.2885867 1.3802084 -0.930506 1.4461514 -0.22221182 -0.2505808 0.0688124 0.5291204 -0.84001803 -0.8283788 2.0649896 -0.3307378 -0.32786596 1.2597823 -0.91599125 0.48931625 0.011650419 -0.41842386 -0.94264627 0.6312257 0.3398355 0.11071587
37 0.7690147 -0.24047092 0.33549467 0.91954446 -2.003739 1.3186173 -0.6488418 -0.41299912 0.21688095 -0.0155307995 -0.48190367 0.5790826 0.93664634 -0.06201046 0.38913664 -0.14821497 0.55183995 0.4618764 -0.616262 0.73036623 0.4239113 0.040217407 1.5017602 -1.6229949 1.1985103 -0.08943566 0.33726573 0.35837498 0.22999269 0.20733629 -1.0606611 1.0906873 0.32483292 -1.2885125 0.42685515 0.016420078 -0.6130099 -0.31390736 0.15188754 -0.30729958 0.48216224 0.87174475 -0.47719753 -0.13614337 -0.28779137 0.10974955 0.3413314 0.35227475 -0.7872336 -0.9986207 -0.52877855 0.5230162 0.008023291 -1.8780866 0.03421462 0.7738675 -0.69477504 0.040517803 0.59567314 0.7177368 0.5341569 -0.24858864 -0.3194839 -0.51859283 -0.3707191 0.98757476 -0.3268318 -0.46934402 -1.5980116 -0.08721505 1.5200351 -1.000904 -1.1534272 0.11119054 0.5945889 0.73545694 1.10747 -1.3227006 -0.24835864 -0.8355777 0.090690985 -0.17330466 0.63396645 -1.1102412 -1.1551543 1.5198827 -0.2532924 -0.4692004 -0.33531204 0.26128966 -0.61499965 -0.47480357 0.06828749 0.48422486 0.9624241 -0.38023865 0.8688776 0.5894541 0.6007393 -0.0373096 0.6210105 0.069705635 0.043112963 0.6672027 -0.7663228 0.637986 0.7275046 0.59567016 0.9582757 1.0815449 -0.17826183 0.8788739 0.2600712 0.50774604 1.0805016 0.36464286 -0.1968806 1.0974547 -0.103460595 -0.57898474 0.83000517 0.6193724 0.036373343 -2.155636 -0.30256605 -0.7370701 -0.12790005 -0.18484062
38 -0.07334503 0.31973663 0.85613567 0.89864475 -0.24646094 1.5290878 -0.21637659 0.3854132 -0.42841333 0.9042647 -0.29047197 -0.69768023 0.0938983 1.402857 0.16012034 -0.9492875 0.9157367 -0.025346559 -0.07685136 -0.500911 -0.33139277 1.3785604 1.0555116 -0.46546817 0.838875 0.83112997 -0.044189464 0.4260926 -0.9487598 -0.6836228 -1.81698 -0.52045494 0.44178015 -0.55136806 0.3178382 -0.5396649 0.5352796 0.3331859 0.27690455 -0.12896074 0.07718933 1.0773691 -0.96629745 0.95026624 0.18758222 -0.35808727 -1.2606683 0.30828553 0.5383373 0.7348774 -0.003483299 0.12900299 1.0534072 -1.8911886 -0.9266438 0.34248957 -0.4333434 -1.0214654 -0.24388883 -0.44257548 1.3760871 -0.80216074 0.6356834 1.5465633 0.5040772 0.64392626 -0.15224911 -0.23923495 0.8801308 0.41976967 0.7500981 0.7260944 -0.0024674018 0.7058017 -0.3851142 1.2970876 0.024759708 -0.4534591 -0.5369801 0.28444004 -0.54505885 0.5618771 -0.1516603 -0.937186 -0.74823385 0.6161803 -0.50011367 1.0008448 -1.084249 1.4292697 -0.6179602 -0.4405238 -1.1983461 0.63042694 -0.17816544 -0.38634205 -0.2549551 0.095604755 0.19593225 0.83582884 1.2948598 -0.337032 -1.1708918 0.4429532 -1.2726682 0.97001415 -0.7536256 1.2871939 0.3459163 1.410444 -0.7738524 -0.14441429 -0.5034707 1.0546436 0.0046806093 -0.12116546 0.0144671975 -0.45255455 -0.62211114 0.26746425 -0.64805424 0.8185936 0.5019904 -0.72185403 -0.14386398 0.7759963 -1.3967006 -0.77394176
39 0.23071662 1.3446645 -0.5863915 -1.1380504 -1.0784923 -1.923431 0.83366877 -0.13097788 1.8973535 0.113504186 0.3437998 -0.026880702 0.794572 -0.1030747 0.84186476 0.23774727 1.3456407 0.21312623 -2.2092955 -0.29377666 0.5497072 2.0340235 0.38423926 -0.93867576 -0.6806289 -1.4062332 -0.25450182 1.1689034 0.5025192 0.94082016 -0.7974185 2.471192 1.2280385 0.6759454 -1.7024646 -0.23254369 0.7489468 -1.0472714 0.23934516 -1.2259067 0.84740347 -0.9563766 -0.15980245 -0.09519348 1.7560788 1.3278327 1.2457993 1.94161 1.1045653 0.99459505 0.3056552 -1.1640412 -0.3276031 0.29630587 2.5622618 -0.1683882 -1.3835549 -0.80616254 -0.03903125 -1.1533912 1.3690041 0.75101507 1.5646967 0.7354782 -0.0291992 1.1372029 -0.15368475 1.1072882 -0.15758575 -0.83509934 0.2572905 -1.659633 -0.11886474 2.3834248 -1.0367675 1.3953474 1.6807303 0.33332783 0.42787257 -0.47167194 1.1387047 0.38332322 -1.9120594 1.9602914 -1.0327142 0.49614862 -0.5916794 -0.6638975 0.5786298 1.0192026 -0.97489953 -0.45808217 -0.8629313 0.83566654 -0.15148894 0.011421908 -0.57135004 1.5270146 1.3883133 0.12442363 0.4708276 -0.9279344 -0.4349233 0.38817433 -1.0914909 1.0024827 -0.15105999 1.702674 -0.36261922 -0.76453215 0.41599303 0.093260415 -0.805682 -0.49507663 0.38110062 1.0204093 0.020619467 1.0162483 -0.047581397 -0.75948524 -1.4461799 -0.73700225 1.5130622 2.378199 -2.131417 0.78895414 -0.44513127 -0.97238696
40 1.076838 -0.22001302 -1.2663871 -0.03837345 0.5525453 -1.3888055 1.4062797 -1.1703038 1.6922565 0.5918515 -0.9594922 1.6168014 -0.1021232 0.5411895 0.27571094 1.2452492 1.018046 -1.3198367 -0.09702857 0.1655855 -1.5000248 1.4686078 -0.34171754 0.5554351 0.744703 -0.73252976 0.34424946 -1.0720799 0.29503563 -1.0336813 -0.8032091 2.6731827 0.6113406 -0.2409762 0.16276878 0.17531845 -0.45936692 -1.7728972 0.14224826 -0.69426936 0.066508725 0.9867919 0.5705236 -0.77287686 0.2978174 0.934913 -0.48467302 1.0912985 0.47216246 -0.97284365 0.21279804 0.2688077 1.7238216 0.49952114 -0.6992151 -0.3875874 -3.3559794 0.6965809 1.0749607 0.12093528 0.66210467 0.5842289 -0.40309584 0.18017952 0.664472 2.074683 -0.5580508 0.03237151 -1.3068238 -0.54780746 -0.4335652 -0.9249185 0.52997005 0.25819728 -0.6119944 0.62349707 -1.8644061 0.4195853 0.3435874 1.0837138 -0.19997594 -0.5323711 -1.0220289 -0.49776223 1.0306864 1.5846324 -0.17137651 0.2926212 0.09208353 0.5690187 0.19409534 0.6729566 0.08968709 0.6675293 -0.8687799 -1.0914248 -0.74267346 0.31459183 1.6059402 -1.067739 1.1256312 0.33347282 -0.28215635 0.28946579 0.38453144 -0.34114692 -1.9266362 2.4726331 -0.15061525 0.4293378 -0.8990538 1.4463534 0.93577456 0.97570425 -0.9436921 -0.23345543 0.6427837 0.78515947 -0.8328637 0.9625269 -0.5883394 -0.040542502 0.8849134 -0.15586163 -1.0353681 -0.3329297 1.4055357 -0.25321585
41 0.9673012 -1.7414356 -0.6901998 -1.1612287 -0.60531056 -0.4701206 -0.3425525 0.37863928 1.4375371 -0.94307095 -0.09791175 -0.29170313 0.24336834 -0.953936 -0.6047886 0.23690881 0.8625321 -1.155363 -0.04558878 -0.7752207 -1.9019508 1.3175765 1.4365797 -0.18172832 -1.0509909 -0.2495316 1.2126657 1.5196947 -0.8374049 0.71200395 -1.5130216 1.4157317 -1.8173536 -1.841898 -0.5059715 1.5497031 -0.96408993 -1.0162634 1.8841503 -0.3647444 0.096252985 0.13307025 2.3195796 1.5334027 0.68984884 1.0119047 -0.6220034 0.5605115 -1.6802976 -0.8871874 -1.3458635 0.8140355 -0.062950656 0.21035706 0.17257069 -1.7915847 0.69529444 0.12506509 1.5494221 0.64365524 0.70097864 1.1035057 -0.70267075 -0.8316884 0.94832903 0.07993123 -0.25005043 1.0286236 -1.8462596 0.08036685 0.7838964 -1.0417194 -0.4636773 1.3835763 1.7906889 -0.95242953 1.0546876 0.25021946 -1.7200891 1.2848483 -1.0957879 -0.2634967 -1.6348268 -0.06500279 1.1317359 2.4322152 0.29512733 0.94037074 -1.3319471 0.5209374 -1.2469426 -1.1619418 1.0287368 -0.15267679 -0.39397624 0.21087062 -0.28935474 1.4581642 1.4446765 0.89693296 -1.321867 0.61731267 -0.031268213 0.5937378 -0.118139505 0.10525457 -1.1933527 0.558081 0.6009833 0.9155215 -1.1042818 1.0534196 0.22482021 1.9801003 0.31172422 -0.1081262 0.39189634 0.979627 -0.3560738 -0.40139133 -0.58255345 0.08361667 0.500199 0.29388615 -1.6398532 -1.7456322 -0.12243074 0.15235938
42 0.36742327 -0.37596437 -0.13440478 -1.1441413 0.30860513 0.7100858 1.6028297 0.71707755 0.13856637 0.816542 0.64759254 -0.16681498 1.0021819 0.043132313 0.14733945 0.40762442 1.9674884 -0.41776988 0.87956846 -1.4322569 -2.4135537 -0.06518036 1.5510285 -1.4825203 -1.1084219 -0.05070175 0.8538304 0.88647634 0.7809958 -0.42027545 -0.33936372 1.6435131 -1.6454693 -1.9668715 -1.9698873 -0.03372062 1.5917314 -0.7337037 2.275923 -0.36966896 -1.0399944 0.30914688 0.7217843 0.3322382 0.64256823 2.1009662 1.3317142 2.6341262 0.36709988 -0.23958977 -0.8889199 0.9322201 0.4367022 1.8153994 -0.42884368 -1.5640615 -1.0190438 0.16968137 1.0770643 -0.48548272 -1.9305229 -0.6328596 -0.4143516 -0.9204571 0.98120195 -0.4429366 -0.40716827 0.95821565 1.2789397 -0.15549992 1.0829628 -1.5423161 -0.80453044 -0.49560663 -0.76460487 0.1474736 -0.8589862 -0.92934644 0.1600962 0.8463675 -0.73515207 1.291309 0.13600768 0.7370846 -0.92207724 1.263964 1.0508966 1.8218704 -1.5197666 -1.1745176 -1.0093277 -1.3768711 -0.56412095 -1.6238451 -0.97917247 1.2114645 0.5316095 1.1244736 -1.8964984 -1.9921559 1.7928889 -0.19414264 0.9043023 -0.6411045 -0.17258479 1.2722391 -1.0360413 0.9429647 -0.36326224 -0.71222466 -1.1031054 1.6786032 0.3129663 0.99697316 -0.44421074 0.22666529 0.5455086 1.1307064 -0.17711714 0.4667951 0.4231368 -0.97445774 1.3474289 0.84118843 -0.1561724 1.392762 1.0468051 -0.34999683
43 0.95212746 -1.026787 -0.41490337 0.8652141 -0.36537647 0.20171717 -0.41650128 -0.89385945 -1.6670945 -0.05727974 1.4594048 1.396427 1.7610147 -0.13265094 0.5398304 -1.129442 0.43256456 1.1290479 -0.8940455 -0.8102423 0.20348465 -0.3857722 1.748097 0.59949493 0.40960905 0.688134 1.0789926 -0.16528176 1.0818411 0.38766617 -1.6557423 0.6857822 1.6860402 -1.5543725 1.3097806 -1.0033078 -0.09368488 -0.8322454 -0.16123186 1.4472058 -1.6863966 0.036299244 -0.03953536 -1.0113999 2.2522418 -0.049924675 -0.29484317 -0.69735 1.5607715 -1.0172029 -1.531497 -0.8209135 0.12395508 0.9567462 0.25422707 -1.1273476 -0.47364002 -1.0702374 -1.2894714 -0.32607737 1.43426 1.3300747 -1.0467972 0.935549 1.4324305 -0.39078668 0.53930974 0.47221544 1.5295544 0.55533624 0.8117318 -0.86495125 0.22536142 1.1654931 1.2770845 0.60965055 0.97557694 1.6753476 0.2139624 -1.4007018 2.2852843 -0.46612167 -0.4975617 -0.64520794 0.2236098 0.68741053 -1.0820873 0.8124269 2.292665 -0.37719554 -2.3531263 1.4078833 -0.019747248 0.70251495 1.3241204 -0.071901575 0.66189957 1.6738769 -1.6202527 -1.0494819 -0.23035905 0.29116425 0.8368466 0.23626226 -1.290022 -0.7792605 -0.18171775 0.59177434 0.46794814 1.4175286 -0.46648714 -1.5341202 1.5682794 1.1193329 0.16127972 -0.62129664 -0.19673957 -0.08274706 -0.9981796 0.1566806 -1.3764123 -0.5460851 -0.69302934 -1.2550915 -0.6262635 -0.07553992 -1.4163442 -0.20654614
44 -1.1336517 0.51855904 -1.4865481 -0.71912336 -0.27241 -0.051961713 0.89291257 -0.45367932 -0.43424267 -0.6596046 0.82388556 -0.16581216 2.2690449 0.6690519 -0.38668624 -0.49751893 -1.3386084 -0.44120035 -0.60456365 -0.32422423 -0.3115245 0.7231302 2.8828003 0.7358166 0.8287992 -0.33274028 -0.008197545 0.90493435 0.10515269 -0.02576016 0.37919408 -0.5362191 0.2557949 -0.37886152 -0.22865261 0.66137713 0.061998 -1.1203914 1.6375772 1.4506636 -0.67692125 1.3822036 -0.67639524 0.6974569 0.28688362 0.90145224 -0.97451967 0.04270886 0.70482486 -1.9129685 0.5210399 0.18267906 0.71504956 -0.07843254 0.664024 -0.23290774 -1.3539162 0.9213358 -0.7872353 -1.6278346 1.0031339 -0.1397958 -0.9042004 -0.16879614 -1.9241396 -0.28006026 0.44589236 -0.4032661 0.07803618 0.4273814 0.5795567 1.8350388 -1.2373707 -0.05522333 0.86555755 0.4556748 0.16405374 0.23052087 0.47789153 0.30493677 1.2083542 -1.0616536 0.49115595 -1.3076056 -1.2230289 0.53919077 -1.0116777 0.5077575 -0.9058882 -1.2645642 -0.97963226 0.9006584 -0.96381336 0.7528869 0.27450967 -0.56251705 1.2979845 -1.2230624 -0.9808905 0.97096294 0.31801555 0.30370966 -0.62506664 0.09384986 0.7832374 -0.18926449 -0.91180754 0.43254572 1.4808848 1.2848804 0.1860816 -0.89758873 2.3652878 0.29264164 -1.4011973 -1.2760913 1.0678903 -0.05107281 -1.7305032 1.4862309 -0.017078714 1.662143 -0.5961192 -0.6007744 -1.2692289 -0.39937836 0.30765483 0.99225163
45 2.3674927 0.8181783 -1.069189 -2.6142607 0.49229088 -0.93136865 1.0106426 0.6656453 0.63684464 0.4379422 0.7399347 0.76513183 1.0356449 0.39742744 -1.3960147 0.48611206 1.542553 -0.6717338 1.2983683 0.6772675 -2.2207885 0.30953217 0.2848665 -0.38482034 0.9344615 0.401431 -1.51818 2.1519098 -0.99498844 -1.6224848 0.7312005 1.0607142 1.5470791 1.8965131 0.36005056 0.091594994 1.3742398 -0.8123394 -0.29498634 -1.4625027 -0.6735306 -0.35211056 1.2574667 0.41114336 0.71602315 0.20258425 -0.022458335 0.5105531 0.76485187 0.2628223 -0.400537 -0.98508614 -0.36831394 -0.5735739 -0.39134708 0.78423053 -1.0953586 0.47971827 0.7883228 -0.5851384 0.06310403 -1.5808908 -0.39220902 0.81874406 1.7441692 1.2311915 1.2952603 1.3618864 -2.20649 -0.12155397 0.31410283 -0.67864746 -0.4915962 -0.53335184 2.3022103 -0.50171906 -0.30816844 1.4692127 0.018007612 -0.6757359 0.6974466 -0.7325198 0.18918186 0.8742423 0.9991457 1.4008918 -0.44436872 -0.1063735 -0.5596371 0.8492722 -1.5124228 -0.21217278 -1.3214974 1.1575693 0.29544777 -0.3502268 0.59068376 -0.8209064 -0.48394006 -0.9904465 -0.73240083 -1.1257915 -1.0508851 0.029317366 -0.24211137 -0.6200737 0.5656128 1.4109695 1.3386421 -0.19684057 -1.9070096 0.67694426 -0.73845834 -0.7011029 0.53678185 -1.0983917 1.2240814 -0.13407376 -0.61259466 0.1524974 -1.117545 0.84851146 0.43520746 0.65414184 -0.123594224 -0.8191734 -0.6980207 -0.9883895
46 0.85010546 -0.6275508 1.7935114 0.13541111 -0.11290645 0.39863077 0.15583083 -0.48599938 0.3294094 0.18529385 0.0039945687 -0.35190895 0.2817232 0.057331357 0.013201495 -1.0631868 0.6948762 0.060906734 -0.68478453 0.05532967 0.40547562 1.0319214 1.6213309 -0.17939876 0.5837537 -0.6929503 0.1766916 0.44507864 1.6495373 -0.42726973 1.1882675 0.21177998 1.1194626 -0.66739786 -0.09142642 0.85973746 0.6558722 -0.6933997 0.47181526 0.59920317 -1.1749 0.14834997 0.06623218 0.82831925 0.8764439 1.0831478 -1.3578842 -0.98262084 -1.2018307 0.810265 -0.5056452 -0.36310259 0.12903415 -1.1808926 0.6892652 0.76844406 -0.7891199 -1.1861436 0.64619404 -0.6546838 -0.47110572 -0.7932965 -0.90814954 -0.9929748 -0.18337362 0.8056451 -0.3487982 0.47951406 0.6213414 0.55373096 0.5503544 1.3602154 0.09781569 -0.02482422 0.16759555 1.249302 -0.3519956 0.4374531 -1.5955089 0.5058784 0.33773494 -1.1587269 -0.017451717 -0.68777174 0.23194124 0.63307375 0.63759434 0.6824287 -0.5689955 0.5950962 -0.89127564 0.14364633 -1.6583358 -0.3963475 -1.2156459 0.6310792 1.0526271 1.1620976 0.43512386 0.071953 0.6378809 -1.4467446 -0.03491194 0.1558626 0.05884299 1.2153276 -0.05051815 1.4022392 -0.2694937 -0.31728646 0.48260134 0.79451567 -0.50050145 0.5197995 -0.3493839 1.1959734 -0.57625556 1.1669818 -0.17216735 0.7044368 0.7147065 0.07680263 -0.5898603 0.2727836 1.1214991 -0.3059677 -1.6913619 -0.22320296
47 0.12553874 0.39821532 0.38152367 0.12529005 -0.20789787 0.27662212 1.5488682 -0.24714561 1.3464167 -0.4917713 0.5010702 -1.3841878 0.8507845 -0.88520294 -1.6161628 1.2103409 -0.5400628 1.1272894 -1.4444183 -1.3714347 -2.000962 0.68693054 -0.11925582 -0.46601874 1.0330431 0.9818939 -0.5265246 2.0298755 -2.2700322 -0.60255367 -1.7804638 1.4855918 0.21179943 0.67762446 -0.18378979 1.441629 1.545657 -2.0142083 0.2541412 1.2060119 1.2613292 -0.8901482 -0.26628917 -0.86817807 1.660875 0.32034037 0.8016339 1.090965 -0.83630276 -0.8942384 -0.4560632 1.3614324 0.341242 1.3852537 1.5322899 0.5628453 -2.5318735 -0.47211844 1.679726 -0.32166168 -1.6191843 -0.6402572 -0.889266 -1.2949674 0.22621529 0.2693451 -1.1247439 0.8800543 -0.76248056 -0.13513005 2.1204398 -1.5202752 -0.68355596 1.037569 1.0527012 1.0299071 -0.43560538 -0.8814417 1.007002 -1.9444126 -0.8819219 -1.3628968 1.0236328 -0.6992486 -0.25111666 1.1330575 -1.4092773 -0.6567934 -1.0866563 0.3151788 1.2235558 0.6734701 1.4178785 -1.0630985 -0.20594488 0.5033268 0.5519899 1.3656971 0.7892622 -0.06396371 -0.9833553 -0.03723331 1.2640119 0.41656235 -0.38669822 -1.2065399 0.552683 0.95101184 -1.605887 -1.158567 0.7597632 2.1088858 -1.687097 -1.760828 -0.2894797 -0.2096506 -0.14481895 -0.81936884 -0.38430804 0.9549177 -1.0942892 1.517856 0.3307233 -0.0047924747 -1.5554684 -0.5093643 -1.2405807 -0.9506328
48 -0.10913705 -0.4481184 1.4913579 0.4097268 -0.91625416 -0.060613275 1.2536553 0.84829813 1.8325076 1.0613132 -0.51602846 1.3151215 -0.07857904 -0.103492 -1.208538 1.1143723 -0.22052516 -2.7059824 0.6569661 1.0346644 0.7097484 1.4026681 1.5909741 0.24528094 -1.0833688 -1.6060966 0.20187208 0.2519086 0.73468804 1.1629713 0.09435622 -0.65549755 0.46722093 0.14923885 -0.58322954 1.8570535 2.8838902 0.41615158 1.1844925 -1.5317957 1.1446968 -0.4310088 0.8947076 1.1283492 0.8970396 0.40918502 0.7024017 1.7536265 1.423871 1.3281614 -0.5013395 1.3898755 1.952871 1.1362952 0.15485817 1.198658 -1.4285285 -0.02634942 0.9404779 -1.0378906 0.5104966 -0.13199885 0.99398696 1.3583297 -0.7255838 -0.8025432 0.75502014 0.5894878 -0.7154184 0.24693367 0.21434487 -0.7823107 -0.9110914 -1.4702145 0.6228161 1.2216016 1.3239465 -0.12693696 0.27654144 -0.032124206 0.31628746 1.0393465 1.3430333 -0.11159598 -1.2163582 -0.2610424 0.6523834 0.19627339 1.0109178 0.9720203 -0.09462868 0.3887401 0.49554953 -0.03282034 -0.94727206 -0.21148004 -1.5535948 -0.058017675 -0.08922282 -1.692209 -1.26431 -1.3084105 0.31751698 0.16771436 -1.3965647 -0.11483033 0.90518206 1.2601889 0.012473153 1.092048 -1.1571956 0.30755448 -1.0842373 -0.37273476 1.0334945 -0.93882006 0.9008901 -0.44993582 0.2748556 -1.7596153 -0.55393356 0.17845017 -0.24768533 -0.31762087 0.066299185 -0.63363916 1.3074745 -0.048626643
49 0.12784646 0.2517647 0.31022924 -1.0723875 -0.21115479 -0.7366756 0.122089095 0.88363487 -0.397044 -1.1124247 0.6386811 0.56130016 0.72920275 1.6039737 -0.79237723 -0.18557215 1.970046 -1.4672215 -0.79113895 -0.5504457 0.37669542 0.960258 1.4263316 -0.053437185 0.8788193 0.8657716 1.3058199 -0.45060608 0.6669197 -1.1477603 0.75223225 1.0512793 -0.88429284 0.39817643 1.2812983 0.32915795 -0.21311174 -0.1763978 0.20679796 -0.8045446 1.7279217 -0.7015775 0.59248513 -0.223018 1.7955463 -1.6701037 0.3592398 0.15725106 1.1226981 0.8549878 0.04621045 0.3090521 1.2642157 0.11865651 0.6477325 0.6078545 0.32891235 0.16204707 0.54705566 0.86684805 0.3551992 1.5065184 -1.3039988 0.45479795 -0.99072474 0.8661002 2.441958 1.3408089 0.4673133 1.4325677 0.705303 -0.6330724 -1.4018368 -1.6522312 1.7701827 -0.7277636 1.1892624 0.28824103 0.22482437 -0.4087797 2.0214913 -0.19419526 1.6901096 -0.2245411 0.8330077 0.7030061 0.07358138 0.48984239 -0.72112894 0.69424886 0.51065516 -0.46730912 -0.26730788 -0.23797634 0.21673049 0.29274577 -1.246865 0.9775371 -0.27113995 0.70993286 -0.14428611 -1.1131576 -0.038252007 -0.42254105 -3.0552175 1.8526661 0.33875838 1.6420447 -1.3510545 0.03995335 -0.60972285 1.37807 0.72284913 0.29967046 0.35824734 0.29928675 0.5159056 -1.435206 0.17568734 -0.62020713 -1.3252172 -0.24335617 0.34729907 1.0491029 -1.4840466 0.18468262 -0.8873687 -1.725899
50 0.73363817 -0.59827363 1.3260673 -0.2730405 -0.5394317 1.0691663 -0.69533324 0.61502624 -1.6447151 0.9949114 0.16680391 -0.045970816 -0.5184809 -1.1485828 0.39935115 -0.7653381 -0.10803971 -1.7174467 1.0251238 -0.5608555 -1.3574802 1.0503861 -0.16623475 -0.2692683 -0.664246 -0.9149137 1.0161648 0.6121935 1.0561624 -0.5762656 0.12511614 0.77443296 1.4886425 -0.779939 1.3451321 0.67144454 1.2293154 -0.05541983 -0.2688034 -1.1661103 -1.0784997 -0.013432993 -0.40938887 0.1328254 -0.98501104 1.0993825 0.39628744 1.4177396 1.0475389 0.49429682 0.39060232 1.0502322 1.4851376 -0.62702787 -0.37977564 -1.17451 -2.1334777 -1.3752683 0.5915779 0.6951456 -0.30866507 0.16703536 1.2305855 1.1308234 -0.08088562 0.61966914 -0.2568388 0.5491874 0.5607645 -0.106454164 0.43284437 0.5891833 -0.87134194 0.67194307 1.0351648 1.275916 0.98732245 0.35381624 -1.5831643 0.71558064 -0.8094703 -1.055588 1.2744552 -1.9196594 2.0484033 0.362408 -1.0044236 0.70911914 0.6789951 1.0515366 0.5722833 -1.3593022 -1.4496121 0.49309596 0.06351631 0.23287666 1.9994415 0.4419001 -1.0671898 -1.2429452 0.39829636 0.094646774 0.027318196 -0.21206471 -0.04978949 -0.5907874 -0.15210484 -0.52900755 -0.5535965 1.2809508 0.5911834 0.41289008 -0.7873245 -0.09723656 0.1971386 -0.1673421 0.11171205 1.0042295 -0.11896716 1.318829 0.4201255 -0.022473855 -0.5536047 0.058244094 0.7894125 -0.34424078 -0.5993095 0.9316533
51 0.45726818 2.6147053 -0.7370751 -0.5265375 -1.148822 -0.6073675 -0.11315337 0.75187624 1.2406638 -0.49754706 1.0999732 -0.4247598 -2.375335 0.8775443 -1.348804 1.9436371 2.0354753 0.6764926 -0.94259727 -0.48745686 -1.5881566 1.2798516 1.2024112 -0.73801726 -0.20527975 -0.9199503 0.60258895 0.9681386 -1.6541656 -0.5283178 0.27577776 1.8816605 0.66259974 -1.2983454 -0.3207471 1.5969685 0.3306833 1.039637 2.1520429 -0.014045441 -1.1696982 -1.9762154 1.4042641 1.508414 2.2530339 -1.1843351 0.8280297 -0.17282529 -1.1366265 -0.2838795 0.46054932 1.0233748 0.94302166 0.116676636 -1.3622426 1.4774319 -1.2928219 1.9590652 2.564474 0.974799 0.5751099 1.2566975 1.4051951 0.9141967 1.3079001 0.751339 1.4214907 -0.16431461 -0.16594154 -0.54107237 1.5260143 -1.068168 -0.36281556 1.1693944 -1.5133606 -0.15936802 0.18769464 0.5928902 1.8220512 -0.27366975 0.040440436 -0.005269067 -0.16075197 0.3076924 0.3481379 1.215304 0.05857953 0.45858008 -0.37380368 0.7525102 -1.0963362 2.063173 -1.4327298 0.8674289 -1.5377539 0.6019307 -0.5071039 -1.4082483 0.5517475 -1.3827856 0.1321212 -0.6648743 -1.0759155 0.93612903 -0.51684165 1.3089255 -0.6966536 0.6193134 0.15784706 -0.033890653 -0.95353305 0.41199145 0.5042791 0.29703394 -0.66576034 0.35618213 0.79378885 -0.4357017 0.0802267 1.283146 -0.2335525 -0.50263226 -0.7683889 1.4958066 -0.609117 -0.7637596 -1.010715 -1.602244
52 0.1786332 1.1043291 -1.3295356 0.40501496 -1.4654624 -1.071379 0.49204135 -0.6595907 0.26146486 -0.25652498 0.034012366 1.5732973 0.116289854 0.43345872 -0.60818917 1.8697065 0.3820956 -0.50248134 -0.7367262 -1.0992467 -2.4214742 0.0430919 0.124499224 0.064529814 0.36769426 1.2121865 1.4306186 0.28538874 0.1788031 -0.40843245 0.2198055 2.3039875 0.13454266 0.85601777 1.7622153 -0.29033738 -0.6397982 -1.2736305 0.82337034 -1.9935026 0.29735032 -0.47137374 1.0320091 1.2849557 1.4978484 0.95462185 2.539811 0.19768314 -1.5876131 1.4960768 1.6965388 0.62105244 0.35221398 -0.22836563 0.63902235 -0.43968505 0.78486764 -1.2335682 0.9691561 -0.24991763 1.268036 0.80410284 0.29647797 0.27493918 0.6830828 -0.024648776 1.2709262 0.84994256 -0.11077666 1.6354345 -0.77692384 0.295707 -3.200225 -0.5081828 -0.49058074 -0.7621074 0.9103072 -0.61271787 1.4893525 -0.0051094573 -0.42469507 -0.77937603 -0.28075874 1.6117537 -0.20995389 -0.11214803 0.40332446 1.8368592 -0.9849511 -0.6680965 -0.80444515 0.02510319 1.5597932 -0.40817544 -2.7287915 -1.0429125 0.5473991 0.959755 0.5837068 -2.695796 1.0879297 -0.78368753 0.033099853 -0.23275019 -1.342432 -0.7923294 -1.2256777 -0.7510493 0.74437654 0.95600593 2.652547 -0.13851908 0.18612571 -0.10162404 0.40065983 0.04910645 0.91739583 0.5219069 0.51561064 -0.65989476 -0.060610916 1.2083733 0.30474424 0.09233173 -1.2499914 -0.4473956 -1.1219039 -2.0764623
53 -0.03988967 0.32907382 -0.7564711 0.40932077 0.25262213 0.14926858 0.29159293 1.0580345 0.38678464 1.0116508 0.112240024 0.058300138 0.26168653 0.05664074 0.8603066 -0.5992811 0.22171298 0.083363764 -0.59289277 0.11524057 0.34647965 1.2060372 0.3286626 -0.6590227 -0.45588425 -0.9811003 0.9067649 -0.40470237 -0.75681365 -0.033439796 0.43528748 -0.24658315 0.3721273 0.21005914 0.20173495 0.12659037 0.8139831 -0.21207742 1.0848515 0.16767693 0.18115412 0.14643511 0.99967176 1.0402118 0.50728583 -1.0190047 -0.752165 0.24399471 0.90113294 0.031502873 -0.35100093 -0.93217283 0.5063698 -0.14999747 -0.40737632 -0.0593289 0.18172976 -0.55040807 -0.8704705 0.5377653 -0.25279284 -0.5552457 -0.66522765 -0.54413015 -0.7639749 0.61347157 0.052083455 -0.29080805 0.17984192 0.88443035 1.4178029 0.36379465 -1.3298109 0.3640049 -0.5085414 0.690407 -0.46838176 -0.8109669 0.47869623 -0.5254196 0.53921634 0.26234016 0.96349025 -0.9690129 -0.283409 0.7620295 0.3775213 0.6004129 0.08591189 1.0685803 0.16431451 -0.68360883 -0.13335039 -0.4057432 0.100887634 -0.87976956 1.1178645 -0.10811941 -0.15449978 1.2934046 1.3568585 -0.023728408 0.003994043 -0.5595617 -0.7557103 0.30796343 1.6328694 1.259713 -0.91719013 -0.5389296 0.13398167 -0.5768827 0.13772169 1.3842146 0.29014966 -0.85895634 1.0625005 0.25370228 0.010788348 0.10294499 -0.118559085 0.73336136 1.0358713 -0.90565276 -1.1554095 -1.0269305 -0.3679347 -0.7560779
54 0.8659594 0.01101835 0.32698774 0.15730463 0.6029721 0.4953423 -0.4154631 -0.37022746 0.22296594 -0.12704347 -0.366635 -0.20690751 0.5207357 0.182747 0.46526504 0.7514981 1.8353434 0.29418412 -0.7954144 0.16210347 -0.19533844 0.8114421 -0.28158003 -1.5602428 1.8246576 -1.3383911 0.43620604 0.40031844 0.7469779 -0.41832927 -0.57981116 0.4163152 0.51921743 0.7778243 -0.12747712 -0.6218947 0.17678201 -0.027741991 0.45531163 -1.1872635 -1.4149654 0.394627 -1.0940022 1.2934529 0.44450414 -0.00459974 -0.28751007 0.2553825 -0.083263874 -0.3139322 -0.254639 1.3299584 0.4225953 -1.3975294 0.22522794 -1.125953 -0.090351306 -0.5985438 -0.27801913 0.112741135 -0.5167211 -1.0820738 -0.29982314 0.6857388 0.14262964 0.6421909 -0.1158415 -0.32090586 0.16936138 -0.091475666 0.80537254 0.8883995 -0.36036655 0.6158997 0.7194213 1.7131766 -0.41860312 -0.0126160905 -0.009777481 -1.3006253 0.74280393 -0.10931738 1.5016487 -0.32960165 0.0059789736 0.98519766 0.4273614 0.96048784 -0.24903809 0.636933 1.1781728 1.0819366 -2.2520707 0.53830814 0.6563076 -0.04471058 0.8645721 -0.23118378 -0.5428404 -0.18552683 0.5364606 1.2501805 -0.22572188 0.2193211 0.00055607356 0.91885674 1.1790204 -0.21693063 -0.16747446 -0.06464859 -1.3865039 0.20920125 -0.3753052 0.778562 0.010952998 -0.36957312 0.11702205 0.53402716 0.89607304 1.7842252 -1.1652101 1.2279758 0.72404474 -0.352825 -0.19539154 -0.51061255 -0.58151215 -0.10371732
55 -0.63107306 0.8829343 0.46213287 1.6979188 0.31469524 0.2394444 -1.3083386 -0.20763338 -0.22911234 -1.8701128 -0.062457163 0.07038107 0.44886807 -0.1331423 0.27425498 -0.2687346 0.4936169 0.55352193 -0.05972308 -0.574133 -0.933749 1.4389602 0.23739481 -0.17939967 -0.5691705 -0.30475023 0.7238686 -0.9014204 -0.8312539 -0.56687 -1.1618023 0.5342195 0.2551926 -0.21533348 -0.57598126 0.52035594 -1.413744 -1.4504585 0.27873483 0.1009415 -0.37291676 0.32236347 -0.48335683 2.1847513 -0.7963886 0.7215404 -0.99512297 -1.1028725 -0.93052185 -0.31421486 -0.2975322 0.5485518 0.63784 0.569995 0.093553305 -0.7910593 -0.5232177 -0.66338426 0.4991191 -1.7562617 0.660791 1.2102604 -0.3352896 0.24517785 0.49548995 -0.6243884 0.99557954 0.20895952 -0.54229254 -0.053118054 -0.40208867 -0.021375842 -0.8777777 0.2848632 0.90081966 1.0325124 0.69979966 -0.7276405 0.74733275 0.08650907 0.68087906 -0.59702605 0.5477419 -0.90824157 -0.7574196 -0.9913024 0.7944188 0.8895379 -0.9901578 0.6442925 -0.8143713 -0.33544227 -1.4931141 1.465102 -1.472098 0.13410664 -0.9162838 0.34720314 -0.3217915 1.6461033 -0.35697326 -0.99298334 0.08624519 0.20444722 -0.45567983 0.43203807 -0.014491037 1.3742701 1.0001867 0.12243948 -0.30964082 0.26713875 -0.29510587 1.7565418 0.5755693 -0.8290357 1.5736436 1.3046868 0.55227983 0.40134028 -1.183069 0.24880943 0.34793735 -0.72948164 -0.18726341 -1.8663976 -0.24710041 -0.38227054
56 0.65378124 0.8845871 0.6651594 1.1376632 0.68738085 -0.72329396 -0.97663575 -0.6608872 0.19843562 -0.45734504 0.42643565 1.2098111 1.1307802 0.21114023 0.1137891 -0.98097914 0.2329337 0.3216945 1.1792469 0.34400237 -0.8480086 1.9940349 0.9120951 -1.4817612 -0.66114813 -0.4931027 -0.013072905 -0.23584785 1.3788885 -0.15242739 0.48845232 -0.62358993 -0.012674859 -0.91491246 0.973996 0.8370588 0.26010925 -0.17983599 -0.006368417 -0.06351512 -1.254813 0.21028736 0.9010311 1.2368854 0.8752718 0.14204334 0.048399005 -1.2811813 -0.011164337 1.4481761 0.7117326 -0.5618939 0.89274687 -1.5471944 0.04521 -1.372051 -0.8899181 -0.41970205 0.044414308 -0.6086815 0.18706462 -0.9508963 0.1353552 -0.12451242 0.49354857 0.14851975 2.5571012 0.9149882 -0.9681177 0.92932224 0.2425146 -0.3357638 -1.243005 -0.79990685 -0.12098625 2.4538455 0.114488766 -1.330736 0.5587222 -1.9474901 0.1340392 0.71162856 -0.29423666 -1.2830961 -1.0608032 0.12903112 0.9975875 0.52659094 -0.033235427 0.639407 0.24106301 0.042042762 -0.8731552 0.80102754 -1.1239333 -0.478445 -0.9478661 0.67084926 0.11277231 0.32155925 0.61371505 0.5018533 -0.118758105 -0.23121439 -0.40356728 -1.2888265 0.4907772 -1.1450286 0.22272868 -0.5382972 1.6601146 0.65742946 -0.9120568 1.5325826 -0.17377532 2.0594006 0.060943794 0.70120794 -0.19687629 0.73689616 0.36673924 -1.0394226 0.12238125 -0.9441485 0.9871906 -0.11942816 0.0057742987 0.3806366
57 -0.5141923 -0.817082 -0.17306767 0.95065343 0.5820651 -0.8658975 -1.9020724 -1.0940603 -1.23623 0.6246926 -0.0516171 0.7122658 -0.1476145 1.4443169 -0.1106824 0.12675336 -0.29166538 -0.6431215 -0.7445934 -1.0366595 -0.20556833 -0.6063807 1.2208892 -0.99941605 0.6486505 -0.45195928 -0.421122 -0.13617867 0.8664545 1.4704691 -1.1909233 0.35398465 1.3042028 0.5166543 0.635077 -0.93059254 -0.5446479 -0.5376994 1.3071309 0.58707327 -0.4985138 0.5066805 -0.47161108 0.5323502 0.21502139 0.5432698 -1.7583933 0.9971796 -0.15855098 0.7350921 -0.9600899 1.2627254 -0.802364 -1.0518459 -0.51897377 0.61701053 0.0897967 -0.5256428 1.1856978 -1.5422256 0.32856348 0.21415427 0.17500317 0.63542247 0.39947054 1.5570825 -0.33138973 0.60580105 0.7745015 0.34850046 1.6029038 0.7878284 -0.33045986 0.509113 0.20035097 0.37559715 -0.6626131 -0.81096226 -0.9551494 -2.2327406 -0.32877275 0.7354164 0.8862776 -0.7612679 0.2858875 -0.059836023 -0.979458 -0.588168 0.72983193 -0.66339916 0.40123227 0.117399596 -1.7559141 -0.54452837 -0.065997995 -0.65932554 -0.03085828 -0.5979417 -0.16526246 -0.10443245 0.16479787 -0.04802139 0.5817595 0.80201375 -0.9162802 -0.28125992 -0.22107087 0.38315195 -0.25371793 -0.74395967 -1.0292147 0.3553772 0.43041778 -0.297369 -0.6792197 -0.0060427324 0.5727125 0.60767895 0.39635485 -0.20162329 -1.0433658 0.45260307 0.5661755 0.23426248 -0.6464532 -0.7755226 -0.33049056 0.44019216
58 0.7248694 0.164106 0.4392462 -0.6753172 -0.74821156 0.42090872 -0.73105663 -0.9538597 -0.51350313 1.5081735 -0.40064922 0.37926117 1.1866323 -0.6425771 -0.25978658 0.33773467 0.14685403 0.47972646 -0.120053835 0.29327187 -1.0679548 0.58453697 0.4164471 -0.6149626 0.70214844 -1.1762729 0.6123381 0.40016085 1.3299453 0.87855446 -0.21982464 1.2833616 1.1644388 0.24497938 0.08627562 -0.766253 1.0769532 -0.59338874 0.56909937 0.51910627 -0.009854972 -0.5932938 -0.63146704 0.55187225 -0.73798066 0.7216136 -0.6825416 -0.85424405 0.14103875 0.3849669 -0.9790614 -0.6618073 0.17948556 0.47605336 -0.3834107 -0.6062198 -1.4092661 -0.27371585 1.0322711 -1.1602966 -0.08706749 0.746497 0.55975485 -0.04411984 -0.085096374 -0.955005 1.8804064 0.17079654 -0.17014928 0.30129063 0.28679502 -0.4783605 -0.33433545 0.44780406 0.53301555 0.559083 -0.004275742 -0.35282436 0.7158802 -1.4608703 -0.11726556 0.1111608 1.5810207 -0.63930494 -0.5078722 0.13791412 0.15973887 0.022097358 0.00040460704 1.1033466 0.6220925 -0.1072504 0.27871606 0.44306645 0.45969367 0.8075441 0.7433212 0.7858666 0.5877612 0.47117093 0.56449264 -0.71757996 0.48790917 -0.54886425 0.35900235 1.0389051 1.595226 0.5590676 0.48948324 -0.2044267 -1.0418704 0.46379867 1.0255107 -0.055313315 0.00806524 -0.38841006 -0.15676084 0.9723668 -0.6565378 -0.820205 0.34559798 0.6142026 -0.06950184 -0.3550914 0.20904425 -1.0912365 -0.39201847 0.53973025
59 0.9611497 0.71242803 -1.6879785 -0.8517446 -0.3252858 -0.05153184 0.2427818 -0.75597024 1.4934187 0.56957597 1.746921 0.58992916 -0.6609961 0.19977477 -1.442357 1.7622821 -0.29843143 -0.6673459 -1.419481 -0.23550142 0.9573832 0.02008217 1.7556734 1.1133642 0.25525331 -1.5500352 -0.8372413 0.010614157 0.5927898 0.8320846 0.048374843 1.7663097 -0.6664043 -1.5175619 -1.0732547 2.004069 0.55308485 -0.7788852 0.5596631 -0.35231015 0.20870052 -0.94172746 0.58148825 -0.064948596 1.7689393 -0.8592264 -0.034523565 0.7487756 0.6457375 -0.3449808 -1.4399971 1.5565348 -0.016543739 -0.96691346 0.8104293 -0.5244853 -0.8855774 0.74592865 0.20730422 -0.015903227 0.016401183 -0.6797243 -0.44426087 -0.99251854 -1.6473974 1.6985538 -0.33030945 0.5749928 -1.9066286 -0.9946156 1.1661879 0.7743373 -1.3825228 0.7844339 -1.5415658 -1.143578 0.27696306 1.0471615 -0.49415675 -1.4863265 0.6714399 -1.0036087 -0.9141836 -0.014812705 0.4746394 0.54064775 -0.33602002 1.1699243 -0.60204625 -1.3747064 -1.3574533 -0.62048614 1.0587201 -0.75039685 -0.51870966 -0.10068772 0.7839136 2.0430787 0.9284696 -1.3776855 1.6708083 0.6640268 -0.6475283 0.99952555 1.079138 0.15766923 2.6533823 0.7372927 0.62973374 -0.29713628 -0.07338974 0.27586982 0.3388135 1.3363788 -1.0811337 0.1269393 1.7123135 0.44505122 -1.318847 -1.1897695 -1.2068063 1.1597798 1.4536643 -0.8367539 -1.5850267 -0.46755567 -1.0784019 -0.26546386
60 0.4875407 0.1390282 -0.327551 -1.7280368 -0.3237425 -1.5695344 -0.87872005 -1.7046245 0.6406949 -0.12969527 -1.0275841 -0.31205955 0.645442 0.71065426 -0.3453497 -0.3007678 1.8294162 -0.5755852 1.3205671 1.3418163 -1.5670956 -1.5504944 0.6204285 -0.97098726 1.9840617 -1.5321047 0.9838917 0.48236355 -1.242005 0.5050601 0.31268507 1.7869121 -0.55009496 0.24357419 -0.04646532 0.2583352 0.623163 -0.24345987 -0.1340725 1.4112471 -0.059212834 -0.39988574 1.2559437 1.2642083 -1.2582248 0.6581729 0.008531522 1.2245941 -0.45005336 1.5430212 -0.4289572 -0.044524908 -0.847252 0.8297928 -0.76896656 -0.084894404 0.18821172 -0.47688654 0.8377924 -1.605456 0.21786939 0.15852657 -0.1650903 1.0368752 0.22413732 1.2005115 -0.5314337 0.7894813 -0.012468056 0.87823266 0.45150444 -1.4154918 -0.32148975 0.016094487 -0.9075896 0.59777755 0.09373324 -0.2500048 0.56682694 -1.0854721 0.55418617 0.2482186 1.0087665 -0.7606348 -1.0107852 0.5019308 -2.2697566 0.710715 -0.3633577 -0.8861794 -1.6244936 0.25951284 -0.0017961551 0.98745704 -1.2587068 1.0196754 -0.11688131 0.8140463 1.1481541 0.5258261 -0.62141156 -0.24652754 0.53208935 -0.42216834 -0.58239746 -0.5079871 0.92172563 1.4115214 0.26564616 -0.8964401 -0.9412626 0.18416809 -1.2309327 0.7656758 0.2594677 -0.25791115 -0.92143285 2.0647495 -1.5951831 -0.59042716 -0.8239473 -0.794735 1.6712774 0.467993 -2.1566198 -0.9579701 -1.3850462 0.00015436929
61 0.9888535 1.7314457 0.13114439 0.56865346 -0.28481707 0.67558813 -0.5167054 2.5168233 2.577505 0.82002896 -0.7426995 1.2992573 -0.88328636 2.119945 -0.8016716 0.1544283 -0.55396944 -1.5353192 -1.1978079 -0.7685477 -1.7909089 1.5324733 0.57134175 0.30505368 -0.48270497 0.0022746094 1.0794256 -0.17735519 -1.4286575 -0.86938334 -0.7311609 0.25645453 -1.7070544 -0.30240002 0.66716874 -0.858189 1.8742919 0.31822717 0.00930521 -0.7206508 -1.7514292 -1.5531689 2.6471798 -0.7888019 0.7199604 -0.37284622 1.2619209 0.48218295 0.36534464 -1.4072661 -0.22677322 -0.04225857 9.43845e-05 -0.34152973 -1.6699868 -0.07841204 -0.38066664 -0.032291345 -1.176988 0.79824555 -1.1579244 -0.25591126 -1.0528748 0.5011613 -0.7097082 2.0085695 -0.08866173 0.7382132 -0.11495181 -1.5191952 2.457786 -1.1926311 -1.1880732 1.1250275 0.23394975 -0.8571138 -1.1160703 -0.23062927 0.8442451 0.69091356 0.2452344 -1.0846872 -0.3684097 -0.37305847 -1.7109151 -0.5891941 -0.059835345 -0.5200078 0.4620729 0.8393829 -0.7499202 -0.21481623 -0.48760104 -0.6675847 0.19203839 -0.4816011 -0.8668913 0.38933375 2.0086946 -1.6770377 2.094124 -1.3959137 0.636864 0.9254387 -1.5185012 1.0402422 1.6423311 0.69111776 0.060072698 1.238168 -0.5135901 0.63029426 -1.3864753 -0.90519387 -0.15421984 -0.07306019 1.2110987 0.93766284 0.11127609 1.3127421 -0.38005784 0.39771125 1.9439574 1.1775056 0.1412178 0.62222534 -0.3107696 -0.58332235
62 0.6729403 1.3070575 0.37686685 0.04769766 -0.92045933 -2.069971 0.11585226 0.7163038 1.0710859 -1.4943562 1.2015406 0.64403874 0.8010081 -0.88491607 0.39163372 0.09874701 0.7757407 -2.2622914 0.13260731 -0.6016344 -2.3823104 1.6020323 -1.3376317 0.54415303 -0.23806235 -1.7063535 -1.0548646 0.78683436 -1.0510811 0.67924947 -0.52467436 1.0186571 0.44760156 -1.2977605 -1.2496531 -0.3131107 -0.5506283 -1.310234 -0.4053306 0.65200806 0.6837105 0.72330815 0.91296583 0.46823773 0.81096977 -0.33734265 1.2055839 -0.81321675 -1.8009119 0.65015095 -0.04192866 1.1689649 1.1553048 0.29818454 -0.36039177 0.4690765 -0.9257144 -0.48099905 -1.327862 -0.6186599 1.2959282 -0.6022993 -0.51273507 0.8450632 0.56900764 1.1646844 -0.41140828 -0.501331 -0.6394668 0.88254666 -0.44452307 -1.0492786 -0.5191733 -0.71264887 0.466212 -0.34268934 -0.6013889 1.9785876 1.9200647 -0.89764774 0.048460934 0.16865507 0.4761143 1.3903887 0.19364749 0.02898345 -0.10435234 0.12723298 0.044442657 -0.21292134 0.16167901 0.34252617 -0.54917055 -0.8713695 -1.1199256 0.07384444 1.746888 1.6854377 2.4825542 0.8738057 0.23782443 1.9370887 -0.6613053 3.8079865 -1.3905637 0.42036924 -0.4709691 0.005283183 -0.716871 0.53210646 -1.5973276 0.07165825 -0.22395174 1.8764796 -1.0010734 0.658709 1.8521795 0.4232298 -1.0544868 -0.5378399 -0.09186368 0.9345655 0.8170972 2.33414 -2.06143 1.3806723 0.79827684 -0.41815338
63 0.4840334 -0.17387183 0.45354348 -0.96789986 -1.4359287 -0.056751072 -0.3823829 -0.058159977 -0.28864813 -0.81673586 -0.17133719 0.13612686 1.2127137 0.028026843 -1.0007735 0.47168973 -0.3609416 -0.49048057 0.41502237 0.3295886 -1.1792811 0.86414343 0.59550667 -1.1211886 0.2938122 0.31795117 0.2868554 0.2885406 0.27487 -0.24858047 0.09556467 -0.039986443 -0.47489193 0.11495245 -2.217007 -0.83763254 1.3664032 -0.62332004 1.6772426 1.208121 -0.099930175 -0.19162795 0.2893898 -0.5278251 -0.5452061 -0.027947487 -0.23995164 0.30075738 0.22076638 -0.29928887 0.64886105 -0.0035370453 1.105033 -1.2116922 -0.85602844 0.5953155 0.17851044 -1.3480214 -0.15082456 -0.8036468 0.5983467 -0.61183 0.60740495 1.0146722 -0.24160574 0.17969419 0.67091286 0.6079237 -0.91357636 -0.35961136 0.56015915 0.53138256 -0.114663556 -0.2691797 -0.28998744 1.7685078 1.1864969 -0.94671714 -0.14914986 -0.6658147 -0.004174148 -0.58842885 0.5009789 -0.54526657 -1.1007146 1.0425824 0.3364662 1.20662 -0.45772833 1.1543258 0.006259896 -0.9241172 -0.40533575 0.43393737 0.6972923 -1.1231234 1.4788499 -0.050201338 0.45508736 -0.14054616 0.24760683 -0.7411189 -0.64052284 0.12698585 -0.6534929 -0.06753309 1.2360232 0.3052711 0.9098926 0.532897 -0.4598348 -0.09611986 0.21355067 -0.39085844 0.4104582 -0.2603102 -0.6707634 0.48562902 0.8064383 0.81997544 -0.3027067 0.29038018 0.06568572 0.008137001 -0.043349236 -1.3094208 -2.0045352 -0.28684968
64 -0.3492615 -0.65871805 1.3404727 -1.1483974 -0.51534504 1.0027194 0.48829573 0.4768032 0.3644905 0.44530284 -0.6710553 0.5922837 1.4314928 1.1175307 -0.4848449 -1.0985619 0.7545674 -1.401567 0.63374954 -0.3371205 -0.81550324 0.010195926 0.7224766 -1.7052078 0.5032278 -0.8144318 -1.2243884 -1.1929711 -0.9830177 -0.45695087 -0.9551641 0.20112671 0.027871039 0.15570603 0.5815619 0.6477612 1.0339543 -0.93559813 -0.01669448 0.1456217 -0.6779278 0.32647383 -0.49799478 0.20079742 -0.81110704 -0.7841071 0.22750688 -0.65847987 -0.5085983 -1.2060786 0.29703206 -0.42269537 0.35824642 0.20496237 -0.47684288 -0.2829393 0.45276725 -1.4307368 1.0251825 -0.4791766 0.5135547 0.6208917 0.82550615 0.8517477 1.1109005 2.2480772 0.8998139 -0.408133 -0.9694073 -0.15610702 0.84126055 0.20120116 -0.16581874 -0.30680364 1.3034415 0.31429628 -0.70055884 -1.0913537 -1.1339846 -1.3793201 0.121196836 -0.99077976 0.64485157 -1.1789311 0.17328896 1.1608762 -0.9200055 0.64961445 -0.7645236 0.17160381 -0.22828522 0.31536987 -1.5972974 0.5068682 -0.729817 0.07268778 0.7386125 0.06801774 0.3051365 -0.19522995 0.47255048 0.19354646 0.66505784 1.1502119 0.30533934 -0.64655066 1.1069759 -0.0983145 -0.6748773 0.34051105 0.0075879376 -0.74740124 0.100593284 -0.2686803 0.9636617 0.9377073 -0.4398477 -0.8294635 -0.8382373 -1.0424544 -0.252566 -1.0166042 -0.19119962 -0.3665787 0.2903451 -0.90957904 -0.10220368 -1.0506524
65 -0.9576437 0.5198955 -0.074359275 0.45250115 -0.67790115 -0.6581729 -1.5112149 -0.8466961 -0.43731716 1.155024 0.29121724 1.5725701 0.634967 0.6841901 0.23813431 0.48994598 -0.00975004 -0.49823636 0.19607536 0.23205578 0.06983243 -0.26179796 0.253064 1.1508789 1.2794307 0.21763253 0.1490561 0.2643371 -0.9516842 -0.5778103 -0.94496584 0.38870746 1.1069276 -0.75356835 0.41706666 -1.1546233 -0.9246407 -0.011902997 -0.89762783 0.09812799 -1.1301792 0.3335283 0.21672261 -0.34278587 1.5849516 0.019966787 -0.27434966 0.13688633 -1.3386165 1.2047992 -0.26162666 -0.29841828 -1.5127215 0.5910794 1.5503182 -0.8854481 -1.9407264 -0.4717871 1.0399146 -0.4155213 0.096836306 0.53179103 -1.7944359 0.93506026 -0.1608073 1.1850945 -0.33884332 -0.33732048 0.25870886 -0.19610766 1.6296616 0.52738994 -1.8501184 1.1253314 1.7461916 0.50987965 0.98039174 0.37440053 0.41514322 -1.1117928 0.6051217 -1.4704572 -0.2885215 0.14716627 -0.71567774 0.39217597 1.1344752 -1.0336776 -0.77915347 0.5010545 0.38366544 -0.22817445 -1.3427962 0.39210588 0.907216 0.48011404 0.26041868 0.35849243 -0.20169032 -0.107091926 -0.26588073 -0.726646 0.6190908 -0.4806706 -1.0017867 1.3589395 0.5920098 -0.995241 0.7207977 1.2674793 1.3762957 1.3041863 1.3062668 -1.0974746 0.5479011 -0.45578837 1.0783559 0.72306657 0.28862548 0.49275935 -0.3563026 -0.017738529 0.4092119 0.07309515 -0.6435768 -1.1636102 -1.922895 -0.55597764
66 -0.8025864 0.25924242 -0.37998417 -0.08133014 0.7339646 1.4741354 0.9850374 0.6723486 -0.4144353 -0.28775787 -0.20585556 1.2468566 -1.1937296 0.6712122 -1.4844269 -0.6604251 -1.5216156 -0.7545296 -0.49898186 -0.3254866 0.28819296 -0.83243865 -0.32395408 -0.73752445 1.0152903 1.13617 -0.30193463 1.1476519 0.66371083 0.5372515 0.51508945 -1.6244432 1.0986813 0.27145147 0.01986418 1.2137169 0.72127753 0.013642351 1.5053368 0.7481806 -0.14478505 0.8112873 1.4961815 -1.2746888 1.1018382 -0.67578346 -0.09242511 0.77415454 0.3615197 0.6440047 1.4718412 -1.3373277 -1.2423319 1.8256216 0.15497954 0.015477105 -1.4338689 0.5084753 -1.6066734 -1.6555564 -0.09950817 -1.357393 1.3942732 0.12870023 0.503655 0.32126364 1.1749356 0.77703047 -0.3197593 0.06288513 1.5040951 -1.252318 -1.0074126 0.8380422 -0.01810422 0.1428561 2.1760776 1.0459086 -0.026712049 -0.94559896 1.4277492 -1.5414973 0.98070383 -1.0276062 0.6991235 -0.12548555 0.87302566 1.8313812 0.73718065 -0.16699813 -1.4539795 0.36502388 1.6507155 -0.23908086 -1.1659946 -1.3278277 -1.9005358 2.0756078 -1.5492647 -0.9609409 1.0074646 -1.6820955 0.36040217 1.0131065 -1.04073 -1.4101942 1.7109195 0.7439418 -1.2407461 -1.9399215 -1.2916086 -0.5781776 1.7042916 -0.27161333 -0.692865 -0.030984396 1.523504 -0.10708265 0.043470386 0.12028118 1.455011 -0.2518026 0.19501768 1.0312071 -1.1830533 0.8974996 -0.24579473 -1.3465444
67 0.8573108 -0.61892664 1.3730729 -0.036155533 1.9531375 0.7770109 0.6805218 -0.47172663 1.4851977 -1.2884693 0.76353836 0.004149513 1.8749726 -0.18109164 0.2282059 1.6851771 -0.13870728 -1.1766223 -0.56469387 -0.18684937 -2.5385618 1.1168133 0.20958894 0.9514355 0.34153375 1.6122117 0.7298898 0.8682188 -1.1792389 0.5996046 1.0579734 0.9893918 -0.05953205 -0.2548928 -1.8419833 -0.6521292 1.1877292 -0.4275915 2.0279126 -1.1430794 -0.29913697 -0.8620068 1.1201916 -0.32243374 -1.0530349 0.73371035 0.6728974 -0.7568026 -2.2023983 -1.1371799 -1.2099142 1.4632872 -0.18854843 0.22586933 0.46211144 -0.6118865 -2.196218 -0.1888943 -0.35909665 0.7155055 0.7393614 0.58241516 0.428954 0.5636784 -0.19099501 0.6749596 0.74370795 -0.14467362 1.1034194 -0.83078045 1.15122 -1.3963164 -1.0693088 1.3972555 0.9724407 -1.1331909 0.7614007 -0.70921624 -1.2982814 -0.64313 1.0104175 0.11548057 -1.5610443 -0.8856319 -0.38315773 -0.17310165 -0.2557028 0.5817825 0.34641016 0.033570345 0.100994274 -0.9565044 -0.13476329 0.5712112 -0.9252553 -1.3612498 0.80240107 1.2059572 0.24068072 -0.8215654 -0.0060634795 -0.5994986 -0.41825908 1.9774936 -0.55967206 0.86597854 -1.1002134 2.07313 -0.3769005 -0.37132674 0.21321456 1.2264036 -0.14876118 0.8564829 1.1780876 -0.16531533 0.9225265 -1.0165514 -0.054010313 -1.5284878 -0.047019165 0.35256043 -0.8038497 -1.2040333 -0.58340895 -1.0991842 -0.19151217 -1.3465471
68 -1.1452739 0.6370448 -0.26692697 -0.8394376 0.13966426 0.56800574 -0.5877528 0.7916834 1.1889018 -0.905456 -0.8543464 -0.15109913 0.13708195 -0.31301606 -0.5195879 1.2120486 1.27541 -1.3055373 0.33869928 0.12552097 -0.15362091 1.216511 1.5338194 0.4117021 0.1744928 -0.71142745 -0.76917577 -1.1673291 -0.05081528 -1.4009945 0.15542874 3.667624 -0.35658583 -0.55760545 0.17103882 1.1995912 1.0589597 0.48118156 0.4902331 -0.9817929 -0.3163167 0.13638543 -0.36504152 0.12431216 -0.634956 -1.4192592 0.6929117 1.304781 0.06915457 -1.9902929 -0.7826941 -1.2544671 0.6902647 0.4817105 -0.054019265 -1.0996807 -1.0003607 -1.6890092 0.73958004 1.5750594 0.56946886 0.26053813 -0.66453 1.6461028 0.46900725 -0.23740627 0.5605292 0.7658463 -1.6573713 1.0383108 0.70911443 0.4077496 -0.4226719 1.7688526 -0.571355 0.5094818 1.3488873 -0.5781775 0.74974835 -0.09456272 0.9574888 0.14082237 -0.558304 -1.1135348 -1.0808659 1.2473375 1.361698 -0.033272594 -0.1667291 -2.0760658 -0.021287626 0.58414525 0.8989633 0.68603534 1.4812609 0.535811 0.4334974 0.7737702 0.6191751 -0.7556776 0.11873882 0.745302 -1.126435 0.80535054 0.9520725 0.8187812 -0.16393471 2.6997318 1.7340313 0.3496913 -1.3223675 2.0782278 -0.26133084 1.077852 0.7565934 -1.886401 1.6363837 0.771452 0.18349808 -0.32925454 -0.32517803 -1.4523607 -0.109942414 1.5747567 -0.9842235 1.2256016 -1.1120119 0.060365923
69 -0.07034717 0.82887346 -2.0350473 -1.1704048 -1.2255256 0.53778005 -1.3112073 -1.1968673 0.6019875 -0.9617119 0.2799456 0.7875837 -0.5087381 1.5077227 -1.3187631 0.0053035496 -0.4904664 -0.07589809 -1.3927321 -1.4006776 -0.73439676 -0.3306828 0.04607174 0.67050254 0.26616722 -0.47644046 0.47342658 0.25864404 0.6148204 -1.0299841 1.2005367 2.013567 0.5082512 0.5083691 -1.3280951 1.3364064 2.0392797 0.29170716 -1.2054673 0.39345923 -1.1459441 1.0106866 0.7941176 0.59729534 0.39171532 1.085985 0.30249226 -0.1622441 -1.0989563 0.2310361 -1.6954465 1.3804979 -0.47163317 0.75269186 0.6896608 -2.2167516 -1.1032487 -0.25986573 1.1856782 -0.85731584 -1.1504216 -0.0922385 0.54973775 0.9121608 -0.8461498 2.044219 0.53056175 -0.55496895 -0.97114867 -1.1358021 1.592476 -2.1066954 -0.034381345 -0.64447105 1.1946337 -1.0416424 -0.1921195 -0.5186394 1.5756661 -0.117046386 0.091471605 1.1168582 1.5934646 0.58372253 -0.7194566 0.9523463 0.437705 0.08574979 -1.0223774 -0.6423549 -0.22044484 0.2185147 -0.7131846 -0.51926416 -0.86527437 -0.64355856 0.27946222 0.06016415 -1.8010706 -1.186868 -0.29982418 -1.1505167 0.59134597 0.19149035 -0.9438921 -0.8056516 -1.04729 1.484782 -0.15328373 -0.5518043 -0.6332581 1.2600344 0.91485876 1.2836331 -0.5075283 1.4578196 1.5782056 0.5804689 0.79656196 -1.7084074 -0.11603883 -0.63986564 2.2746007 1.3377981 -0.6966292 1.1071782 0.7989498 0.18747963
70 1.1364416 0.2365381 -0.47501183 -0.09736586 -1.2190981 -0.4706952 -0.38273147 -0.43395412 1.3657153 -1.9416234 1.524699 -0.72946113 -0.6735756 1.0785227 -1.2061199 -0.64183533 0.02238608 1.2373221 0.8503312 -1.3729932 0.5448171 1.1197369 -0.4956191 -1.3917507 0.9128388 -1.323341 0.5216132 0.27810314 0.54760265 -0.7259975 -1.1361355 2.3257794 0.79719293 -0.36664283 0.1742961 -0.2760401 -0.44906658 -1.927537 1.6950676 -1.6276468 -0.33204812 -0.40302962 -0.86668676 -0.247533 2.47212 0.056821823 1.1654935 1.6679062 0.5019635 -0.3400695 -0.9289551 2.6730032 -1.2478145 -0.2859437 -0.93676287 0.26254228 -1.7075708 -0.89182556 -0.0141853485 0.93909955 -0.77685153 1.6785223 -1.2743415 0.67583567 0.41770405 -0.086205706 1.5935144 1.0640601 -1.0460944 0.08549685 0.03351546 -0.027129654 -1.3253281 1.651871 -1.0563754 1.3430667 0.47908345 -0.043080404 0.20052339 0.9422931 -0.08157712 0.18938032 0.40633628 -0.8672189 0.52566665 -0.7908395 -2.5570793 0.89789325 1.3805001 1.3193882 -0.79793245 1.7926776 -0.41054496 -0.4995138 -0.624047 1.908733 1.0673059 0.8768581 1.2148706 -0.6297386 0.6975065 0.40024245 -0.1902633 1.2676204 -0.9322329 -0.92065054 -0.03718038 0.6015811 1.7402042 -1.5510312 -0.8156815 1.971183 1.622149 -0.14802206 -0.95810753 0.41314054 1.2617354 0.4878118 -0.268002 -1.1183103 -0.9180377 0.4625436 0.5871748 0.6416527 -0.7701428 -0.8232113 1.061891 1.0591956
