1050 128
0 -0.004814975 0.0010037039 0.004373553 -0.0009064638 -0.0043223724 -0.008386631 -0.007402961 0.0039832545 -0.0065122843 -0.00013306874 -0.0057865283 0.0017485082 0.0034485527 -0.0097152935 -0.018634079 -0.0077409386 0.0024395068 -0.0012345179 -0.015686957 0.010395004 0.0031988958 0.007386141 0.008499236 -0.017413095 0.00412634 0.011547333 -0.008994592 -0.0095812315 -0.009851463 -5.0947652e-05 -0.0047871685 0.0025358982 0.003409718 -0.0012575005 0.0142006 0.0044342363 -0.0010385705 -0.0032929287 0.00933677 0.0052603586 -0.00028470898 0.004432075 0.024743376 -0.0013557537 -0.008859554 0.016778516 0.0010049106 -0.00082725583 -0.006384572 0.0015046395 0.0025647546 0.0068180216 -0.0013310885 0.009344037 -0.00783937 0.00425039 0.0074526686 -0.0008225168 -0.007634822 0.0040548067 -0.011209864 -0.002055994 0.006652946 -0.011529666 0.0016386977 0.002018224 0.0039428296 -0.0026657826 0.0019663915 -0.022586763 0.00056990335 0.015631514 -0.0013592017 0.008951887 -0.0020333757 -0.004454167 0.008104765 0.0056421654 -0.0010116736 -0.00074686034 0.009637277 0.00029878595 0.001955547 -0.006131671 -0.0077846516 0.010708967 0.00067334005 -0.0013633821 -0.0034564296 0.00248134 0.0068637864 0.0015611371 -0.0011959522 -0.008291282 0.009395052 0.013465558 0.012980227 -0.014222894 -0.0009038988 0.005985419 0.0067228856 0.010881575 -0.011230616 0.008716731 -0.0063193655 -0.0068441755 -0.009053954 0.0075179217 0.00024585176 -0.00012682882 -0.008809553 -0.005801205 0.0022758052 -0.0069586495 0.003000305 0.008721486 0.00681197 0.015780197 0.000328216 0.001121133 -0.0097084325 0.006922552 -0.008032963 -0.014222783 0.01272685 0.006070216 -0.0034436614 -0.008175651
1 -0.01450165 0.007256624 0.00640986 0.013277485 -0.010087057 -0.014382846 -0.0047958186 0.0048446134 -0.013359267 0.019046014 0.0029061418 -0.001187278 0.01391555 -0.01012447 -0.00056615385 -0.004722758 0.017478056 0.010625455 -0.010668923 0.011609767 -0.0065623494 -0.0019422364 0.008592122 -0.02059701 0.0011939871 0.0079144165 -0.0064820563 -0.009029348 -0.0032672174 -0.0033858207 0.015703386 -0.0003806135 0.006556718 0.006149428 0.014871997 0.012623131 -0.013294323 0.0035199998 0.005229174 0.016324313 -0.014266008 0.00070486055 0.017846186 -0.008378956 -0.016010465 0.01215721 0.0075948904 0.00499898 -0.006363615 -0.0054989303 -0.0117369555 0.0103666205 0.01351214 0.0074622184 -0.013846781 -0.00070411694 0.0070923083 -0.013324554 -0.016099177 0.004740117 -0.012107279 0.010271665 0.016799914 -0.0053639608 0.01597455 -0.016336331 0.01610221 0.0006399741 -0.0045687696 -0.011236231 0.0076677636 0.01160591 0.003293303 0.011283336 0.013252819 -0.0052202125 0.0013692391 0.012167885 -0.008177006 0.0015804478 0.013005983 0.007063487 -0.0038171278 -0.002767275 -0.011238561 0.005590717 0.0072434624 0.0021320505 -0.002852295 0.004154182 0.0004992793 0.014272839 0.0052932873 -0.0040155533 0.017563885 0.011024302 0.0056237844 -0.009966192 0.0074565816 0.008903889 0.0015540267 0.010378546 -0.014088678 0.011341372 -0.0014533452 -0.007889388 -0.01100074 0.008858121 0.00395618 0.0125288805 -0.0133126015 -0.01377404 0.0013615 -0.0095421905 0.0022795056 -0.013257048 0.008371439 0.0071648047 0.007823378 0.0048481785 -0.011921579 0.0050868066 -0.0083953375 0.001979783 0.009737645 -0.002979852 0.0031326793 -0.011840838
2 0.0078939255 -0.0020082926 -0.0007906135 -0.006718395 0.004923523 0.0039992267 0.00844328 0.0148557285 -0.0058979704 0.0058893263 -0.01432481 -0.0053475257 -0.0035027047 -0.015675196 -0.0028393413 -0.01739105 0.012501361 -0.0041811513 -0.014978633 0.0116841085 -0.0051882784 0.012832328 -0.0025572614 -0.01526481 -0.006432547 0.015684275 -0.008333006 -0.01180451 -0.0019582757 0.017712815 0.014692259 0.00051792694 -0.013219978 -0.0014304204 0.0038532102 0.015929613 -0.013883218 0.011155566 0.0024688512 0.007165488 -0.0039285948 0.01324588 0.013810901 0.004680743 -0.002096347 0.017426208 0.0046126004 -0.0022845136 -0.018850066 -0.013693683 -0.01081882 -0.008023989 0.01175232 0.0023451517 -0.0126869865 0.0109882 1.7614999e-05 -0.011203576 -0.017721642 0.020614143 0.0065967077 -0.0022363379 0.011624608 -0.015424375 0.017148413 -0.008272215 0.00216688 -0.00920718 0.004664424 -0.0064562233 0.0025768774 0.018747581 0.0057687466 0.016262332 0.008141268 -0.018806003 0.015274861 0.018525945 0.004373047 -0.0027299752 0.015665565 0.0035306273 -0.0020891593 -0.010523172 -0.0022198076 0.006342551 -0.005261087 -0.0027722889 0.0027462065 -0.00060651253 0.017635832 0.0017114233 0.008878581 -0.002705451 0.009738187 0.010773455 0.009314964 -0.01538808 -0.002564882 0.0068412735 -0.0096071875 0.0057116007 -0.015430972 0.014611993 -0.0042055068 -0.0020639775 -0.011023486 -0.008245161 0.0034225301 -0.0051108142 -0.01850541 -0.0064405394 0.0055536283 0.0130178 0.002320789 -0.015126542 0.004964727 0.011769 0.0011539178 0.007917051 -0.010517828 0.019180318 -0.005037832 -0.017205507 0.015439609 -0.00409626 0.020988915 0.0011374218
3 0.0118906 -0.00040971994 0.0028243116 0.0031361813 -0.0018695913 -0.0021463817 0.0052035693 0.015345957 -0.0004195043 0.0116431825 -0.02509597 -0.015347972 0.008396974 -0.020683018 -0.014006056 -0.021022465 0.018917287 -0.0069043343 -0.008514453 0.009851952 -0.006372952 0.012016716 0.019479617 -0.012895509 -0.015941733 0.014631274 -0.015494877 -0.016945198 -0.010424132 0.011185204 0.018592188 -0.01877553 -0.011165379 0.013201936 0.0160213 0.01265925 -0.0056700464 0.00888909 0.008884759 0.021916583 -0.023094792 -0.0074109137 0.014466811 -0.003839614 -0.01811946 -0.0025486585 -0.0065649664 -0.0025523147 -0.02132471 -0.013331524 -0.009670147 0.0003359937 0.01953666 0.001896234 -0.026190273 0.0057300576 0.0065421294 -0.011992227 -0.023994964 0.01235975 0.007107681 -0.010457057 0.013456042 -0.017897302 0.025989521 -0.01840712 0.0071514007 -0.02858687 0.01121183 -0.011995103 -0.0025748482 0.014030957 0.021378206 0.020501483 0.013403801 -0.007856247 0.00050374225 0.017567348 -0.013473802 0.017014202 0.015519779 0.019863976 0.011778971 -0.017605286 0.0017914416 0.018114077 -0.008872745 -0.001162302 0.0036507314 0.0022965083 0.008589827 -0.0034074497 0.011655288 -0.009045276 0.00507617 0.01937621 0.009843666 -0.015948797 -0.009686931 -0.006424072 -0.0031382192 0.022072237 -0.012327938 0.01441751 -0.019375954 -0.0026503322 -0.0114291245 -0.0085386885 0.013542459 -0.016013127 -0.01610062 0.0073809684 -0.012899083 0.023531795 0.00044846447 -0.011409449 -0.0037498828 0.009881984 0.014464585 0.015123162 -0.012287477 0.02079744 0.0016209064 -0.013931791 0.0064840666 0.00588936 0.0042343345 0.00323096
4 0.0010306858 -0.0054259766 0.011171163 -0.000876185 -0.011755771 0.0016618244 0.0076620225 0.020778976 -0.012449518 0.023688057 -0.0040813503 -0.017814672 0.006899777 -0.014897889 -0.016706971 -0.014621088 0.013722938 -0.008013626 -0.004521357 0.021415409 -0.013169086 -0.00089652353 0.017234543 -0.014752229 -0.0060263555 0.025779882 -0.007828714 -0.013794557 -0.018869473 0.0112613775 0.024834458 -0.003218809 -0.009713991 0.0053291917 0.017814314 0.0142079275 -0.008322054 0.012690012 0.011123659 0.025864422 -0.0065014255 0.008589397 0.025523787 0.008413871 -0.024207447 0.005057684 0.004164362 0.0019114631 -0.020160388 -0.010115869 -0.01375532 0.013675027 0.013864282 -0.005735357 -0.02015467 0.01501992 0.0009441982 -0.017158449 -0.017089013 0.019485224 -0.014491774 0.008359154 0.015265983 -0.021327423 0.018997956 -0.012526702 0.013960018 -0.008222165 0.011446791 -0.010669528 0.0023449312 0.012414947 0.027719386 0.021235725 0.021539457 -0.0014673001 0.009011193 0.01984907 -0.013503128 0.016983056 0.01188816 0.013794294 0.007974499 -0.01821058 -0.0043468294 0.013370617 -0.0114124045 0.00020730947 -0.0047181915 0.00419218 0.01315549 -0.0009048778 0.014752596 -0.025015177 0.014654845 0.014940451 0.018606413 -0.027011963 0.0033348408 -0.0057339263 -0.0035199753 0.022880035 -0.02341621 0.010711712 -0.014457154 -0.014559113 -0.008602325 0.005094819 0.020386167 -0.0027285465 -0.021746075 -0.000561879 -0.0056410166 0.0048697772 0.013657961 -0.014921986 0.012657458 0.005146092 0.015402183 0.013301272 -0.02005557 0.016235117 -0.015803296 -0.017796418 0.019083332 -8.5694504e-05 0.018802982 -0.015139598
5 -0.013786503 0.004405188 0.004346965 0.006758846 -0.017260564 -0.0054789186 -0.0021188906 0.018731242 -0.024168653 0.019604784 -0.00016732501 -0.016725864 0.018086137 -0.01684475 -0.02382237 -0.025305128 0.024893643 -0.005413741 -0.008498153 0.010949886 -0.0063945334 0.010859825 0.0021679257 -0.010490986 0.0030475282 0.022203952 -0.013759261 -0.01737524 -0.01478641 0.014471483 0.01811325 0.003901903 -0.0012437776 0.0061979513 0.02164926 0.02435491 -0.011180447 0.014904485 0.019590417 0.01580752 -0.0133555895 0.02324622 0.025773017 -0.012432708 -0.02522628 0.017755615 0.010865329 -0.002350861 -0.013292974 -0.021942465 -0.025531087 0.0061438805 0.004147839 0.0039428645 -0.025009956 0.0016125592 0.0037733114 -0.013299093 -0.01492342 0.016766619 -0.017839346 0.0043885824 0.028150456 0.0051938994 0.022789272 -0.016282214 0.010795869 -0.015332101 -0.0023610948 -0.013882382 0.012551263 0.010953238 0.020393722 0.01582643 0.018313568 -0.023000706 0.016648252 0.014528347 -0.009377116 -0.0030624107 0.019029606 0.008395127 0.0034884443 -0.009952401 -0.018373026 0.016495662 0.006949065 -0.0022090005 -0.004687 0.017438052 0.013183906 0.0148781985 0.0074638114 -0.014286489 0.012240777 0.021356437 0.018354034 -0.016110467 0.015585116 -0.00075180636 0.005690393 0.012955365 0.002515837 0.01666802 -0.007571815 -0.003428213 -0.017611172 0.010015476 0.0075346846 0.0039302465 -0.019418102 -0.007712342 0.012181337 0.0085786665 0.005903885 0.0026882205 0.008168537 0.013250145 0.016267264 0.018519526 -0.009502326 0.019193552 -0.016865537 -0.009436286 0.019466879 0.0036424529 0.012121109 -0.006623256
6 -0.004300817 -0.024937475 0.014537024 -0.005818031 -0.017300943 -0.017261775 0.005825008 0.02489356 -0.004703914 0.025683902 0.0003859915 -0.025198957 0.026151013 -0.020649858 -0.024760636 -0.031443633 0.021770604 0.0009793497 -0.026392689 0.026484493 -0.016428912 0.0038093303 0.01921559 -0.0011209592 0.008645857 0.026829468 -0.011891112 -0.025603266 -0.018424354 0.008531501 0.020049728 0.0062881093 -0.0098420875 -0.00045139756 0.029606782 0.017034128 -0.022212612 0.019871198 0.016525002 0.018922616 -0.01358471 -0.010106694 0.02261626 -0.02032838 -0.02935971 -0.003847843 0.017449198 0.026199328 -0.01715756 -0.023423173 -0.03140282 0.016824085 0.013505843 0.0091067115 -0.01938101 0.00834517 0.013768839 -0.021500904 -0.02099674 0.023597902 -0.020147631 0.015494861 -0.00011861761 -0.020834165 0.016221143 -0.02979361 0.015536043 -0.019134136 0.003840769 -0.011400371 0.023033626 0.019385284 0.023542564 0.022502584 0.027083542 0.0034753473 0.008619241 0.0281273 -0.018102573 0.008963116 0.019731078 0.019372359 -0.0106131965 -0.017785981 0.008211271 0.018441202 0.0008686479 0.01045011 -0.026957253 0.025451904 0.017241068 0.004358207 0.023537925 -0.020523118 0.028047943 0.008338471 0.027949015 -0.014205614 0.0052910047 0.0040087313 0.0145015465 0.016739462 -0.026435962 0.02859751 -0.01329143 -0.015970664 -0.02276581 0.013863482 0.03012286 0.016145738 -0.021984853 -0.006171939 0.005325169 -0.0069490215 0.010264451 -0.016975543 0.016043995 0.022677206 -0.0009883053 0.018790046 -0.018760627 0.03115031 -0.014933499 -0.01988644 0.02082273 0.022987345 0.014308605 -0.023069985
7 -0.013598474 -0.0035112812 0.006238057 0.0024336688 -0.0072825057 -0.011415125 0.00062892307 0.019347025 -0.008430238 0.016900469 0.014606064 -0.009100366 0.0050849807 -0.007732231 -0.0041112565 -0.018936256 0.014750327 0.012424087 -0.014501364 0.016376702 -0.0136206485 0.021689735 0.012320772 -0.010221502 0.009366143 0.004533227 -0.018319119 -0.006035403 -0.008786733 -0.0019186093 0.00661391 0.005750226 0.011121772 0.006005686 0.014760154 0.0035557847 -0.0077993493 0.011883353 0.0052996776 0.00908442 -0.01637644 0.007836777 0.021415181 -0.014274703 -0.01497215 0.010626887 0.0030752774 -0.0015827477 0.0068287766 -0.0060865176 -0.019215466 0.01070594 -0.014632898 -0.0057477234 -0.0063753356 -0.0071349987 0.0117371185 -0.012415243 -0.018477153 0.020414244 -0.011610035 0.018079324 0.0125113735 -0.016898157 0.008815603 -0.0072353524 0.004065513 -0.006109042 -0.0037402583 -0.008460431 0.013258417 0.010716576 0.019328168 0.017747853 0.0054761386 -0.020938637 0.014835652 0.014001039 -0.0042734975 -0.013279491 0.01028328 0.008703574 0.0010065992 0.0014187314 -0.0036259906 0.009430072 0.0063823448 0.005334708 -0.010632583 0.015033103 0.011052126 0.012696456 0.0062884944 -0.0025250802 0.014630246 0.014806596 -0.012836381 -0.007893573 0.013639297 0.008777612 0.008462388 0.005460724 -5.599612e-05 0.016760064 -0.016052091 -0.008050156 -0.000102839156 0.0035748463 0.017329933 0.0025153442 -0.02256601 -0.011952015 0.006307218 -0.0014892252 -0.00025812266 -0.0004978305 0.014749676 0.0030865164 0.0052172807 0.01175577 -0.010406975 0.017028457 -0.015302624 0.00231418 0.014670955 0.016081763 -0.0004952826 -0.0033292514
8 0.0056576086 -0.016681004 0.022828106 -0.021892363 -0.015725812 -0.01858328 0.014594084 0.028795961 -0.00042114634 0.016313132 -0.021915207 -0.025905434 0.026101913 -0.019743545 -0.018559813 -0.033870015 0.02173947 -0.020016149 -0.018709704 0.025792979 -0.005678376 -0.0023310527 0.011306751 0.0072305677 -0.008331859 0.018128773 -0.024998473 -0.022434674 -0.020374764 0.005998561 0.013588049 -0.01822948 -0.018643422 0.012383231 0.024528919 0.02732745 -0.016580835 0.02064138 0.018808912 0.03330009 -0.024511117 -0.0048040804 0.027669875 -0.019995764 -0.029729731 -0.00070240156 0.015175053 0.0031164875 -0.018038891 -0.02408567 -0.026403612 0.022334859 0.020624539 0.009764481 -0.023754861 0.019669648 -0.013093285 -0.026980089 -0.034015767 0.022644943 -0.016288456 0.004254789 -0.0007106154 -0.016156303 0.031655286 -0.024279453 -0.015342695 -0.0128452405 0.012404876 -0.02125048 0.007217351 0.019328775 0.022678789 0.019669846 0.021055749 -0.0010719455 -0.009693447 0.022920739 -0.013493955 0.009311165 0.027963612 0.01835563 -0.0049316064 -0.017563995 0.015917238 0.020081922 -0.010531265 0.017532678 -0.013969718 0.012417478 0.01031443 -0.004978512 0.022483611 -0.021622585 0.028470298 0.009239004 0.013333764 -0.01729341 -0.0141184265 -0.014276267 0.0065897442 0.018353062 -0.012318381 0.018088844 -0.020047635 -0.031487923 -0.017766394 -0.0106230965 0.016186759 0.004183127 -0.022515437 0.009313312 -0.026145441 0.020183235 0.010313002 -0.019668689 0.003147942 0.024165895 -0.011248626 0.03213888 -0.015394655 0.025839463 -0.011229785 -0.00929818 0.020171516 0.001717084 0.013097638 -0.012296868
9 -0.007203503 -0.009208209 0.008589904 0.009880818 -0.007561816 -0.012282992 -0.004392304 0.010639367 -0.005885218 -0.0011414973 0.0131198885 -0.0032629084 0.011602979 -0.0041513 -0.01490754 -0.00923342 0.0167098 0.013188774 -0.004882622 0.0035330756 -0.0031746365 0.010345801 -0.0037487515 -0.023212353 0.004922862 0.01550811 -0.0034102998 -0.0118298195 -0.008388387 0.008238227 0.0056713074 0.014394112 0.011150417 0.014809633 0.009325826 0.013722059 -0.005940214 0.009597574 0.0029214874 -0.00053279544 -0.0028021745 0.0023367747 0.014182693 -0.0024317238 -0.016566737 0.014605673 0.0033647995 0.0058659804 -0.012503047 -0.0139195165 0.003651047 0.01102748 0.0012318414 -0.003055509 -0.01288615 -0.008621128 0.0028955247 -0.008530359 -0.012764704 0.021190368 -0.015159165 0.0032566453 0.005045582 -0.0020669678 0.0078030173 -0.004120371 0.017942036 -0.003631055 -0.013950927 -0.0057552275 0.0090677 0.004299355 0.01015972 0.00878095 0.016121142 -0.009877782 0.00566853 0.01746123 -0.0110121295 -0.0036119726 0.0010442236 0.0057179197 -0.0031119273 0.012332658 -0.0046826797 0.0027127801 0.0048763338 0.0021879682 -0.0099374335 0.0038625114 0.006336666 0.0033059143 0.004993556 -0.011287507 0.009925605 0.0037411298 0.016067464 -0.021488236 0.007152241 0.015055474 0.0037159084 0.008122877 -0.014264948 0.005209055 -0.003082352 -0.0053943912 -0.017461777 0.0074869124 0.010306649 0.011958539 -0.0030624394 -0.008755407 0.0023770386 -0.0034831548 0.0054343063 -0.0008179962 0.0049416022 0.0050896336 0.0154255545 0.015352719 -0.0087922625 0.00357826 -0.016525215 -0.006123941 0.010216537 0.0058700438 -0.0022886193 -0.015493436
10 -0.010897801 0.0071299137 0.006348358 -0.0027186745 -0.005880145 -0.015257822 -0.01236873 0.013844941 -0.01127015 0.020336518 0.009212832 -0.015511127 0.015624275 -0.01623682 -0.01763501 -0.018546991 0.011210093 -0.0016173337 -0.0038079834 0.010331143 -0.012060573 0.0057420977 0.009726391 0.0085294675 0.012807709 0.017228194 -0.009395837 -0.010817383 -0.015105375 -0.008309581 0.0069753774 0.0139330635 -0.0077559007 0.015896197 0.015777454 0.013251023 -0.013241857 0.0104439035 0.015502524 0.012362954 -0.0067128222 0.012778328 0.019618904 -0.007819287 -0.021528179 0.022386484 0.013042335 0.005111238 -0.011911938 -0.020766037 -0.0042542275 0.015333385 -0.0011203964 -0.0010540712 -0.022694584 0.016623108 0.0056133117 -0.017129995 -0.016221533 -0.00053581 -0.019655367 0.01308122 0.005863862 -0.012464181 0.010621721 -0.0071862857 0.015367458 0.0007406721 -0.012490041 -0.011740732 0.014045984 0.0061182436 0.021667145 0.007561091 0.016457206 -0.01715105 0.009770022 0.01928514 -0.015692772 -0.006184988 0.0150967045 0.019145576 0.007240836 -0.02018404 -0.0069066463 0.022015482 0.0015955667 0.0019161452 -0.0031312592 0.007475936 0.0058073853 0.01253539 0.009010639 -0.013838945 0.0154027175 0.00817694 0.01287059 -0.01570792 0.012404685 0.0042087277 0.015704831 0.010486255 -0.0123304585 0.011580006 -0.008269132 -0.016709622 -0.020193374 0.013343772 0.021779764 0.009534958 -0.014849415 -0.014706683 0.006925911 -0.008708001 0.0049275174 -0.0011975403 0.00721427 0.004532435 0.022261292 0.011577693 -0.008831184 0.0063389153 -0.013900316 -0.008444005 0.005580942 0.008139946 0.017732522 -0.0049790987
11 0.005056216 -0.0047558034 0.013422112 -0.003489785 -0.012897277 -0.023074826 0.005977426 0.019643474 0.0015282629 0.017932024 -0.01272115 -0.02132202 0.027161581 -0.02057395 -0.01945457 -0.024229418 0.020938344 -0.019751605 -0.026582085 0.03130764 -0.010263008 0.012932228 0.021730842 0.0027633302 0.005914153 0.016745722 -0.023418337 -0.021580365 -0.013668229 0.0069306795 0.008733682 -0.004726437 -0.017210593 0.0070745307 0.022030024 0.026273292 -0.024064202 0.020743117 0.01337875 0.020985717 -0.020465821 -0.007693957 0.011722468 -0.02521734 -0.01625528 0.002873265 0.0118788015 0.0055524823 -0.025596526 -0.027772266 -0.019478902 0.01888693 0.0057733734 0.018835895 -0.016086143 0.012623978 0.008358185 -0.032140635 -0.025883514 0.014859414 -0.020836843 0.016869834 0.013254205 -0.019779466 0.021508785 -0.017458396 0.00918408 -0.008189233 0.0068265162 -0.019287478 0.0027857912 0.02474651 0.028553026 0.02209086 0.021479867 -0.007878289 -0.004833956 0.015503473 -0.023769794 0.0020351165 0.022967115 0.024892809 -0.009206253 -0.018204145 0.005512679 0.017807828 -0.00678152 0.017527744 -0.017563185 0.013226596 0.018936764 0.006430124 0.019362928 -0.008377515 0.028500192 0.02701299 0.0091708135 -0.00970721 -0.010469148 -0.002029415 -0.00081426627 0.030133119 -0.023458114 0.02108489 -0.023812164 -0.0079149995 -0.02451319 -0.0075690034 0.023460418 -0.0036913657 -0.02799781 0.003314458 -0.0050665517 0.018801328 0.008111198 -0.017677978 0.013429993 -0.0019211597 0.00648635 0.024676401 -0.025218768 0.020265365 -0.012115684 -0.012861727 0.01004971 -0.0059170555 0.00980471 -0.012439972
12 0.01565902 -0.0009338365 0.012129373 -0.005502978 -0.01001653 -0.010896334 0.015873745 0.021249626 0.0014800808 0.023061914 -0.0058507132 -0.0282644 0.009787575 -0.020862091 -0.020664057 -0.027018707 0.018481495 -0.024341194 -0.01989225 0.016608357 -0.005908308 -0.00044252502 0.010698124 -0.007856063 -0.0027024809 0.016463343 -0.022627007 -0.03044609 -0.010650642 0.024401702 0.013828108 -0.002734745 -0.016978843 0.0073232907 0.0273101 0.027596166 -0.02522636 0.0110159395 0.023402916 0.023712538 -0.014484733 0.00024146051 0.013090985 -0.01750321 -0.018754033 0.0043493044 0.015776716 0.0064956024 -0.026263846 -0.023145042 -0.023197062 0.015324598 0.021462359 0.013227438 -0.031810164 0.02177492 -0.0007172631 -0.03134586 -0.023434104 0.027628021 -0.020895252 -0.001585146 -0.0032790594 -0.008305412 0.027951313 -0.029387422 0.004165306 -0.020880498 0.005428319 -0.02222962 0.002833458 0.02993947 0.018245036 0.028140696 0.019528465 -0.003979471 -0.0052522966 0.021212773 -0.016948273 0.007957619 0.023722759 0.025589997 -0.0093450695 -0.020165449 0.0008618284 0.019302662 -0.011655277 0.0051032947 -0.0041987286 0.012667408 0.013251901 -0.0063518714 0.007972949 -0.022379238 0.021198697 0.020715306 0.022082664 -0.032491185 -0.01007792 -0.01108056 -0.001535462 0.02997331 -0.02121202 0.01673744 -0.00905908 -0.015201718 -0.020633955 -0.017156346 0.019789947 -0.0021768068 -0.022972671 0.00033567077 -0.006503842 0.022352956 0.004991023 -0.016143225 0.0070298295 0.0043986747 0.004240749 0.02099531 -0.017474726 0.014549044 -0.010314094 -0.013121896 0.012384317 0.007603219 0.013920087 -0.013903552
13 0.0016951605 -0.009463583 0.022193149 -0.0039419346 -0.0091404775 -0.009528539 0.0019938578 0.025954675 -0.0005924612 0.02219792 -0.0010617246 -0.019322049 0.01684891 -0.01898295 -0.018418446 -0.024032194 0.024242489 -0.0058929767 -0.02501242 0.016487045 -0.016946336 -0.0032633713 0.016013842 0.0012404331 -0.0076664765 0.015513769 -0.012563048 -0.026257025 -0.019120306 0.017342241 0.023705026 -0.008901556 -0.0073305746 0.011167697 0.016601682 0.017758748 -0.017288322 0.012703256 0.023247784 0.027328817 -0.0041235248 0.0009307861 0.0129287895 -0.0076773176 -0.029433638 0.0035291724 0.016957914 0.014173032 -0.018367797 -0.020994246 -0.011499541 0.019752953 0.019592341 0.006825584 -0.022472344 0.003956591 0.0006487598 -0.017621154 -0.02030118 0.008084044 -0.0096178455 0.008840974 0.009983882 -0.009788582 0.019164033 -0.019117197 0.006085528 -0.013554673 0.006421047 -0.014962516 0.016609464 0.016904764 0.022681499 0.015565442 0.020081239 0.0019864182 0.0024784065 0.02016109 -0.026958242 0.012987614 0.02182903 0.027950238 0.006408573 -0.015831968 -0.0005922452 0.0186423 -0.0047725867 0.00529074 -0.016381392 0.024589267 0.00915268 -0.008067479 0.021721961 -0.02020839 0.02202515 0.01839889 0.009135063 -0.017017744 -0.0048279525 0.00431048 0.008831872 0.014102557 -0.007378107 0.023246845 -0.01676878 -0.01822295 -0.012696482 0.005241581 0.022493558 0.007992596 -0.01725352 -0.0019581346 -0.0012544704 0.009817684 0.0066451547 -0.011262002 0.015449714 0.01140105 0.014281519 0.011297235 -0.01251719 0.019293848 -0.015540622 -0.008614174 0.008556989 0.008123732 0.007732159 -0.009411328
14 -0.008711734 0.015353293 0.014262208 0.006123998 -0.012406359 -0.002159975 -0.0077839512 0.009307389 -0.015916213 0.01315315 0.014729686 -0.010123024 0.0054400545 -0.004993077 -0.0134509215 -0.014934062 0.011639067 0.010478271 -0.0008759587 0.004056302 -0.010090987 0.0068715066 0.0011388214 -0.014908365 0.004387535 0.008207006 -0.01369356 -0.010188378 -0.009227292 0.009686032 0.009262292 0.014191304 0.010729549 0.004264557 0.009721253 0.01837725 -0.015942875 0.011238998 0.015206203 0.01565188 -0.0057286895 0.011605491 0.01118308 -0.003962166 -0.0047287303 0.009214599 0.015415695 0.007424408 -0.010716669 -0.017263295 -0.009139852 0.015981756 0.0010326963 0.008423678 -0.014704387 -0.00422656 0.004373063 -0.01678538 -0.0070203585 0.010697613 -0.009607624 0.014237055 0.017550837 -0.011929551 0.0069171833 -0.015429262 0.013813903 0.0023571353 -0.0041689337 -0.014185859 0.010641244 0.014409715 0.0059213405 0.013831221 0.015070334 -0.017728044 0.014842454 0.017320247 -0.015950859 -0.00779426 0.0071563637 0.01772648 -0.0002749556 -0.008086186 -0.0127828 0.009096324 0.002450034 0.0020348579 -0.013513226 0.012821268 0.0007331675 0.008753853 0.009812238 -0.016178526 0.0036413318 0.0057341354 -0.0050564776 -0.008292679 0.009303999 0.012684343 0.0128198555 0.015677428 -0.027545488 0.013267878 -0.0070203315 -0.00872765 -0.002682385 0.012326385 0.016858077 0.0070961784 -0.014089903 -0.010629659 -0.003024506 -0.0071112155 0.0011961865 -0.008621315 0.01334511 0.006323391 0.008285779 0.009637714 -0.017476656 0.013499744 -0.013088715 -3.4469413e-06 0.009154532 0.0028445323 0.008916996 -0.005165472
15 0.008261622 -0.018493265 0.02557016 -0.0155079 -0.016960403 -0.019912062 0.0044511072 0.02695782 0.0026699586 0.020129832 -0.0023322713 -0.028935758 0.017675003 -0.024881434 -0.01644428 -0.022540776 0.020458335 -0.0140150525 -0.026415884 0.017224187 -0.011304585 -0.013965546 0.022694428 0.008890508 -0.005335833 0.027446218 -0.026883297 -0.017334118 -0.017340668 0.012914201 0.021974573 -0.00908803 -0.011089309 0.007192903 0.025581518 0.019396702 -0.015163052 0.024954101 0.024924997 0.02662096 -0.025782458 -0.0081744855 0.03212206 -0.010782087 -0.015535171 -0.012456487 0.024749726 0.0050688577 -0.026079662 -0.020522764 -0.017771693 0.012388511 0.00968423 0.017123811 -0.016311109 0.008688168 0.00044792795 -0.015856707 -0.030341081 0.02780702 -0.0155446585 0.013849403 0.0077965227 -0.016171653 0.024892483 -0.030030211 -0.001021099 -0.017860048 0.0057021347 -0.024913087 0.0072663026 0.015762767 0.01796619 0.017063307 0.02230382 -0.0010784036 -0.0010358094 0.020897605 -0.017451016 0.009398655 0.016937505 0.031161506 -0.0037729528 -0.025698123 0.011425614 0.018581651 -0.003713262 0.0075566564 -0.013947893 0.01420138 0.008264117 -0.007026879 0.019136611 -0.01525845 0.024195673 0.017774248 0.024282359 -0.012064565 0.005847173 3.179448e-06 0.010641371 0.023782467 -0.024350973 0.015207077 -0.0150374975 -0.027030006 -0.018091084 -0.003751165 0.014089918 0.012858038 -0.022528896 0.0013502894 0.005970595 0.003953329 0.012543997 -0.020908229 0.009089568 0.0010879664 0.0046588783 0.015094847 -0.022734042 0.021446446 -0.013010318 -0.027977217 0.02554969 0.015315263 0.028400918 -0.0115533555
16 0.00135736 0.0001820407 0.017471142 -0.018711144 -0.004620737 -0.0063673886 0.00922307 0.023248231 0.0078482255 0.016213935 -0.016999763 -0.022444963 0.011866667 -0.021061704 -0.030519143 -0.02392659 0.014409296 -0.013420354 -0.023599043 0.022418128 -0.007432303 0.0067427233 0.019202653 0.0057159937 -0.007814631 0.0146226 -0.0145105915 -0.020953905 -0.01905314 0.014693229 0.01474675 -0.010907238 -0.029828928 0.007058872 0.03162479 0.02092343 -0.017444102 0.009751257 0.009072323 0.022632852 -0.014822584 -0.006541788 0.025121083 -0.012741566 -0.018525513 0.004419251 0.0072570667 -0.0049175927 -0.011876251 -0.022261236 -0.021843173 0.012188916 0.011696949 0.017643748 -0.024549358 0.014572253 0.0015417798 -0.02830697 -0.032755468 0.02460608 -0.01118207 0.008722789 0.010296902 -0.016597671 0.024379801 -0.03234924 0.004967163 -0.015233977 0.017915612 -0.018372165 -0.0053623756 0.021726044 0.020248286 0.01657058 0.015374529 -0.0074389568 -0.00048537692 0.01947453 -0.012062637 -0.00026248622 0.034746766 0.014512113 0.018909872 -0.030338483 0.008888159 0.02248155 -0.021207672 -0.009947406 0.0010874951 0.002499932 0.01987509 -0.0021034756 0.018511005 -0.017894613 0.007973189 0.022232827 0.019641338 -0.028780969 -0.0034448695 -0.023997376 0.00025126527 0.01960596 -0.020262035 0.01987577 -0.029337462 -0.014374994 -0.018312851 -0.01479852 0.02666456 -0.008108476 -0.018787384 0.01427459 0.0013300981 0.019225003 0.008426885 -0.014254484 -0.0013066476 0.0049841497 0.0061406363 0.014674876 -0.030042225 0.025959956 -0.01782625 -0.019573873 0.01691801 -0.005611098 0.009457912 -0.004822091
17 0.010252377 0.011712212 0.0014737365 0.001056809 -0.0021853247 0.009235726 0.0003433101 0.016588705 -0.0067204544 0.0096062375 -0.003035467 0.0005717252 0.0062932977 0.006653014 -0.019673878 -0.012707858 0.00053851574 -0.013608158 -0.013477551 0.0047928733 0.003341068 0.007056756 0.0017686877 -0.018410278 -0.007904598 0.0030926573 -0.006702153 -0.006744438 -0.0073573524 0.0064409063 0.008522665 0.008039918 -0.010482458 0.01075854 0.01348589 0.008541375 -0.0030878936 -0.002622206 0.0050778254 0.015811667 -0.010051708 -0.00025903157 0.02762998 0.008531125 -0.009282256 0.022774106 0.0047117407 -0.00506869 -0.008382841 0.0050020814 -0.0027268832 0.0014233585 0.014884728 0.00013668947 -0.015304001 0.018958254 0.008220432 -0.012951285 -0.008270728 0.010453371 0.010203537 3.4453944e-05 0.009181928 -0.019325798 0.006444451 -0.0016355806 0.012206396 -0.019073203 0.003548739 -0.010051753 0.0046023307 0.013491249 0.013640588 0.0004004676 0.0028331946 -0.012631775 0.011810161 0.008239665 -0.0006811395 0.0001459332 0.011217874 0.0043802992 0.010833027 -0.016947936 -0.009432654 0.011903157 -0.0043435795 -0.012256983 0.010786299 0.010412064 0.013443004 -0.0036638924 0.0017216668 -0.0073271305 -0.0034495182 -6.121813e-05 0.0048776516 -0.016894208 -0.003751157 -0.012389877 0.0005252976 0.0058605447 -0.011172865 0.01586398 -0.0047242567 -0.009483832 0.005559163 -0.0036075716 0.008209705 -0.009852569 -0.022852035 0.0051964205 0.004815318 0.005065137 0.00035959054 -0.0047415234 0.0042096833 0.0027112963 0.003432319 0.0080137085 -0.00073379726 0.01497862 -0.0050364784 -0.013285636 0.004525702 -0.008735003 0.012785341 0.0060508912
18 0.011889516 0.006717931 -0.011201585 -0.013390968 0.0127049815 0.018115569 0.0104123335 0.01194643 -0.008782304 0.0031320143 -0.023474213 -0.008817971 -0.009442453 -0.0041401936 -0.01844271 -0.017227713 0.007834728 -0.01692489 -0.0171405 0.0044126785 0.017714985 0.015326575 -0.0061504436 -0.020047173 -0.012696346 0.009401651 -0.008693065 -0.010057251 -0.0013945422 0.02301013 0.022135524 -0.0018177477 -0.02353485 -0.0018070616 0.02430304 0.012573552 -0.005693492 -0.010129549 0.0043085706 0.034549475 -0.0023493525 0.015009781 0.01543891 0.0010886913 -0.005027165 0.011997499 -0.021496998 -0.010304629 -0.012252203 -0.010236817 -0.018545501 -0.014869202 0.007740695 -0.004942123 -0.014008529 0.013503739 -0.00929576 -0.008726588 -0.018499503 0.020722281 0.007619904 -0.013742775 0.01432132 -0.0086520985 0.01200053 -0.0151355285 0.009166201 -0.023585077 0.020678762 -0.023370136 -0.018117838 0.016609143 0.016853902 0.0245288 0.0034589905 -0.024138091 0.016122222 0.0058351126 0.005517943 0.010039575 0.0138256345 0.015339415 0.018732077 -0.028911866 -0.002526337 0.014891993 -0.014298638 -0.023095164 0.01684911 -0.013399101 0.025023753 -0.0009252591 -0.0012383645 -0.025365427 -0.006801675 0.0071907346 0.01370715 -0.020747216 -0.0047707027 -0.018372132 -0.024574202 0.008422254 -0.011846813 0.006719058 -0.002602606 -0.010595376 -0.008648519 -0.016065119 0.010031003 -0.02118433 -0.021673499 0.012403013 0.0037893301 0.02157658 -0.015437256 -0.022195393 -0.011478515 0.0008867898 0.010006128 0.00022480625 -0.017206514 0.010285939 0.00083616853 -0.023895567 0.008334773 -0.016722327 0.025658533 0.011153139
19 -0.0034026427 0.020490445 0.009419764 -0.0013656867 0.00393354 0.00083758484 0.0032900262 0.026319485 -0.00942706 0.017214648 -0.009129484 -0.0058530816 0.008301947 -0.0047392836 -0.010596924 -0.015511725 0.012538834 -0.02061107 -0.002059008 0.011062874 0.011587941 0.01545091 0.0016337268 -0.014177197 0.0065835593 0.01377136 -0.02012693 -0.003601601 -0.0022198102 0.011166456 -0.00035781355 0.0019243112 -0.013040302 0.010528082 0.021739425 0.012847608 -0.007981045 0.0061821314 0.0126656685 0.022785246 -0.02180754 0.008409395 0.023009589 -0.007847997 -0.007191724 0.015697952 -0.0038138987 -0.0053436337 -0.0035924662 -0.009545009 -0.011773987 -0.001835428 -0.00037278008 0.01635347 -0.02178501 0.01783064 0.010716446 -0.014805676 -0.012282443 0.01606172 0.0009700684 0.01147757 0.01596626 -0.0141651435 0.008073446 -0.008508275 0.021577347 -0.01859013 0.009477713 -0.0247044 -0.009404723 0.01716818 0.025571827 0.008776757 0.019588543 -0.026048506 0.020777144 0.017765703 -0.00039257732 -0.0066308663 0.011103737 0.009457216 0.008884415 -0.009970129 -0.010297416 0.015797207 -0.002940918 0.0003952409 0.00628617 0.0014068636 0.016477829 0.018226543 0.013294885 -0.0021468753 0.0037517098 0.012750693 0.007466002 -0.015066897 0.0014904094 -0.005613737 -0.012996288 0.022182513 -0.0075883092 0.026661286 -0.014177281 -0.00868597 0.0011342408 0.0015476326 0.011673483 -0.016760472 -0.020914016 0.00047240884 0.0023458153 0.018721571 -0.008290014 -0.0075870845 0.0069329524 -0.0017659653 0.017167907 0.015178847 -0.011866819 0.019901667 -0.01646919 -0.0205221 0.0077767773 -0.009565847 0.0049305856 -0.0013942206
20 -0.013116112 0.0067074113 0.013291946 0.010589677 -0.017887847 -0.0071019474 -0.0028337878 0.014977597 -0.0050743246 0.0074912887 0.008928921 -0.008866064 0.0120527195 -0.013556138 -0.015243541 -0.005993253 0.018064423 0.0070192586 -0.0053334483 0.018509861 -0.010270295 0.022100018 0.017990304 -0.003711217 0.0037700261 0.005448117 -0.009071863 -0.0059306277 -0.01703256 0.0003874834 0.015061095 0.014116341 0.006702213 0.0041218475 0.019545473 0.009333782 -0.007520398 0.0078144185 0.012803015 0.0103530735 -0.007402733 0.013074097 0.009755084 0.002054523 -0.014887372 0.012715637 0.009424614 0.0074207154 -0.017378656 -0.006824314 -0.020170445 0.0127288615 -0.006380859 0.004210247 -0.017208256 -0.003972175 0.007106724 -0.0076307273 -0.018724091 0.0070625446 -0.004601355 0.006522464 0.004895743 -0.0080715 0.008668526 -0.010988521 0.010483846 0.009884182 -0.016360683 -0.009564534 0.012335161 0.008864359 0.010237686 0.01591795 0.005962073 -0.017954502 0.0064345095 0.016889894 -0.011433381 -0.015989482 0.015667316 0.016174534 -0.0053653955 0.0043331366 -0.0136557305 0.016718982 0.017044881 0.013490271 0.001435835 0.0030614126 -0.0064165452 0.01825667 0.015622422 -0.018797796 0.012950261 0.004372386 -0.00460831 -0.017100189 0.014954906 0.009713265 0.0047020996 0.013803461 -0.01795717 0.014727234 -0.00601933 -0.013777945 -0.020035801 0.015426839 0.019206226 0.0128950775 -0.010687109 -0.013112838 0.01202588 -0.013042461 0.0048259706 -0.020655721 0.012784148 0.014015058 0.011894056 0.0047368533 -0.0073503964 0.015313282 -0.014188864 -0.005817979 0.010139229 0.010887093 -0.0036670608 -0.010730497
21 -0.003831516 -0.008261285 0.01193429 -0.014862874 -0.01974595 -0.019783515 0.0023424472 0.018866796 -0.009772521 0.025279252 -0.00087105297 -0.025923299 0.01455948 -0.02975558 -0.018304843 -0.017151332 0.014541134 0.0050789453 -0.018236335 0.024190161 -0.026809396 -0.013050028 0.015132546 -0.0016353638 0.009108664 0.024320636 -0.016403405 -0.024291381 -0.020093257 0.005825858 0.021802228 -0.0032241556 -0.00450366 0.008843583 0.021091409 0.028608749 -0.021200635 0.028331488 0.015856873 0.012540257 -0.025038572 0.0008148117 0.0056712516 -0.02285643 -0.028867716 -0.0046577966 0.021560017 0.0260364 -0.017351395 -0.023685642 -0.022477295 0.017020961 0.0125096105 0.02185706 -0.01527688 0.026730487 0.010205036 -0.017983535 -0.025065267 0.01994824 -0.022898812 0.012015797 0.010856944 -0.014685011 0.020404058 -0.019240104 0.0002071805 -0.014993172 0.0011434861 -0.021824365 0.010797305 0.0192277 0.01803356 0.021280598 0.024882142 0.010401197 0.0019567956 0.030245265 -0.015305728 -0.0026368997 0.02147198 0.030094622 -0.008878635 -0.018137392 0.008944195 0.027010003 0.0040154103 0.012796571 -0.024789296 0.019273313 0.016149389 -2.0996762e-05 0.015424733 -0.017864088 0.028537612 0.006778875 0.015624988 -0.007916595 0.00020137521 0.007913412 0.01013676 0.023864312 -0.028185109 0.023915613 -0.014201798 -0.016777424 -0.018761398 0.013464739 0.022429764 0.01658938 -0.020443283 -0.008508628 0.007004862 -0.0072869547 0.020558761 -0.017800082 0.020268274 0.0048116622 0.0039234296 0.025121566 -0.01365181 0.015270211 -0.022946203 -0.021090116 0.019468134 0.014166205 0.017668424 -0.02303781
22 -0.016554795 -0.003920433 -0.0019164311 0.013716356 -0.008650854 -0.0060581486 -0.0045355638 0.018246008 -0.011618566 0.01498126 0.018379198 -0.01444638 0.007139196 -0.005097972 -0.0071541453 -0.019169284 0.0055235624 0.006500825 -0.018098481 0.017542845 -0.006792592 0.00038846862 0.0076920353 -0.015715038 0.019638903 0.0077235447 -0.0013079064 -0.00548126 -0.0056831483 -0.0052542165 0.008056119 0.011375389 -0.0025469642 0.015532172 0.020622723 0.004172087 -0.018953638 0.012596317 0.0054489314 0.013059004 -0.019928645 0.018977474 0.008330954 -0.002159015 -0.009722095 0.0074409484 0.017060366 0.0016942793 -0.014361307 -0.009952624 -0.000902712 0.018372139 -0.0018067734 0.0107119465 -0.008009182 -0.0113103315 0.01029934 -0.011770545 -0.020385377 0.020636624 -0.015447509 0.0075906306 0.0052051074 -0.009216367 0.009772314 -0.016188577 0.0039185206 -0.0013397008 -0.009207292 -0.020989561 0.004828836 0.015292802 0.014812436 0.005311543 0.01284175 -0.014847185 0.017811196 0.014635392 -0.013764961 -0.0064330567 0.0057236943 0.016478643 -0.00010243323 0.0016198005 -0.010409007 0.013132028 0.010828374 0.015560808 -0.0038271074 0.009492295 0.003263516 0.0136879515 0.005859374 -0.018581446 0.013386621 0.010232088 -0.009978193 -0.013391086 0.010783583 0.017207857 0.0054488797 0.009641427 -0.012126939 0.0074076415 -0.015735239 -0.011349509 -0.014357978 0.006250578 0.014806733 0.004736523 -8.996544e-05 -0.018318044 0.01606506 -0.0013923625 0.014373274 -0.009535181 0.013598831 -0.008176157 0.007707788 0.005871754 -0.018343844 0.015747173 -0.007750972 0.003552139 0.012666679 0.016336046 0.00533242 -0.013533058
23 -0.004241144 0.007253127 0.016928563 0.00671479 -0.01667327 -0.012346342 -0.011084876 0.020782221 -0.0042906525 0.0021991506 0.0053568636 -0.010901306 0.016225021 -0.01784379 -0.0057347324 -0.004899157 0.014650127 0.010231905 -0.01367989 0.020902444 -0.010018073 0.023941552 0.011865358 -0.014853596 0.00978444 0.0009964362 -0.0027291651 -0.008106311 -0.007995836 -0.0017994002 0.010483766 0.00429407 0.001834929 0.016612858 0.008033218 0.013867517 -0.009392468 0.015986865 0.019259322 0.019456724 -0.015850734 0.012505481 0.0115688 -0.014798444 -0.011159292 0.015689006 0.014577683 0.0061265556 -0.00605543 -0.013532447 -0.015965316 0.00658221 -0.00044071896 0.0037464122 -0.01473249 0.0014195342 0.005015835 -0.008323847 -0.020439088 0.006731382 -0.012951339 0.001714562 0.013467282 -0.00045594148 0.008906224 -0.009089126 0.007727553 -0.008441032 -0.0053245695 -0.014768121 0.011097922 0.011055505 0.00887414 0.0058252476 0.012298971 -0.015445282 0.0032948472 0.018891582 -0.015546826 -0.0026214477 0.020684969 0.008057463 -0.008789568 -0.0053638825 -0.0061528273 0.019505706 0.01800855 0.008179516 -0.008974851 0.011877781 2.4398498e-05 0.014541429 0.015843771 -0.011949192 0.008768451 0.013986951 -0.0011301017 -0.011064347 0.012075574 0.017099408 0.013789039 0.0068825674 -0.018539915 0.018995682 -0.007270296 -0.0031527737 -0.019078778 0.008859134 0.00872447 0.010410412 -0.011096604 -0.008558014 0.011184167 -0.008968837 -0.00044385582 -0.024834644 0.01374698 0.0019222558 0.0033721484 0.013154599 -0.0053055277 0.008422685 -0.006523475 -0.005210098 0.011451851 0.014787626 0.009282191 -0.012497228
24 -0.006613579 -0.009301454 0.017759928 -0.0034475587 -0.0067171003 -0.011848704 -0.0026204837 0.023340032 -0.0064775604 0.01184974 0.0009868147 -0.01836849 0.024257204 -0.017312009 -0.009629247 -0.01890511 0.01829082 0.0023773806 -0.025685813 0.020047328 -0.010964114 -0.0015025764 0.016174285 0.0066630724 0.0032710994 0.019125257 -0.023198294 -0.024017556 -0.017525733 0.0059362543 0.023155734 0.0054263044 -0.010609959 0.0125872325 0.023407023 0.024155244 -0.018521892 0.017842367 0.0112028215 0.020324847 -0.022801884 -0.0022838337 0.026543956 -0.026038367 -0.020617362 0.0074035306 0.017682154 0.0123050995 -0.015830189 -0.021971 -0.017929798 0.008233118 0.012380144 0.0047232048 -0.017165242 0.006229113 0.013980352 -0.01995338 -0.026825229 0.005443423 -0.012863689 0.017009595 0.022824077 -0.019205676 0.021595202 -0.024703901 0.021210356 -0.0070973746 -0.0022341716 -0.013301389 0.008728424 0.027350817 0.021190828 0.02229463 0.021083875 -0.011374754 0.014577792 0.017643517 -0.022086 -0.0044971257 0.022861274 0.021150908 -0.0070505426 -0.021237006 -0.0078947125 0.016058756 0.010041037 -0.0004931179 -0.012509031 0.015673019 0.007553712 0.015127477 0.022037642 -0.012240983 0.011943199 0.013797454 0.011575813 -0.014914707 0.0053058797 5.5957582e-05 0.014420593 0.013793047 -0.010026271 0.021448996 -0.011675278 -0.021688003 -0.02024509 0.0028073036 0.019965839 0.015741695 -0.024450142 -0.005962535 -4.6621142e-05 -0.012059449 0.0055938875 -0.008202313 0.020758275 0.007864471 0.015362204 0.01926379 -0.016370745 0.022635182 -0.016140128 -0.020868866 0.03056319 0.01538927 0.0074294694 -0.016023684
25 -0.0031525677 -0.0120767625 0.019372359 -0.025181353 -0.021124903 -0.012559344 0.0194697 0.018781213 0.0040183575 0.017368603 -0.012222579 -0.019039901 0.019924242 -0.0091710035 -0.028205676 -0.01890739 0.025097255 -0.013369973 -0.021132892 0.022490196 -0.007820789 -0.00676709 0.017563993 -3.8066908e-05 0.00082335726 0.02672965 -0.018984362 -0.02159417 -0.01560914 0.000718951 0.02855197 -0.006622854 -0.018988805 0.0060850726 0.023066709 0.027998226 -0.016914148 0.01454852 0.028249295 0.019013388 -0.021857303 -0.016771195 0.030312823 -0.01178708 -0.023445258 -0.010158542 0.01800772 0.013211773 -0.028102508 -0.018440267 -0.018228233 0.01855126 0.013309487 0.017507872 -0.01608308 0.023340894 -0.00092805945 -0.025775498 -0.027544314 0.02605395 -0.01279721 0.020392949 0.0017191316 -0.02891667 0.020752955 -0.019462325 0.00494269 -0.018196667 0.013064865 -0.020025197 0.009254114 0.02360629 0.011726106 0.023219025 0.01875478 0.0064649633 0.00028813138 0.026496977 -0.023122257 0.013855315 0.025589822 0.028573196 -0.0023297362 -0.027100911 0.018411057 0.019046275 -0.014792102 0.016211169 -0.013275646 0.018873839 0.022245944 -0.0055532693 0.016483068 -0.03294331 0.01700728 0.009135817 0.015409559 -0.012407906 -0.005167886 0.0048166164 0.0061217817 0.030563794 -0.022845648 0.020033186 -0.014021251 -0.008805672 -0.01486905 0.0003441496 0.021908106 0.014365761 -0.018178051 0.0115142865 -0.0070918077 0.017130591 0.022253368 -0.009808359 0.016517632 0.012964019 -0.002297194 0.025713686 -0.009772286 0.022183126 -0.013870699 -0.021429949 0.028678698 0.012585349 0.014008892 -0.019052865
26 0.0042424384 0.0011639389 0.015331995 -0.008782205 -0.005716647 -0.0042951787 0.021768937 0.022110185 -0.004669855 0.013955422 -0.016856398 -0.007817244 0.009094231 -0.015404362 -0.007829605 -0.017398829 0.0063806553 -0.010561895 -0.015034039 0.013770466 -0.006442707 0.003890237 0.012021641 -0.0029417693 -0.010959373 0.014492817 -0.013035426 -0.016718049 -0.015587924 0.01781173 0.029880071 -0.015245814 -0.022500103 -0.0025080903 0.021828849 0.0066381386 -0.015563357 0.0022075374 0.011380803 0.01966009 -0.008861398 -0.012239175 0.011896879 -0.011230262 -0.010481754 0.0014847808 0.006271609 -0.00084020116 -0.016661914 -0.014109569 -0.01596698 0.0044172523 0.025135806 -0.0021596733 -0.013436817 0.012797602 -0.004194006 -0.023258025 -0.021914542 0.0150471 -0.0030228542 -0.0010792932 0.0043275557 -0.005710654 0.015994648 -0.010579626 -0.0021171179 -0.018415006 0.023376986 -0.014327982 -0.0024770626 0.024298966 0.0053524496 0.011177677 0.0027495623 0.0026232777 -0.004617348 0.0039333017 -0.0021255468 0.009942071 0.026690487 0.01792309 -0.0021464431 -0.0127624115 0.009827096 0.014587831 -0.019003872 -0.0125395795 0.0023569227 0.00609222 0.027935857 -0.016926903 0.0070375465 -0.019206041 0.0040903804 0.010787501 0.021714423 -0.012073878 -0.005132371 -0.015911387 -0.005408543 0.0076837037 -0.018162739 0.01560593 -0.005712278 -0.0057712095 -0.016923768 -0.004504121 0.0077841454 -0.007904683 -0.012267808 0.015463351 -0.004753444 0.017346699 0.0040642866 -0.026356764 -0.0028890993 0.020427652 -0.00023808645 0.01057534 -0.015155378 0.01715565 -0.013365681 -0.016843215 0.01739545 -0.0072293472 0.016260516 -0.0013841484
27 0.00019957093 0.0035905985 0.017185384 -0.007642124 -0.008671129 -0.016565342 -0.0028624968 0.0068612765 0.0006238478 0.0063871946 -0.00866123 -0.009837597 0.009958745 -0.011667844 -0.016868357 -0.021072272 0.019543398 -0.006113245 -0.00659643 0.0073881852 -0.009324212 0.004693741 0.004448247 0.00041965666 -0.007544413 0.02054848 -0.008423362 -0.018467648 -0.012140409 0.0064178263 0.009102666 -0.010598243 -0.01830619 0.0011821318 0.011186017 0.007986153 -0.009224169 0.01751584 0.020062909 0.028024018 -0.020558825 -0.008117054 0.011518218 -0.017139854 -0.01600825 -0.006859038 0.003498216 0.010974376 -0.01812912 -0.023338353 -0.010860077 0.011923591 0.015945334 0.007788802 -0.023996925 0.015220552 -0.0070680156 -0.008467041 -0.012903215 0.00934969 -0.012863343 0.0032714189 0.008621909 -0.01580851 0.00969162 -0.016659552 0.008922606 -0.021434905 0.011234203 -0.023585092 0.0061955233 0.017565615 0.0139473565 0.012862162 0.009594082 -0.0055865557 -0.00028552 0.00620375 -0.0069043515 0.008945982 0.02259282 0.014510761 0.0002491207 -0.019621922 0.0054718866 0.017590256 -0.010255788 0.0018829262 -0.005622217 0.01527985 0.016916292 -0.0017642312 0.013184518 -0.02338269 0.014250883 0.007860163 0.011408931 -0.020192571 -0.009090856 -0.007315119 -0.0018953346 0.012784868 -0.02163337 0.01416685 -0.01133775 -0.012655554 -0.012585673 0.0038902513 0.022573497 0.0018153244 -0.009691804 -0.004271354 -0.009470862 0.018179027 0.010437106 -0.025029046 0.014381725 0.009931936 0.0074699605 0.014815314 -0.0063060652 0.023212694 -0.011704019 -0.013083941 0.0071495567 0.0016481273 0.012302689 -0.0028687767
28 0.015090619 0.028050944 0.00033630355 -0.01147365 0.014498285 0.02520217 0.031526122 0.008468589 -0.015698511 0.0027825937 -0.02193436 -0.0011102948 -0.0004702311 -0.0091931345 -0.019641051 -0.023549018 0.013888974 -0.034285594 -0.010882693 0.016680682 0.015716203 0.023171898 -0.008182363 -0.022027766 -0.025921576 0.008931187 -0.0074651972 -0.011635927 0.0031517067 0.03080315 0.023585087 -0.011825306 -0.016962813 0.00081737514 0.030546432 0.010454431 -0.0013857351 -0.0003136259 -0.0037396164 0.012687588 -0.011146953 0.00713755 0.029736297 -0.004220572 -0.0053628245 0.023403177 -0.01892603 -0.012685416 -0.0150444545 -0.009461076 -0.030201273 -0.015755577 0.018726867 -0.0035868569 -0.018459342 0.028351415 -0.0066152452 -0.012233809 -0.018377952 0.017152175 0.013122296 -0.013733135 0.019006573 -0.0010467519 0.011998604 -0.012085897 0.007569653 -0.019569578 0.030178849 -0.021414824 -0.016589796 0.019321753 0.017692994 -0.0018269392 0.00049299275 -0.02095527 0.008826404 0.009661903 0.015654908 0.01091422 0.025799196 0.014617929 0.024433494 -0.020276152 0.008953221 0.018019356 -0.018846683 -0.024348 0.006578378 -0.017381571 0.032195564 -0.0049990215 -0.012134629 -0.024507985 -0.012699161 0.012249077 0.009538948 -0.019427646 -0.013243207 -0.027331773 -0.027668165 0.012881269 -0.027499659 0.00092951587 -0.0010238993 -0.018328039 -0.0021724193 -0.023997474 0.014596117 -0.022238694 -0.017883817 0.026124677 -0.016695984 0.030395478 -0.014115061 -0.012742044 -0.025939392 0.0037972121 0.015086834 0.006971069 -0.0011816203 0.005866926 0.012587157 -0.013678898 0.009007095 -0.0290968 0.02653666 0.017599842
29 0.022133168 0.024733145 -0.0034792193 -0.019390475 0.013047667 0.012719451 0.022713508 0.0074164504 0.0025212283 0.0030905665 -0.021146165 -0.010238852 -0.010049477 -0.003284336 -0.030911436 -0.011423318 0.0021833663 -0.031745322 -0.0029912235 0.008708633 0.017637119 0.002255708 0.004028566 -0.0074695763 -0.002423054 -0.000977112 -0.007039345 -0.0021628945 0.011429382 0.020018598 0.029776467 -0.02843776 -0.026815744 -0.015054754 0.022827137 0.007599918 -0.004409442 -0.007815117 0.0028570823 0.02726484 -0.0032056645 -0.0137512805 0.025113788 -0.005744119 -0.0016866284 0.00095054467 -0.022975795 -0.024113 -0.00047209143 -0.008012753 -0.02442338 -0.015740125 0.008491835 -0.0040980875 -0.017738247 0.024916993 -0.016430872 -0.005144992 -0.0038988888 0.028450482 0.0095809335 -0.012325992 0.008117916 -0.008989431 0.006999447 -0.010151751 0.01181693 -0.018622613 0.030605776 -0.020943927 -0.010858107 0.032226104 0.004619249 -9.867072e-05 -0.0031752016 -0.009664875 0.0064966516 -0.0031716512 0.0043111704 0.017606441 0.014994682 0.0056820037 0.016305534 -0.026034882 0.007147279 0.017065303 -0.031251 -0.026348684 0.017739499 -0.012672022 0.023160981 -0.014437601 -0.0023637912 -0.020936113 -0.013667796 0.009174033 0.012840107 -0.0196921 -0.019054795 -0.031920105 -0.018809957 0.010703525 -0.00530859 0.009042113 -0.01462644 -0.023038832 0.004139744 -0.03021318 0.0004347923 -0.026524588 -0.025922306 0.019527802 -0.016419785 0.023554113 -0.0077066007 -0.009004004 -0.020907316 0.0028748196 0.005354275 -0.002927702 -0.0020279163 0.0005202667 0.012196761 -0.029964123 0.007081441 -0.017467124 0.020797832 0.01379672
30 0.014384428 0.015782684 0.004792681 -0.0184483 0.004877912 0.020003013 0.026072225 0.016319718 -0.016300628 0.007928813 -0.023049451 -0.008352435 -0.0023361887 -0.01425706 -0.030486194 -0.014736328 0.02857016 -0.02084174 -0.025991326 0.020569831 0.006862234 0.015282103 0.016262714 -0.011084124 -0.012500685 0.01687318 -0.016224194 -0.0117012495 -0.0069809626 0.020820025 0.021567874 -0.017462792 -0.025871592 0.0042561116 0.033154793 0.019268783 -0.011499073 -0.0013154743 0.0062680533 0.025677387 -0.007776199 0.008070087 0.029924272 -0.014241755 -0.010364288 0.021374026 -0.009984834 -0.01605683 -0.01958464 -0.011038601 -0.020822477 -0.01668778 0.009542381 -0.015047822 -0.0146713 0.021582337 0.010485411 -0.029527664 -0.021994988 0.022106746 0.0047463686 -0.0034793084 0.020843217 -0.017169788 0.006815156 -0.017307907 -0.00035749417 -0.017109817 0.022514142 -0.026009073 -0.008876076 0.02450574 0.025182454 0.014226164 -0.00017786829 -0.01565059 0.013346671 0.018017285 -0.006112409 0.012524031 0.015821436 0.013118653 0.021430524 -0.025439259 -0.0065092207 0.017560765 -0.021637857 -0.02378829 0.007927015 -0.01849628 0.023750458 0.00042455783 0.006813821 -0.017239977 -0.00547455 0.009915721 0.014788224 -0.025446607 -0.012667617 -0.021059271 -0.021505062 0.010913948 -0.016135668 0.017874533 -0.007317496 -0.018994642 -0.014598363 -0.030051123 0.0025716955 -0.018191352 -0.02990029 0.007917745 -0.016685858 0.027957104 -0.013768097 -0.019442167 -0.02194363 -0.0084267855 0.009055493 0.016127149 -0.021980511 0.018561205 -0.001263492 -0.027239472 0.021685794 -0.02242515 0.016090132 0.017896898
31 0.017192729 0.027217455 0.0039871885 -0.011567165 0.0076642605 0.008214889 0.021056099 0.017961634 -0.003707177 0.020974485 -0.022436928 -0.016050985 -0.0049574347 -0.01083178 -0.014308913 -0.016969813 0.017761461 -0.028968295 0.0013562061 0.02963494 0.012760964 0.018102596 0.006334254 -0.0071539264 -0.0069817225 0.018482883 -0.009448103 -0.020163907 0.0024446752 0.015762595 0.014970831 -0.017358905 -0.028374806 0.014999769 0.026041258 0.011766 -0.0041366136 0.0063183443 0.0121464385 0.019245313 -0.015462778 -0.0043247556 0.03265479 -0.024249416 -0.01796471 0.007014029 -0.019145176 -0.017823797 -0.012783629 -0.01760924 -0.031418767 -0.019472152 0.0030587988 0.020359091 -0.013163027 0.022807404 0.0047236513 -0.024843156 -0.020537678 0.023904776 0.013544573 -0.012949359 0.016124152 -0.013703601 0.019032875 -0.01409448 0.018968059 -0.014414238 0.022244832 -0.032776766 -0.020228311 0.028627777 0.026087774 0.021160005 0.0053842156 -0.021638932 0.015993701 0.00969357 -0.0047348673 -0.0016157887 0.019954344 0.023281092 0.029980825 -0.026650496 -0.0015187814 0.022083843 -0.020657247 -0.022040285 0.02244401 -0.0030169985 0.02478237 -0.004443099 0.0052735116 -0.013928835 0.008073161 0.01699381 0.012877874 -0.022562616 -0.011929694 -0.021220593 -0.024612578 0.020198114 -0.01818408 0.011438191 -0.019476028 -0.0053268666 -0.006965409 -0.0141689405 0.02432894 -0.017329896 -0.03383017 0.022668634 -0.0029027816 0.030538999 -0.022089884 -0.01060416 -0.0046439543 0.0012705864 0.025904775 0.0118877115 -0.009405647 0.01582275 0.00041765207 -0.030318942 0.015052008 -0.022377605 0.02168852 0.009488522
32 -0.0042919978 0.004137119 0.0042510144 0.004194807 -0.0165698 -0.004792706 -0.009739305 0.014034581 -0.006896305 0.0055429316 0.002421873 -0.011088445 0.009256288 -0.0058407146 0.0011829525 -0.009532274 0.017439114 0.011549316 -0.017419962 0.0068299994 -0.013570376 0.012662285 0.013562572 -0.0064050425 0.015117785 0.018976001 -0.0132312095 -0.018588044 -0.0059631616 -0.006221992 0.01757728 0.0031827576 0.00048893143 0.016988691 0.011803849 0.012019007 -0.015083417 0.009353442 0.014506263 0.01334857 -0.012883524 0.009653227 0.018022746 -0.010143411 -0.00825768 0.0029929525 0.015609136 0.0041936245 -0.0070805363 -0.008426987 -0.012913048 0.0023918634 0.010212649 0.0077227876 -0.013401643 0.0070458404 0.005395803 -0.00603166 -0.008485742 0.015296022 -0.0043063625 -0.00033638516 0.009209548 -0.016757734 0.01725986 -0.011499814 0.008610105 0.0070307036 -0.007899337 -0.015871687 0.018155102 0.015503842 0.01726677 0.003304044 0.010595766 -0.0033048238 0.004124744 0.009796174 -0.011072826 -0.008153733 0.004981938 0.019156795 0.016854009 -0.0076115876 -0.0067273267 0.008293878 0.01294968 0.00805079 -0.0056681964 0.013261134 -0.009466804 0.012690443 0.01955065 -0.024246035 0.009377634 0.015279972 0.0035751204 -0.01798349 -0.0060533383 -0.0016272191 -0.0008091404 0.017510187 -0.019633036 0.02050738 -0.016574169 -0.017937731 -0.011847167 0.0031600294 0.017542426 0.0075491136 -0.02028713 -0.013127184 0.012018092 -0.00398771 -0.0021565147 -0.015376746 0.0042654397 0.008908105 0.013627959 0.018832652 -0.007920259 0.005177651 -0.012244299 -0.017735476 0.005083479 0.0005981426 -0.0037765244 -0.014842983
33 0.0055513373 -0.008533477 0.012996054 -0.008229311 -0.008881665 -0.022776993 0.00827231 0.012869341 0.007928863 0.022558093 -0.010630091 -0.028354509 0.02247168 -0.015944473 -0.018149635 -0.017593168 0.013885128 -0.020401763 -0.017047796 0.022487361 -0.0046606488 -0.012039585 0.020805381 0.013132396 0.0006941945 0.02049842 -0.023820756 -0.017455716 -0.014119712 0.0046472643 0.02347275 -0.0056803 -0.01914582 -0.007714838 0.027451862 0.0146083385 -0.014862921 0.01197328 0.009199123 0.024996508 -0.023184963 -0.017510219 0.018894166 -0.013670477 -0.022848876 -0.007871301 0.021867964 0.0063703414 -0.009053641 -0.027050762 -0.014786212 0.023491183 0.02236495 0.016655492 -0.025786847 0.021559257 0.0026362771 -0.01697056 -0.017136427 0.02365882 -0.011337926 0.015903154 0.0039322483 -0.025824703 0.022601372 -0.011425987 -0.001997924 -0.009606188 0.019163972 -0.01578279 0.01468049 0.018865436 0.018888215 0.014271989 0.011884601 0.00074074673 -0.014624915 0.017417142 -0.0152579285 0.00796962 0.014120453 0.023892753 -0.0015190042 -0.02016402 0.0045966925 0.024053168 -0.008901754 0.0022733877 -0.015350507 0.020702492 0.016301027 -0.016290406 0.01701935 -0.016146623 0.019637961 0.015655633 0.02156727 -0.018571464 -0.00046375336 -0.0038750703 0.014797299 0.026855644 -0.018925056 0.015465056 -0.0109219495 -0.012710482 -0.023793085 -0.004592289 0.02186234 0.0123280585 -0.028190814 0.011100643 -0.0046340567 0.005179273 0.007299257 -0.011851281 0.012945733 0.010176939 -0.006752386 0.024657533 -0.014880949 0.024676558 -0.019203486 -0.028929986 0.01977931 0.0070046927 0.014701706 -0.02139301
34 0.022133892 0.009547393 -0.0016754193 -0.00769472 0.014143835 0.013213385 0.0138784945 0.0050835954 -0.00080978626 -0.0059578023 -0.012124203 -0.00235724 0.0027665857 -0.00908845 -0.008608998 -0.015521835 0.014003865 -0.010216093 0.002132416 -0.0016719371 0.0009534049 0.018467806 -0.007860431 -0.016314022 -0.01577881 0.0150321685 -0.0062043034 -0.008193368 0.004136104 0.013354608 0.009988237 -0.0076096454 -0.013491852 -0.001622521 0.010386975 0.010361016 -0.0055806045 0.009879338 0.0067313444 0.009245158 -0.004188283 -0.00867129 0.0030210146 0.0052107526 -0.014163578 0.007476604 -0.020640198 -0.014132261 -0.0073032877 -0.0056783324 -0.02026196 -0.0021864465 0.013697967 0.0008548851 -0.021222964 0.005121206 -0.014748097 -0.008008307 -0.0117070675 0.013472884 0.015497519 -0.015953775 0.0023932734 0.0056420364 0.018977707 0.0005326841 0.0077110273 -0.022813447 0.007523442 -0.010822236 -0.009702677 0.009740493 0.0115657 -0.00065251725 0.006375527 -0.012766977 -0.0018642426 -0.0017986272 0.0011205745 0.020350572 0.009125017 0.006609243 0.008234883 -0.012231325 0.008932562 0.008846056 -0.020559756 -0.018884914 0.004065811 -0.0009628702 0.017484399 -0.013423502 -0.015950538 -0.025165139 0.005138324 0.010544185 0.014429188 -0.025027582 -0.014487507 -0.008977538 -0.019224973 0.0019299658 -0.010844973 -0.0008557861 -0.0012342614 0.00512183 -0.00032909977 -0.016128726 0.011666533 -0.010861533 -0.0054041776 0.009055687 -0.01333592 0.023125986 -0.0019098287 -0.025397062 -0.018305834 0.009226624 0.009994353 0.004460674 -0.0046939943 0.013813062 -0.0020868194 -0.012978021 0.011897812 -0.012761676 0.016613318 0.014032648
35 0.024301805 0.012803889 -0.00872615 -0.012566036 0.022880837 0.025908006 0.024079252 0.019462941 0.0005495454 0.007758746 -0.02115239 -0.004014787 -0.0024660532 0.0047584367 -0.024937835 -0.01399554 0.014690121 -0.03036318 -0.00314345 0.00613106 0.017550107 0.02329189 -0.000560869 -0.015289991 -0.020222979 0.010179642 -0.0072233537 -0.0017108244 0.006463726 0.033957485 0.019839045 -0.021692248 -0.02631921 -0.007958507 0.029382303 0.0065186787 0.005222572 -0.0034088716 -0.0048099705 0.021308843 -0.012509122 -0.0054921345 0.02232178 -0.018331436 -0.010228774 0.003523964 -0.020739777 -0.011787667 -0.017485783 0.008126977 -0.03169999 -0.014424349 0.003382533 -0.0028560292 -0.011416299 0.023792423 -0.016179878 -0.01805376 -0.016773948 0.033877485 0.013038127 -0.0217172 0.009871341 0.002767411 0.0082916375 -0.0058108447 -0.009060595 -0.02079203 0.028558258 -0.016005825 -0.016110001 0.031116651 0.0022220882 0.0097254105 -0.0030749107 -0.018541455 0.015498134 -0.0025527177 0.004081787 0.029056478 0.017850181 0.0050826846 0.02918264 -0.020784117 -0.010213986 0.013064747 -0.023414858 -0.018054012 0.013461337 -0.018032778 0.02933549 -0.013639697 -0.011319539 -0.027936837 -0.00346236 0.014004305 2.7142873e-05 -0.01180415 -0.0040071425 -0.023390902 -0.018178014 -0.001810316 -0.019070454 0.011393562 0.0011389069 -0.02504277 0.005005863 -0.01743121 0.001875814 -0.021753117 -0.02016645 0.014102872 -0.022249362 0.034571894 -0.02874197 -0.015704166 -0.019830013 0.005105161 0.00830461 0.005066499 -0.00783964 0.017210739 0.014035394 -0.029742382 0.0049353917 -0.013817299 0.0346944 0.01808563
36 0.016054476 0.0031966318 0.022485426 -0.02388322 -0.02293383 -0.013598273 0.002989385 0.02981988 0.0048192125 0.02464418 -0.00590507 -0.029049892 0.01577523 -0.0147762885 -0.030648816 -0.029151665 0.02484927 -0.012535291 -0.02007385 0.029468864 -0.0021127563 -0.0025842264 0.007644615 -0.007538726 -0.007537635 0.020152334 -0.0067049447 -0.02058158 -0.019220805 0.020806108 0.022522015 -0.00069295365 -0.022573218 0.00906474 0.016304258 0.028804785 -0.028899753 0.010891932 0.027769728 0.019886287 -0.023251722 0.0031244121 0.023513213 -0.007808855 -0.030501189 0.0040390557 0.011754455 -0.011403288 -0.01878021 -0.014935769 -0.020804321 0.007404879 0.019032074 0.012276913 -0.029890798 0.015529583 0.0014235444 -0.021038258 -0.023251189 0.021068474 -0.016313503 -0.0005936024 0.0047470457 -0.00804573 0.019863397 -0.020118605 0.00891666 -0.0142977405 0.00797856 -0.022820381 0.012079656 0.02467467 0.025972009 0.022017593 0.013862901 -0.0019503918 -0.0004567665 0.017778523 -0.02157452 0.021754835 0.027039042 0.019570451 -0.011689294 -0.022960072 0.0006398161 0.0221406 -0.016564189 0.0035160522 -0.0061512967 0.01032972 0.014277915 0.00702022 0.0133957295 -0.026459163 0.018558035 0.02044383 0.020972827 -0.034676254 0.008413427 -0.021993203 0.0025518222 0.016736034 -0.016430855 0.01962017 -0.01699228 -0.011028795 -0.021176867 -0.022353461 0.02413855 0.007940288 -0.024272515 0.008282723 -0.0032075227 0.018390892 0.008111226 -0.021442002 0.012942423 0.003701581 0.016153654 0.02399908 -0.029778583 0.02713787 -0.005889772 -0.013428578 0.015087078 0.009701226 0.022202302 -0.0044993963
37 0.011710249 0.018242883 -0.00231495 -0.0074688643 0.00637894 -0.00060551416 0.019611225 0.016699968 -0.0023349305 0.0143183395 -0.030336177 -0.019592484 -0.0010708149 -0.0031842228 -0.016964246 -0.02532888 0.019794812 -0.031177403 -0.021457456 0.024161737 0.009070039 0.016893042 0.009838789 -0.000721766 -0.009086985 0.021117724 -0.0045847353 -0.018075237 -0.011494178 0.009634613 0.026406331 -0.0013716221 -0.021825613 0.013880941 0.024760738 0.014744573 -0.014168157 0.0014624544 0.004013028 0.033602167 -0.010493125 -5.2633637e-05 0.024613945 -0.013520331 -0.011123192 0.005169723 0.0029676305 -0.014081383 -0.010287573 -0.011231045 -0.01633778 -0.010786124 0.007566317 0.005534005 -0.020353545 0.019298872 -0.0013613246 -0.020564357 -0.024405645 0.01940166 0.00011655927 0.0025695676 0.012674997 -0.015525296 0.007206903 -0.022156795 0.018210204 -0.009330096 0.021446029 -0.02763344 -0.011390909 0.020546367 0.026944645 0.021199964 0.008125959 -0.019082418 -0.002508733 0.014664682 -0.004561104 0.0007047714 0.023066195 0.021241562 0.018158635 -0.024181407 0.00027331122 0.021246828 -0.010034131 -0.005320265 0.0075165946 0.0011923522 0.01733283 -0.0043326532 -0.0021895487 -0.021434389 0.0051646316 0.017839383 0.013617369 -0.031092053 -0.0061806273 -0.013785218 -0.021065727 0.013306082 -0.0033513135 0.018558474 -0.014334998 -0.014668187 -0.0041579674 -0.020961683 0.0049406476 -0.01906499 -0.015683915 0.014884772 -0.021607438 0.028990077 -0.014000923 -0.010205164 -0.00071543467 0.0010749928 0.01027534 0.019601807 -0.009666379 0.008010663 0.0041368627 -0.029705174 0.0033010007 -0.016454978 0.018078165 0.003957923
38 0.001963771 0.006177935 0.005756847 -0.009598149 0.001111727 0.004925852 0.0109281475 0.01756312 -0.011687686 0.01450079 -0.009998177 -0.00845234 -0.0036868833 -0.006152018 -0.018342525 -0.023209939 0.025317939 -0.016411245 -0.015508818 0.0138585055 0.008751051 0.020631282 0.005795727 -0.013792479 -0.0036590043 0.011496795 -0.017406475 -0.019510398 0.0020448717 0.014170889 0.029594962 -0.0117634125 -0.010702484 0.0017939096 0.02093129 0.022154795 -0.0003027559 0.0040033604 0.015249712 0.026425244 -0.018308321 0.018658644 0.016002884 -0.0041089826 -0.022033347 0.009685862 -0.010591826 -0.0099292 -0.0066411444 -0.018302543 -0.023011342 -0.0051651904 0.014874195 -0.0026011304 -0.013852947 0.017186375 -0.004994802 -0.022049898 -0.029278493 0.026057485 0.0014459739 -0.013273556 0.012743958 -0.02298611 0.014852303 -0.025950786 0.010617545 -0.013329303 0.012498535 -0.0188316 -0.003107879 0.02856953 0.019180248 0.013668689 0.00017614782 -0.023814736 0.0086769555 0.003689385 -0.0017736439 -0.0031353796 0.015699044 0.018744448 0.021480983 -0.020924492 0.0008034394 0.023436382 -0.013813343 -0.010721957 -0.0014717793 0.00034189835 0.017632727 0.0053117555 0.0003749592 -0.008684153 0.0037460537 0.020311067 0.01393181 -0.016555129 0.003844119 -0.011701603 -0.010281076 0.013538915 -0.017052952 0.016329745 -0.01633186 -0.01937659 0.0039535505 -0.0145769585 0.0147688575 -0.019855812 -0.01741834 0.00067001616 0.0017932482 0.020773666 -0.018396415 -0.0043755816 -0.012680844 -0.0006166178 0.022589885 0.01510663 -0.013211201 0.015658494 -0.003540434 -0.010539826 0.011043565 -0.011096015 0.018390566 0.0027338932
39 -0.0010703909 0.006129318 0.015667358 0.0061554187 -0.009274639 -0.007117602 -0.0059875143 0.007022877 -0.01370839 0.01895394 -0.0020206973 -0.017276539 0.015711455 -0.010593239 -0.020238996 -0.018541628 0.016103385 0.000104549224 -0.0056709787 0.0076521817 -0.0037156455 0.025184507 0.0069729374 -0.010175397 0.0103042275 0.014536163 -0.0072152703 -0.009755979 -0.010738288 -0.000873737 0.009659739 0.0038502205 -0.006078248 0.007815988 0.020375049 0.016304703 -0.014377883 0.010968766 0.017331405 0.006441695 -0.008593632 0.0076863593 0.018905004 -0.0046531823 -0.017062163 0.013422752 0.00631058 0.0026019523 -0.006311682 -0.019989528 -0.018459238 0.005201194 -0.0012987674 0.012296455 -0.010756468 -0.001681534 0.010330247 -0.014573355 -0.012793002 0.012280788 -0.003449156 0.008258361 0.0073147807 -0.010002364 0.013057332 -0.0067551536 0.018813984 0.0059576463 -0.0077275718 -0.014612088 0.009554547 0.0016148385 0.0054724063 0.015298908 0.002781819 -0.014480543 0.0073935264 0.0018703525 -0.005096014 -0.017454164 0.0029188662 0.019247087 0.0039480147 -0.016199362 -0.011405571 0.011496715 0.009280517 0.009988636 -0.005889251 0.0024227644 0.010644797 0.010186727 0.0028693562 -0.013719199 0.0013293566 0.00918346 0.014616043 -0.014278723 0.013726913 0.0073235137 0.012628886 0.011756025 -0.015264381 0.017765488 -0.0063303686 -0.006813793 -0.009271209 0.0016408738 0.010954178 0.01048115 -0.014240306 -0.0024240336 0.014256191 0.0030085123 0.0017255624 -0.009952844 0.015696308 0.00429827 0.0068449373 0.01017838 -0.0083767 0.012995866 -0.012971467 -0.020096168 0.007940959 0.0013694374 0.007037426 -0.008870819
40 -0.007287301 -0.0025612179 0.0037429435 0.010304082 -0.00078042713 -7.2475814e-07 -0.007533149 0.005246603 -0.014034084 0.0020988686 -0.003137658 -0.0078071747 0.0128475595 -0.008991273 -0.01731618 -0.0014490628 0.013741579 -0.0041745137 -0.009260525 0.00025295425 -0.011580086 0.0077355383 0.0061806794 -0.007496759 0.0041928943 0.0070683802 -0.0016131909 -0.0043592695 -0.0060243024 0.0038508894 0.015004903 -0.0014587718 -0.005117877 0.0034001821 0.014494495 0.002624566 -0.0006282175 0.0037059558 0.00543068 0.020668825 -0.011711826 0.012451744 0.0132699 -0.0023404232 -0.014905753 0.0053163273 0.011985815 0.0073254737 -0.010333745 -0.009916124 -0.00135057 0.005315971 0.017815094 0.0045960234 -0.012152728 0.006624533 0.0015541373 -0.009526153 -0.017876212 0.012892808 0.00016379816 0.0077932533 0.008345841 -0.0036389232 0.0009792356 -0.009430937 0.007143981 -0.01315254 0.002581277 -0.018974666 0.0030805643 0.0155230835 0.0028253035 0.008640476 0.009827173 -0.0033814937 -0.0048124236 0.006976664 -0.012218159 -0.0044650165 0.00665852 0.012393218 0.010176441 -0.006986292 0.007276275 -0.00033952895 0.0002403929 -0.002796464 0.0003200717 0.005831838 0.008268917 0.0028129814 0.008031354 -0.010884235 0.01029021 -0.00015703906 0.020524234 -0.018492961 0.0016818224 -0.0071482514 0.0040107435 0.0067386827 -0.004345764 0.01486473 -0.0034505022 -0.0047695246 -0.005688967 0.006338125 0.0069289985 -0.00422442 -0.0093602305 -0.009431744 0.0076365187 0.0021627964 0.0056560496 -0.01293404 0.0065253815 0.0053323954 0.0005376946 0.014921767 -0.01136572 0.014637163 -0.008787585 -0.012286593 0.0017318248 0.0048007956 0.009989394 -0.011391153
41 -0.014032916 0.0045889094 0.00826343 0.013112152 -0.015405925 -0.0038136162 -0.00359327 0.010990262 -0.002992085 0.006292974 0.014435792 -0.0165987 0.0068843225 -0.007186054 -0.015920486 -0.014576984 0.009266315 0.011306274 -0.008580946 0.016233306 -0.008721896 0.012097972 0.012849694 -0.008821329 0.0049179546 0.010816321 -0.0125762625 -0.003764742 -0.014805649 0.01504035 0.0063742166 0.013424977 -0.0056639225 0.008092768 0.007892614 0.012561467 -0.011428108 0.015489338 0.018111035 0.020077221 -0.011970276 0.015120936 0.022483192 -0.009875725 -0.01660399 0.015554195 0.015804535 0.0073541207 -0.010680275 -0.020136058 -0.0074714525 0.0020545665 0.0015072327 0.014095951 -0.015434597 -0.0036653439 0.006080225 -0.007932288 -0.010224045 0.019987412 -0.016862454 0.009949456 0.014276996 -0.010791017 0.014318991 -0.012399319 0.009257612 -0.00279654 -0.004775669 -0.0069033816 0.010283651 0.010614584 0.01054749 0.0053666835 0.014461043 -0.00663084 0.008092165 0.011649601 -0.0058353194 -0.00512411 0.006089331 0.008178107 0.008908469 -0.002339417 -0.0017955397 0.008643213 0.010929559 -6.9588306e-05 -0.0076653045 0.0043963105 -0.0023970893 0.01075157 0.013843809 -0.01754258 0.017301759 0.016255807 0.0057290723 -0.02457882 0.016554723 0.0084454985 -0.0052389237 0.010802649 -0.024836382 0.011590033 -0.0057750666 -0.00826316 -0.008039546 0.008914337 0.0084867785 0.0064766724 -0.016914444 -0.0041292813 0.005382656 -0.000115176255 0.006867724 -0.013719602 0.012932324 0.0064089005 0.013015436 0.009428688 -0.016217247 0.009632664 -0.007596223 -0.0062415577 0.016844967 0.012647941 0.014534785 -0.006622888
42 -0.0031835416 0.006056469 0.0028952353 0.001120102 -0.008277088 -0.016779914 -0.010824902 0.017486682 -0.0060910797 0.012656129 0.0063851066 -0.013250074 0.004331969 -0.0037578153 -0.015073321 -0.0063454076 0.014000449 -0.002541131 -0.010268923 0.013152251 -0.007978981 0.0122976 -0.001442053 -0.019618623 0.0037622652 0.017332274 -0.016546406 -0.006534251 -0.010295652 0.00778071 0.010670894 0.005087954 0.0054133665 0.008910806 0.010680244 0.006462639 -0.0063870824 0.009922487 0.0059155375 0.009714214 -0.010423111 0.011048171 0.017894955 -0.0027917558 -0.007649282 0.0033216288 0.0039839405 0.0074274354 -0.012790864 -0.0096917 -0.013414503 0.0058563417 -0.0056097135 0.0041857753 -0.018267957 -0.0054589603 0.0073730717 -0.016947942 -0.017945508 0.0120692905 -0.0027758137 0.006927873 0.010172684 -0.015031018 0.0065149767 -0.014164297 0.007509661 -0.014426857 -0.008114979 -0.01180599 0.012100719 0.015877582 0.017216349 0.0036005052 0.014250089 -0.009320933 0.012172958 0.011880243 -0.01128879 -0.0053789667 0.015361695 0.0054310192 -0.0062990105 -0.00467377 -0.003464698 0.004301312 0.0014865319 0.0051790182 -0.0027024238 0.005157992 -0.0042202137 0.008954158 0.008915316 -0.009892661 0.003497536 0.0033356077 0.01330077 -0.0074298666 0.013321705 0.013501117 0.011556504 0.013223485 -0.023342704 0.0047072633 -0.006840284 -0.0069828373 -0.01385407 0.00981667 0.012565311 0.0041044015 -0.012213724 -0.009708227 -0.0030762511 -0.008164205 0.0028384228 -0.021217931 0.0071672387 0.005491893 0.014423176 0.011640977 -0.017726785 0.0056304373 -0.0072663673 -0.015739564 0.012823541 0.0038256897 0.019100217 -0.009236911
43 0.01012661 -0.003679402 0.018211624 -0.00095324876 -0.01063448 -0.012308818 0.0077859415 0.02459761 -0.0017386472 0.015935324 -0.01175563 -0.01768709 0.019415233 -0.029391944 -0.029314408 -0.028893704 0.031258777 -0.019915681 -0.01443477 0.016568163 -0.010128374 -0.005807834 0.016915577 -0.0045627193 -0.0030916461 0.022834148 -0.01866985 -0.02646554 -0.027150776 0.0049368395 0.019984337 -0.006415751 -0.0033200043 0.017224684 0.021130087 0.0315795 -0.019387836 0.022204828 0.023637965 0.030328002 -0.010619475 -0.0069000535 0.018833157 -0.0247955 -0.022146767 -0.0020213053 0.008265501 0.0032877447 -0.017462183 -0.017813424 -0.025160352 0.01784913 0.010300722 0.020141376 -0.027996175 0.0069522588 0.0040457216 -0.023737513 -0.018631248 0.014054839 -0.01721744 0.016926618 0.0014368806 -0.010991442 0.030245282 -0.017062735 0.009180379 -0.022735205 0.015228559 -0.021317605 0.008803476 0.009922191 0.016146332 0.027670737 0.020243838 -0.0068262434 -0.0042193295 0.02442281 -0.017799849 0.010377551 0.019974703 0.026925854 -0.009107213 -0.01906328 0.0023830223 0.018499684 -0.0151052885 0.009076748 -0.01933587 0.02293795 0.026025062 0.0015711178 0.023988293 -0.010880044 0.014570675 0.02851873 0.010213222 -0.02480122 -0.010612571 -0.0015598482 0.00073476124 0.017996818 -0.013245813 0.018840557 -0.023208871 -0.02078005 -0.022586437 -0.011030138 0.016170718 0.004591741 -0.018151434 0.0044231866 -0.0011128031 0.011660261 0.015894976 -0.014762811 0.0044672024 0.010867606 -0.0010473633 0.020665396 -0.02214331 0.018168189 -0.020661917 -0.0094663445 0.013677883 -0.00288421 0.023197846 -0.016213333
44 0.016076203 -0.004424072 0.008422565 -0.0053163036 -0.0036388591 -0.006290643 0.026554437 0.013042515 0.008869937 0.0036698305 -0.022928827 -0.010232895 0.009281919 -0.012793995 -0.019255286 -0.02217852 0.02168006 -0.020428931 -0.008292212 0.014948907 0.0062111677 0.0038113438 0.0028916053 -0.00944025 -0.010348261 0.023514997 -0.014301088 -0.01157209 -0.0018959113 0.02387057 0.0217261 -0.010361208 -0.026000813 0.0101851635 0.017184652 0.01639659 -0.011757975 0.006138925 0.01563874 0.02505274 -0.010549848 -0.015210572 0.020544855 -0.005766309 -0.017604288 -0.010070929 0.0010924935 0.0050802655 -0.029632578 -0.0149518745 -0.03009785 -0.005620021 0.019361828 0.005390235 -0.02576175 0.015448688 -0.005256558 -0.014140109 -0.025589902 0.028944088 0.008896515 -0.0077196048 0.0066421037 -0.018144209 0.02031251 -0.010862549 -0.007198299 -0.023393145 0.02479907 -0.019760232 -0.006308506 0.019440804 0.02458515 0.016822308 0.008243836 -0.005273325 -0.0043782773 0.021113304 -0.009070636 0.019470014 0.017289953 0.01228939 0.0010861609 -0.029789792 0.018484876 0.022327296 -0.023348762 -0.0013501925 0.0018688407 0.006366317 0.028038342 -0.011476362 0.011494123 -0.028419295 0.00045731373 0.007802943 0.009433274 -0.028470099 -0.0035080784 -0.017554073 -0.014061675 0.021129264 -0.011997761 0.010413089 -0.020204665 -0.014715665 -0.0035096798 -0.023306353 0.022139285 -0.0141018955 -0.016850654 0.01712589 -0.015865842 0.0174428 -0.0032381576 -0.010901289 0.003916543 0.0096116625 0.0067041484 0.012156514 -0.018157292 0.020811098 0.001513639 -0.022640022 0.020148112 -0.0017283941 0.022777665 0.0031858108
45 -0.008098504 0.0050389664 0.0048751766 -0.0061761835 -0.0037798085 -0.0002400183 0.0038176656 0.011647032 -0.000478875 0.014755085 0.0038433026 -0.0056253257 0.011412631 -0.0026015611 -0.023487754 -0.013267131 0.013939802 0.0058849156 -0.018603249 0.018660385 -0.0103341695 0.009279796 0.004684599 -0.026926046 0.00762229 0.012867854 -0.013935533 -0.0057492475 -0.0015744818 0.013392868 0.019267568 -0.0015860528 -0.0014962701 0.013984974 0.017583227 0.00785093 -0.0028891803 0.0064907204 0.013930701 0.03109581 -0.018123293 0.011515195 0.022565886 -0.0064921877 -0.008180607 0.001668883 0.00896141 -0.009941292 -0.004888607 -0.0097154435 -0.009103437 0.0037720338 0.0112795 0.014686809 -0.016400972 0.004575345 0.012216995 -0.015503058 -0.013939215 0.022022696 -0.0057190033 0.014264101 0.017649319 -0.016385954 0.008964894 -0.008653594 0.0007437263 -0.016793856 0.0056364867 -0.02169003 0.008450484 0.025020644 0.016147131 0.021633765 0.0056639444 -0.010269571 0.0076315086 0.009855159 -0.0006177673 0.0023436018 0.0198555 0.009202807 0.0030029058 0.0008774986 -0.011911139 0.014334461 -0.003578759 0.0119886985 -0.0011006806 0.013457371 0.0052086157 0.013747137 0.015560367 -0.020198055 0.012774417 0.00861356 -0.0026920063 -0.025810078 0.004703404 -0.0013111556 0.006125668 0.016247798 -0.018075503 0.012344199 -0.01241835 -0.0075002774 -0.006258846 0.00724085 0.007112213 0.0026907949 -0.017103339 -0.0019742334 0.01118864 0.005103088 0.0073469277 -0.02343558 0.00089432433 0.0072852257 0.012512867 0.011018385 -0.014280857 0.015146086 -0.010653275 -0.018091204 0.015119831 -0.0036590882 0.019296248 -0.014339789
46 0.009451891 0.016423495 -0.005963594 -0.014466354 0.01556393 0.020189878 0.01876696 -0.00080446707 0.00022030296 -0.0074156495 -0.022934122 0.0038497415 -0.0054348805 -0.004886261 -0.01703286 -0.008806093 0.011292901 -0.020738894 -0.011728459 0.004993182 0.015475376 0.009098022 -0.0049398364 -0.0012453792 -0.01733082 0.015645789 -0.0069147544 -0.008950367 -0.001498438 0.022861551 0.017622458 -0.01420896 -0.023575878 -0.0075409138 0.03328947 0.00974704 -0.0035652472 -0.005949638 -0.008177812 0.016470639 -0.0057350704 -0.0009825105 0.025256645 -0.008513405 0.002592004 0.0023689228 -0.0062016826 -0.017459065 -0.0128473705 -0.017437676 -0.015334737 -0.0057137306 0.009385124 -0.0007162013 -0.015912924 0.02078636 -0.013648118 -0.011720199 -0.01605169 0.01657483 0.017877663 -0.013865378 0.0032220774 -0.0066022216 -0.002485429 -4.910567e-05 0.006008069 -0.019652138 0.013621949 -0.01978377 -0.011410315 0.016494261 0.009710648 0.017140152 -0.007941913 -0.01125819 0.0051056547 -0.0060766884 0.009331091 0.017631251 0.014275093 -0.0006737604 0.016658144 -0.02899092 0.0033514595 0.0021712016 -0.010992211 -0.024773765 0.01197811 -0.0006657039 0.021543385 -0.0069966586 -0.009523634 -0.023573024 -0.006975229 0.008250399 0.014378495 -0.02468648 -0.008450509 -0.019413093 -0.0049818633 0.0069399113 -0.013255157 0.0026530684 0.0027509194 0.0010767933 0.0074705784 -0.026348565 0.004959643 -0.011105547 -0.016490065 0.023698851 -0.009627254 0.026390262 -0.0024720118 -0.010819028 -0.00965396 0.011527545 -4.7649664e-05 0.0066101383 0.004738867 -0.0011626869 0.008161692 -0.019992568 0.010614585 -0.018531237 0.02870821 0.014443338
47 -0.01245544 -0.011059605 0.012144553 0.009655877 -0.015452355 -0.004118685 -0.01277508 0.0041373936 -0.0103051895 0.009129102 0.006092172 -0.007450656 0.019120589 -0.0067648543 -0.017805042 -0.00799365 0.021539332 0.014925103 -0.009015069 0.018106557 -0.007822501 0.01292143 0.016123192 -0.0076045943 0.0029510015 0.017058311 -0.016190942 -0.0100055225 -0.008340137 0.0061987336 0.016191017 0.014374373 0.01123358 0.0048511573 0.0034702173 0.013000461 -0.0056766076 0.018941058 0.00626716 0.019246366 -0.0059613497 0.01076555 0.0053645284 -0.0056899562 -0.020860458 0.0003245898 0.0124899475 0.000505405 -0.0071162283 -0.012768275 -0.014180159 0.017617764 0.0069456454 0.0072551137 -0.010108182 -0.0059166607 0.01767821 -0.014799787 -0.017763644 0.020327264 -0.010645903 0.0107794255 0.0061257775 -0.0055487235 0.01774708 -0.007524236 0.015492613 -0.0053485325 -0.011614042 -0.01302264 0.0058783237 0.0118086 0.008951443 0.004892101 0.005404746 -0.011960053 0.003825715 0.009636465 -0.01786041 -0.0034279488 0.01411908 0.0068165786 0.00045965804 -0.0002350302 -0.012416634 0.014468647 0.003720151 0.0017381933 -0.007528425 0.0048026624 0.0052312533 -0.00016839524 0.015835831 -0.011784735 0.0039866157 0.013760267 -0.00032859418 -0.00878088 0.008769467 0.017668113 0.008913638 0.0062702144 -0.022341438 0.01735182 -0.0071589276 -0.011142893 -0.00715494 0.015419664 0.018600216 0.0076466193 -0.0044813994 -0.0099413 0.00377638 -0.00036539062 0.0054409984 -0.007962539 0.014943151 0.00023614195 0.008897412 0.014326049 -0.01678613 0.008662258 -0.0150147285 -0.0018674305 0.019144543 0.010754874 0.0006136031 -0.01693193
48 0.004607227 -0.021328364 0.02453319 -0.019732509 -0.013607759 -0.023379955 0.015976042 0.0032709476 0.013496477 0.014967911 -0.013953551 -0.018647565 0.010463758 -0.023366291 -0.023671053 -0.014064368 0.021854037 -0.01296552 -0.022278069 0.007217193 -0.018301524 -0.00865002 0.010579523 0.013124006 -0.003843142 0.02280427 -0.01839034 -0.015909554 -0.013369565 0.019144155 0.024608694 -0.01389063 -0.01528554 0.0021359674 0.020967126 0.013744162 -0.02251418 0.021593466 0.00800743 0.011364011 -0.012877845 -0.010485467 0.0191781 -0.019606967 -0.019240487 -0.0069208005 0.019032856 0.0119253555 -0.017987015 -0.014907475 -0.02455995 0.017345428 0.02233634 0.01828606 -0.010571665 0.015971025 -0.002313144 -0.014885703 -0.025367977 0.024576863 -0.005001556 0.016515147 -0.012205312 -0.020300495 0.02309361 -0.011475153 -0.0030186793 -0.028511934 0.0058719595 -0.017568331 0.008349647 0.020493925 0.014606927 0.01872393 0.010548823 0.009110917 -0.014106897 0.019937586 -0.00999106 0.0075138737 0.019079618 0.015220178 0.0006423108 -0.03291741 0.020941326 0.012568956 -0.0066062086 0.0030532053 -0.022576613 0.010495372 0.01704758 -0.019061789 0.011052383 -0.018818812 0.015709313 0.0010282777 0.0108847115 -0.010353782 -0.007777991 -0.0019061756 0.012281571 0.022515187 -0.014521252 0.015947461 -0.002212025 -0.02301035 -0.015520594 -0.0022516528 0.012841268 0.00995681 -0.01715968 0.0046799295 0.00011766811 0.00819928 0.010564698 -0.025036948 0.013692506 0.020282837 0.003732953 0.020230312 -0.0074481987 0.022704192 -0.0062742746 -0.016372303 0.026347317 0.016127972 0.014621849 -0.011161536
49 -0.0021002542 -0.01782669 0.0111295795 -0.013396098 -0.017090628 -0.022291305 0.011681086 0.017423848 -0.0011977683 0.02243373 -0.011437755 -0.016179286 0.013113528 -0.02906992 -0.021032315 -0.012234944 0.025971645 -0.0027977412 -0.01888141 0.014387735 -0.017995484 0.0007537566 0.01937357 0.0059874905 0.0010531475 0.016935697 -0.029312208 -0.0169742 -0.023990111 0.0018740915 0.01777692 0.0006684313 -0.007598721 0.014520733 0.012692513 0.014337479 -0.017820649 0.021316342 0.02108874 0.023835348 -0.020813463 -0.016044555 0.018306091 -0.011112205 -0.028494373 0.00070197374 0.015453934 0.013196726 -0.024034983 -0.026298774 -0.0075943675 0.01800954 0.016830873 0.011003136 -0.02194853 0.012681559 -0.0012503386 -0.0115147075 -0.023383567 0.016413167 -0.00606446 0.010299103 0.0037855438 -0.020250708 0.026803711 -0.011489188 0.005518413 -0.022690885 0.0072081443 -0.010734117 0.01147139 0.00813739 0.01498503 0.019798681 0.017384509 0.0031125688 -0.005655209 0.016549665 -0.018590607 0.0046125883 0.022147076 0.024261426 -0.0011209622 -0.0125418035 0.013623453 0.021649955 -0.00038368365 0.011077425 -0.018198771 0.011367486 0.011033604 -0.010526225 0.017948156 -0.015996993 0.01814027 0.010368756 0.02903334 -0.0075916615 -0.0018188921 0.0005617287 0.018831309 0.016931456 -0.017003711 0.02006118 -0.021070823 -0.017781397 -0.019234838 -0.0019157545 0.02452803 0.010478537 -0.014177956 0.00479837 -0.0028322549 0.012951639 0.017448744 -0.022601765 0.011331541 0.018449476 0.0024542718 0.02657129 -0.010993924 0.02581853 -0.007159318 -0.013054638 0.021170264 0.02053025 0.019040115 -0.02485174
50 0.021268165 0.00995 0.009346595 -0.005539093 0.014421847 0.010779122 0.026633216 0.012604328 -0.00174445 0.0015224789 -0.024822094 -0.00089864817 0.0028797896 0.0031238254 -0.024964513 -0.0042467457 0.018979453 -0.025224302 -0.002908627 0.0017576977 0.002510812 0.009132426 -0.0013800059 -0.014189462 -0.011192911 0.013003762 -0.004956521 -0.003980995 -0.0053819064 0.022613158 0.026481349 -0.015450454 -0.027072398 -0.0074626347 0.01762938 0.0048877974 -0.0017179698 -0.0027745077 0.006147491 0.016496388 -0.012641124 -0.005540779 0.02093923 -0.0056566745 -0.0037398718 0.014672301 -0.0022564847 8.5597974e-05 -0.012155294 -0.009337953 -0.016411666 -0.011433112 0.022468086 -0.0077447738 -0.009850787 0.02542259 -0.013210316 -0.007516704 -0.006203213 0.028791841 0.0045016627 -0.011925103 0.013020807 -0.0061714933 0.0091889035 -0.015589755 -2.9853836e-06 -0.032895397 0.021627042 -0.017255576 -0.013227323 0.02039773 -0.0014412481 0.012208353 0.0017291282 -0.0071492186 -0.0067812297 0.01427823 -0.0010372502 0.013788936 0.00752671 0.004289154 0.008128837 -0.020834208 0.0039390423 0.011189282 -0.030451544 -0.012626036 0.00684862 0.0015686626 0.030170742 -0.014207512 -0.0043032225 -0.01731186 -0.007936554 0.0152085405 0.017741932 -0.021219214 -0.019817112 -0.017978719 -0.014419672 -0.00075970776 -0.018398859 0.0021580139 0.0020165218 -0.006429146 -0.0021325462 -0.015154798 -0.0031116696 -0.014255727 -0.015817897 0.0038800698 -0.0095476685 0.021996403 -0.0049394043 -0.027747776 -0.005181876 0.011968665 -0.005366094 0.008723426 -0.010362896 0.015330729 0.00946065 -0.017363608 -0.0011987644 -0.006544223 0.015548411 0.010901202
51 -0.0031185092 -0.0021011434 0.011693836 0.0063309157 -0.009241238 -0.009701117 -0.0037776714 0.01934796 -0.01250995 0.013395589 0.003738117 -0.012426273 0.018860629 -0.01748663 -0.008390926 -0.017955238 0.011798514 0.0037442404 -0.0028615776 0.014826976 -0.0088621 0.016520245 0.0049703834 -0.008787547 0.00679626 0.020728827 -0.01931874 -0.017530112 -0.009924233 0.012338207 0.008131315 0.015913064 0.00421427 0.004038559 0.014676247 0.013589814 -0.01994067 0.018335808 0.0070135877 0.00885587 -0.009395633 0.015805827 0.016969988 0.0012486398 -0.0073408782 0.009240595 0.0051458324 0.0034064488 -0.011863359 -0.017823441 -0.010528593 0.013067819 0.0035072234 0.00087929325 -0.021408351 0.00050305045 0.010174906 -0.0085662315 -0.0065216077 0.026373131 -0.005148839 0.011173666 0.0055241976 -0.019896004 0.00911647 -0.013127243 0.01455614 0.008233214 -0.014304086 -0.008607532 0.016924495 0.013558144 0.0205578 0.016985886 0.009745616 -0.017902711 0.008663819 0.009784434 -0.013885472 -0.017306194 0.00753457 0.012265256 -0.0039011887 -0.0017903894 -0.016035395 0.0065351115 0.012817233 -0.00069489935 -0.0099685015 0.017894244 -0.006320972 0.008459712 0.008715825 -0.016605241 0.009244104 0.013232154 0.019658202 -0.012046509 0.010262659 0.013426205 0.0066782054 0.014076638 -0.020338386 0.012810527 -0.006762755 -0.00906964 -0.019484837 0.01647595 0.007953973 0.0026010145 -0.023996592 -0.012713707 0.018436164 3.1105505e-05 0.0049011023 -0.013730747 0.0070080594 0.016645307 0.014840552 0.013020462 -0.014759795 0.011309675 -0.01452286 -0.019269183 0.009952323 0.007925847 0.026776295 -0.0061867745
52 0.0037125424 -0.007876033 0.0044417027 0.0056053465 -0.012290488 -0.016842209 -0.0052967872 0.0065471954 -0.00676621 0.001860873 0.003404851 -4.9150243e-05 0.005136777 -0.013701921 -0.017983317 -0.0009967668 0.008572097 0.008434411 -0.009150979 0.006005678 -0.0032276246 0.0059947367 0.007975207 -0.005566667 0.0074992715 0.009682027 0.00013352511 -0.012417504 -0.014123869 0.006453245 0.013809273 -0.0018551699 0.0017558109 0.008409421 0.010678328 0.018554756 -0.0028654719 0.008431471 0.0013309126 0.0074258964 -0.010540773 -0.002641821 0.0063373093 -0.0097076 -0.01212674 0.00091868476 0.01090777 0.0055276384 -0.0053949524 -0.012241277 -0.010976706 0.008497533 0.001700989 0.0096383095 -0.0068188687 0.0064333812 0.00079858315 -0.013497768 0.000582731 0.01244216 -0.0007005082 0.0060666604 -0.0030439035 -0.009191368 0.0027416365 -0.010057152 0.008857046 -0.00423776 -0.0069128633 -0.005863185 0.0058887154 0.010756568 0.0034102623 1.41228375e-05 0.004903574 -0.0072128368 0.0017220603 0.002868921 -0.009041285 -0.005324365 0.0021097397 0.013078492 0.0011280184 -0.014274288 0.00052104105 0.0021774445 -0.0008338167 -0.0010395015 -0.005580044 0.01186164 0.00513439 -0.0015804897 0.007834987 -0.0028992037 0.011511616 0.0009922639 0.0016320613 -0.01702397 0.005924955 0.008289928 0.011808206 0.006990586 -0.010139615 0.015122471 -0.0064864894 -0.018749246 -0.0025359849 0.013108222 0.00956624 -0.0012007635 -0.0017579694 -0.005559492 0.00860403 -0.0050338306 -0.00083710975 -0.00905839 0.004139545 0.011272468 0.013308978 0.008605406 -0.005723678 0.0035722759 -0.011876457 -0.008596735 0.00078119244 0.008301268 0.0022915045 -0.002952239
53 -0.0016178244 0.01532094 -0.004857989 -0.017741991 -0.0047057634 0.009680611 0.014885675 0.013031729 -0.00425099 0.0028012677 -0.0051000766 -0.012353277 0.008625821 -0.009126238 -0.0020876888 -0.008684399 0.009420113 -0.010821335 -0.00587312 0.01606235 0.00218858 0.015751619 -0.002870699 -0.010107153 0.006085223 0.004346631 0.00083260826 -0.0016721319 0.006254981 0.01908667 0.0033563129 -0.002959943 -0.021075772 0.00855963 0.026051013 0.010721204 -0.0025327837 0.0034253635 0.0034197997 0.027784372 -0.015608413 0.012845621 0.022164913 0.0007422407 -0.008064899 0.0044987435 -0.0016344131 -0.016652068 -0.0023683654 -0.00080455677 -0.0147350645 -0.004788985 0.010076959 0.0003279752 -0.010559725 0.016908856 -0.0024125038 -0.010791083 -0.022802033 0.014212714 -0.0020687657 0.008094525 0.006558705 -0.0038644962 0.0102135185 0.0011275245 0.009205125 -0.0038730395 0.0040516285 -0.02384702 -0.00038530736 0.029521238 0.015804356 0.0073744273 0.010129534 -0.023588393 0.0120943375 0.009324882 0.0051488793 -0.0011312563 0.016164158 0.015725624 0.02329777 -0.025372913 -0.010981163 0.011007701 -0.0017175018 -0.020639453 0.0045047263 0.0044922573 0.019597962 0.007675571 0.0012554639 -0.0016715594 0.008185363 0.017182205 0.010633342 -0.02087091 0.008696791 -0.011842819 -0.013450401 0.012609408 -0.016564762 0.005702293 -0.009287636 -0.0020824205 0.0035155632 -0.0028510408 0.013263703 -0.016187672 -0.016557759 0.0012670862 -0.005658227 0.014083527 -0.02332723 0.0039570453 -0.001036412 -0.014094982 0.0144976415 0.0018152698 -0.013882517 0.011001345 -0.0010346844 -0.0178801 0.0029105966 0.0002595197 0.02038316 0.0074062524
54 -0.0032529864 0.0035278117 0.013785157 0.0020714223 -0.016553495 -0.009536116 -0.0034156758 0.024602268 -0.022804016 0.016411515 0.0019902808 -0.025168033 0.01997971 -0.015734669 -0.012250501 -0.020642709 0.02503736 -0.008417747 -0.016047107 0.025215954 -0.0073551196 0.015960755 0.0134427715 -0.017145114 0.010978378 0.018480193 -0.010418812 -0.022996888 -0.016096655 -0.0020088984 0.013342673 0.0030164432 -0.023013225 0.009210813 0.02031048 0.023644019 -0.01011032 0.017766573 0.008991202 0.019661363 -0.008491254 0.016222833 0.021574391 -0.019848384 -0.021968007 0.007243829 0.0066729304 -0.003925287 -0.014556011 -0.011659074 -0.011975639 0.0036164953 0.005767424 0.006329942 -0.01940807 0.0053185006 0.013394455 -0.029310323 -0.019856248 0.00947355 -0.005397673 0.010549743 0.019754618 -0.0026727845 0.022682708 -0.02329698 0.008163304 -0.0048749233 -0.009330108 -0.013946287 0.009539472 0.022772525 0.01774582 0.01531339 0.01283351 -0.01919029 0.017019752 0.02194761 -0.019415868 -0.0075861085 0.0171221 0.011511184 -0.008378797 -0.015856119 -0.01290433 0.023004245 0.002148431 0.0037444923 -0.008900658 0.0045543937 0.0013268641 0.0031444442 0.010795141 -0.012126985 0.01888669 0.02453283 0.0103108045 -0.02958524 0.0062792734 0.0034165424 -0.002822137 0.010981066 -0.016950125 0.012192874 -0.021122552 -0.0012798302 -0.010538642 0.00043431955 0.020916378 0.0079704905 -0.010874794 0.0004796091 0.012285348 0.0061977822 -0.0020089615 -0.00022330845 0.009214704 -0.007518467 0.02559613 0.022787614 -0.024445144 0.019074468 -0.0114212725 -0.021979611 0.013456293 0.0034277497 0.01646912 -0.0111282775
55 0.015175202 0.017548284 -0.0033745584 -0.007150069 0.002595227 0.0145475175 0.006655938 0.029867757 -0.011137361 0.022006826 -0.017128833 -0.013861331 0.0071459073 -0.026219424 -0.016298607 -0.019837977 0.023442376 -0.021226328 -0.00657674 0.02764514 -0.001436554 0.022430178 0.004805216 -0.01937889 -0.016065232 0.01919968 -0.011726676 -0.02558603 -0.0045995107 0.0033448227 0.02967566 -0.013407911 -0.020448107 0.017758623 0.029351987 0.03072025 -0.012289798 0.019863686 0.008764235 0.022192668 -0.022520864 0.0044720676 0.026720397 -0.0259029 -0.024338355 0.019389156 -0.00026148988 -0.0057857805 -0.016414894 -0.015176436 -0.015471685 -0.008408785 0.011232085 0.005663606 -0.009614881 0.017690212 0.009756364 -0.022491595 -0.018227927 0.006595105 -0.0033224786 -0.0032912563 0.022644253 -0.018419066 0.01315583 -0.014484435 0.017743137 -0.018643808 0.014764929 -0.033320922 -0.0031472496 0.02148173 0.018557953 0.01369551 0.018767623 -0.017283984 0.0110941585 0.027147334 -0.0071377484 0.0024754205 0.01719074 0.0151072 0.025114084 -0.02876119 -0.00420145 0.01763297 -0.01736496 -0.0207717 0.008797739 0.0023359132 0.01911411 -0.00023211667 0.012642835 -0.014446877 0.016611572 0.021379992 0.009260382 -0.025730535 0.001975583 -0.010042517 -0.014185962 0.023772676 -0.03184685 0.027360203 -0.01747185 -0.021730175 -0.00737983 -0.009027692 0.023666495 -0.014035526 -0.029173443 0.012977148 -0.0066215773 0.029661927 -0.012045158 -0.003849736 0.002893715 -0.00095834094 0.03107405 0.026573343 -0.015219335 0.031266302 -0.013234072 -0.021529507 0.019576022 0.00047485583 0.01516706 0.0072951876
56 0.004908253 -0.00087385054 0.01168112 -0.0067422986 0.0051032025 0.015023601 0.016305309 0.008630249 -0.010601166 0.010733688 -0.013576764 -0.003518918 -0.0025508832 -0.0071026227 -0.024293993 -0.0042282827 0.013398111 -0.014142108 -0.017217372 0.0048710024 0.002319753 0.020886788 0.000668292 -0.012241226 -0.015953891 0.0136803435 -0.0066770394 -0.018915633 -0.0004883713 0.008548351 0.018216403 -0.01198295 -0.018471051 -0.0031448181 0.009914346 0.013348995 -0.014142074 0.002200997 0.0016980328 0.007727184 -0.0056890873 -0.009503661 0.01866178 -0.010572143 -0.013772813 0.012362789 -0.019206684 -0.019026753 -0.012052125 -0.00364485 -0.01644237 -0.005669771 0.012200027 -0.0072977175 -0.02596101 0.010701481 -0.012452769 -0.023096848 -0.006937977 0.020057404 0.0056917057 -0.01867016 0.011096226 -0.013517914 0.002197199 -0.0046047717 0.013377828 -0.016804866 0.013831204 -0.015234516 -0.014220076 0.004978725 0.008504953 0.007740937 -0.0045902566 -0.0120196 -0.0038594403 0.013794076 -0.010194405 0.019525662 0.014908108 0.009630333 0.013219312 -0.010534731 0.0053018937 0.020195564 -0.024220282 -0.011358816 0.021891048 0.0020390502 0.013324775 -0.00042852154 -0.0043586907 -0.01788825 -0.002697834 0.007085697 0.0065169884 -0.010442596 -0.019611198 -0.021278022 -0.021706508 0.006885308 -0.017749209 0.014926641 -0.009252819 -0.012000299 -0.014467639 -0.019550683 -0.00048552908 -0.020344945 -0.007912532 0.0034935137 -0.019062463 0.011846596 -0.023374764 -0.02600079 -0.007796506 0.013959469 0.011984727 0.00019297935 -0.0065900395 0.02016868 0.0019420494 -0.012201196 0.014819079 -0.015203026 0.008071815 0.006505494
57 0.022026934 0.023482053 9.226421e-05 -0.01065996 0.010389809 0.015026291 0.02680377 0.020170674 -0.004243094 0.006581242 -0.01898185 -0.00650706 -0.005377013 -0.012731718 -0.03094953 -0.0040131966 0.01555787 -0.024654137 -0.00654452 0.017709801 0.008464507 0.0074641504 -0.007734156 -0.0068443962 -0.01398825 0.005675501 0.004045519 -0.016488548 0.009120487 0.013401248 0.03068151 -0.021335224 -0.03387404 -0.0055808728 0.020785734 0.009824823 -0.0050154855 0.0008262244 0.00017965835 0.021171551 -0.0038395736 0.0025468043 0.02481211 -0.01196336 -0.009166352 0.014711738 -0.012103229 -0.029393086 -0.008137116 -0.010815008 -0.028096966 -0.023401367 0.031687576 -0.0045370925 -0.02571885 0.014596365 -0.02500541 -0.014546476 -0.0068019642 0.030493397 0.008489209 -0.020649908 0.017090898 -0.014922903 0.0064221965 -0.003494157 0.004815362 -0.033142332 0.021507474 -0.019935198 -0.02462874 0.019033117 0.006663559 0.011117563 -0.008932821 -0.0015376216 0.014431056 0.00059342233 0.004734048 0.025536342 0.012497726 0.02213045 0.011770203 -0.018617844 0.020658346 0.0077982703 -0.02834441 -0.019656751 0.021311937 -0.00425211 0.029043172 -0.01187034 -0.016930666 -0.03399192 -0.0071911644 0.018596668 0.019435769 -0.018121555 -0.023921434 -0.02816455 -0.033016976 0.012440989 -0.012218652 0.0009767823 -0.019330507 -0.0026394103 -0.000311431 -0.025607038 0.004415546 -0.028929053 -0.018179147 0.019168632 -0.026941217 0.027199186 -0.021051547 -0.01114839 -0.024519775 0.009822848 0.00651097 0.006383317 -0.016361628 0.011764377 0.0027298 -0.012622144 0.008194691 -0.014658238 0.028629927 0.023504253
58 0.024590135 0.016258955 -0.0052764527 -0.022781022 0.014289255 0.014182851 0.025237469 0.010011021 0.0037299937 -0.0052814353 -0.021858064 -0.011007848 -0.013864125 -0.0031324571 -0.031996034 -0.018943671 0.020620441 -0.030352298 -0.007798431 0.008946567 0.014047089 0.016284673 -0.0061677443 -0.008540988 -0.026472257 0.0070470884 -0.0066137374 -0.0056935223 -0.00035742432 0.020382008 0.025187654 -0.019538794 -0.019748652 -0.00757163 0.0170213 0.015708989 -0.0045295693 0.002947318 -0.0033308547 0.02130204 -0.010751683 0.0024259116 0.024159048 -0.004191931 -0.010218596 0.00812027 -0.024198307 -0.005205114 -0.0036941778 -0.0120293 -0.011134422 -0.010472058 0.010856494 -0.016922818 -0.017048223 0.018665893 -0.01313631 -0.009904274 -0.018061392 0.031522043 0.022159578 -0.017762126 0.004317703 -0.01560604 0.008175091 -0.007616734 0.015310924 -0.014381718 0.021898108 -0.02340879 -0.01815974 0.03259092 0.0065410305 0.005380568 -0.009969798 -0.012719613 0.020017704 0.00011651771 0.0034891225 0.019483851 0.021195019 0.0024958644 0.016090333 -0.029685166 0.005882669 0.022912977 -0.030229611 -0.011614507 0.013979904 -0.017336542 0.02925638 -0.021215094 -0.003798786 -0.035302315 -0.0063701076 0.0071690585 0.022779819 -0.028717505 -0.024001947 -0.015894512 -0.016611613 0.011691133 -0.028556352 0.0036729844 -0.0009258556 -0.024014609 -0.006246619 -0.02523448 0.0006375357 -0.021049848 -0.030220112 0.01332444 -0.030741405 0.025568686 -0.018479459 -0.016145939 -0.017446011 0.003301118 0.0058000395 0.0022087204 0.0023474582 0.015499358 0.014722042 -0.021271776 -0.0012367468 -0.014618463 0.023827422 0.01797273
59 0.0015890823 0.0013794722 0.0024469034 0.0036392345 0.00079254893 -0.0025775165 0.00017025002 0.0065436526 1.1775002e-05 0.004190119 0.0031863777 -0.008984306 0.0076637296 -0.007326118 -0.012183254 -0.010959894 0.010647914 0.0066264947 -0.007471912 0.013834683 -0.0028980318 0.005051956 0.013209328 -0.0038357696 0.004255538 0.015857043 -0.0077604516 -0.0061524822 -0.0051032887 0.0032116924 0.009386491 0.005177103 -0.005276059 0.0007440018 0.017300544 0.004745009 -0.008659025 0.005332529 0.0035824513 0.005577582 -0.008981869 -0.0053846347 0.01266966 -0.0030892307 -0.013673995 0.0045254687 0.005153651 0.014231559 -0.008626641 -0.007267913 -0.0053027095 0.009327655 0.003546127 0.012732888 -0.004310066 0.004716064 0.006044697 -0.0036092678 -0.013768237 0.019537266 -0.005002065 0.0023935423 0.010725087 -0.01267157 0.0098877875 -0.003961455 0.0017046814 -0.0072559067 -0.0020329047 -0.016302567 0.013256686 0.009131871 0.011739786 0.010386704 0.01185756 -0.0075931526 0.007942032 0.008249698 -0.009669639 -0.0020253255 0.01888705 0.0061082896 0.0065610106 -0.014750351 -0.0037211787 0.011939485 -0.0060900645 -0.00054709165 -0.013418309 0.0049862578 0.0017414715 -0.0016064112 0.011674841 -0.01708527 0.0075976094 0.012936848 0.00997348 -0.010847125 -0.00023043681 0.0045537627 0.005875221 0.0063883597 -0.009253985 0.010240994 -0.009382592 -0.007875228 -0.008901446 -0.0025610323 0.0075302906 0.0007684853 -0.0156765 0.00011780525 0.006016853 -0.0018963803 0.0056393235 -0.004044883 0.011695954 0.0063588046 0.0011342136 0.002578679 -0.004832268 0.01825918 -0.0028452398 -0.00919313 0.0053216377 -0.0007764409 0.0069261175 -0.011025246
60 0.020216858 -0.01690657 0.015969148 -0.0133890305 -0.008518957 -0.018573185 0.014184304 0.02909474 0.0061208913 0.018066721 -0.021031875 -0.023338284 0.017031828 -0.022854093 -0.027348218 -0.023936901 0.020048022 -0.023730585 -0.01724965 0.02301781 -0.003575952 -0.014640506 0.01515359 0.0007818963 -0.012386372 0.023725433 -0.011690231 -0.01474618 -0.016379334 0.021968914 0.01426719 -0.022125095 -0.020122718 0.0027381857 0.019425342 0.019009199 -0.023790082 0.017995717 0.025107002 0.03029355 -0.027253844 -0.021556405 0.029980829 -0.017345348 -0.020522159 -0.004417265 0.02547699 0.016170455 -0.029690133 -0.020947343 -0.02393165 0.019986857 0.010377582 0.018444253 -0.016876046 0.011290769 -0.009552601 -0.02307721 -0.027205665 0.022302827 -0.011923872 0.013009188 -0.0022333083 -0.015189765 0.017333549 -0.02113815 -0.01492621 -0.023163311 0.020452147 -0.016312053 0.0062851943 0.022287125 0.021797132 0.023368308 0.014223126 0.00873867 -0.011596006 0.015494384 -0.014796477 0.01716977 0.01486792 0.024808032 -0.004819753 -0.018391278 0.02061289 0.024474554 -0.013739868 0.015016742 -0.0044977623 0.008933292 0.028248092 -0.013389681 0.012817604 -0.018242555 0.0142868515 0.012704788 0.010263367 -0.0108089205 -0.020717101 -0.023988169 0.0043542143 0.023979522 -0.014764997 0.019057903 -0.014775893 -0.028843533 -0.019970711 -0.021523153 0.018612884 0.0037125316 -0.026357945 0.015707286 -0.016123509 0.021186894 0.018780734 -0.014667982 0.0101671005 0.010759728 -0.01624857 0.017253015 -0.016779998 0.02691764 -0.010775913 -0.019427983 0.024340179 0.0057602148 0.026267054 -0.013940139
